
0, 0, 0.0694857
0, 1, 0.0690831
0, 2, 0.402587
0, 3, -0.358178
0, 4, -1
0, 5, -1
0, 6, 0.750318
0, 7, -1
0, 8, 0.402453
0, 9, -1
0, 10, -0.993909
0, 11, -1
0, 12, 0.350392
0, 13, -1
0, 14, 0.184179
0, 15, -1
0, 16, -0.357891
0, 17, -0.357684
0, 18, 0.402595
0, 19, 0.0702369
0, 20, -1
0, 21, -0.999607
0, 22, -1
0, 23, 0.068478
0, 24, 0.119073
0, 25, -0.357862
0, 26, 0.506358
0, 27, 0.637387
0, 28, -0.357734
0, 29, -0.999524
0, 30, -0.742873
0, 31, -1
0, 32, 0.710988
0, 33, -1
0, 34, -0.166842
0, 35, 0.120041
0, 36, -1
0, 37, -1
0, 38, 0.369103
0, 39, 0.735822
0, 40, -1
0, 41, 0.546537
0, 42, -0.0959426
0, 43, 0.735852
0, 44, 0.286766
0, 45, -0.391757
0, 46, -1
0, 47, -1
0, 48, -0.158611
0, 49, -0.954602
0, 50, 0.40228
0, 51, -0.145955
0, 52, -1
0, 53, 0.600351
0, 54, -1
0, 55, -1
0, 56, -1
0, 57, 0.523338
0, 58, 0.170586
0, 59, -0.532321
0, 60, -1
0, 61, -1
0, 62, -1
0, 63, 0.401902
0, 64, 0.592065
0, 65, -0.999464
0, 66, -0.490693
0, 67, -1
0, 68, -1
0, 69, -1
0, 70, -0.0619174
0, 71, -0.91566
0, 72, 0.488862
0, 73, -1
0, 74, -1
0, 75, -0.467278
0, 76, -0.523237
0, 77, 0.502801
0, 78, -0.786214
0, 79, 0.486904
0, 80, -1
0, 81, 0.754827
0, 82, -1
0, 83, 0.0693689
0, 84, 0.402792
0, 85, -0.999581
0, 86, -0.654966
0, 87, -1
0, 88, 0.244384
0, 89, -1
0, 90, -0.0706166
0, 91, 0.339722
0, 92, 0.414435
0, 93, 0.388755
0, 94, -1
0, 95, -0.0602792
0, 96, 0.561746
0, 97, -1
0, 98, -0.85937
0, 99, -1
0, 100, -0.983051
0, 101, 0.737475
0, 102, -0.999657
0, 103, -1
0, 104, 0.760117
0, 105, -1
0, 106, -0.58239
0, 107, -0.999438
0, 108, 0.735982
0, 109, 0.140607
0, 110, -1
0, 111, -0.756374
0, 112, 0.0326569
0, 113, -1
0, 114, -1
0, 115, -1
0, 116, -1
0, 117, -0.32044
0, 118, -0.0225602
0, 119, 0.682476
0, 120, -1
0, 121, 0.708448
0, 122, -0.677251
0, 123, -1
0, 124, -0.185823
0, 125, 0.0115274
0, 126, -0.1562
0, 127, -0.857983
0, 128, -1
0, 129, -0.139206
0, 130, -1
0, 131, -1
0, 132, -0.387459
0, 133, -1
0, 134, -1
0, 135, -0.999444
0, 136, -1
0, 137, -1
0, 138, -0.505387
0, 139, 0.0431425
0, 140, 0.749866
0, 141, -0.0431938
0, 142, -0.161281
0, 143, -0.37035
0, 144, -0.752635
0, 145, -1
0, 146, -0.0544815
0, 147, 0.205663
0, 148, 0.0358872
0, 149, 0.695757
0, 150, -0.874571
0, 151, -0.0817861
0, 152, 0.152327
0, 153, 0.0902081
0, 154, 0.352344
0, 155, 0.658041
0, 156, -1
0, 157, 0.493243
0, 158, -1
0, 159, 0.512416
0, 160, -1
0, 161, -1
0, 162, 0.73609
0, 163, -0.999402
0, 164, -1
0, 165, 0.814921
0, 166, -0.535604
0, 167, -1
0, 168, 0.545099
0, 169, 0.668222
0, 170, -0.563459
0, 171, -0.656026
0, 172, -1
0, 173, 0.381622
0, 174, 0.575446
0, 175, 0.00314048
0, 176, -1
0, 177, -1
0, 178, -1
0, 179, -0.020427
0, 180, -0.357631
0, 181, -0.357829
0, 182, -1
0, 183, 0.736132
0, 184, 0.756727
0, 185, -1
0, 186, 0.20669
0, 187, -1
0, 188, -1
0, 189, 0.487198
0, 190, 0.369535
0, 191, -1
0, 192, 0.122262
0, 193, -0.267373
0, 194, -0.999533
0, 195, 0.0693453
0, 196, -1
0, 197, -0.357665
0, 198, 0.402765
0, 199, 0.735635
0, 200, -0.92013
0, 201, -0.204261
0, 202, -0.358325
0, 203, -1
0, 204, -1
0, 205, -1
0, 206, 0.0266996
0, 207, 0.801555
0, 208, -1
0, 209, -0.037067
0, 210, -1
0, 211, -0.606154
0, 212, 0.204021
0, 213, -1
0, 214, -0.42719
0, 215, 0.402372
0, 216, 0.172554
0, 217, -1
0, 218, -0.190739
0, 219, -0.777156
0, 220, 0.349641
0, 221, -1
0, 222, -0.475216
0, 223, -1
0, 224, 0.228877
0, 225, -0.083565
0, 226, -1
0, 227, 0.395488
0, 228, 0.504881
0, 229, -0.065934
0, 230, -1
0, 231, -1
0, 232, 0.380074
0, 233, 0.55446
0, 234, -1
0, 235, -0.358381
0, 236, 0.110674
0, 237, 0.2568
0, 238, -0.969089
0, 239, -0.383137
0, 240, -1
0, 241, -0.357844
0, 242, 0.508877
0, 243, 0.8742
0, 244, 0.312297
0, 245, 0.612269
0, 246, -1
0, 247, -1
0, 248, -1
0, 249, -0.833514
0, 250, -1
0, 251, -0.0406663
0, 252, 0.445014
0, 253, 0.190613
0, 254, -1
0, 255, -1
0, 256, 0.76566
0, 257, -1
0, 258, 0.554955
0, 259, 0.319973
0, 260, -0.36297
0, 261, -1
0, 262, -0.357925
0, 263, 0.676983
0, 264, 0.331541
0, 265, 0.513331
0, 266, -1
0, 267, -1
0, 268, -1
0, 269, -1
0, 270, -1
0, 271, -1
0, 272, 0.196232
0, 273, -1
0, 274, 0.618833
0, 275, -1
0, 276, 0.632133
0, 277, -1
0, 278, -1
0, 279, 0.228267
0, 280, -0.367326
0, 281, -0.104973
0, 282, -1
0, 283, -1
0, 284, 0.85704
0, 285, -1
0, 286, -1
0, 287, 0.0447398
0, 288, 0.0424834
0, 289, 0.0505145
0, 290, -1
0, 291, 0.698616
0, 292, 0.301597
0, 293, 0.402492
0, 294, 0.403085
0, 295, -1
0, 296, -1
0, 297, -1
0, 298, 0.341947
0, 299, -1
0, 300, -1
0, 301, -1
0, 302, -0.416393
0, 303, 0.178508
0, 304, 0.422047
0, 305, -1
0, 306, 0.0697934
0, 307, 0.0671028
0, 308, 0.240353
0, 309, -0.082106
0, 310, -1
0, 311, -1
0, 312, 0.806604
0, 313, -1
0, 314, -0.999547
0, 315, 0.0922508
0, 316, -1
0, 317, -0.213295
0, 318, 0.731184
0, 319, -0.170085
0, 320, -1
0, 321, -1
0, 322, -0.999479
0, 323, 0.0698309
0, 324, 0.613899
0, 325, -1
0, 326, -0.999503
0, 327, 0.59126
0, 328, 0.185671
0, 329, -1
0, 330, -1
0, 331, 0.432459
0, 332, 0.727262
0, 333, -0.680062
0, 334, -0.999634
0, 335, 0.108389
0, 336, -1
0, 337, 0.850586
0, 338, -1
0, 339, 0.682259
0, 340, -0.927751
0, 341, -1
0, 342, 0.725519
0, 343, 0.735787
0, 344, -1
0, 345, -1
0, 346, -1
0, 347, 0.662651
0, 348, -0.540564
0, 349, 0.542849
0, 350, 0.441292
0, 351, -0.981475
0, 352, -1
0, 353, -1
0, 354, -0.121678
0, 355, -0.357892
0, 356, 0.528199
0, 357, 0.290361
0, 358, -1
0, 359, -1
0, 360, 0.431574
0, 361, 0.92728
0, 362, -1
0, 363, -0.812032
0, 364, -1
0, 365, -1
0, 366, 0.937001
0, 367, -1
0, 368, 0.0111258
0, 369, 0.579994
0, 370, 0.0571743
0, 371, -1
0, 372, 0.0698744
0, 373, 0.204347
0, 374, 0.403196
0, 375, -1
0, 376, -0.0476304
0, 377, -0.299782
0, 378, -1
0, 379, 0.356601
0, 380, 0.00391539
0, 381, 0.835186
0, 382, 0.663669
0, 383, -1
0, 384, 0.0563347
0, 385, -0.701334
0, 386, -1
0, 387, -1
0, 388, 0.840389
0, 389, -0.609334
0, 390, 0.416699
0, 391, -0.0174835
0, 392, -0.545278
0, 393, -0.0757504
0, 394, 0.216972
0, 395, -1
0, 396, 0.0696234
0, 397, -0.650331
0, 398, -1
0, 399, -1
1, 0, -1
1, 1, -0.755052
1, 2, 0.346461
1, 3, -0.610398
1, 4, -1
1, 5, -0.357844
1, 6, 0.646354
1, 7, -1
1, 8, -1
1, 9, 0.491412
1, 10, 0.288805
1, 11, -1
1, 12, -0.0576612
1, 13, -0.0494187
1, 14, -1
1, 15, -1
1, 16, 0.78169
1, 17, 0.0773207
1, 18, -0.318961
1, 19, 0.350399
1, 20, 0.873176
1, 21, 0.778529
1, 22, -1
1, 23, 0.434434
1, 24, -1
1, 25, 0.0680044
1, 26, -1
1, 27, 0.0692328
1, 28, -1
1, 29, 0.391731
1, 30, -0.725939
1, 31, 0.371325
1, 32, 0.996552
1, 33, -0.819267
1, 34, 0.284365
1, 35, -0.355971
1, 36, 0.223421
1, 37, -1
1, 38, 0.799323
1, 39, -0.914198
1, 40, 0.162665
1, 41, 0.402733
1, 42, -0.322418
1, 43, -1
1, 44, -1
1, 45, -0.35801
1, 46, -1
1, 47, 0.878044
1, 48, 0.526939
1, 49, -1
1, 50, -0.200298
1, 51, 0.489262
1, 52, -1
1, 53, -0.932707
1, 54, -1
1, 55, -1
1, 56, 0.735473
1, 57, -1
1, 58, -0.732842
1, 59, 0.460848
1, 60, 0.0353522
1, 61, 0.561623
1, 62, 0.418512
1, 63, -0.118544
1, 64, 0.998931
1, 65, -0.125206
1, 66, -1
1, 67, -1
1, 68, 0.0279044
1, 69, 0.0597144
1, 70, 0.121658
1, 71, -1
1, 72, -0.504295
1, 73, 0.721613
1, 74, -0.618424
1, 75, -0.767106
1, 76, -1
1, 77, -1
1, 78, -1
1, 79, 0.588144
1, 80, -1
1, 81, 0.0958897
1, 82, -0.942859
1, 83, 0.999184
1, 84, 0.727686
1, 85, -0.0535203
1, 86, 0.428616
1, 87, 0.795698
1, 88, -0.204302
1, 89, 0.769276
1, 90, -1
1, 91, -1
1, 92, -1
1, 93, -0.0600773
1, 94, -0.608968
1, 95, -1
1, 96, -0.146171
1, 97, -0.757298
1, 98, -1
1, 99, 0.783576
1, 100, -0.921645
1, 101, 0.200996
1, 102, -1
1, 103, -0.216546
1, 104, -1
1, 105, -0.849121
1, 106, 0.336768
1, 107, 0.137026
1, 108, 0.859123
1, 109, 0.352543
1, 110, -1
1, 111, 0.470018
1, 112, -0.940918
1, 113, -1
1, 114, -0.478206
1, 115, 0.705056
1, 116, -1
1, 117, 0.606553
1, 118, -0.188454
1, 119, -1
1, 120, 0.999024
1, 121, -1
1, 122, -0.630157
1, 123, 0.714807
1, 124, -0.858476
1, 125, 0.381301
1, 126, 0.458853
1, 127, -0.815554
1, 128, -1
1, 129, 0.477837
1, 130, -0.29101
1, 131, 0.961955
1, 132, -1
1, 133, -1
1, 134, -1
1, 135, -0.385353
1, 136, -1
1, 137, 0.279005
1, 138, -0.722994
1, 139, 0.189446
1, 140, -0.474747
1, 141, -1
1, 142, -0.00687388
1, 143, -0.170695
1, 144, -0.122507
1, 145, -1
1, 146, -0.442951
1, 147, -1
1, 148, -1
1, 149, 0.71161
1, 150, 0.206873
1, 151, -0.196698
1, 152, 0.0946807
1, 153, 0.895982
1, 154, -0.970217
1, 155, -1
1, 156, -1
1, 157, 0.694193
1, 158, -0.466433
1, 159, 0.133189
1, 160, 0.401259
1, 161, 0.242083
1, 162, 0.212252
1, 163, -1
1, 164, -0.385247
1, 165, 0.497973
1, 166, -1
1, 167, -1
1, 168, 0.142992
1, 169, -1
1, 170, -1
1, 171, -1
1, 172, 0.789851
1, 173, 0.186335
1, 174, 0.848128
1, 175, -0.495535
1, 176, -0.0774357
1, 177, 0.569743
1, 178, -0.202211
1, 179, -1
1, 180, 0.0335076
1, 181, -1
1, 182, 0.0495623
1, 183, -1
1, 184, -0.162218
1, 185, 0.86276
1, 186, 0.431323
1, 187, 0.128163
1, 188, -0.957494
1, 189, -1
1, 190, -0.504132
1, 191, -1
1, 192, 0.0360052
1, 193, -1
1, 194, 0.599454
1, 195, -1
1, 196, -1
1, 197, 0.095918
1, 198, -0.0689294
1, 199, 0.61647
1, 200, -1
1, 201, -0.434899
1, 202, -1
1, 203, -0.126795
1, 204, 0.70598
1, 205, -1
1, 206, 0.321412
1, 207, -1
1, 208, 0.225756
1, 209, -0.566195
1, 210, -0.924835
1, 211, -0.776333
1, 212, -0.748039
1, 213, 0.674814
1, 214, -0.529535
1, 215, -0.811863
1, 216, -1
1, 217, -1
1, 218, 0.736199
1, 219, 0.145933
1, 220, -1
1, 221, -1
1, 222, -0.205634
1, 223, 0.484933
1, 224, -1
1, 225, -1
1, 226, 0.185689
1, 227, -0.852916
1, 228, 0.391681
1, 229, -1
1, 230, 0.368331
1, 231, -0.797568
1, 232, 0.19562
1, 233, -0.889519
1, 234, -1
1, 235, 0.428669
1, 236, -1
1, 237, -1
1, 238, -0.00603355
1, 239, -1
1, 240, -0.999599
1, 241, 0.353356
1, 242, -1
1, 243, 0.372119
1, 244, -0.715607
1, 245, -0.999588
1, 246, 0.00255583
1, 247, -0.982502
1, 248, -0.52231
1, 249, -0.921881
1, 250, -1
1, 251, -0.175618
1, 252, -0.937089
1, 253, -1
1, 254, -0.977526
1, 255, -0.170651
1, 256, -1
1, 257, -1
1, 258, 0.463683
1, 259, 0.169019
1, 260, -1
1, 261, -1
1, 262, -1
1, 263, 0.403417
1, 264, -1
1, 265, -1
1, 266, -1
1, 267, -0.857184
1, 268, 0.410205
1, 269, -0.124823
1, 270, -1
1, 271, -1
1, 272, -0.95929
1, 273, -0.8973
1, 274, 0.0528114
1, 275, 0.0231553
1, 276, 0.0874084
1, 277, -1
1, 278, -1
1, 279, -1
1, 280, -1
1, 281, 0.369972
1, 282, -0.477204
1, 283, -0.311208
1, 284, 0.728085
1, 285, -0.357709
1, 286, -0.533948
1, 287, -1
1, 288, -0.994719
1, 289, -1
1, 290, -0.0499135
1, 291, -0.142347
1, 292, -0.781784
1, 293, -0.0434735
1, 294, 0.916879
1, 295, -1
1, 296, -0.777282
1, 297, -1
1, 298, 0.142635
1, 299, -1
1, 300, -1
1, 301, -1
1, 302, 0.77392
1, 303, 0.333833
1, 304, 0.403098
1, 305, -1
1, 306, -1
1, 307, -1
1, 308, -1
1, 309, -1
1, 310, 0.705557
1, 311, 0.632278
1, 312, -0.107396
1, 313, 0.160262
1, 314, -1
1, 315, -0.469079
1, 316, -0.192753
1, 317, 0.559307
1, 318, -1
1, 319, 0.669956
1, 320, 0.781707
1, 321, -0.9997
1, 322, -1
1, 323, 0.748808
1, 324, 0.0150481
1, 325, -1
1, 326, -1
1, 327, 0.801743
1, 328, 0.521327
1, 329, -0.746334
1, 330, 0.580863
1, 331, -1
1, 332, 0.731156
1, 333, 0.293932
1, 334, 0.792778
1, 335, 0.0151009
1, 336, -1
1, 337, 0.594211
1, 338, -0.519667
1, 339, -0.999645
1, 340, -0.163678
1, 341, -0.93156
1, 342, -1
1, 343, 0.701028
1, 344, -1
1, 345, -1
1, 346, -1
1, 347, 0.377804
1, 348, 0.66943
1, 349, -1
1, 350, -0.0277981
1, 351, 0.149488
1, 352, 0.117461
1, 353, 0.45973
1, 354, -0.551485
1, 355, -1
1, 356, 0.0698482
1, 357, -0.637292
1, 358, 0.398868
1, 359, -0.77185
1, 360, -1
1, 361, -0.192121
1, 362, -0.311262
1, 363, 0.754659
1, 364, 0.111606
1, 365, -1
1, 366, -1
1, 367, -0.0221738
1, 368, 0.06987
1, 369, -0.404734
1, 370, -1
1, 371, -1
1, 372, 0.764568
1, 373, 0.112273
1, 374, 0.201299
1, 375, -1
1, 376, -0.181616
1, 377, 0.403199
1, 378, -0.357759
1, 379, -1
1, 380, 0.0649502
1, 381, 0.80895
1, 382, 0.802535
1, 383, -1
1, 384, -0.357541
1, 385, -1
1, 386, 0.294272
1, 387, -1
1, 388, 0.403214
1, 389, -1
1, 390, -1
1, 391, -0.442991
1, 392, 0.657633
1, 393, 0.194408
1, 394, -1
1, 395, 0.481826
1, 396, -0.120539
1, 397, -1
1, 398, 0.528864
1, 399, -1
2, 0, -1
2, 1, -1
2, 2, 0.591
2, 3, 0.523455
2, 4, -1
2, 5, -1
2, 6, 0.162909
2, 7, -1
2, 8, -1
2, 9, -1
2, 10, -1
2, 11, -1
2, 12, -1
2, 13, -1
2, 14, -1
2, 15, -1
2, 16, -1
2, 17, -1
2, 18, -1
2, 19, -0.307154
2, 20, -0.656232
2, 21, -1
2, 22, 0.120939
2, 23, -1
2, 24, -0.1877
2, 25, -1
2, 26, -1
2, 27, -1
2, 28, -1
2, 29, -1
2, 30, -1
2, 31, -1
2, 32, -1
2, 33, -1
2, 34, 0.0848093
2, 35, -1
2, 36, -1
2, 37, -1
2, 38, -1
2, 39, -0.30393
2, 40, -1
2, 41, -0.0990851
2, 42, -0.65822
2, 43, -1
2, 44, -1
2, 45, -1
2, 46, 0.526398
2, 47, -1
2, 48, 0.0570706
2, 49, -1
2, 50, -1
2, 51, 0.969494
2, 52, 0.429128
2, 53, 0.783111
2, 54, 0.73158
2, 55, -0.865815
2, 56, -1
2, 57, -1
2, 58, -1
2, 59, -1
2, 60, -1
2, 61, 0.879858
2, 62, -1
2, 63, -1
2, 64, -1
2, 65, 0.561382
2, 66, 0.469959
2, 67, 0.893479
2, 68, 0.949775
2, 69, 0.76635
2, 70, 0.802369
2, 71, 0.804927
2, 72, 0.846879
2, 73, 0.426439
2, 74, 0.0819914
2, 75, 0.124205
2, 76, -1
2, 77, 0.416461
2, 78, -0.140573
2, 79, -1
2, 80, 0.490484
2, 81, -0.596564
2, 82, -1
2, 83, 0.620767
2, 84, -1
2, 85, 0.411615
2, 86, 0.0887984
2, 87, 0.540472
2, 88, 0.0364035
2, 89, 0.999197
2, 90, 0.733216
2, 91, 0.140105
2, 92, 0.954067
2, 93, -0.393094
2, 94, 0.479227
2, 95, 0.0315146
2, 96, 0.513879
2, 97, -0.423798
2, 98, -1
2, 99, -1
2, 100, 0.746256
2, 101, 0.954869
2, 102, 0.582728
2, 103, 0.621617
2, 104, 0.26959
2, 105, 0.0704228
2, 106, 0.99833
2, 107, -0.371605
2, 108, 0.745327
2, 109, 0.803474
2, 110, 0.999157
2, 111, 0.832388
2, 112, -0.43232
2, 113, 0.887676
2, 114, 0.566867
2, 115, -0.713407
2, 116, -0.0368891
2, 117, 0.822052
2, 118, -0.98228
2, 119, -1
2, 120, -0.410737
2, 121, -1
2, 122, 0.537413
2, 123, -0.683959
2, 124, 0.333247
2, 125, -0.863286
2, 126, 0.945104
2, 127, 0.443466
2, 128, 0.540902
2, 129, 0.565736
2, 130, -0.464296
2, 131, 0.523729
2, 132, 0.177658
2, 133, -0.131485
2, 134, 0.522863
2, 135, 0.866003
2, 136, 0.0439196
2, 137, 0.386569
2, 138, 0.825637
2, 139, -0.0643598
2, 140, -0.320334
2, 141, 0.987899
2, 142, 0.59839
2, 143, 0.282067
2, 144, 0.0305687
2, 145, -1
2, 146, 0.680578
2, 147, -1
2, 148, -0.0612735
2, 149, -0.178293
2, 150, -1
2, 151, 0.758405
2, 152, 0.715738
2, 153, -0.361758
2, 154, 0.959789
2, 155, -0.0940361
2, 156, 0.579551
2, 157, 0.0336458
2, 158, 0.452017
2, 159, -0.106349
2, 160, 0.690185
2, 161, 0.608812
2, 162, 0.999384
2, 163, 0.999386
2, 164, 0.0642905
2, 165, 0.14734
2, 166, -1
2, 167, -1
2, 168, -0.228012
2, 169, -0.884256
2, 170, 0.512825
2, 171, -0.384389
2, 172, 0.0303578
2, 173, -0.143881
2, 174, 0.277663
2, 175, 0.999279
2, 176, 0.877229
2, 177, 0.253433
2, 178, -0.182329
2, 179, -0.846198
2, 180, 0.689478
2, 181, 0.601176
2, 182, 0.101236
2, 183, 0.764063
2, 184, 0.967949
2, 185, 0.894513
2, 186, -1
2, 187, -0.462096
2, 188, -0.000712534
2, 189, -1
2, 190, -1
2, 191, -1
2, 192, 0.389477
2, 193, 0.569435
2, 194, 0.754026
2, 195, -0.17096
2, 196, 0.780353
2, 197, 0.347644
2, 198, -0.533195
2, 199, 0.0648
2, 200, 0.199736
2, 201, 0.732874
2, 202, -1
2, 203, 0.188445
2, 204, -1
2, 205, 0.11705
2, 206, -0.114952
2, 207, -1
2, 208, -1
2, 209, -0.95025
2, 210, -0.121431
2, 211, 0.237936
2, 212, -0.845315
2, 213, 0.927535
2, 214, -0.0162186
2, 215, -1
2, 216, 0.681516
2, 217, 0.999524
2, 218, -0.660103
2, 219, -1
2, 220, -0.711278
2, 221, 0.0643069
2, 222, -1
2, 223, -0.996113
2, 224, 0.0113014
2, 225, -1
2, 226, -1
2, 227, -1
2, 228, 0.409412
2, 229, -0.103926
2, 230, 0.182085
2, 231, -0.0256766
2, 232, 0.800787
2, 233, -0.137379
2, 234, 0.999568
2, 235, -1
2, 236, -1
2, 237, -0.10157
2, 238, -1
2, 239, -1
2, 240, 0.830989
2, 241, -1
2, 242, -1
2, 243, 0.303119
2, 244, -1
2, 245, 0.0237614
2, 246, 0.0592174
2, 247, 0.207293
2, 248, -0.639496
2, 249, -1
2, 250, -0.626769
2, 251, 0.0190165
2, 252, 0.725904
2, 253, 0.896419
2, 254, 0.065076
2, 255, -0.7851
2, 256, -1
2, 257, -0.888896
2, 258, -0.295918
2, 259, -1
2, 260, 0.249398
2, 261, -0.0280402
2, 262, -0.401408
2, 263, 0.860304
2, 264, -0.815037
2, 265, -0.269636
2, 266, -0.147828
2, 267, -1
2, 268, -0.262746
2, 269, -0.592207
2, 270, -0.13683
2, 271, -1
2, 272, -0.124422
2, 273, -0.638175
2, 274, 0.656875
2, 275, -0.558736
2, 276, -0.130437
2, 277, 0.014325
2, 278, -0.996615
2, 279, -1
2, 280, -0.0290785
2, 281, -1
2, 282, -1
2, 283, -0.872031
2, 284, -0.144682
2, 285, 0.21771
2, 286, -0.163406
2, 287, 0.505004
2, 288, 0.291842
2, 289, -1
2, 290, 0.0919327
2, 291, 0.104854
2, 292, -0.146219
2, 293, 0.117932
2, 294, -1
2, 295, -1
2, 296, 0.998697
2, 297, -1
2, 298, -1
2, 299, -1
2, 300, -1
2, 301, 0.351232
2, 302, -1
2, 303, -1
2, 304, -1
2, 305, -1
2, 306, -0.0428784
2, 307, -1
2, 308, 0.0302469
2, 309, 0.0150003
2, 310, 0.690795
2, 311, -1
2, 312, -1
2, 313, -0.641636
2, 314, -0.206168
2, 315, 0.85304
2, 316, -1
2, 317, -1
2, 318, -1
2, 319, -1
2, 320, -1
2, 321, -1
2, 322, -1
2, 323, -1
2, 324, -1
2, 325, -1
2, 326, -1
2, 327, 0.143945
2, 328, 0.0635607
2, 329, -0.0248489
2, 330, 0.568664
2, 331, -0.125529
2, 332, 0.0403004
2, 333, 0.168579
2, 334, -1
2, 335, -1
2, 336, -1
2, 337, -1
2, 338, -1
2, 339, -1
2, 340, -1
2, 341, -1
2, 342, -1
2, 343, -1
2, 344, -1
2, 345, -1
2, 346, -1
2, 347, -0.0623612
2, 348, -0.940195
2, 349, 0.566447
2, 350, 0.376159
2, 351, -0.306784
2, 352, -0.114798
2, 353, 0.231932
2, 354, -1
2, 355, -0.659843
2, 356, 0.183936
2, 357, -0.257058
2, 358, -1
2, 359, 0.128232
2, 360, -1
2, 361, -1
2, 362, -1
2, 363, -1
2, 364, 0.552471
2, 365, -1
2, 366, -0.943746
2, 367, -0.77728
2, 368, -0.0119785
2, 369, -0.100559
2, 370, -0.711707
2, 371, -0.0283824
2, 372, -0.765232
2, 373, -1
2, 374, -0.593405
2, 375, -1
2, 376, -0.816762
2, 377, -1
2, 378, -0.69776
2, 379, 0.541412
2, 380, -0.023357
2, 381, -0.885137
2, 382, 0.5132
2, 383, -0.0262006
2, 384, -0.0618733
2, 385, -0.885273
2, 386, -0.903601
2, 387, -1
2, 388, -0.990992
2, 389, -1
2, 390, -1
2, 391, -1
2, 392, -1
2, 393, -0.17406
2, 394, -0.992687
2, 395, 0.424849
2, 396, -0.748853
2, 397, -0.0485266
2, 398, -0.564719
2, 399, -0.313421
3, 0, -1
3, 1, 0.825908
3, 2, -1
3, 3, 0.591027
3, 4, 0.38634
3, 5, -1
3, 6, 0.127294
3, 7, 0.865965
3, 8, -1
3, 9, -1
3, 10, -0.137943
3, 11, -0.375145
3, 12, 0.0612208
3, 13, -1
3, 14, -1
3, 15, 0.45483
3, 16, -0.646061
3, 17, -1
3, 18, 0.77473
3, 19, 0.11016
3, 20, 0.951396
3, 21, 0.083716
3, 22, -0.145178
3, 23, -1
3, 24, -1
3, 25, 0.629352
3, 26, -1
3, 27, -1
3, 28, 0.0419461
3, 29, 0.154653
3, 30, -1
3, 31, 0.346736
3, 32, 0.414568
3, 33, -1
3, 34, -0.692772
3, 35, -1
3, 36, -1
3, 37, 0.0675659
3, 38, 0.564178
3, 39, -1
3, 40, 0.592159
3, 41, -1
3, 42, 0.317463
3, 43, -0.74794
3, 44, -1
3, 45, 0.286125
3, 46, 0.503215
3, 47, -0.00784405
3, 48, 0.500812
3, 49, 0.0227927
3, 50, 0.520921
3, 51, 0.167568
3, 52, -1
3, 53, -1
3, 54, -0.780006
3, 55, -0.137586
3, 56, 0.378081
3, 57, -0.357677
3, 58, -1
3, 59, -1
3, 60, -1
3, 61, 0.000381873
3, 62, 0.286245
3, 63, -0.0793951
3, 64, 0.0155094
3, 65, -1
3, 66, 0.0805931
3, 67, 0.624084
3, 68, 0.491239
3, 69, -1
3, 70, 0.173228
3, 71, -1
3, 72, -0.142734
3, 73, -1
3, 74, -0.207378
3, 75, 0.470398
3, 76, 0.68553
3, 77, -1
3, 78, -1
3, 79, -0.00630863
3, 80, 0.62787
3, 81, 0.359346
3, 82, -1
3, 83, -1
3, 84, 0.37685
3, 85, -1
3, 86, -0.376904
3, 87, -1
3, 88, 0.251135
3, 89, 0.578132
3, 90, -0.867264
3, 91, 0.36927
3, 92, 0.375376
3, 93, -1
3, 94, -1
3, 95, -1
3, 96, -1
3, 97, 0.388534
3, 98, 0.998063
3, 99, -1
3, 100, 0.655558
3, 101, -0.74175
3, 102, -1
3, 103, -1
3, 104, -0.121154
3, 105, -0.311454
3, 106, -0.9993
3, 107, -1
3, 108, 0.19471
3, 109, -0.565656
3, 110, 0.149199
3, 111, -0.271285
3, 112, 0.711012
3, 113, -0.164998
3, 114, -1
3, 115, -0.698165
3, 116, -1
3, 117, 0.374418
3, 118, -1
3, 119, -0.0736613
3, 120, -1
3, 121, 0.402544
3, 122, -1
3, 123, 0.542273
3, 124, -0.0474819
3, 125, -1
3, 126, -1
3, 127, 0.605196
3, 128, 0.0699135
3, 129, 0.0229097
3, 130, -0.215388
3, 131, -1
3, 132, -0.869066
3, 133, -0.17894
3, 134, -1
3, 135, -0.826219
3, 136, 0.475884
3, 137, 0.248672
3, 138, -0.842956
3, 139, -1
3, 140, -1
3, 141, -1
3, 142, -1
3, 143, 0.717932
3, 144, -1
3, 145, -0.0576984
3, 146, -1
3, 147, -1
3, 148, 0.816309
3, 149, -0.988464
3, 150, 0.329117
3, 151, -1
3, 152, -1
3, 153, -0.196542
3, 154, 0.104472
3, 155, -0.70792
3, 156, -0.693394
3, 157, 0.0685242
3, 158, 0.250036
3, 159, -1
3, 160, -0.826158
3, 161, -1
3, 162, -1
3, 163, -1
3, 164, 0.0845038
3, 165, -0.809161
3, 166, -0.781024
3, 167, -1
3, 168, 0.932826
3, 169, 0.854378
3, 170, -0.048864
3, 171, 0.517198
3, 172, -0.306046
3, 173, 0.000852833
3, 174, -0.0329334
3, 175, 0.0735144
3, 176, -1
3, 177, -0.115468
3, 178, 0.65813
3, 179, -1
3, 180, 0.486107
3, 181, -0.113665
3, 182, 0.0819173
3, 183, -0.675482
3, 184, 0.042025
3, 185, -0.977662
3, 186, 0.248163
3, 187, -1
3, 188, 0.427618
3, 189, -0.86081
3, 190, -1
3, 191, -1
3, 192, -0.302986
3, 193, -1
3, 194, -0.960779
3, 195, -1
3, 196, -0.619596
3, 197, -0.834561
3, 198, 0.118336
3, 199, -1
3, 200, 0.499998
3, 201, 0.968863
3, 202, 0.756949
3, 203, 0.176778
3, 204, -0.52504
3, 205, -0.924093
3, 206, 0.0413594
3, 207, -1
3, 208, -0.283569
3, 209, 0.117307
3, 210, -1
3, 211, -1
3, 212, 0.54084
3, 213, -0.475271
3, 214, -0.871944
3, 215, -1
3, 216, -1
3, 217, -1
3, 218, -1
3, 219, -1
3, 220, -1
3, 221, -1
3, 222, 0.790902
3, 223, -0.240211
3, 224, -1
3, 225, 0.576434
3, 226, 0.423056
3, 227, -1
3, 228, 0.537977
3, 229, -1
3, 230, -1
3, 231, -0.618706
3, 232, -0.604845
3, 233, 0.100544
3, 234, -0.346178
3, 235, -0.603152
3, 236, 0.843611
3, 237, -1
3, 238, -1
3, 239, -0.641064
3, 240, -1
3, 241, 0.670426
3, 242, -1
3, 243, 0.395162
3, 244, 0.174449
3, 245, 0.106659
3, 246, -1
3, 247, -0.440966
3, 248, -1
3, 249, 0.723586
3, 250, -1
3, 251, -0.903627
3, 252, 0.670662
3, 253, -1
3, 254, 0.458621
3, 255, 0.363769
3, 256, -0.220498
3, 257, 0.400251
3, 258, 0.999594
3, 259, -0.265603
3, 260, -1
3, 261, 0.647891
3, 262, 0.562509
3, 263, -1
3, 264, 0.560108
3, 265, 0.880398
3, 266, 0.469154
3, 267, -0.60024
3, 268, 0.848561
3, 269, 0.442769
3, 270, 0.205325
3, 271, 0.599171
3, 272, -0.117642
3, 273, 0.205345
3, 274, -0.501621
3, 275, -1
3, 276, -1
3, 277, -1
3, 278, 0.446586
3, 279, -1
3, 280, -1
3, 281, -0.0322522
3, 282, -1
3, 283, 0.658821
3, 284, -0.991063
3, 285, -1
3, 286, -0.99474
3, 287, 0.654492
3, 288, -0.445197
3, 289, 0.201469
3, 290, -1
3, 291, 0.212694
3, 292, -0.106836
3, 293, -0.252787
3, 294, 0.0904568
3, 295, 0.507678
3, 296, -0.201714
3, 297, -0.0577061
3, 298, -1
3, 299, -1
3, 300, -1
3, 301, 0.523099
3, 302, 0.659702
3, 303, 0.465398
3, 304, -0.911841
3, 305, -1
3, 306, -0.198902
3, 307, -1
3, 308, -0.982539
3, 309, -1
3, 310, -1
3, 311, -1
3, 312, -0.490627
3, 313, -1
3, 314, 0.0411618
3, 315, 0.593584
3, 316, -0.908439
3, 317, -1
3, 318, 0.481786
3, 319, 0.474093
3, 320, 0.43324
3, 321, -1
3, 322, -0.391183
3, 323, -1
3, 324, 0.539926
3, 325, -1
3, 326, 0.332738
3, 327, -1
3, 328, 0.00578244
3, 329, 0.315307
3, 330, -1
3, 331, -0.054213
3, 332, -1
3, 333, 0.136087
3, 334, -1
3, 335, -0.977133
3, 336, 0.999826
3, 337, 0.372478
3, 338, -0.788153
3, 339, -1
3, 340, -0.36989
3, 341, -0.785064
3, 342, -1
3, 343, 0.725034
3, 344, -0.532248
3, 345, -1
3, 346, 0.167897
3, 347, 0.0373592
3, 348, 0.531181
3, 349, 0.142383
3, 350, -0.997434
3, 351, -1
3, 352, -0.150559
3, 353, 0.0533593
3, 354, 0.999784
3, 355, -1
3, 356, 0.399145
3, 357, 0.30851
3, 358, 0.437409
3, 359, -1
3, 360, -1
3, 361, -0.0400828
3, 362, 0.89774
3, 363, 0.219781
3, 364, -0.314566
3, 365, -1
3, 366, 0.265201
3, 367, 0.82761
3, 368, 0.595439
3, 369, 0.12371
3, 370, 0.716058
3, 371, -1
3, 372, -0.0631651
3, 373, -1
3, 374, -1
3, 375, 0.232996
3, 376, 0.864669
3, 377, 0.77212
3, 378, -1
3, 379, 0.15842
3, 380, -1
3, 381, -0.959585
3, 382, 0.30494
3, 383, -0.208434
3, 384, 0.709555
3, 385, 0.312735
3, 386, -0.24038
3, 387, 0.244256
3, 388, -0.885813
3, 389, -1
3, 390, 0.999486
3, 391, 0.456289
3, 392, 0.187739
3, 393, 0.179583
3, 394, 0.398755
3, 395, 0.55155
3, 396, -0.271629
3, 397, -1
3, 398, 0.292895
3, 399, -1
4, 0, 0.0256499
4, 1, -0.177721
4, 2, -1
4, 3, -1
4, 4, -0.0490111
4, 5, 0.173436
4, 6, 0.856262
4, 7, 0.150758
4, 8, -0.67021
4, 9, 0.841735
4, 10, -1
4, 11, 0.477321
4, 12, -1
4, 13, 0.998998
4, 14, -1
4, 15, 0.798772
4, 16, 0.437396
4, 17, -0.678078
4, 18, -1
4, 19, 0.0695576
4, 20, -0.551917
4, 21, 0.7358
4, 22, 0.735802
4, 23, 0.350198
4, 24, -1
4, 25, -0.826061
4, 26, -0.717443
4, 27, 0.0193404
4, 28, -0.731737
4, 29, -1
4, 30, 0.119772
4, 31, 0.556301
4, 32, 0.314739
4, 33, -0.924218
4, 34, 0.0373313
4, 35, -1
4, 36, -0.99953
4, 37, -0.553497
4, 38, -0.0184906
4, 39, 0.402363
4, 40, -1
4, 41, 0.303338
4, 42, -0.290286
4, 43, -1
4, 44, -0.999615
4, 45, -0.358079
4, 46, -0.0053469
4, 47, -0.185955
4, 48, -0.856377
4, 49, 0.31537
4, 50, -0.773039
4, 51, -1
4, 52, 0.619419
4, 53, 0.670035
4, 54, 0.540214
4, 55, -1
4, 56, -0.952664
4, 57, -0.890329
4, 58, 0.0191165
4, 59, -0.199654
4, 60, -1
4, 61, 0.206771
4, 62, -0.757543
4, 63, 0.594365
4, 64, -1
4, 65, -1
4, 66, 0.154969
4, 67, -1
4, 68, -0.843857
4, 69, -0.844062
4, 70, -1
4, 71, -1
4, 72, 0.811532
4, 73, -0.650825
4, 74, -1
4, 75, -1
4, 76, -1
4, 77, -0.0422036
4, 78, -0.829562
4, 79, 0.514889
4, 80, -0.0582256
4, 81, -1
4, 82, 0.40266
4, 83, 0.964953
4, 84, -1
4, 85, -0.194984
4, 86, 0.127352
4, 87, -1
4, 88, -0.0305559
4, 89, 0.713391
4, 90, -0.67591
4, 91, -1
4, 92, -0.681883
4, 93, -0.287294
4, 94, 0.767433
4, 95, 0.0997824
4, 96, -1
4, 97, -0.90377
4, 98, 0.749635
4, 99, -0.13982
4, 100, 0.387788
4, 101, 0.0770348
4, 102, 0.467379
4, 103, -0.949486
4, 104, 0.378463
4, 105, 0.0944683
4, 106, -1
4, 107, 0.672886
4, 108, -1
4, 109, 0.0922544
4, 110, 0.411836
4, 111, -0.930767
4, 112, -0.890662
4, 113, 0.17446
4, 114, 0.0921372
4, 115, 0.269681
4, 116, 0.0350703
4, 117, -1
4, 118, 0.308548
4, 119, 0.44507
4, 120, 0.937169
4, 121, 0.198822
4, 122, -0.802191
4, 123, -0.966383
4, 124, -1
4, 125, 0.931303
4, 126, -0.161305
4, 127, -0.714007
4, 128, -1
4, 129, -1
4, 130, 0.0800394
4, 131, 0.552458
4, 132, 0.938439
4, 133, 0.142626
4, 134, -1
4, 135, 0.15683
4, 136, 0.602327
4, 137, -1
4, 138, -0.160693
4, 139, 0.402865
4, 140, -0.185484
4, 141, -0.999621
4, 142, -1
4, 143, -0.153377
4, 144, -0.147485
4, 145, -0.150159
4, 146, -0.973426
4, 147, -1
4, 148, 0.2742
4, 149, -1
4, 150, -0.694997
4, 151, -1
4, 152, -0.852599
4, 153, -0.71818
4, 154, -0.824905
4, 155, -1
4, 156, -1
4, 157, -1
4, 158, -0.357961
4, 159, -1
4, 160, -1
4, 161, -0.498952
4, 162, 0.748416
4, 163, 0.133853
4, 164, 0.270777
4, 165, 0.307281
4, 166, -0.547513
4, 167, -0.40995
4, 168, -0.381937
4, 169, -0.974487
4, 170, 0.63597
4, 171, -1
4, 172, -0.995666
4, 173, 0.659453
4, 174, 0.540665
4, 175, 0.431847
4, 176, -1
4, 177, -1
4, 178, 0.35228
4, 179, 0.33545
4, 180, -1
4, 181, 0.82907
4, 182, -1
4, 183, -0.560896
4, 184, -1
4, 185, -0.714499
4, 186, -0.0631554
4, 187, -1
4, 188, -1
4, 189, 0.608164
4, 190, 0.243837
4, 191, -1
4, 192, -1
4, 193, 0.742626
4, 194, 0.6595
4, 195, -0.765976
4, 196, -1
4, 197, -1
4, 198, 0.384067
4, 199, -1
4, 200, -1
4, 201, -0.0534775
4, 202, -1
4, 203, -1
4, 204, -0.997719
4, 205, -1
4, 206, 0.437555
4, 207, -0.358112
4, 208, 0.275677
4, 209, -1
4, 210, -1
4, 211, -1
4, 212, 0.335041
4, 213, -1
4, 214, -1
4, 215, 0.85803
4, 216, -0.908003
4, 217, -1
4, 218, 0.70173
4, 219, -1
4, 220, -0.925411
4, 221, 0.874497
4, 222, -0.206317
4, 223, -1
4, 224, -0.1545
4, 225, 0.535073
4, 226, 0.0368909
4, 227, 0.746689
4, 228, 0.152943
4, 229, -1
4, 230, -0.526174
4, 231, 0.436648
4, 232, 0.48643
4, 233, -0.89258
4, 234, 0.180668
4, 235, -1
4, 236, 0.999055
4, 237, 0.380201
4, 238, -0.0948328
4, 239, -0.657252
4, 240, 0.998707
4, 241, -0.468374
4, 242, -1
4, 243, 0.78534
4, 244, -0.603828
4, 245, -1
4, 246, 0.389981
4, 247, -1
4, 248, -0.149701
4, 249, -1
4, 250, -0.897916
4, 251, 0.308319
4, 252, -0.133835
4, 253, 0.217129
4, 254, 0.423883
4, 255, -0.183392
4, 256, -1
4, 257, -1
4, 258, 0.968838
4, 259, 0.987529
4, 260, 0.551206
4, 261, -1
4, 262, 0.268874
4, 263, -1
4, 264, -1
4, 265, -0.291873
4, 266, -1
4, 267, 0.869496
4, 268, -1
4, 269, -1
4, 270, 0.174532
4, 271, -0.0864778
4, 272, -1
4, 273, 0.280341
4, 274, -1
4, 275, -0.357656
4, 276, 0.33246
4, 277, 0.414445
4, 278, -0.117583
4, 279, -1
4, 280, -1
4, 281, 0.198476
4, 282, -1
4, 283, 0.735653
4, 284, -1
4, 285, 0.0694014
4, 286, -1
4, 287, -1
4, 288, 0.600469
4, 289, 0.181449
4, 290, 0.355006
4, 291, -1
4, 292, 0.528561
4, 293, -1
4, 294, -1
4, 295, -1
4, 296, -0.985025
4, 297, 0.974674
4, 298, -0.563237
4, 299, 0.449615
4, 300, 0.607489
4, 301, 0.999734
4, 302, 0.464613
4, 303, -0.991383
4, 304, -0.411803
4, 305, -1
4, 306, 0.246075
4, 307, -0.986733
4, 308, 0.597958
4, 309, 0.142674
4, 310, -0.265407
4, 311, -0.296746
4, 312, -0.947724
4, 313, -1
4, 314, 0.0364714
4, 315, -1
4, 316, -0.066516
4, 317, 0.402876
4, 318, -1
4, 319, -1
4, 320, -1
4, 321, 0.782195
4, 322, -1
4, 323, -1
4, 324, 0.204361
4, 325, -1
4, 326, -1
4, 327, -1
4, 328, 0.623078
4, 329, 0.0135525
4, 330, -1
4, 331, -1
4, 332, 0.0298678
4, 333, 0.270987
4, 334, 0.459394
4, 335, 0.634746
4, 336, 0.43581
4, 337, -1
4, 338, 0.510226
4, 339, -1
4, 340, -0.0583908
4, 341, 0.246362
4, 342, 0.608324
4, 343, -1
4, 344, -1
4, 345, -0.939019
4, 346, 0.844902
4, 347, -1
4, 348, 0.120133
4, 349, -1
4, 350, 0.0325721
4, 351, 0.582908
4, 352, -0.991366
4, 353, -0.137995
4, 354, 0.319659
4, 355, -1
4, 356, 0.452605
4, 357, 0.303819
4, 358, -1
4, 359, -0.744739
4, 360, -1
4, 361, -1
4, 362, 0.155924
4, 363, 0.303369
4, 364, -0.847702
4, 365, -1
4, 366, -1
4, 367, 0.520289
4, 368, 0.0901748
4, 369, -0.0161166
4, 370, -0.996316
4, 371, -0.768577
4, 372, -0.168359
4, 373, -0.0479129
4, 374, -1
4, 375, -0.794373
4, 376, 0.999926
4, 377, -1
4, 378, -0.791028
4, 379, -0.615266
4, 380, -0.643888
4, 381, 0.36909
4, 382, -0.81614
4, 383, -1
4, 384, -0.0647876
4, 385, -1
4, 386, -1
4, 387, -1
4, 388, -1
4, 389, -1
4, 390, -0.612304
4, 391, 0.389722
4, 392, 0.062578
4, 393, 0.578928
4, 394, -0.850206
4, 395, -0.123201
4, 396, -1
4, 397, -0.865578
4, 398, -0.0459591
4, 399, -1
5, 0, 0.712614
5, 1, 0.516968
5, 2, -1
5, 3, -1
5, 4, -0.182845
5, 5, -0.525856
5, 6, -0.275496
5, 7, -1
5, 8, -0.63481
5, 9, -1
5, 10, -1
5, 11, 0.675578
5, 12, 0.385656
5, 13, -0.994312
5, 14, -1
5, 15, -1
5, 16, -1
5, 17, -0.907085
5, 18, -1
5, 19, 0.568192
5, 20, -1
5, 21, -1
5, 22, -0.963622
5, 23, -1
5, 24, -0.294783
5, 25, -0.832525
5, 26, -1
5, 27, 0.800221
5, 28, -0.87187
5, 29, -1
5, 30, 0.36984
5, 31, -0.261231
5, 32, 0.13628
5, 33, 0.718948
5, 34, 0.461698
5, 35, -1
5, 36, -1
5, 37, -1
5, 38, 0.824035
5, 39, -0.176894
5, 40, -1
5, 41, -1
5, 42, -1
5, 43, -1
5, 44, -1
5, 45, 0.350043
5, 46, -0.165569
5, 47, 0.114438
5, 48, -1
5, 49, -0.105255
5, 50, -1
5, 51, -1
5, 52, -1
5, 53, -1
5, 54, -1
5, 55, -1
5, 56, -0.196764
5, 57, -1
5, 58, -1
5, 59, 0.658911
5, 60, -1
5, 61, 0.411308
5, 62, -0.00867209
5, 63, 0.193395
5, 64, -0.193066
5, 65, -1
5, 66, 0.150853
5, 67, -0.179823
5, 68, -1
5, 69, -1
5, 70, 0.657205
5, 71, 0.238188
5, 72, -0.437559
5, 73, -1
5, 74, -1
5, 75, 0.839765
5, 76, -1
5, 77, -0.141822
5, 78, -1
5, 79, 0.193973
5, 80, -0.718795
5, 81, -1
5, 82, -0.267944
5, 83, -1
5, 84, -1
5, 85, 0.102669
5, 86, 0.849752
5, 87, -0.154053
5, 88, 0.460306
5, 89, -0.256992
5, 90, -1
5, 91, -0.828743
5, 92, -1
5, 93, 0.514449
5, 94, 0.623339
5, 95, 0.891004
5, 96, -1
5, 97, 0.99921
5, 98, -0.384192
5, 99, -0.113678
5, 100, -1
5, 101, -0.0533296
5, 102, -1
5, 103, -0.927352
5, 104, -0.605623
5, 105, 0.394129
5, 106, -0.933972
5, 107, 0.0833658
5, 108, -0.944535
5, 109, -1
5, 110, 0.67846
5, 111, -1
5, 112, 0.20946
5, 113, -0.16439
5, 114, 0.391669
5, 115, 0.308645
5, 116, 0.445017
5, 117, -0.163601
5, 118, -1
5, 119, -0.985924
5, 120, 0.792979
5, 121, 0.150397
5, 122, 0.999274
5, 123, -1
5, 124, 0.319229
5, 125, -0.743814
5, 126, 0.671997
5, 127, -0.940908
5, 128, 0.861135
5, 129, -0.0759411
5, 130, 0.998414
5, 131, -1
5, 132, -1
5, 133, -0.992014
5, 134, -1
5, 135, -0.184207
5, 136, 0.392115
5, 137, -1
5, 138, -1
5, 139, -0.287231
5, 140, 0.627098
5, 141, -1
5, 142, 0.915384
5, 143, 0.261998
5, 144, -0.988037
5, 145, -1
5, 146, -0.483219
5, 147, -1
5, 148, 0.709614
5, 149, 0.104311
5, 150, -1
5, 151, -1
5, 152, -1
5, 153, -1
5, 154, -1
5, 155, 0.719985
5, 156, -1
5, 157, -0.971206
5, 158, 0.82997
5, 159, 0.288924
5, 160, -0.8497
5, 161, 0.0246719
5, 162, -0.188268
5, 163, 0.26243
5, 164, 0.0424258
5, 165, -1
5, 166, -0.991011
5, 167, -1
5, 168, -0.495234
5, 169, -0.209046
5, 170, -0.985241
5, 171, 0.916744
5, 172, 0.468783
5, 173, -0.117034
5, 174, -0.791115
5, 175, -0.787262
5, 176, 0.788192
5, 177, -0.315122
5, 178, 0.610122
5, 179, -1
5, 180, -1
5, 181, -1
5, 182, -1
5, 183, -0.528956
5, 184, -1
5, 185, 0.747637
5, 186, -0.836159
5, 187, 0.119441
5, 188, -1
5, 189, -1
5, 190, 0.0702873
5, 191, 0.110032
5, 192, 0.596795
5, 193, -1
5, 194, -0.196332
5, 195, 0.303842
5, 196, -1
5, 197, -1
5, 198, 0.0667627
5, 199, -0.469369
5, 200, 0.433387
5, 201, -1
5, 202, 0.73616
5, 203, -0.116477
5, 204, -1
5, 205, 0.0997724
5, 206, -0.642626
5, 207, 0.00266578
5, 208, 0.765801
5, 209, -0.48971
5, 210, 0.392113
5, 211, 0.188933
5, 212, -1
5, 213, -0.378111
5, 214, -1
5, 215, -0.932826
5, 216, -0.348935
5, 217, -1
5, 218, -1
5, 219, -0.944961
5, 220, -0.107265
5, 221, 0.508349
5, 222, 0.457073
5, 223, -1
5, 224, -0.857652
5, 225, 0.29612
5, 226, -0.0669658
5, 227, -0.989627
5, 228, 0.979656
5, 229, 0.00620359
5, 230, 0.277198
5, 231, 0.134183
5, 232, -0.845299
5, 233, -0.450404
5, 234, 0.257552
5, 235, -0.801194
5, 236, 0.479233
5, 237, -0.0767906
5, 238, 0.682728
5, 239, 0.990045
5, 240, 0.503268
5, 241, -0.992957
5, 242, 0.741678
5, 243, 0.364397
5, 244, -1
5, 245, -0.203268
5, 246, -1
5, 247, -0.772505
5, 248, -1
5, 249, 0.998833
5, 250, 0.999094
5, 251, 0.305858
5, 252, -0.119646
5, 253, 0.952178
5, 254, 0.999611
5, 255, -0.777403
5, 256, 0.272708
5, 257, 0.272838
5, 258, -0.00653271
5, 259, -0.304839
5, 260, -0.750819
5, 261, -1
5, 262, 0.212473
5, 263, 0.509672
5, 264, 0.928879
5, 265, 0.860951
5, 266, 0.403658
5, 267, 0.63519
5, 268, 0.152343
5, 269, -1
5, 270, 0.674268
5, 271, -1
5, 272, -1
5, 273, -0.959093
5, 274, 0.804562
5, 275, -0.897544
5, 276, -0.668215
5, 277, -0.155807
5, 278, 0.99922
5, 279, -0.185039
5, 280, -1
5, 281, -0.0357562
5, 282, -0.19438
5, 283, -1
5, 284, 0.145543
5, 285, 0.33794
5, 286, -1
5, 287, -0.975118
5, 288, -1
5, 289, -1
5, 290, 0.851342
5, 291, -1
5, 292, -0.174666
5, 293, -1
5, 294, -1
5, 295, -1
5, 296, 0.527679
5, 297, -1
5, 298, 0.500911
5, 299, -0.289649
5, 300, -0.543909
5, 301, -0.276043
5, 302, -0.825116
5, 303, -1
5, 304, -0.062485
5, 305, 0.328849
5, 306, -0.399169
5, 307, -1
5, 308, -0.452897
5, 309, -1
5, 310, -0.776781
5, 311, 0.745368
5, 312, -0.486225
5, 313, 0.0299064
5, 314, -0.17941
5, 315, 0.531456
5, 316, -0.789764
5, 317, -0.213733
5, 318, -0.305324
5, 319, -1
5, 320, -0.635552
5, 321, 0.130778
5, 322, -1
5, 323, -0.892367
5, 324, -0.183356
5, 325, 0.892528
5, 326, -0.799354
5, 327, -1
5, 328, -1
5, 329, 0.468703
5, 330, -1
5, 331, -1
5, 332, -1
5, 333, -1
5, 334, 0.400228
5, 335, 0.0642986
5, 336, -1
5, 337, 0.226426
5, 338, -1
5, 339, -0.601419
5, 340, -0.870488
5, 341, -1
5, 342, -0.757368
5, 343, -0.101269
5, 344, -0.981452
5, 345, -1
5, 346, -1
5, 347, -0.616971
5, 348, -0.0422087
5, 349, -0.990532
5, 350, 0.109604
5, 351, -0.325466
5, 352, -0.589607
5, 353, 0.413216
5, 354, -0.607714
5, 355, 0.677222
5, 356, -0.458004
5, 357, -0.119455
5, 358, -0.104662
5, 359, -0.709755
5, 360, -1
5, 361, -0.401332
5, 362, -0.732522
5, 363, -0.834675
5, 364, -1
5, 365, -1
5, 366, 0.56926
5, 367, -0.641568
5, 368, -0.965743
5, 369, -0.396935
5, 370, -1
5, 371, 0.0972574
5, 372, 0.0786609
5, 373, 0.742735
5, 374, 0.675427
5, 375, -1
5, 376, 0.496055
5, 377, 0.382142
5, 378, -1
5, 379, -0.186123
5, 380, -0.512114
5, 381, -0.192278
5, 382, -0.87804
5, 383, -1
5, 384, -0.750637
5, 385, -0.933852
5, 386, -1
5, 387, 0.824339
5, 388, -0.0302727
5, 389, -1
5, 390, -1
5, 391, -1
5, 392, 0.623744
5, 393, 0.26621
5, 394, -0.0211066
5, 395, -1
5, 396, 0.720093
5, 397, -0.553277
5, 398, -0.389259
5, 399, 0.661751
6, 0, 0.0690443
6, 1, -1
6, 2, -0.120668
6, 3, -1
6, 4, -1
6, 5, -0.780027
6, 6, -1
6, 7, -0.0483355
6, 8, -1
6, 9, -1
6, 10, -0.970029
6, 11, 0.101118
6, 12, 0.00230426
6, 13, 0.395283
6, 14, -1
6, 15, -0.466631
6, 16, -1
6, 17, -0.671218
6, 18, 0.745991
6, 19, 0.146279
6, 20, -1
6, 21, -1
6, 22, -1
6, 23, 0.449872
6, 24, 0.375883
6, 25, 0.385396
6, 26, -1
6, 27, -1
6, 28, -0.122318
6, 29, 0.420327
6, 30, -0.161227
6, 31, -1
6, 32, 0.163705
6, 33, 0.258852
6, 34, -1
6, 35, -0.649429
6, 36, 0.382318
6, 37, 0.734503
6, 38, -1
6, 39, -0.932945
6, 40, -0.679133
6, 41, -1
6, 42, -0.721002
6, 43, -0.0282551
6, 44, 0.996526
6, 45, -1
6, 46, -0.37286
6, 47, -1
6, 48, 0.748095
6, 49, -0.0255551
6, 50, -0.676481
6, 51, -0.0279267
6, 52, -0.34325
6, 53, -1
6, 54, 0.227098
6, 55, -1
6, 56, -1
6, 57, -1
6, 58, -1
6, 59, -0.588569
6, 60, 0.871178
6, 61, -1
6, 62, 0.998331
6, 63, -1
6, 64, 0.840471
6, 65, 0.00528356
6, 66, 0.0704852
6, 67, -0.0731631
6, 68, 0.310604
6, 69, -1
6, 70, 0.118398
6, 71, 0.363279
6, 72, -1
6, 73, -0.941803
6, 74, 0.181369
6, 75, 0.251868
6, 76, -0.0206122
6, 77, 0.401581
6, 78, -1
6, 79, 0.996054
6, 80, -1
6, 81, 0.0538789
6, 82, 0.306527
6, 83, -1
6, 84, -0.181625
6, 85, -1
6, 86, -0.32113
6, 87, 0.992973
6, 88, 0.351456
6, 89, -0.985768
6, 90, -1
6, 91, 0.506123
6, 92, -0.191015
6, 93, 0.454074
6, 94, 0.857689
6, 95, 0.476679
6, 96, -1
6, 97, 0.0456629
6, 98, -0.384967
6, 99, -1
6, 100, -0.827455
6, 101, 0.0543741
6, 102, -0.357884
6, 103, -1
6, 104, -0.340254
6, 105, -0.290172
6, 106, -1
6, 107, -0.532299
6, 108, 0.468302
6, 109, 0.350101
6, 110, 0.0542794
6, 111, -1
6, 112, -1
6, 113, -0.962744
6, 114, -0.949456
6, 115, 0.154332
6, 116, 0.898906
6, 117, 0.819044
6, 118, -1
6, 119, 0.25366
6, 120, -0.343233
6, 121, 0.999269
6, 122, -1
6, 123, 0.0584364
6, 124, 0.0673759
6, 125, -1
6, 126, -1
6, 127, 0.570654
6, 128, 0.497279
6, 129, -1
6, 130, 0.0788628
6, 131, -0.0673442
6, 132, -1
6, 133, 0.888479
6, 134, -1
6, 135, -0.0546385
6, 136, -0.357998
6, 137, -1
6, 138, 0.792405
6, 139, 0.430284
6, 140, 0.452843
6, 141, 0.657994
6, 142, 0.0260918
6, 143, 0.637954
6, 144, -1
6, 145, 0.0928518
6, 146, -1
6, 147, -1
6, 148, -0.490729
6, 149, 0.748523
6, 150, -1
6, 151, -0.806269
6, 152, -0.389869
6, 153, -0.0754226
6, 154, -0.923746
6, 155, -1
6, 156, -1
6, 157, -0.286734
6, 158, 0.870151
6, 159, -1
6, 160, -1
6, 161, -0.560112
6, 162, -0.0175059
6, 163, -0.115158
6, 164, -0.999992
6, 165, 0.998636
6, 166, 0.756241
6, 167, -1
6, 168, 0.0937003
6, 169, -0.954006
6, 170, 0.315493
6, 171, -1
6, 172, 0.0100387
6, 173, -0.180176
6, 174, -0.360322
6, 175, -0.715156
6, 176, 0.0800589
6, 177, 0.261215
6, 178, 0.467198
6, 179, -0.663633
6, 180, -1
6, 181, -1
6, 182, 0.521619
6, 183, -0.787667
6, 184, 0.00130307
6, 185, -0.0473038
6, 186, -1
6, 187, -0.700151
6, 188, 0.721305
6, 189, -1
6, 190, -1
6, 191, -0.4969
6, 192, -1
6, 193, -0.229657
6, 194, 0.00222626
6, 195, 0.180631
6, 196, -1
6, 197, 0.380757
6, 198, -1
6, 199, -1
6, 200, -0.176269
6, 201, -0.767385
6, 202, -1
6, 203, 0.963709
6, 204, -1
6, 205, -1
6, 206, -0.653456
6, 207, -0.656129
6, 208, 0.210443
6, 209, -0.95394
6, 210, 0.775574
6, 211, 0.249102
6, 212, -0.674223
6, 213, 0.172409
6, 214, -1
6, 215, -0.413754
6, 216, -1
6, 217, -1
6, 218, 0.502784
6, 219, -1
6, 220, 0.910441
6, 221, -0.1879
6, 222, 0.497117
6, 223, -0.876148
6, 224, -0.923198
6, 225, -0.603378
6, 226, 0.542246
6, 227, -0.920972
6, 228, 0.938703
6, 229, -0.0329052
6, 230, -1
6, 231, -0.994138
6, 232, 0.0996437
6, 233, -1
6, 234, -0.905484
6, 235, 0.325055
6, 236, 0.963441
6, 237, 0.075714
6, 238, 0.773384
6, 239, -1
6, 240, 0.680617
6, 241, -0.941824
6, 242, 0.393744
6, 243, -1
6, 244, 0.98051
6, 245, -1
6, 246, -0.855962
6, 247, -0.197086
6, 248, 0.0541386
6, 249, -0.888893
6, 250, -0.847353
6, 251, -1
6, 252, -0.971419
6, 253, 0.665626
6, 254, 0.404988
6, 255, 0.549382
6, 256, -0.988394
6, 257, -0.86878
6, 258, -0.17674
6, 259, -1
6, 260, -0.275957
6, 261, -0.761745
6, 262, -0.893364
6, 263, -1
6, 264, 0.804847
6, 265, -0.0421814
6, 266, -0.885202
6, 267, -0.189482
6, 268, -0.498753
6, 269, 0.905154
6, 270, -1
6, 271, 0.910815
6, 272, 0.154594
6, 273, -1
6, 274, 0.216416
6, 275, -1
6, 276, -0.386668
6, 277, -0.179503
6, 278, -0.81451
6, 279, -0.852154
6, 280, -1
6, 281, -1
6, 282, -1
6, 283, -0.878259
6, 284, 0.218565
6, 285, -0.0882586
6, 286, -1
6, 287, -0.889855
6, 288, -0.32522
6, 289, -0.426414
6, 290, -1
6, 291, 0.779849
6, 292, 0.583577
6, 293, 0.954412
6, 294, 0.173645
6, 295, -0.678436
6, 296, 0.316122
6, 297, 0.768012
6, 298, -1
6, 299, -1
6, 300, -0.38515
6, 301, -1
6, 302, 0.240144
6, 303, -0.266443
6, 304, 0.839119
6, 305, -0.377189
6, 306, -1
6, 307, -0.163384
6, 308, 0.247435
6, 309, -0.38878
6, 310, -1
6, 311, -1
6, 312, -1
6, 313, 0.710405
6, 314, -1
6, 315, -1
6, 316, -0.429965
6, 317, 0.762835
6, 318, 0.0688593
6, 319, 0.920467
6, 320, -0.0170611
6, 321, -1
6, 322, 0.23531
6, 323, -0.334806
6, 324, 0.996019
6, 325, -1
6, 326, -1
6, 327, 0.0533685
6, 328, -0.359358
6, 329, -0.888656
6, 330, 0.112106
6, 331, 0.189005
6, 332, -0.972507
6, 333, -1
6, 334, -1
6, 335, 0.0860125
6, 336, 0.667483
6, 337, -0.955239
6, 338, -0.0526026
6, 339, 0.197042
6, 340, -0.177395
6, 341, -0.972916
6, 342, -0.359255
6, 343, -0.704965
6, 344, -1
6, 345, -0.732786
6, 346, -1
6, 347, 0.170484
6, 348, -1
6, 349, -1
6, 350, 0.507542
6, 351, -1
6, 352, -1
6, 353, 0.626203
6, 354, -1
6, 355, 0.484533
6, 356, -0.00603038
6, 357, -1
6, 358, -1
6, 359, 0.277301
6, 360, -1
6, 361, 0.658538
6, 362, 0.356831
6, 363, -0.605842
6, 364, 0.257779
6, 365, -0.131551
6, 366, -1
6, 367, -0.0168039
6, 368, -1
6, 369, -1
6, 370, -1
6, 371, -1
6, 372, -1
6, 373, -0.822238
6, 374, -0.146628
6, 375, -1
6, 376, 0.224962
6, 377, 0.15677
6, 378, 0.653629
6, 379, -0.180912
6, 380, 0.251928
6, 381, -1
6, 382, -1
6, 383, 0.789315
6, 384, 0.537451
6, 385, -0.993532
6, 386, -0.875401
6, 387, 0.696692
6, 388, 0.350151
6, 389, -0.760539
6, 390, 0.963976
6, 391, -0.324839
6, 392, -0.00161193
6, 393, 0.137466
6, 394, 0.292895
6, 395, -1
6, 396, -1
6, 397, 0.126972
6, 398, 0.979949
6, 399, -1
7, 0, -1
7, 1, 0.564117
7, 2, 0.414139
7, 3, 0.0674526
7, 4, -0.720701
7, 5, -1
7, 6, -1
7, 7, -1
7, 8, -1
7, 9, -1
7, 10, 0.491275
7, 11, -1
7, 12, -1
7, 13, -1
7, 14, -1
7, 15, -1
7, 16, 0.227243
7, 17, 0.845802
7, 18, -0.836591
7, 19, 0.363397
7, 20, -1
7, 21, -0.911972
7, 22, -0.890089
7, 23, -0.515859
7, 24, 0.86694
7, 25, -1
7, 26, -0.927428
7, 27, 0.10156
7, 28, -1
7, 29, -1
7, 30, -0.940281
7, 31, -1
7, 32, -1
7, 33, -1
7, 34, -1
7, 35, -0.694899
7, 36, 0.25299
7, 37, -1
7, 38, 0.0159323
7, 39, -1
7, 40, 0.419672
7, 41, 0.56354
7, 42, 0.371811
7, 43, -1
7, 44, 0.912372
7, 45, -1
7, 46, -1
7, 47, -1
7, 48, -0.229862
7, 49, 0.618743
7, 50, 0.861613
7, 51, -0.918422
7, 52, -1
7, 53, 0.00567089
7, 54, -0.252974
7, 55, 0.589206
7, 56, -1
7, 57, -0.626771
7, 58, -0.00413438
7, 59, -0.167678
7, 60, 0.800409
7, 61, -1
7, 62, -1
7, 63, -1
7, 64, -0.0137326
7, 65, -0.929394
7, 66, -0.759026
7, 67, -1
7, 68, -0.0718622
7, 69, -1
7, 70, 0.514408
7, 71, 0.377567
7, 72, -0.0354049
7, 73, 0.584039
7, 74, -1
7, 75, -0.0637946
7, 76, 0.0757339
7, 77, 0.506243
7, 78, 0.137093
7, 79, 0.00557921
7, 80, -0.805368
7, 81, -1
7, 82, -1
7, 83, -0.00128028
7, 84, 0.313043
7, 85, -0.765353
7, 86, 0.363875
7, 87, 0.572987
7, 88, -1
7, 89, -1
7, 90, -0.615834
7, 91, 0.471019
7, 92, -0.198386
7, 93, -1
7, 94, 0.501369
7, 95, 0.829719
7, 96, -1
7, 97, -0.213052
7, 98, 0.641776
7, 99, -0.982728
7, 100, 0.75515
7, 101, -1
7, 102, -0.101145
7, 103, -1
7, 104, -0.163185
7, 105, 0.451554
7, 106, -1
7, 107, 0.269769
7, 108, -1
7, 109, 0.749383
7, 110, -1
7, 111, 0.107496
7, 112, -1
7, 113, -1
7, 114, -1
7, 115, -1
7, 116, -0.925543
7, 117, -1
7, 118, -1
7, 119, 0.660202
7, 120, -1
7, 121, -0.246542
7, 122, 0.943354
7, 123, -0.323142
7, 124, -0.166068
7, 125, -0.786054
7, 126, 0.450201
7, 127, -0.0168614
7, 128, -1
7, 129, -1
7, 130, -1
7, 131, -1
7, 132, 0.436846
7, 133, 0.217363
7, 134, -0.109485
7, 135, -1
7, 136, 0.730413
7, 137, 0.292212
7, 138, 0.708271
7, 139, -1
7, 140, 0.193439
7, 141, -0.811278
7, 142, 0.151409
7, 143, -1
7, 144, 0.0755698
7, 145, 0.576876
7, 146, -0.0932501
7, 147, -0.377947
7, 148, -1
7, 149, -0.467252
7, 150, -1
7, 151, -1
7, 152, 0.96554
7, 153, -0.135639
7, 154, -0.274604
7, 155, 0.822417
7, 156, -0.835498
7, 157, -0.0652482
7, 158, -1
7, 159, -1
7, 160, 0.0290865
7, 161, 0.214134
7, 162, -1
7, 163, 0.753663
7, 164, 0.424215
7, 165, 0.818231
7, 166, 0.735075
7, 167, 0.923251
7, 168, 0.309469
7, 169, -0.166571
7, 170, -1
7, 171, -1
7, 172, 0.827822
7, 173, 0.772127
7, 174, -0.201882
7, 175, 0.985228
7, 176, 0.188951
7, 177, -0.924439
7, 178, -0.343162
7, 179, -0.80132
7, 180, 0.795268
7, 181, 0.0112768
7, 182, 0.83217
7, 183, 0.999195
7, 184, 0.999427
7, 185, 0.398096
7, 186, 0.788023
7, 187, 0.565153
7, 188, 0.546197
7, 189, 0.252475
7, 190, -1
7, 191, 0.841081
7, 192, 0.376072
7, 193, 0.801566
7, 194, -0.00762508
7, 195, -0.790861
7, 196, 0.457118
7, 197, -0.658279
7, 198, -0.364424
7, 199, -1
7, 200, 0.306197
7, 201, 0.135662
7, 202, 0.511548
7, 203, -0.86525
7, 204, 0.86845
7, 205, 0.93802
7, 206, 0.610251
7, 207, 0.241149
7, 208, 0.354656
7, 209, 0.635752
7, 210, 0.398429
7, 211, 0.654332
7, 212, 0.623845
7, 213, 0.199437
7, 214, -0.128392
7, 215, 0.0311043
7, 216, 0.339036
7, 217, 0.514307
7, 218, 0.433807
7, 219, -0.841344
7, 220, -1
7, 221, -0.0156497
7, 222, 0.916125
7, 223, 0.000222025
7, 224, 0.832429
7, 225, 0.150021
7, 226, 0.741262
7, 227, 0.861415
7, 228, -0.795499
7, 229, 0.454776
7, 230, 0.12404
7, 231, 0.857513
7, 232, -0.403098
7, 233, 0.156806
7, 234, 0.967998
7, 235, 0.374305
7, 236, -0.389527
7, 237, -0.0499694
7, 238, 0.644352
7, 239, 0.0168991
7, 240, 0.506684
7, 241, 0.777316
7, 242, 0.461094
7, 243, 0.588963
7, 244, 0.919651
7, 245, 0.494368
7, 246, 0.238891
7, 247, -0.160683
7, 248, 0.980716
7, 249, -0.900991
7, 250, -0.800828
7, 251, 0.84087
7, 252, 0.120141
7, 253, 0.251956
7, 254, 0.304673
7, 255, -0.782007
7, 256, -0.053026
7, 257, 0.394478
7, 258, -1
7, 259, -0.415103
7, 260, 0.611963
7, 261, -1
7, 262, 0.999627
7, 263, 0.265375
7, 264, 0.43947
7, 265, 0.544035
7, 266, -0.747133
7, 267, -0.968708
7, 268, 0.678566
7, 269, 0.251089
7, 270, -0.493016
7, 271, 0.349055
7, 272, 0.214616
7, 273, 0.95104
7, 274, -0.891165
7, 275, -1
7, 276, -1
7, 277, -1
7, 278, -0.100372
7, 279, -0.457837
7, 280, 0.40058
7, 281, -1
7, 282, -0.994868
7, 283, -0.791194
7, 284, 0.758326
7, 285, 0.420297
7, 286, -1
7, 287, -1
7, 288, -0.803303
7, 289, -0.745033
7, 290, 0.999698
7, 291, -0.82262
7, 292, -0.271585
7, 293, 0.183824
7, 294, -1
7, 295, -0.86514
7, 296, -0.75417
7, 297, -1
7, 298, -1
7, 299, 0.687157
7, 300, -1
7, 301, 0.0908445
7, 302, 0.511705
7, 303, -1
7, 304, -1
7, 305, -1
7, 306, -1
7, 307, -1
7, 308, -0.567222
7, 309, -1
7, 310, -1
7, 311, 0.0196624
7, 312, -1
7, 313, -1
7, 314, -0.573727
7, 315, -0.659324
7, 316, -0.628686
7, 317, -1
7, 318, -1
7, 319, -1
7, 320, 0.509403
7, 321, -1
7, 322, -1
7, 323, -1
7, 324, -1
7, 325, -1
7, 326, -1
7, 327, -1
7, 328, -0.560877
7, 329, -1
7, 330, -1
7, 331, -1
7, 332, -0.827178
7, 333, -0.576734
7, 334, 0.459967
7, 335, 0.152479
7, 336, 0.330291
7, 337, -0.445627
7, 338, 0.999821
7, 339, 0.704334
7, 340, 0.762029
7, 341, -1
7, 342, -0.0808412
7, 343, -1
7, 344, -1
7, 345, -1
7, 346, 0.161427
7, 347, -1
7, 348, -0.977676
7, 349, -1
7, 350, 0.141582
7, 351, -0.842066
7, 352, 0.27061
7, 353, -1
7, 354, 0.248141
7, 355, -0.36179
7, 356, -0.460962
7, 357, 0.999798
7, 358, -0.320689
7, 359, 0.80263
7, 360, 0.135833
7, 361, -1
7, 362, -1
7, 363, -0.667291
7, 364, -1
7, 365, -1
7, 366, -1
7, 367, 0.634477
7, 368, 0.45516
7, 369, -1
7, 370, -0.139604
7, 371, -0.604364
7, 372, -0.468522
7, 373, -0.270969
7, 374, -0.109506
7, 375, 0.27288
7, 376, 0.999918
7, 377, 0.999921
7, 378, 0.756737
7, 379, 0.594431
7, 380, -0.288825
7, 381, 0.460181
7, 382, -1
7, 383, -0.741942
7, 384, -0.314825
7, 385, 0.0527429
7, 386, -0.686666
7, 387, -0.200783
7, 388, -0.941357
7, 389, -0.469367
7, 390, -1
7, 391, 0.457653
7, 392, -0.729484
7, 393, 0.00171111
7, 394, 0.832975
7, 395, 0.798415
7, 396, 0.854934
7, 397, 0.212293
7, 398, 0.295643
7, 399, 0.811615
8, 0, -0.357745
8, 1, -1
8, 2, -0.790888
8, 3, -0.846598
8, 4, 0.503634
8, 5, 0.725964
8, 6, 0.172202
8, 7, -0.0604156
8, 8, -0.0831659
8, 9, -0.978754
8, 10, 0.937228
8, 11, -0.594777
8, 12, -1
8, 13, -0.950771
8, 14, -0.084251
8, 15, -0.66606
8, 16, 0.551485
8, 17, 0.0535454
8, 18, -1
8, 19, -0.421465
8, 20, 0.168914
8, 21, 0.265579
8, 22, 0.843598
8, 23, -0.152915
8, 24, -0.213683
8, 25, 0.466415
8, 26, -1
8, 27, -1
8, 28, 0.27989
8, 29, -1
8, 30, -1
8, 31, 0.0198299
8, 32, -0.640415
8, 33, 0.0569885
8, 34, 0.212351
8, 35, 0.312252
8, 36, -1
8, 37, 0.58928
8, 38, -1
8, 39, 0.208177
8, 40, -0.0887929
8, 41, 0.237638
8, 42, -1
8, 43, -1
8, 44, -0.190576
8, 45, 0.343395
8, 46, -1
8, 47, -0.821727
8, 48, -1
8, 49, -1
8, 50, 0.604557
8, 51, -0.852608
8, 52, 0.829684
8, 53, -0.853451
8, 54, 0.137404
8, 55, -0.999429
8, 56, 0.891876
8, 57, -1
8, 58, -0.198385
8, 59, 0.940682
8, 60, -1
8, 61, -0.134683
8, 62, -0.548816
8, 63, -1
8, 64, -0.938829
8, 65, 0.716474
8, 66, -1
8, 67, -1
8, 68, 0.635657
8, 69, 0.894337
8, 70, 0.345127
8, 71, -1
8, 72, -0.0531424
8, 73, 0.525541
8, 74, 0.672823
8, 75, 0.886016
8, 76, -1
8, 77, -1
8, 78, -1
8, 79, -1
8, 80, -1
8, 81, 0.35096
8, 82, 0.148971
8, 83, -1
8, 84, 0.752127
8, 85, -1
8, 86, -1
8, 87, -0.00980226
8, 88, -1
8, 89, 0.665569
8, 90, -0.853919
8, 91, -1
8, 92, -0.295423
8, 93, -0.0950296
8, 94, -1
8, 95, -0.541313
8, 96, 0.587339
8, 97, -1
8, 98, -0.454224
8, 99, -0.156784
8, 100, -1
8, 101, -1
8, 102, -0.99964
8, 103, -0.10502
8, 104, -1
8, 105, -1
8, 106, -0.218447
8, 107, 0.307111
8, 108, -0.471244
8, 109, -1
8, 110, -0.97176
8, 111, -1
8, 112, 0.789844
8, 113, -0.584356
8, 114, -1
8, 115, 0.212035
8, 116, -1
8, 117, -0.892066
8, 118, 0.377846
8, 119, -1
8, 120, -0.850186
8, 121, -1
8, 122, -1
8, 123, -0.485199
8, 124, -0.145693
8, 125, -1
8, 126, 0.0673176
8, 127, -1
8, 128, -0.0527884
8, 129, 0.827125
8, 130, -1
8, 131, -1
8, 132, -1
8, 133, 0.492384
8, 134, 0.998981
8, 135, -1
8, 136, 0.416267
8, 137, -1
8, 138, 0.218162
8, 139, 0.241929
8, 140, -0.824319
8, 141, 0.754335
8, 142, -1
8, 143, 0.859594
8, 144, 0.999322
8, 145, -0.925243
8, 146, -1
8, 147, -1
8, 148, -0.204482
8, 149, 0.221697
8, 150, -1
8, 151, -0.855817
8, 152, 0.0747563
8, 153, -1
8, 154, -1
8, 155, -1
8, 156, -0.589687
8, 157, -1
8, 158, -1
8, 159, 0.991246
8, 160, 0.646725
8, 161, -1
8, 162, -1
8, 163, -0.0517017
8, 164, -1
8, 165, 0.955071
8, 166, -0.581591
8, 167, 0.888674
8, 168, 0.935233
8, 169, -1
8, 170, -1
8, 171, 0.370827
8, 172, 0.13758
8, 173, -1
8, 174, -0.958561
8, 175, -0.0897757
8, 176, 0.968885
8, 177, -0.51431
8, 178, -1
8, 179, 0.868103
8, 180, -1
8, 181, -0.631863
8, 182, 0.41147
8, 183, -0.00604041
8, 184, -1
8, 185, 0.559797
8, 186, 0.549113
8, 187, -1
8, 188, 0.562122
8, 189, 0.999437
8, 190, 0.533782
8, 191, 0.331601
8, 192, 0.41444
8, 193, -0.867664
8, 194, -1
8, 195, -1
8, 196, -0.650485
8, 197, -0.848999
8, 198, 0.639853
8, 199, -1
8, 200, -1
8, 201, -1
8, 202, 0.0697164
8, 203, 0.207548
8, 204, -1
8, 205, 0.974508
8, 206, -0.105816
8, 207, -1
8, 208, -1
8, 209, -0.423093
8, 210, 0.478509
8, 211, -1
8, 212, -1
8, 213, -0.945371
8, 214, -1
8, 215, -0.1524
8, 216, 0.549428
8, 217, -1
8, 218, 0.0543998
8, 219, 0.429497
8, 220, 0.551497
8, 221, -0.502301
8, 222, -1
8, 223, 0.757472
8, 224, -1
8, 225, -1
8, 226, -1
8, 227, -1
8, 228, -1
8, 229, -1
8, 230, -1
8, 231, -1
8, 232, -0.746218
8, 233, 0.125974
8, 234, 0.460812
8, 235, -0.88958
8, 236, -0.827272
8, 237, -1
8, 238, -1
8, 239, -1
8, 240, -0.201984
8, 241, 0.139666
8, 242, -0.955587
8, 243, -0.191249
8, 244, -1
8, 245, -0.454351
8, 246, 0.257634
8, 247, 0.0231034
8, 248, -1
8, 249, -1
8, 250, -0.794131
8, 251, -1
8, 252, -1
8, 253, -1
8, 254, 0.0557999
8, 255, 0.952811
8, 256, -0.943705
8, 257, -1
8, 258, -1
8, 259, -1
8, 260, 0.790082
8, 261, 0.956398
8, 262, -1
8, 263, -0.782996
8, 264, 0.532056
8, 265, -1
8, 266, -0.781282
8, 267, 0.0296139
8, 268, -0.497488
8, 269, -1
8, 270, 0.953942
8, 271, 0.466056
8, 272, 0.902583
8, 273, -0.0481526
8, 274, -0.145654
8, 275, 0.374066
8, 276, 0.418263
8, 277, 0.659748
8, 278, -1
8, 279, 0.835348
8, 280, 0.11223
8, 281, -1
8, 282, -1
8, 283, 0.998742
8, 284, -0.938178
8, 285, 0.513386
8, 286, -0.0945365
8, 287, -0.495522
8, 288, -1
8, 289, -0.132145
8, 290, -1
8, 291, -0.988167
8, 292, -0.0813674
8, 293, -1
8, 294, 0.187037
8, 295, 0.677076
8, 296, -1
8, 297, 0.443167
8, 298, 0.271758
8, 299, -0.525253
8, 300, -1
8, 301, 0.0693162
8, 302, -0.749989
8, 303, -0.749271
8, 304, 0.916632
8, 305, -0.215428
8, 306, -1
8, 307, -1
8, 308, -0.513624
8, 309, -1
8, 310, 0.339043
8, 311, -1
8, 312, -1
8, 313, 0.279485
8, 314, 0.43438
8, 315, -1
8, 316, -1
8, 317, 0.138623
8, 318, -1
8, 319, 0.461875
8, 320, -0.776981
8, 321, 0.266852
8, 322, -0.181389
8, 323, 0.0253108
8, 324, 0.300717
8, 325, -1
8, 326, -0.145156
8, 327, -0.90616
8, 328, 0.422438
8, 329, 0.0886009
8, 330, -0.866008
8, 331, 0.315493
8, 332, -0.914442
8, 333, 0.618732
8, 334, -0.174006
8, 335, 0.590312
8, 336, -0.88135
8, 337, -0.86438
8, 338, 0.857352
8, 339, -0.76104
8, 340, -1
8, 341, 0.0318081
8, 342, -0.768216
8, 343, -1
8, 344, 0.103801
8, 345, 0.675463
8, 346, -1
8, 347, -1
8, 348, 0.799291
8, 349, -1
8, 350, 0.898502
8, 351, 0.0633633
8, 352, 0.0567831
8, 353, -1
8, 354, 0.159644
8, 355, -1
8, 356, -0.393284
8, 357, 0.200892
8, 358, 0.669016
8, 359, -1
8, 360, -0.185279
8, 361, -0.879486
8, 362, -1
8, 363, 0.609675
8, 364, 0.598227
8, 365, -1
8, 366, -1
8, 367, 0.703925
8, 368, 0.162279
8, 369, 0.45023
8, 370, -1
8, 371, -0.63897
8, 372, -0.642075
8, 373, 0.337638
8, 374, -1
8, 375, -0.97313
8, 376, 0.545882
8, 377, -1
8, 378, -1
8, 379, -0.406994
8, 380, -1
8, 381, -1
8, 382, -0.818477
8, 383, 0.761372
8, 384, -0.539811
8, 385, -0.110793
8, 386, -1
8, 387, 0.168296
8, 388, -1
8, 389, -1
8, 390, 0.510569
8, 391, -1
8, 392, -1
8, 393, 0.134934
8, 394, -1
8, 395, 0.467277
8, 396, 0.289462
8, 397, -0.903414
8, 398, 0.751223
8, 399, 0.78568
9, 0, -0.134256
9, 1, -0.577679
9, 2, 0.711653
9, 3, 0.83394
9, 4, -1
9, 5, 0.432341
9, 6, 0.395616
9, 7, 0.776014
9, 8, 0.618497
9, 9, -0.858257
9, 10, 0.998688
9, 11, -0.659846
9, 12, 0.254697
9, 13, -1
9, 14, -0.134983
9, 15, 0.0904607
9, 16, 0.553431
9, 17, 0.447526
9, 18, 0.234544
9, 19, -0.182933
9, 20, -0.00265612
9, 21, -0.892809
9, 22, -1
9, 23, 0.374645
9, 24, 0.474166
9, 25, 0.355453
9, 26, -1
9, 27, -0.209766
9, 28, -1
9, 29, -1
9, 30, -0.995528
9, 31, 0.359371
9, 32, -0.201736
9, 33, 0.327746
9, 34, -1
9, 35, -1
9, 36, 0.0695683
9, 37, 0.755183
9, 38, 0.27472
9, 39, -1
9, 40, -1
9, 41, -1
9, 42, -1
9, 43, 0.661163
9, 44, 0.823312
9, 45, 0.100095
9, 46, -0.905561
9, 47, -1
9, 48, -1
9, 49, 0.302767
9, 50, -0.639579
9, 51, -1
9, 52, -0.297223
9, 53, -1
9, 54, -0.920449
9, 55, 0.477207
9, 56, -1
9, 57, -0.453709
9, 58, 0.350737
9, 59, 0.645863
9, 60, -1
9, 61, -0.00479469
9, 62, -1
9, 63, 0.193559
9, 64, -1
9, 65, -0.982179
9, 66, 0.503199
9, 67, -1
9, 68, -1
9, 69, -0.0824401
9, 70, 0.998754
9, 71, 0.189678
9, 72, -0.547267
9, 73, -1
9, 74, 0.00372761
9, 75, -0.938851
9, 76, -0.389962
9, 77, -0.358142
9, 78, -1
9, 79, 0.640472
9, 80, -1
9, 81, -0.172094
9, 82, -1
9, 83, 0.0627834
9, 84, 0.242269
9, 85, -1
9, 86, -1
9, 87, 0.036981
9, 88, -1
9, 89, 0.883911
9, 90, -0.605276
9, 91, -0.525181
9, 92, 0.226428
9, 93, -0.0934139
9, 94, 0.0633989
9, 95, 0.741582
9, 96, 0.873828
9, 97, 0.368578
9, 98, -0.556183
9, 99, 0.457671
9, 100, -0.398871
9, 101, -0.463404
9, 102, -0.357627
9, 103, 0.583315
9, 104, -1
9, 105, -1
9, 106, -1
9, 107, 0.221941
9, 108, -1
9, 109, -1
9, 110, -0.364598
9, 111, -1
9, 112, -1
9, 113, 0.890517
9, 114, 0.189638
9, 115, -1
9, 116, -0.817323
9, 117, -1
9, 118, 0.756375
9, 119, -1
9, 120, 0.983638
9, 121, -0.930034
9, 122, -0.733162
9, 123, -0.770481
9, 124, 0.999269
9, 125, -0.0911506
9, 126, -1
9, 127, -0.765579
9, 128, 0.155097
9, 129, 0.0207571
9, 130, -1
9, 131, -0.274391
9, 132, 0.912772
9, 133, -1
9, 134, 0.958357
9, 135, 0.605263
9, 136, -1
9, 137, -1
9, 138, -1
9, 139, -1
9, 140, -0.0876104
9, 141, -0.65601
9, 142, -0.492773
9, 143, -1
9, 144, -1
9, 145, 0.37054
9, 146, 0.372436
9, 147, -1
9, 148, 0.255367
9, 149, -1
9, 150, -1
9, 151, -0.0841917
9, 152, -1
9, 153, 0.346441
9, 154, -0.0769613
9, 155, -1
9, 156, 0.0199208
9, 157, -1
9, 158, -0.289118
9, 159, -0.838484
9, 160, 0.735654
9, 161, -0.788747
9, 162, -0.999532
9, 163, -0.0338693
9, 164, 0.160216
9, 165, 0.424407
9, 166, -1
9, 167, -0.00760132
9, 168, -1
9, 169, 0.301187
9, 170, 0.105824
9, 171, -0.762119
9, 172, 0.626703
9, 173, -0.608906
9, 174, -0.929707
9, 175, 0.946059
9, 176, -0.120157
9, 177, -0.694596
9, 178, 0.132156
9, 179, -1
9, 180, 0.404391
9, 181, -0.00143608
9, 182, -1
9, 183, -1
9, 184, -1
9, 185, 0.692661
9, 186, -1
9, 187, 0.197827
9, 188, -1
9, 189, 0.370091
9, 190, -0.107085
9, 191, -0.0307911
9, 192, -0.974688
9, 193, -1
9, 194, -0.148445
9, 195, 0.164825
9, 196, 0.281276
9, 197, 0.18175
9, 198, 0.542605
9, 199, -1
9, 200, 0.999463
9, 201, -1
9, 202, 0.689712
9, 203, 0.395499
9, 204, 0.376542
9, 205, -1
9, 206, -1
9, 207, -1
9, 208, -0.0469685
9, 209, 0.494222
9, 210, -0.077517
9, 211, -0.0276589
9, 212, -1
9, 213, -1
9, 214, 0.700535
9, 215, -0.793041
9, 216, 0.596733
9, 217, -1
9, 218, -1
9, 219, -1
9, 220, 0.0472104
9, 221, -1
9, 222, -0.736103
9, 223, -1
9, 224, -0.740322
9, 225, -0.529476
9, 226, -0.172863
9, 227, -1
9, 228, 0.614185
9, 229, -1
9, 230, -0.851992
9, 231, -0.615102
9, 232, -1
9, 233, -1
9, 234, -1
9, 235, 0.430968
9, 236, -1
9, 237, -1
9, 238, 0.286841
9, 239, -1
9, 240, -0.667166
9, 241, -0.117318
9, 242, -0.320682
9, 243, -1
9, 244, 0.00417911
9, 245, -1
9, 246, 0.666524
9, 247, -1
9, 248, -1
9, 249, -1
9, 250, -0.137795
9, 251, -1
9, 252, 0.00198567
9, 253, 0.117597
9, 254, 0.652454
9, 255, -1
9, 256, -0.723507
9, 257, 0.171834
9, 258, -1
9, 259, -0.856486
9, 260, -0.750773
9, 261, -1
9, 262, 0.360758
9, 263, -1
9, 264, -1
9, 265, 0.898958
9, 266, -0.198173
9, 267, 0.64959
9, 268, -1
9, 269, 0.566553
9, 270, 0.352331
9, 271, 0.307881
9, 272, -0.210593
9, 273, -1
9, 274, -1
9, 275, -1
9, 276, -1
9, 277, 0.578806
9, 278, -0.981811
9, 279, -1
9, 280, -0.574802
9, 281, 0.396204
9, 282, -0.309206
9, 283, -1
9, 284, -1
9, 285, -1
9, 286, -1
9, 287, -0.666217
9, 288, -1
9, 289, 0.0536547
9, 290, -0.642215
9, 291, 0.113722
9, 292, -0.00148115
9, 293, 0.639081
9, 294, 0.637539
9, 295, -0.0708699
9, 296, -0.611443
9, 297, -1
9, 298, -0.483988
9, 299, -1
9, 300, 0.694458
9, 301, 0.403082
9, 302, -1
9, 303, 0.578475
9, 304, 0.270186
9, 305, -1
9, 306, 0.194044
9, 307, 0.416676
9, 308, -0.883371
9, 309, -0.981038
9, 310, -0.379442
9, 311, 0.473323
9, 312, -0.0409942
9, 313, -0.0776194
9, 314, 0.594079
9, 315, 0.0224389
9, 316, -0.779247
9, 317, -0.220249
9, 318, 0.652085
9, 319, 0.02136
9, 320, -0.929449
9, 321, -1
9, 322, 0.069822
9, 323, -1
9, 324, -1
9, 325, -1
9, 326, 0.216222
9, 327, -1
9, 328, -1
9, 329, -0.0555621
9, 330, 0.217382
9, 331, -0.0411995
9, 332, -1
9, 333, -0.0768606
9, 334, -0.375491
9, 335, -0.0436224
9, 336, -0.829773
9, 337, -1
9, 338, -0.00812238
9, 339, 0.717047
9, 340, -1
9, 341, -0.104543
9, 342, 0.129617
9, 343, -0.124215
9, 344, -0.122266
9, 345, -1
9, 346, -1
9, 347, -1
9, 348, -1
9, 349, 0.372904
9, 350, -0.611978
9, 351, -1
9, 352, -0.204026
9, 353, -1
9, 354, -1
9, 355, -1
9, 356, 0.687847
9, 357, -0.123652
9, 358, -0.329835
9, 359, -1
9, 360, -1
9, 361, -1
9, 362, 0.807627
9, 363, -0.709146
9, 364, -1
9, 365, -0.47577
9, 366, -1
9, 367, -0.0208713
9, 368, -1
9, 369, 0.0809609
9, 370, -1
9, 371, -1
9, 372, 0.754776
9, 373, 0.496771
9, 374, 0.27513
9, 375, -1
9, 376, 0.999777
9, 377, -0.270948
9, 378, -0.544855
9, 379, -1
9, 380, 0.33175
9, 381, 0.112246
9, 382, -1
9, 383, -1
9, 384, -1
9, 385, -0.077516
9, 386, -0.449494
9, 387, -0.315807
9, 388, -1
9, 389, -0.104844
9, 390, -0.50665
9, 391, -1
9, 392, 0.025596
9, 393, -1
9, 394, -0.206407
9, 395, -0.495352
9, 396, -1
9, 397, 0.334605
9, 398, -1
9, 399, -0.786244
10, 0, -1
10, 1, -1
10, 2, -1
10, 3, 0.692782
10, 4, 0.369483
10, 5, 0.880277
10, 6, -1
10, 7, -0.00927552
10, 8, 0.346831
10, 9, -1
10, 10, -1
10, 11, 0.108197
10, 12, 0.787919
10, 13, -1
10, 14, 0.340786
10, 15, -0.556397
10, 16, -1
10, 17, 0.412372
10, 18, -1
10, 19, -1
10, 20, -1
10, 21, -0.242244
10, 22, -1
10, 23, -1
10, 24, 0.00154335
10, 25, 0.115411
10, 26, -0.0380514
10, 27, 0.0798479
10, 28, -1
10, 29, -1
10, 30, -1
10, 31, 0.694424
10, 32, -1
10, 33, -1
10, 34, 0.326077
10, 35, 0.138256
10, 36, 0.145235
10, 37, -0.845473
10, 38, 0.301211
10, 39, 0.445052
10, 40, 0.170889
10, 41, -0.463437
10, 42, -0.787062
10, 43, -0.655838
10, 44, -0.733626
10, 45, -0.817999
10, 46, -0.86751
10, 47, -1
10, 48, -0.439363
10, 49, 0.485947
10, 50, -1
10, 51, -0.0974469
10, 52, -1
10, 53, -1
10, 54, 0.450785
10, 55, -0.516021
10, 56, 0.634197
10, 57, -1
10, 58, -1
10, 59, -0.104964
10, 60, -0.337273
10, 61, -1
10, 62, -0.0205111
10, 63, 0.450598
10, 64, -0.835979
10, 65, 0.22689
10, 66, -0.0690995
10, 67, 0.327508
10, 68, -0.357886
10, 69, 0.649112
10, 70, -0.608779
10, 71, -1
10, 72, -0.120272
10, 73, -0.352383
10, 74, -0.273874
10, 75, 0.483706
10, 76, -1
10, 77, 0.41966
10, 78, -0.101217
10, 79, -0.321048
10, 80, -1
10, 81, -0.52796
10, 82, -1
10, 83, -0.858599
10, 84, -0.514894
10, 85, -0.202261
10, 86, 0.224993
10, 87, -1
10, 88, 0.857086
10, 89, 0.319956
10, 90, -0.106336
10, 91, -0.869492
10, 92, -1
10, 93, 0.0580441
10, 94, -1
10, 95, 0.0543515
10, 96, 0.435992
10, 97, -1
10, 98, -1
10, 99, 0.750423
10, 100, -0.331995
10, 101, -1
10, 102, -1
10, 103, 0.170932
10, 104, -0.330936
10, 105, -0.0360452
10, 106, 0.722402
10, 107, -1
10, 108, -0.575242
10, 109, 0.286986
10, 110, 0.00900557
10, 111, -1
10, 112, 0.117129
10, 113, 0.746353
10, 114, -1
10, 115, -0.984315
10, 116, -1
10, 117, 0.906195
10, 118, -0.860075
10, 119, -1
10, 120, 0.184199
10, 121, 0.145101
10, 122, -0.981548
10, 123, 0.725077
10, 124, -0.130884
10, 125, 0.0109628
10, 126, -0.537931
10, 127, -0.117768
10, 128, -1
10, 129, -0.524454
10, 130, 0.330968
10, 131, -1
10, 132, -1
10, 133, -0.138837
10, 134, -0.038189
10, 135, 0.111305
10, 136, 0.736018
10, 137, 0.0887992
10, 138, -1
10, 139, -0.512888
10, 140, 0.925026
10, 141, 0.355024
10, 142, -1
10, 143, 0.403773
10, 144, 0.249966
10, 145, -1
10, 146, -0.498503
10, 147, 0.502812
10, 148, -1
10, 149, 0.986998
10, 150, 0.826602
10, 151, -0.427831
10, 152, -0.803557
10, 153, -1
10, 154, -1
10, 155, 0.36881
10, 156, -0.853274
10, 157, -0.945457
10, 158, 0.433993
10, 159, -1
10, 160, 0.735351
10, 161, -1
10, 162, -0.460075
10, 163, 0.381997
10, 164, -1
10, 165, -1
10, 166, -0.737769
10, 167, -0.199492
10, 168, -0.284255
10, 169, -1
10, 170, -0.614491
10, 171, -0.687368
10, 172, 0.0692891
10, 173, -0.348359
10, 174, 0.638352
10, 175, -1
10, 176, -0.99942
10, 177, 0.100379
10, 178, 0.572384
10, 179, -1
10, 180, -0.933549
10, 181, -0.396115
10, 182, 0.00681801
10, 183, -0.87715
10, 184, -0.0326026
10, 185, 0.41344
10, 186, 0.531375
10, 187, 0.459556
10, 188, -1
10, 189, -1
10, 190, -0.839374
10, 191, 0.736128
10, 192, 0.0196699
10, 193, -0.12134
10, 194, 0.333588
10, 195, -0.245206
10, 196, -0.129859
10, 197, 0.953588
10, 198, -0.517086
10, 199, 0.560415
10, 200, -1
10, 201, -1
10, 202, -1
10, 203, -0.0772623
10, 204, -1
10, 205, 0.598665
10, 206, -0.0467913
10, 207, -1
10, 208, -0.840346
10, 209, -1
10, 210, -1
10, 211, -1
10, 212, 0.739808
10, 213, 0.147378
10, 214, 0.87627
10, 215, 0.690642
10, 216, 0.993869
10, 217, -0.114781
10, 218, -1
10, 219, -0.41163
10, 220, 0.696588
10, 221, -0.978272
10, 222, 0.653728
10, 223, -1
10, 224, 0.0344137
10, 225, -0.571273
10, 226, -0.659972
10, 227, 0.397158
10, 228, 0.208683
10, 229, -0.130166
10, 230, -0.149978
10, 231, -1
10, 232, -1
10, 233, 0.343963
10, 234, 0.770207
10, 235, -1
10, 236, 0.57819
10, 237, -0.909227
10, 238, -1
10, 239, 0.260801
10, 240, -0.793857
10, 241, -1
10, 242, 0.702502
10, 243, 0.360975
10, 244, -1
10, 245, -1
10, 246, -0.701431
10, 247, -0.0564061
10, 248, 0.0355953
10, 249, 0.315032
10, 250, -0.591719
10, 251, -0.721518
10, 252, 0.956208
10, 253, -1
10, 254, -0.00515087
10, 255, -1
10, 256, -0.572854
10, 257, 0.568335
10, 258, -1
10, 259, -0.548289
10, 260, 0.0343976
10, 261, 0.216844
10, 262, -0.416729
10, 263, -1
10, 264, -0.357645
10, 265, -0.881234
10, 266, -1
10, 267, 0.403034
10, 268, -0.999639
10, 269, -1
10, 270, -1
10, 271, -0.883824
10, 272, -0.534873
10, 273, -1
10, 274, 0.259006
10, 275, -0.805211
10, 276, -0.150046
10, 277, 0.226357
10, 278, 0.338354
10, 279, 0.277288
10, 280, -0.896792
10, 281, 0.610054
10, 282, -0.122658
10, 283, 0.746421
10, 284, -0.332637
10, 285, -0.226963
10, 286, -0.88769
10, 287, 0.807205
10, 288, -1
10, 289, -1
10, 290, -1
10, 291, -1
10, 292, -1
10, 293, 0.17873
10, 294, -0.909725
10, 295, -0.312756
10, 296, 0.361006
10, 297, -0.769901
10, 298, 0.790769
10, 299, 0.374871
10, 300, 0.606533
10, 301, -1
10, 302, -0.101178
10, 303, -1
10, 304, -1
10, 305, -0.0108938
10, 306, -0.94727
10, 307, -1
10, 308, -1
10, 309, 0.508059
10, 310, -0.930201
10, 311, -0.702054
10, 312, -1
10, 313, -1
10, 314, -1
10, 315, 0.304286
10, 316, -1
10, 317, -1
10, 318, 0.484316
10, 319, 0.632561
10, 320, -1
10, 321, 0.461258
10, 322, -1
10, 323, -1
10, 324, -0.18821
10, 325, -1
10, 326, -0.669683
10, 327, -1
10, 328, 0.829493
10, 329, -1
10, 330, 0.349088
10, 331, -1
10, 332, 0.149577
10, 333, -0.082445
10, 334, -1
10, 335, -0.895862
10, 336, 0.0368581
10, 337, -1
10, 338, -1
10, 339, -1
10, 340, -0.912481
10, 341, 0.602784
10, 342, -1
10, 343, -1
10, 344, -0.439979
10, 345, -0.503161
10, 346, 0.654673
10, 347, 0.25466
10, 348, -0.137569
10, 349, -1
10, 350, -0.235591
10, 351, -0.0106617
10, 352, -1
10, 353, -1
10, 354, -0.0424215
10, 355, -0.971495
10, 356, -1
10, 357, 0.581881
10, 358, -0.442919
10, 359, 0.178656
10, 360, -1
10, 361, -1
10, 362, -1
10, 363, -1
10, 364, -0.774771
10, 365, -1
10, 366, 0.767547
10, 367, -1
10, 368, -1
10, 369, -0.209318
10, 370, 0.248756
10, 371, 0.0505547
10, 372, 0.00768539
10, 373, 0.663206
10, 374, 0.0313928
10, 375, 0.593529
10, 376, -1
10, 377, -1
10, 378, 0.223205
10, 379, 0.398764
10, 380, 0.240881
10, 381, 0.738308
10, 382, -1
10, 383, -0.726806
10, 384, 0.736289
10, 385, 0.573835
10, 386, 0.0873758
10, 387, -1
10, 388, 0.348923
10, 389, 0.999352
10, 390, 0.999423
10, 391, -0.942151
10, 392, -1
10, 393, 0.524461
10, 394, 0.153403
10, 395, 0.842674
10, 396, 0.239386
10, 397, 0.66615
10, 398, -1
10, 399, -1
11, 0, -1
11, 1, -0.457344
11, 2, 0.325536
11, 3, -1
11, 4, -1
11, 5, -1
11, 6, -1
11, 7, -1
11, 8, 0.949053
11, 9, 0.917549
11, 10, 0.579196
11, 11, -1
11, 12, -1
11, 13, 0.12915
11, 14, -1
11, 15, -1
11, 16, -0.999531
11, 17, 0.630618
11, 18, -1
11, 19, 0.691825
11, 20, -0.577015
11, 21, 0.0938882
11, 22, -1
11, 23, -0.382482
11, 24, -1
11, 25, 0.120506
11, 26, -0.988146
11, 27, -1
11, 28, -1
11, 29, 0.48749
11, 30, -1
11, 31, -1
11, 32, -1
11, 33, 0.539986
11, 34, 0.469938
11, 35, 0.679854
11, 36, 0.730313
11, 37, 0.234825
11, 38, -1
11, 39, 0.296129
11, 40, -1
11, 41, -0.65655
11, 42, -0.348937
11, 43, -1
11, 44, -1
11, 45, 0.31752
11, 46, 0.728167
11, 47, -1
11, 48, 0.353622
11, 49, 0.60116
11, 50, -0.766146
11, 51, 0.880469
11, 52, -1
11, 53, 0.389572
11, 54, -1
11, 55, -0.359272
11, 56, -1
11, 57, -1
11, 58, -0.789555
11, 59, -1
11, 60, 0.674925
11, 61, -1
11, 62, -1
11, 63, 0.40275
11, 64, 0.224094
11, 65, 0.0695822
11, 66, -1
11, 67, 0.116462
11, 68, -1
11, 69, -1
11, 70, 0.782277
11, 71, -1
11, 72, 0.528686
11, 73, -0.710084
11, 74, 0.0735613
11, 75, -1
11, 76, 0.738152
11, 77, -0.874692
11, 78, 0.738987
11, 79, -1
11, 80, 0.925218
11, 81, -1
11, 82, 0.493317
11, 83, -1
11, 84, 0.219658
11, 85, -0.273667
11, 86, -1
11, 87, 0.236233
11, 88, -0.697221
11, 89, 0.102258
11, 90, -0.09945
11, 91, 0.207089
11, 92, -1
11, 93, 0.397706
11, 94, -1
11, 95, -0.64665
11, 96, -0.358392
11, 97, -0.0187887
11, 98, -0.793885
11, 99, -0.217058
11, 100, 0.836734
11, 101, -1
11, 102, 0.76803
11, 103, -1
11, 104, -0.0328798
11, 105, -0.826924
11, 106, 0.193413
11, 107, -1
11, 108, -0.164156
11, 109, -1
11, 110, -1
11, 111, 0.314706
11, 112, -1
11, 113, -1
11, 114, 0.690254
11, 115, 0.554995
11, 116, -1
11, 117, -1
11, 118, -1
11, 119, -0.618081
11, 120, 0.207655
11, 121, -0.999495
11, 122, 0.296044
11, 123, -1
11, 124, -1
11, 125, 0.948557
11, 126, -1
11, 127, -0.0998229
11, 128, 0.102379
11, 129, -0.227863
11, 130, -1
11, 131, -1
11, 132, 0.644484
11, 133, -0.526251
11, 134, -0.714342
11, 135, -1
11, 136, -0.546214
11, 137, -1
11, 138, -1
11, 139, 0.070153
11, 140, -0.577395
11, 141, -0.892059
11, 142, -0.269417
11, 143, -1
11, 144, -0.742932
11, 145, -1
11, 146, -0.269878
11, 147, -0.802246
11, 148, -1
11, 149, -0.992208
11, 150, -0.790527
11, 151, -0.409601
11, 152, 0.676777
11, 153, -1
11, 154, -1
11, 155, 0.436271
11, 156, -1
11, 157, -1
11, 158, -0.929556
11, 159, -1
11, 160, -0.553171
11, 161, -1
11, 162, -1
11, 163, -1
11, 164, 0.999366
11, 165, 0.795831
11, 166, -1
11, 167, -1
11, 168, 0.244594
11, 169, -1
11, 170, 0.913795
11, 171, -1
11, 172, -1
11, 173, -1
11, 174, -1
11, 175, -0.106312
11, 176, -1
11, 177, 0.606388
11, 178, 0.237631
11, 179, -1
11, 180, -1
11, 181, -1
11, 182, -1
11, 183, 0.82731
11, 184, 0.71225
11, 185, -1
11, 186, 0.7234
11, 187, 0.368043
11, 188, -1
11, 189, 0.106481
11, 190, -0.314022
11, 191, -1
11, 192, 0.544308
11, 193, -1
11, 194, -0.868407
11, 195, -0.833644
11, 196, 0.672177
11, 197, -0.344249
11, 198, -0.196698
11, 199, -0.764925
11, 200, -0.662268
11, 201, -1
11, 202, -0.582196
11, 203, 0.566432
11, 204, 0.392588
11, 205, 0.510486
11, 206, 0.828249
11, 207, -0.0215189
11, 208, -1
11, 209, -1
11, 210, 0.728632
11, 211, -1
11, 212, -1
11, 213, -0.911813
11, 214, 0.99896
11, 215, 0.672765
11, 216, 0.277744
11, 217, -1
11, 218, -0.133308
11, 219, -1
11, 220, 0.888882
11, 221, 0.635253
11, 222, 0.378493
11, 223, -0.154576
11, 224, 0.154908
11, 225, -1
11, 226, -0.65843
11, 227, -1
11, 228, -1
11, 229, -1
11, 230, 0.177096
11, 231, 0.0755978
11, 232, 0.0853116
11, 233, -1
11, 234, -1
11, 235, 0.473062
11, 236, -0.313021
11, 237, 0.185904
11, 238, -0.416772
11, 239, -0.95292
11, 240, 0.417881
11, 241, -1
11, 242, 0.0595845
11, 243, 0.861744
11, 244, -0.620191
11, 245, -1
11, 246, 0.0745699
11, 247, 0.689186
11, 248, -1
11, 249, 0.191391
11, 250, 0.429311
11, 251, -0.954939
11, 252, -0.180598
11, 253, -0.0194949
11, 254, -0.693284
11, 255, -1
11, 256, -1
11, 257, -1
11, 258, -1
11, 259, -0.207415
11, 260, 0.862803
11, 261, 0.259355
11, 262, -1
11, 263, 0.559823
11, 264, 0.081421
11, 265, -1
11, 266, 0.537136
11, 267, 0.883078
11, 268, 0.0722436
11, 269, -1
11, 270, 0.993647
11, 271, -0.803051
11, 272, -1
11, 273, -1
11, 274, -1
11, 275, -0.963474
11, 276, -1
11, 277, -0.357746
11, 278, -1
11, 279, -1
11, 280, 0.736229
11, 281, 0.338495
11, 282, -1
11, 283, -1
11, 284, -1
11, 285, 0.418444
11, 286, -1
11, 287, -1
11, 288, -0.749369
11, 289, -0.0993523
11, 290, -0.0289566
11, 291, -1
11, 292, 0.75218
11, 293, 0.0817067
11, 294, -1
11, 295, -0.612959
11, 296, -0.999627
11, 297, 0.0694701
11, 298, -1
11, 299, -0.306714
11, 300, 0.0698007
11, 301, -1
11, 302, -0.312514
11, 303, -1
11, 304, -1
11, 305, 0.0698052
11, 306, 0.314229
11, 307, -0.989934
11, 308, 0.854913
11, 309, -1
11, 310, -1
11, 311, -0.0580357
11, 312, 0.701944
11, 313, -1
11, 314, 0.93582
11, 315, 0.429625
11, 316, 0.221001
11, 317, 0.308028
11, 318, 0.923397
11, 319, 0.762579
11, 320, 0.440264
11, 321, -0.021651
11, 322, -0.946427
11, 323, -0.0101781
11, 324, 0.475397
11, 325, -1
11, 326, -0.14014
11, 327, -0.129328
11, 328, -0.435009
11, 329, -1
11, 330, -0.94254
11, 331, 0.554482
11, 332, 0.862671
11, 333, 0.35908
11, 334, -1
11, 335, -0.189267
11, 336, -1
11, 337, -1
11, 338, 0.880331
11, 339, 0.999282
11, 340, 0.310381
11, 341, -0.773647
11, 342, 0.416554
11, 343, 0.484345
11, 344, -0.904336
11, 345, -1
11, 346, -1
11, 347, -1
11, 348, 0.822933
11, 349, -1
11, 350, -0.14223
11, 351, 0.218105
11, 352, -1
11, 353, -1
11, 354, -0.321287
11, 355, 0.252828
11, 356, -1
11, 357, 0.411363
11, 358, -1
11, 359, -0.36163
11, 360, 0.442911
11, 361, -0.918239
11, 362, 0.366528
11, 363, -0.0260303
11, 364, -0.0829374
11, 365, -0.547595
11, 366, 0.636708
11, 367, 0.369282
11, 368, 0.92333
11, 369, -1
11, 370, 0.172458
11, 371, -1
11, 372, -0.156787
11, 373, 0.54412
11, 374, 0.0690747
11, 375, 0.736493
11, 376, 0.0698517
11, 377, 0.403185
11, 378, -1
11, 379, -1
11, 380, -0.542049
11, 381, -0.318529
11, 382, 0.990819
11, 383, 0.059664
11, 384, -0.0171984
11, 385, -0.985109
11, 386, -0.603746
11, 387, -1
11, 388, 0.76672
11, 389, 0.261874
11, 390, -1
11, 391, -1
11, 392, 0.507515
11, 393, -1
11, 394, -1
11, 395, -1
11, 396, 0.109499
11, 397, -1
11, 398, 0.530544
11, 399, -1
12, 0, -0.0725438
12, 1, -1
12, 2, -1
12, 3, -1
12, 4, 0.354322
12, 5, 0.958741
12, 6, 0.74066
12, 7, -0.132828
12, 8, -0.717561
12, 9, -1
12, 10, -0.212069
12, 11, 0.279969
12, 12, -0.999547
12, 13, -1
12, 14, -1
12, 15, -0.0616502
12, 16, -0.0106893
12, 17, 0.883093
12, 18, 0.521355
12, 19, 0.607056
12, 20, 0.216705
12, 21, -1
12, 22, 0.691804
12, 23, -0.78267
12, 24, -1
12, 25, -1
12, 26, 0.0693663
12, 27, -0.655701
12, 28, -0.186318
12, 29, 0.263146
12, 30, -0.73341
12, 31, -1
12, 32, -0.209752
12, 33, -0.770768
12, 34, -1
12, 35, -1
12, 36, -1
12, 37, 0.115762
12, 38, -1
12, 39, 0.0940557
12, 40, -1
12, 41, -0.110096
12, 42, -1
12, 43, 0.40769
12, 44, -0.636913
12, 45, -1
12, 46, -1
12, 47, -0.110015
12, 48, -1
12, 49, 0.781436
12, 50, -0.262154
12, 51, -0.841388
12, 52, 0.424934
12, 53, 0.197526
12, 54, 0.213041
12, 55, 0.540971
12, 56, -1
12, 57, -0.823128
12, 58, 0.998935
12, 59, -1
12, 60, -0.682553
12, 61, -1
12, 62, -1
12, 63, 0.420257
12, 64, -0.337772
12, 65, -0.113813
12, 66, 0.280223
12, 67, 0.4322
12, 68, 0.0691448
12, 69, -0.999354
12, 70, -0.693003
12, 71, 0.793263
12, 72, -0.882488
12, 73, 0.0601193
12, 74, -1
12, 75, 0.686224
12, 76, 0.185476
12, 77, -1
12, 78, -1
12, 79, -1
12, 80, 0.902896
12, 81, -0.663766
12, 82, -0.159679
12, 83, -0.170175
12, 84, -1
12, 85, -0.980245
12, 86, -1
12, 87, -1
12, 88, -1
12, 89, -1
12, 90, -1
12, 91, -0.0295446
12, 92, -0.200776
12, 93, -1
12, 94, -1
12, 95, -1
12, 96, -1
12, 97, 0.274191
12, 98, 0.160932
12, 99, 0.372357
12, 100, 0.78806
12, 101, 0.0915854
12, 102, -0.357751
12, 103, 0.930048
12, 104, -0.118628
12, 105, -0.21106
12, 106, -0.00215875
12, 107, 0.0287705
12, 108, -0.702874
12, 109, 0.0354319
12, 110, 0.3682
12, 111, -1
12, 112, 0.713343
12, 113, -0.915048
12, 114, 0.0606269
12, 115, 0.482344
12, 116, -0.160167
12, 117, -0.623595
12, 118, -1
12, 119, -1
12, 120, -1
12, 121, 0.840739
12, 122, -0.945505
12, 123, -0.796529
12, 124, -1
12, 125, -1
12, 126, -1
12, 127, -1
12, 128, 0.878202
12, 129, 0.522732
12, 130, -0.35542
12, 131, 0.0888191
12, 132, -1
12, 133, 0.670161
12, 134, -0.98876
12, 135, 0.574817
12, 136, -1
12, 137, 0.389936
12, 138, -1
12, 139, 0.0927662
12, 140, -1
12, 141, 0.334083
12, 142, 0.799704
12, 143, -0.879173
12, 144, -0.768375
12, 145, 0.852748
12, 146, 0.680242
12, 147, -0.482681
12, 148, 0.0516324
12, 149, -0.861576
12, 150, 0.677021
12, 151, 0.314446
12, 152, -1
12, 153, -1
12, 154, -1
12, 155, -1
12, 156, -1
12, 157, -1
12, 158, 0.229963
12, 159, 0.0351044
12, 160, 0.252155
12, 161, -0.608095
12, 162, -1
12, 163, -0.326861
12, 164, -0.841393
12, 165, -0.947296
12, 166, -1
12, 167, 0.566924
12, 168, 0.259733
12, 169, 0.0694513
12, 170, -1
12, 171, 0.0743357
12, 172, -1
12, 173, 0.139923
12, 174, -0.432935
12, 175, 0.376652
12, 176, -0.597868
12, 177, -1
12, 178, -0.918549
12, 179, -1
12, 180, 0.753868
12, 181, -1
12, 182, 0.966082
12, 183, 0.395371
12, 184, -1
12, 185, 0.999341
12, 186, -1
12, 187, 0.165407
12, 188, 0.321573
12, 189, 0.115293
12, 190, -0.143937
12, 191, 0.217475
12, 192, 0.392916
12, 193, 0.104368
12, 194, -1
12, 195, -1
12, 196, 0.343627
12, 197, -1
12, 198, 0.499461
12, 199, -0.672538
12, 200, 0.127601
12, 201, 0.221508
12, 202, -1
12, 203, 0.207598
12, 204, 0.280622
12, 205, 0.0780487
12, 206, -1
12, 207, -1
12, 208, 0.134851
12, 209, -0.63407
12, 210, -1
12, 211, -0.171283
12, 212, -0.444088
12, 213, -1
12, 214, -1
12, 215, -0.750167
12, 216, 0.943155
12, 217, -1
12, 218, -0.667652
12, 219, 0.710594
12, 220, -0.194176
12, 221, 0.914993
12, 222, -1
12, 223, -0.0655844
12, 224, 0.00856222
12, 225, -0.680954
12, 226, 0.128743
12, 227, -1
12, 228, -0.94078
12, 229, -1
12, 230, -1
12, 231, 0.449736
12, 232, -0.828946
12, 233, -1
12, 234, -1
12, 235, -0.999442
12, 236, -1
12, 237, 0.672216
12, 238, -4.42823e-05
12, 239, 0.795401
12, 240, 0.218185
12, 241, -0.0154692
12, 242, -1
12, 243, -1
12, 244, -1
12, 245, -1
12, 246, 0.66194
12, 247, 0.0650937
12, 248, -1
12, 249, 0.6938
12, 250, -1
12, 251, -0.270277
12, 252, -0.381243
12, 253, 0.672544
12, 254, 0.636161
12, 255, -1
12, 256, 0.596714
12, 257, -0.874367
12, 258, -1
12, 259, -1
12, 260, -1
12, 261, 0.150458
12, 262, 0.0692819
12, 263, 0.0987719
12, 264, 0.755038
12, 265, -0.00476925
12, 266, -1
12, 267, 0.201521
12, 268, -0.922137
12, 269, -1
12, 270, 0.0130664
12, 271, -1
12, 272, 0.812321
12, 273, 0.184327
12, 274, -1
12, 275, -1
12, 276, -0.296501
12, 277, -1
12, 278, 0.682847
12, 279, 0.521138
12, 280, 0.82273
12, 281, -1
12, 282, 0.274828
12, 283, -1
12, 284, 0.215475
12, 285, 0.532578
12, 286, -0.756455
12, 287, -0.579472
12, 288, -0.940761
12, 289, -1
12, 290, -1
12, 291, 0.962106
12, 292, 0.857501
12, 293, -0.148325
12, 294, -0.124507
12, 295, -0.479799
12, 296, -1
12, 297, -0.1175
12, 298, -0.799493
12, 299, -0.766486
12, 300, 0.697805
12, 301, 0.0697382
12, 302, -1
12, 303, 0.749812
12, 304, -0.147888
12, 305, 0.633376
12, 306, -1
12, 307, -0.28315
12, 308, -0.137496
12, 309, -0.252504
12, 310, 0.53467
12, 311, -0.212619
12, 312, 0.0996113
12, 313, 0.143202
12, 314, 0.840486
12, 315, 0.490823
12, 316, -0.276156
12, 317, 0.62544
12, 318, -1
12, 319, 0.900087
12, 320, 0.0694658
12, 321, -0.169468
12, 322, -0.466113
12, 323, -0.0429023
12, 324, 0.184097
12, 325, -1
12, 326, -1
12, 327, 0.533096
12, 328, -0.897302
12, 329, -1
12, 330, 0.528725
12, 331, -0.913005
12, 332, 0.0894321
12, 333, -1
12, 334, 0.06983
12, 335, -1
12, 336, 0.602295
12, 337, -1
12, 338, 0.605475
12, 339, -0.00661451
12, 340, -1
12, 341, -0.949562
12, 342, 0.472437
12, 343, -1
12, 344, 0.312579
12, 345, -0.230304
12, 346, 0.956443
12, 347, 0.795007
12, 348, -1
12, 349, 0.768092
12, 350, -1
12, 351, -0.184554
12, 352, -0.427507
12, 353, -1
12, 354, 0.828259
12, 355, -0.687444
12, 356, -1
12, 357, 0.725158
12, 358, 0.555907
12, 359, 0.590158
12, 360, 0.813039
12, 361, 0.19752
12, 362, -1
12, 363, -1
12, 364, 0.451949
12, 365, 0.625616
12, 366, -1
12, 367, -1
12, 368, -0.0143661
12, 369, -0.0888961
12, 370, -0.119962
12, 371, -0.652028
12, 372, 0.144205
12, 373, -0.648029
12, 374, 0.358722
12, 375, -1
12, 376, 0.0098383
12, 377, -0.638511
12, 378, 0.402712
12, 379, -0.48664
12, 380, 0.625108
12, 381, -1
12, 382, -1
12, 383, -1
12, 384, 0.0160175
12, 385, -1
12, 386, 0.26224
12, 387, -0.253548
12, 388, 0.133035
12, 389, -1
12, 390, -1
12, 391, -1
12, 392, 0.715355
12, 393, -1
12, 394, -0.956811
12, 395, -1
12, 396, 0.148496
12, 397, -0.336815
12, 398, -1
12, 399, -1
13, 0, 0.40266
13, 1, 0.544825
13, 2, -0.17067
13, 3, -0.698911
13, 4, 0.735748
13, 5, -1
13, 6, -0.555059
13, 7, 0.618013
13, 8, -1
13, 9, -0.256692
13, 10, 0.0081007
13, 11, 0.0612436
13, 12, -0.783876
13, 13, 0.195167
13, 14, 0.645525
13, 15, 0.558226
13, 16, -0.0477298
13, 17, -1
13, 18, -0.871842
13, 19, -1
13, 20, -1
13, 21, -1
13, 22, -1
13, 23, 0.155763
13, 24, 0.061166
13, 25, 0.688639
13, 26, 0.373142
13, 27, -1
13, 28, 0.687148
13, 29, -0.135602
13, 30, -1
13, 31, 0.850818
13, 32, -1
13, 33, 0.0265119
13, 34, 0.0692289
13, 35, -1
13, 36, -1
13, 37, 0.807052
13, 38, 0.108776
13, 39, -1
13, 40, 0.616379
13, 41, 0.99812
13, 42, -0.169488
13, 43, -1
13, 44, -0.399134
13, 45, -0.918978
13, 46, 0.667997
13, 47, -0.90177
13, 48, 0.182728
13, 49, 0.686593
13, 50, -1
13, 51, -1
13, 52, -1
13, 53, -0.137054
13, 54, -1
13, 55, 0.0515738
13, 56, 0.957995
13, 57, 0.377451
13, 58, 0.0621663
13, 59, -0.3068
13, 60, -0.867653
13, 61, -0.992729
13, 62, -1
13, 63, -1
13, 64, -0.629769
13, 65, -0.378509
13, 66, -1
13, 67, 0.0684647
13, 68, -0.999586
13, 69, -1
13, 70, -0.890682
13, 71, -1
13, 72, -1
13, 73, 0.711446
13, 74, -1
13, 75, -0.530401
13, 76, 0.60329
13, 77, -0.0312346
13, 78, -0.475717
13, 79, -1
13, 80, -0.210197
13, 81, -1
13, 82, -0.974928
13, 83, -0.098661
13, 84, -0.106534
13, 85, -1
13, 86, -1
13, 87, -0.785473
13, 88, -1
13, 89, -0.872182
13, 90, -0.0839166
13, 91, -1
13, 92, -0.0227756
13, 93, -0.19491
13, 94, -1
13, 95, 0.476405
13, 96, 0.798057
13, 97, -1
13, 98, -0.133563
13, 99, 0.999195
13, 100, -0.813309
13, 101, 0.00984057
13, 102, 0.402801
13, 103, -1
13, 104, 0.0481069
13, 105, 0.356654
13, 106, 0.440409
13, 107, -1
13, 108, -0.932114
13, 109, 0.290096
13, 110, -1
13, 111, 0.938721
13, 112, 0.742597
13, 113, -1
13, 114, -1
13, 115, -1
13, 116, 0.398226
13, 117, -1
13, 118, -0.732056
13, 119, -0.184321
13, 120, -1
13, 121, 0.819092
13, 122, -0.168955
13, 123, 0.339505
13, 124, -0.839169
13, 125, -0.110709
13, 126, 0.752898
13, 127, -1
13, 128, -0.104298
13, 129, -0.0213449
13, 130, 0.399668
13, 131, -0.110071
13, 132, 0.915814
13, 133, -0.448608
13, 134, 0.326519
13, 135, -1
13, 136, -1
13, 137, -0.992187
13, 138, -1
13, 139, 0.032939
13, 140, 0.216614
13, 141, -1
13, 142, -0.659498
13, 143, -0.645064
13, 144, -1
13, 145, 0.469436
13, 146, 0.46503
13, 147, -0.0227978
13, 148, -0.168381
13, 149, 0.948832
13, 150, -1
13, 151, 0.0312335
13, 152, -0.503114
13, 153, 0.956401
13, 154, -0.0491466
13, 155, 0.434831
13, 156, -1
13, 157, -1
13, 158, 0.584233
13, 159, 0.0327895
13, 160, 0.898677
13, 161, 0.03437
13, 162, -1
13, 163, 0.458465
13, 164, -1
13, 165, -1
13, 166, -0.12716
13, 167, -0.29347
13, 168, -1
13, 169, 0.0477211
13, 170, -0.0429575
13, 171, 0.64308
13, 172, -0.372937
13, 173, 0.515411
13, 174, -1
13, 175, 0.394459
13, 176, 0.722868
13, 177, -0.202005
13, 178, -0.000917591
13, 179, -0.681352
13, 180, -1
13, 181, 0.998583
13, 182, 0.466845
13, 183, 0.122711
13, 184, -0.792804
13, 185, -1
13, 186, -0.202543
13, 187, -1
13, 188, -0.5426
13, 189, -1
13, 190, -0.782668
13, 191, -0.185571
13, 192, -1
13, 193, 0.383805
13, 194, -0.89246
13, 195, 0.0721924
13, 196, 0.650178
13, 197, -1
13, 198, 0.948748
13, 199, -0.410947
13, 200, 0.00250386
13, 201, -0.994343
13, 202, -0.284495
13, 203, -1
13, 204, 0.0767674
13, 205, -0.207189
13, 206, -0.235742
13, 207, 0.398666
13, 208, 0.0660428
13, 209, -1
13, 210, -0.00724786
13, 211, 0.158667
13, 212, -0.0538918
13, 213, 0.689785
13, 214, -1
13, 215, -1
13, 216, -0.766591
13, 217, 0.371509
13, 218, 0.397892
13, 219, -1
13, 220, 0.27932
13, 221, 0.173613
13, 222, -0.0176823
13, 223, -1
13, 224, 0.558489
13, 225, -0.761716
13, 226, -0.106755
13, 227, -0.956878
13, 228, 0.147413
13, 229, -0.0253635
13, 230, -1
13, 231, -1
13, 232, 0.283083
13, 233, -0.592592
13, 234, -1
13, 235, -1
13, 236, 0.272641
13, 237, -0.307008
13, 238, 0.353071
13, 239, -1
13, 240, 0.354618
13, 241, -1
13, 242, -0.387356
13, 243, -1
13, 244, -1
13, 245, -0.954876
13, 246, -0.526685
13, 247, 0.364118
13, 248, -1
13, 249, 0.385351
13, 250, -0.00190584
13, 251, 0.753106
13, 252, -1
13, 253, -0.580153
13, 254, 0.0816798
13, 255, -0.0316449
13, 256, -0.774574
13, 257, 0.485011
13, 258, -1
13, 259, 0.652619
13, 260, -0.989249
13, 261, -1
13, 262, -1
13, 263, 0.602987
13, 264, 0.813338
13, 265, 0.702548
13, 266, -1
13, 267, 0.936026
13, 268, -1
13, 269, -0.835389
13, 270, -1
13, 271, -1
13, 272, -0.879913
13, 273, -0.281001
13, 274, 0.213638
13, 275, -0.135218
13, 276, -1
13, 277, 0.266684
13, 278, -0.908108
13, 279, -0.204256
13, 280, 0.999509
13, 281, 0.0924401
13, 282, -1
13, 283, 0.499785
13, 284, 0.999515
13, 285, -0.296447
13, 286, -1
13, 287, -0.97586
13, 288, -0.460006
13, 289, -1
13, 290, -0.982049
13, 291, -1
13, 292, -0.699737
13, 293, -0.284887
13, 294, -1
13, 295, 0.177586
13, 296, 0.798299
13, 297, -0.974099
13, 298, -0.535333
13, 299, 0.634074
13, 300, 0.543501
13, 301, -1
13, 302, 0.157827
13, 303, -1
13, 304, -0.720546
13, 305, -1
13, 306, -1
13, 307, -0.0380018
13, 308, -1
13, 309, -0.407318
13, 310, 0.905632
13, 311, -1
13, 312, -0.726836
13, 313, -1
13, 314, -0.565187
13, 315, -1
13, 316, 0.475826
13, 317, 0.433788
13, 318, -0.397873
13, 319, -0.0484553
13, 320, -1
13, 321, -0.333686
13, 322, -1
13, 323, -1
13, 324, -0.643561
13, 325, -0.45961
13, 326, -0.162798
13, 327, -0.992296
13, 328, -0.357405
13, 329, -1
13, 330, -0.999549
13, 331, 0.597265
13, 332, -1
13, 333, 0.455352
13, 334, -1
13, 335, -0.149489
13, 336, -0.498998
13, 337, -1
13, 338, -1
13, 339, -1
13, 340, -0.0411592
13, 341, 0.382161
13, 342, -1
13, 343, -1
13, 344, -1
13, 345, 0.223799
13, 346, -1
13, 347, 0.00809698
13, 348, -1
13, 349, -0.612432
13, 350, -1
13, 351, -1
13, 352, 0.0656269
13, 353, -0.120023
13, 354, -1
13, 355, -0.936696
13, 356, 0.509603
13, 357, 0.519882
13, 358, 0.654177
13, 359, -1
13, 360, 0.424156
13, 361, 0.295051
13, 362, -1
13, 363, 0.524843
13, 364, -1
13, 365, 0.34013
13, 366, -1
13, 367, -0.999593
13, 368, -1
13, 369, -1
13, 370, -0.0339743
13, 371, 0.646232
13, 372, -1
13, 373, -1
13, 374, 0.788296
13, 375, 0.248634
13, 376, -0.126983
13, 377, 0.543437
13, 378, -1
13, 379, 0.53594
13, 380, -1
13, 381, -1
13, 382, 0.203455
13, 383, -0.996538
13, 384, -0.295045
13, 385, 0.0853394
13, 386, -1
13, 387, -1
13, 388, -1
13, 389, 0.643567
13, 390, -0.667666
13, 391, 0.971759
13, 392, -1
13, 393, 0.277008
13, 394, -0.138246
13, 395, -0.380467
13, 396, 0.856015
13, 397, -0.557498
13, 398, 0.814263
13, 399, 0.838101
14, 0, -0.578805
14, 1, -1
14, 2, 0.467065
14, 3, -1
14, 4, -1
14, 5, -0.261429
14, 6, -0.760613
14, 7, 0.343012
14, 8, -1
14, 9, 0.312501
14, 10, -1
14, 11, -0.197228
14, 12, 0.0802938
14, 13, 0.53699
14, 14, -1
14, 15, 0.59649
14, 16, -1
14, 17, -0.900593
14, 18, 0.816926
14, 19, -1
14, 20, 0.84027
14, 21, 0.0691391
14, 22, 0.677293
14, 23, -1
14, 24, -1
14, 25, -0.417883
14, 26, 0.189177
14, 27, -1
14, 28, 0.625633
14, 29, -1
14, 30, -0.0310401
14, 31, -1
14, 32, 0.281521
14, 33, -0.99957
14, 34, -1
14, 35, 0.413468
14, 36, 0.116472
14, 37, 0.427879
14, 38, 0.407544
14, 39, 0.751949
14, 40, -1
14, 41, 0.496695
14, 42, -1
14, 43, 0.0375869
14, 44, -1
14, 45, 0.547294
14, 46, -0.191412
14, 47, -0.357709
14, 48, -1
14, 49, -1
14, 50, -0.28921
14, 51, 0.720338
14, 52, -1
14, 53, -0.290536
14, 54, -1
14, 55, -0.0957236
14, 56, 0.386781
14, 57, -0.534032
14, 58, -0.756582
14, 59, -1
14, 60, 0.215899
14, 61, -1
14, 62, -1
14, 63, -1
14, 64, -0.999496
14, 65, -1
14, 66, 0.544979
14, 67, 0.438483
14, 68, -0.0053391
14, 69, 0.0311135
14, 70, 0.106478
14, 71, -0.455937
14, 72, 0.407096
14, 73, 0.155838
14, 74, -1
14, 75, -1
14, 76, -0.868173
14, 77, -0.945266
14, 78, -1
14, 79, -0.044155
14, 80, -0.357838
14, 81, -0.286642
14, 82, -0.170074
14, 83, 0.128847
14, 84, 0.547247
14, 85, -1
14, 86, -1
14, 87, -1
14, 88, 0.230091
14, 89, -0.934096
14, 90, -1
14, 91, -1
14, 92, -0.8022
14, 93, -1
14, 94, -1
14, 95, -0.213737
14, 96, -1
14, 97, 0.402793
14, 98, -1
14, 99, -0.358104
14, 100, -0.999597
14, 101, 0.290093
14, 102, 0.732032
14, 103, 0.735944
14, 104, -1
14, 105, -1
14, 106, 0.477045
14, 107, -0.914381
14, 108, -1
14, 109, 0.740523
14, 110, -0.309583
14, 111, 0.00432458
14, 112, -0.979864
14, 113, 0.0595796
14, 114, -1
14, 115, 0.735554
14, 116, 0.862909
14, 117, -1
14, 118, 0.478733
14, 119, -0.184754
14, 120, 0.131479
14, 121, -1
14, 122, -0.182862
14, 123, -1
14, 124, -1
14, 125, -0.691378
14, 126, 0.153414
14, 127, 0.634923
14, 128, -1
14, 129, -0.979818
14, 130, -1
14, 131, -1
14, 132, -1
14, 133, -0.736308
14, 134, -0.0453239
14, 135, -1
14, 136, -1
14, 137, -0.621052
14, 138, -1
14, 139, 0.058224
14, 140, -1
14, 141, -0.277701
14, 142, -1
14, 143, -1
14, 144, -1
14, 145, -1
14, 146, -1
14, 147, -1
14, 148, -1
14, 149, 0.410397
14, 150, -0.613792
14, 151, -0.37543
14, 152, -0.833485
14, 153, 0.216386
14, 154, -0.923634
14, 155, -0.234825
14, 156, 0.11947
14, 157, 0.0926526
14, 158, -1
14, 159, 0.0629516
14, 160, 0.711457
14, 161, -0.390973
14, 162, 0.276794
14, 163, 0.479317
14, 164, 0.380112
14, 165, -0.871992
14, 166, 0.576952
14, 167, 0.495496
14, 168, 0.104507
14, 169, -0.110732
14, 170, -1
14, 171, 0.703333
14, 172, -1
14, 173, 0.82049
14, 174, -1
14, 175, 0.481891
14, 176, 0.409265
14, 177, -1
14, 178, -1
14, 179, 0.47712
14, 180, -0.487128
14, 181, -1
14, 182, -1
14, 183, 0.597418
14, 184, -0.170398
14, 185, -0.860125
14, 186, -1
14, 187, -1
14, 188, 0.279248
14, 189, -1
14, 190, 0.751849
14, 191, 0.129994
14, 192, -0.700465
14, 193, -1
14, 194, -0.960542
14, 195, 0.787716
14, 196, 0.0974614
14, 197, 0.579023
14, 198, -0.357669
14, 199, -1
14, 200, -0.358317
14, 201, 0.111181
14, 202, -1
14, 203, -0.245361
14, 204, -0.336298
14, 205, 0.769499
14, 206, -1
14, 207, 0.651258
14, 208, 0.459252
14, 209, 0.747788
14, 210, -0.113017
14, 211, -1
14, 212, -1
14, 213, 0.286749
14, 214, 0.745302
14, 215, -0.593902
14, 216, 0.637519
14, 217, -0.105826
14, 218, -0.0475264
14, 219, -1
14, 220, -0.0646349
14, 221, -1
14, 222, -1
14, 223, -1
14, 224, -0.999503
14, 225, -1
14, 226, 0.648252
14, 227, -0.000351859
14, 228, 0.642826
14, 229, -0.198052
14, 230, 0.475273
14, 231, -0.992623
14, 232, 0.417926
14, 233, 0.438273
14, 234, 0.00918273
14, 235, 0.680454
14, 236, -0.990798
14, 237, 0.276433
14, 238, 0.448662
14, 239, 0.730138
14, 240, -0.0143394
14, 241, -1
14, 242, 0.999558
14, 243, -1
14, 244, 0.0132053
14, 245, 0.40285
14, 246, -0.357938
14, 247, -1
14, 248, -1
14, 249, -1
14, 250, -0.919685
14, 251, -0.200881
14, 252, 0.441039
14, 253, -0.684024
14, 254, -0.204992
14, 255, -1
14, 256, -1
14, 257, -1
14, 258, 0.624855
14, 259, -1
14, 260, -0.035351
14, 261, -1
14, 262, 0.148619
14, 263, -1
14, 264, -1
14, 265, 0.950937
14, 266, -1
14, 267, -0.927265
14, 268, -0.00279389
14, 269, 0.122714
14, 270, 0.555826
14, 271, 0.899659
14, 272, 0.448586
14, 273, 0.342939
14, 274, -1
14, 275, -1
14, 276, -1
14, 277, -0.435457
14, 278, -1
14, 279, -1
14, 280, -0.700199
14, 281, 0.292604
14, 282, 0.479853
14, 283, -1
14, 284, 0.296238
14, 285, -1
14, 286, -0.796309
14, 287, -1
14, 288, -0.80067
14, 289, 0.783861
14, 290, 0.219972
14, 291, 0.447133
14, 292, -1
14, 293, 0.800724
14, 294, -1
14, 295, 0.838948
14, 296, 0.815451
14, 297, 0.702154
14, 298, 0.969757
14, 299, -1
14, 300, -1
14, 301, 0.284336
14, 302, 0.999711
14, 303, 0.120545
14, 304, -0.185658
14, 305, 0.894744
14, 306, -0.0805355
14, 307, -1
14, 308, -1
14, 309, 0.419215
14, 310, 0.125465
14, 311, 0.00318204
14, 312, -0.74034
14, 313, -1
14, 314, 0.452983
14, 315, -1
14, 316, -0.785619
14, 317, 0.549733
14, 318, -0.992128
14, 319, 0.73618
14, 320, 0.498887
14, 321, 0.0789166
14, 322, -0.517344
14, 323, 0.374542
14, 324, 0.151582
14, 325, 0.314557
14, 326, -0.756886
14, 327, -1
14, 328, -1
14, 329, -1
14, 330, -1
14, 331, -1
14, 332, -0.398588
14, 333, 0.339797
14, 334, 0.681613
14, 335, 0.51903
14, 336, 0.443919
14, 337, -0.958105
14, 338, -1
14, 339, -1
14, 340, -1
14, 341, -0.159265
14, 342, 0.305645
14, 343, -1
14, 344, 0.396398
14, 345, -0.999439
14, 346, -0.981153
14, 347, -1
14, 348, -1
14, 349, -1
14, 350, 0.181971
14, 351, -0.0432237
14, 352, -1
14, 353, -1
14, 354, -1
14, 355, 0.0251249
14, 356, -0.420521
14, 357, -0.118463
14, 358, -0.256201
14, 359, 0.0209711
14, 360, -0.533032
14, 361, -0.657492
14, 362, 0.0162155
14, 363, -0.16884
14, 364, -0.0720432
14, 365, -1
14, 366, -0.875467
14, 367, -1
14, 368, -0.686877
14, 369, -0.243118
14, 370, -1
14, 371, -0.983742
14, 372, -1
14, 373, 0.131675
14, 374, -1
14, 375, -0.0808068
14, 376, 0.674761
14, 377, -0.447148
14, 378, -0.248448
14, 379, -1
14, 380, 0.119349
14, 381, 0.794367
14, 382, -0.597831
14, 383, 0.199363
14, 384, -1
14, 385, 0.337086
14, 386, 0.430755
14, 387, -1
14, 388, 0.926284
14, 389, -1
14, 390, 0.169664
14, 391, -1
14, 392, 0.179036
14, 393, -1
14, 394, 0.122237
14, 395, 0.599577
14, 396, -1
14, 397, -1
14, 398, -1
14, 399, -1
15, 0, -0.592183
15, 1, 0.497135
15, 2, 0.430155
15, 3, -1
15, 4, -0.312823
15, 5, 0.562756
15, 6, 0.0179467
15, 7, -1
15, 8, -1
15, 9, 0.99896
15, 10, -0.0230114
15, 11, 0.31499
15, 12, 0.780913
15, 13, 0.614959
15, 14, 0.794186
15, 15, 0.284964
15, 16, -1
15, 17, 0.257999
15, 18, 0.8611
15, 19, -1
15, 20, -1
15, 21, -1
15, 22, -1
15, 23, -0.0843693
15, 24, -0.982076
15, 25, -0.596678
15, 26, -0.197051
15, 27, -1
15, 28, -0.0729283
15, 29, 0.204988
15, 30, -0.0503738
15, 31, 0.0334574
15, 32, 0.162865
15, 33, 0.806267
15, 34, 0.890191
15, 35, 0.172433
15, 36, -0.793396
15, 37, -1
15, 38, -1
15, 39, -0.347212
15, 40, 0.601574
15, 41, -1
15, 42, -0.109768
15, 43, -0.796677
15, 44, 0.195682
15, 45, -1
15, 46, 0.966766
15, 47, 0.998156
15, 48, 0.761135
15, 49, 0.486186
15, 50, 0.824778
15, 51, 0.999067
15, 52, 0.788361
15, 53, 0.367778
15, 54, -0.241206
15, 55, 0.506006
15, 56, 0.469352
15, 57, -0.926262
15, 58, 0.509249
15, 59, 0.59149
15, 60, 0.160026
15, 61, -1
15, 62, 0.563782
15, 63, 0.998947
15, 64, 0.331722
15, 65, 0.535367
15, 66, 0.0799602
15, 67, 0.450317
15, 68, 0.595921
15, 69, 0.151258
15, 70, 0.998806
15, 71, 0.334345
15, 72, -1
15, 73, 0.955603
15, 74, 0.986366
15, 75, 0.753204
15, 76, 0.895539
15, 77, 0.166918
15, 78, -0.0681299
15, 79, -0.985595
15, 80, -1
15, 81, 0.999144
15, 82, 0.73244
15, 83, 0.126262
15, 84, -0.725518
15, 85, 0.319215
15, 86, -0.765005
15, 87, 0.669048
15, 88, -1
15, 89, 0.748227
15, 90, 0.887612
15, 91, 0.505497
15, 92, 0.362522
15, 93, 0.814832
15, 94, 0.577474
15, 95, -0.63507
15, 96, 0.469268
15, 97, 0.930485
15, 98, 0.506514
15, 99, -0.397753
15, 100, 0.999192
15, 101, -1
15, 102, 0.371563
15, 103, 0.871464
15, 104, 0.400125
15, 105, -0.943295
15, 106, 0.552876
15, 107, -0.608485
15, 108, 0.913951
15, 109, 0.61636
15, 110, 0.461997
15, 111, 0.992102
15, 112, 0.78021
15, 113, -0.893892
15, 114, -0.396679
15, 115, 0.72288
15, 116, 0.240276
15, 117, -1
15, 118, 0.260615
15, 119, 0.206638
15, 120, 0.483371
15, 121, -0.825753
15, 122, -0.826457
15, 123, 0.0652042
15, 124, 0.692639
15, 125, -0.765884
15, 126, 0.810243
15, 127, 0.305457
15, 128, 0.926009
15, 129, 0.21321
15, 130, -0.142968
15, 131, 0.0820525
15, 132, 0.99921
15, 133, 0.954956
15, 134, -0.273906
15, 135, 0.0801769
15, 136, 0.923303
15, 137, 0.16967
15, 138, -0.88219
15, 139, 0.461628
15, 140, -0.84047
15, 141, 0.832679
15, 142, -0.0362522
15, 143, 0.667919
15, 144, 0.836476
15, 145, -0.646111
15, 146, -0.27476
15, 147, 0.462388
15, 148, -0.53602
15, 149, 0.930841
15, 150, -0.796755
15, 151, 0.999322
15, 152, 0.932289
15, 153, -0.0518703
15, 154, 0.764308
15, 155, 0.999333
15, 156, -0.520468
15, 157, -0.441216
15, 158, 0.936073
15, 159, -1
15, 160, -0.673528
15, 161, -1
15, 162, -0.574866
15, 163, 0.0823061
15, 164, 0.824182
15, 165, 0.493591
15, 166, 0.22661
15, 167, 0.73471
15, 168, 0.994811
15, 169, 0.871756
15, 170, 0.422093
15, 171, -0.204369
15, 172, 0.31856
15, 173, 0.0825512
15, 174, 0.960457
15, 175, 0.136547
15, 176, 0.998685
15, 177, -0.635958
15, 178, -0.927713
15, 179, 0.250925
15, 180, -1
15, 181, 0.379554
15, 182, 0.112974
15, 183, 0.986724
15, 184, 0.0973305
15, 185, -0.925017
15, 186, 0.0769741
15, 187, 0.754036
15, 188, -0.261131
15, 189, 0.222165
15, 190, 0.102413
15, 191, 0.781258
15, 192, -0.328015
15, 193, 0.768526
15, 194, 0.954323
15, 195, 0.931921
15, 196, -0.873069
15, 197, -1
15, 198, 0.197759
15, 199, 0.658884
15, 200, 0.830772
15, 201, 0.600814
15, 202, 0.132324
15, 203, 0.766616
15, 204, -1
15, 205, 0.566326
15, 206, 0.167453
15, 207, 0.984499
15, 208, 0.786231
15, 209, 0.996617
15, 210, 0.598552
15, 211, 0.419093
15, 212, 0.914138
15, 213, 0.899645
15, 214, -1
15, 215, -1
15, 216, 0.99906
15, 217, 0.124176
15, 218, 0.567246
15, 219, -1
15, 220, 0.230138
15, 221, 0.506028
15, 222, 0.241853
15, 223, 0.694263
15, 224, 0.333799
15, 225, -1
15, 226, 0.397655
15, 227, -1
15, 228, -0.891049
15, 229, 0.068149
15, 230, 0.899397
15, 231, 0.998867
15, 232, 0.999338
15, 233, 0.706613
15, 234, 0.51025
15, 235, -1
15, 236, 0.826433
15, 237, 0.680972
15, 238, 0.818525
15, 239, -1
15, 240, -1
15, 241, -0.789485
15, 242, -0.918579
15, 243, 0.66825
15, 244, 0.998985
15, 245, -0.929589
15, 246, 0.298472
15, 247, 0.421686
15, 248, 0.161928
15, 249, 0.491195
15, 250, -0.179289
15, 251, 0.977937
15, 252, 0.496718
15, 253, 0.999583
15, 254, 0.252953
15, 255, 0.644193
15, 256, 0.998527
15, 257, 0.581729
15, 258, 0.480013
15, 259, 0.86411
15, 260, -0.080085
15, 261, -0.970653
15, 262, 0.267013
15, 263, 0.00252507
15, 264, 0.122336
15, 265, 0.847163
15, 266, -1
15, 267, 0.658886
15, 268, 0.249929
15, 269, -0.406175
15, 270, 0.125219
15, 271, -0.112025
15, 272, -0.578089
15, 273, -0.325583
15, 274, 0.253383
15, 275, 0.0507451
15, 276, 0.0679176
15, 277, -1
15, 278, -0.115754
15, 279, 0.374843
15, 280, -1
15, 281, 0.340265
15, 282, -0.886466
15, 283, 0.136747
15, 284, -0.550548
15, 285, -0.155209
15, 286, -0.800628
15, 287, 0.461303
15, 288, -0.632009
15, 289, 0.699552
15, 290, -0.0162176
15, 291, -0.158411
15, 292, 0.99846
15, 293, -0.742934
15, 294, 0.518743
15, 295, 0.734
15, 296, -1
15, 297, -0.809922
15, 298, -0.0837844
15, 299, 0.489492
15, 300, 0.283479
15, 301, 0.554812
15, 302, 0.948276
15, 303, 0.887658
15, 304, 0.452574
15, 305, 0.481563
15, 306, 0.287076
15, 307, -0.0159898
15, 308, 0.655399
15, 309, 0.998122
15, 310, 0.853294
15, 311, 0.266303
15, 312, -0.771429
15, 313, -0.687024
15, 314, 0.888428
15, 315, -1
15, 316, -0.95512
15, 317, 0.999685
15, 318, -0.167451
15, 319, -1
15, 320, -1
15, 321, -1
15, 322, -0.102524
15, 323, -1
15, 324, -0.231177
15, 325, 0.13556
15, 326, 0.0531554
15, 327, 0.238283
15, 328, 0.968746
15, 329, 0.999778
15, 330, 0.952423
15, 331, -1
15, 332, -0.595547
15, 333, 0.0201816
15, 334, 0.492615
15, 335, -1
15, 336, 0.370858
15, 337, -1
15, 338, -1
15, 339, -0.880352
15, 340, -0.469792
15, 341, -0.0194835
15, 342, 0.991983
15, 343, 0.508552
15, 344, 0.589904
15, 345, 0.42372
15, 346, -0.951666
15, 347, 0.624365
15, 348, 0.104234
15, 349, -1
15, 350, 0.998958
15, 351, -1
15, 352, 0.303653
15, 353, 0.999839
15, 354, -1
15, 355, -0.175748
15, 356, 0.344371
15, 357, 0.14793
15, 358, 0.57868
15, 359, -0.357966
15, 360, 0.736276
15, 361, -1
15, 362, 0.541872
15, 363, -1
15, 364, -0.457778
15, 365, -0.0467163
15, 366, -0.587504
15, 367, -1
15, 368, 0.999744
15, 369, -0.0743776
15, 370, -1
15, 371, -0.783189
15, 372, 0.482406
15, 373, 0.0588756
15, 374, 0.435662
15, 375, -0.886196
15, 376, -1
15, 377, -0.0405997
15, 378, 0.000515226
15, 379, -1
15, 380, -0.179512
15, 381, -1
15, 382, -1
15, 383, 0.857954
15, 384, -1
15, 385, -0.262285
15, 386, -1
15, 387, 0.999926
15, 388, 0.242645
15, 389, 0.999909
15, 390, 0.82492
15, 391, -0.948875
15, 392, -0.139637
15, 393, -1
15, 394, -0.211248
15, 395, 0.588588
15, 396, 0.882956
15, 397, -1
15, 398, 0.141099
15, 399, 0.281593
16, 0, -1
16, 1, -1
16, 2, 0.402395
16, 3, 0.0863341
16, 4, 0.735172
16, 5, -1
16, 6, -0.358031
16, 7, 0.14993
16, 8, -0.186782
16, 9, -1
16, 10, -1
16, 11, 0.911224
16, 12, 0.823562
16, 13, -1
16, 14, -0.123495
16, 15, 0.214744
16, 16, -0.93574
16, 17, -0.189409
16, 18, -1
16, 19, 0.402629
16, 20, 0.783711
16, 21, 0.656048
16, 22, 0.402583
16, 23, -0.647519
16, 24, -0.0355825
16, 25, -1
16, 26, -1
16, 27, 0.0286348
16, 28, -1
16, 29, 0.575513
16, 30, -1
16, 31, -1
16, 32, 0.686865
16, 33, 0.129542
16, 34, 0.684783
16, 35, 0.0646677
16, 36, 0.361139
16, 37, -1
16, 38, -1
16, 39, 0.858179
16, 40, -1
16, 41, -0.132343
16, 42, 0.228084
16, 43, 0.0695683
16, 44, -0.443204
16, 45, -1
16, 46, -0.999362
16, 47, 0.535934
16, 48, -1
16, 49, -0.788993
16, 50, -0.728932
16, 51, -1
16, 52, -1
16, 53, -1
16, 54, 0.326196
16, 55, 0.568269
16, 56, -0.619115
16, 57, 0.822311
16, 58, -1
16, 59, 0.664725
16, 60, -1
16, 61, -1
16, 62, 0.322873
16, 63, -1
16, 64, 0.165215
16, 65, -1
16, 66, 0.256607
16, 67, -0.772433
16, 68, -0.362805
16, 69, 0.232411
16, 70, -1
16, 71, -0.995326
16, 72, 0.692302
16, 73, 0.245343
