
0, 0, 0.0150545
0, 1, 0.0695452
0, 2, 0.40268
0, 3, -0.263632
0, 4, -1
0, 5, -0.884127
0, 6, 0.735778
0, 7, -1
0, 8, 0.402689
0, 9, -0.884127
0, 10, -1
0, 11, -1
0, 12, 0.29238
0, 13, -1
0, 14, 0.293839
0, 15, -1
0, 16, 0.0173916
0, 17, -0.263625
0, 18, 0.402703
0, 19, 0.156355
0, 20, -1
0, 21, -0.884126
0, 22, -0.794467
0, 23, 0.161635
0, 24, 0.0215044
0, 25, -0.344586
0, 26, 0.211615
0, 27, 0.442442
0, 28, -0.13994
0, 29, -0.884126
0, 30, -0.899793
0, 31, -1
0, 32, 0.173998
0, 33, -1
0, 34, -0.529882
0, 35, 0.327738
0, 36, -1
0, 37, -1
0, 38, 0.40273
0, 39, 0.735844
0, 40, -1
0, 41, 0.449969
0, 42, -0.00559845
0, 43, 0.631196
0, 44, 0.447039
0, 45, -0.257574
0, 46, -0.971689
0, 47, -1
0, 48, 0.18155
0, 49, -0.263609
0, 50, 0.538726
0, 51, -0.18508
0, 52, -0.743176
0, 53, 0.280232
0, 54, -1
0, 55, -1
0, 56, -1
0, 57, 0.653407
0, 58, -0.224805
0, 59, -0.273532
0, 60, -1
0, 61, -1
0, 62, -1
0, 63, 0.503122
0, 64, 0.725738
0, 65, -0.785858
0, 66, -0.277344
0, 67, -1
0, 68, -1
0, 69, -1
0, 70, 0.187276
0, 71, -1
0, 72, 0.304924
0, 73, -1
0, 74, -1
0, 75, -0.755086
0, 76, -0.113736
0, 77, 0.381126
0, 78, -0.299491
0, 79, 0.351175
0, 80, -1
0, 81, 0.624792
0, 82, -1
0, 83, -0.250715
0, 84, 0.239249
0, 85, -0.909488
0, 86, -0.293035
0, 87, 0.0230817
0, 88, 0.468651
0, 89, -1
0, 90, 0.0702671
0, 91, -0.195013
0, 92, 0.00980132
0, 93, 0.0886824
0, 94, -1
0, 95, 0.0696286
0, 96, 0.743205
0, 97, -0.831007
0, 98, -0.884121
0, 99, -1
0, 100, -0.966426
0, 101, 0.735968
0, 102, -0.860026
0, 103, -1
0, 104, 0.534356
0, 105, -1
0, 106, -0.3259
0, 107, -0.698097
0, 108, 0.835907
0, 109, 0.175484
0, 110, -1
0, 111, 0.112385
0, 112, -0.283225
0, 113, -1
0, 114, -1
0, 115, -1
0, 116, -1
0, 117, -0.0510416
0, 118, -0.189263
0, 119, 0.877715
0, 120, -0.784802
0, 121, 0.808121
0, 122, -0.29503
0, 123, -1
0, 124, -0.263571
0, 125, 0.0569311
0, 126, -0.272306
0, 127, -0.926859
0, 128, -1
0, 129, -0.564449
0, 130, -1
0, 131, -1
0, 132, -0.471696
0, 133, -1
0, 134, -1
0, 135, -0.884118
0, 136, -1
0, 137, -1
0, 138, -0.202835
0, 139, 0.308546
0, 140, 0.849915
0, 141, -0.277277
0, 142, -0.547436
0, 143, -0.190522
0, 144, -0.27706
0, 145, -0.742892
0, 146, -0.13766
0, 147, 0.366674
0, 148, -0.118719
0, 149, 0.379899
0, 150, -1
0, 151, 0.309132
0, 152, 0.32989
0, 153, 0.258397
0, 154, -0.107142
0, 155, 0.887257
0, 156, -1
0, 157, 0.229588
0, 158, -1
0, 159, 0.672425
0, 160, -1
0, 161, -1
0, 162, 0.73609
0, 163, -0.884116
0, 164, -1
0, 165, 0.845058
0, 166, -0.401415
0, 167, -1
0, 168, 0.848925
0, 169, 0.612468
0, 170, -1
0, 171, 0.0557485
0, 172, -1
0, 173, 0.366273
0, 174, 0.299634
0, 175, 0.244584
0, 176, -1
0, 177, -1
0, 178, -1
0, 179, 0.138096
0, 180, -0.259717
0, 181, -0.263543
0, 182, -1
0, 183, 0.875453
0, 184, 0.530039
0, 185, -1
0, 186, 0.515737
0, 187, -1
0, 188, -0.77597
0, 189, 0.449469
0, 190, 0.744266
0, 191, -1
0, 192, 0.107462
0, 193, -0.583475
0, 194, -0.70717
0, 195, 0.13067
0, 196, -1
0, 197, -0.299632
0, 198, 0.37424
0, 199, 0.948756
0, 200, -0.474326
0, 201, -1
0, 202, -0.263533
0, 203, -1
0, 204, -1
0, 205, -0.85388
0, 206, 0.271347
0, 207, 0.298848
0, 208, -1
0, 209, -0.00842796
0, 210, -0.883001
0, 211, -0.308338
0, 212, 0.46642
0, 213, -1
0, 214, -0.0704253
0, 215, 0.469639
0, 216, 0.127456
0, 217, -1
0, 218, 0.00222419
0, 219, -0.884112
0, 220, 0.824854
0, 221, -1
0, 222, -0.635522
0, 223, -0.936732
0, 224, 0.250599
0, 225, -0.2512
0, 226, -1
0, 227, 0.235006
0, 228, 0.535652
0, 229, 0.258078
0, 230, -1
0, 231, -1
0, 232, 0.795194
0, 233, 0.71367
0, 234, -1
0, 235, -0.263516
0, 236, -0.391647
0, 237, 0.485509
0, 238, -0.936782
0, 239, 0.0558212
0, 240, -1
0, 241, -0.0415239
0, 242, 0.471999
0, 243, 0.695225
0, 244, 0.403016
0, 245, 0.736255
0, 246, -0.88411
0, 247, -1
0, 248, -1
0, 249, -0.693719
0, 250, -0.983452
0, 251, 0.174299
0, 252, 0.488455
0, 253, 0.146436
0, 254, -0.610413
0, 255, -1
0, 256, 0.54526
0, 257, -1
0, 258, 0.378228
0, 259, 0.380159
0, 260, -0.263504
0, 261, -1
0, 262, -0.284999
0, 263, 0.604136
0, 264, -0.207695
0, 265, 0.177572
0, 266, -0.580318
0, 267, -1
0, 268, -1
0, 269, -0.785647
0, 270, -1
0, 271, -1
0, 272, -0.130225
0, 273, -1
0, 274, 0.538169
0, 275, -1
0, 276, 0.736317
0, 277, -1
0, 278, -1
0, 279, -0.0865519
0, 280, 0.283416
0, 281, -0.188935
0, 282, -1
0, 283, -1
0, 284, 0.83112
0, 285, -1
0, 286, -1
0, 287, 0.630446
0, 288, 0.195205
0, 289, 0.313651
0, 290, -1
0, 291, 0.717185
0, 292, 0.318219
0, 293, 0.339947
0, 294, 0.403085
0, 295, -1
0, 296, -1
0, 297, -1
0, 298, 0.160294
0, 299, -0.801359
0, 300, -1
0, 301, -1
0, 302, -0.509573
0, 303, 0.297758
0, 304, 0.409718
0, 305, -1
0, 306, 0.0751927
0, 307, -0.00618057
0, 308, 0.638015
0, 309, -0.0600607
0, 310, -1
0, 311, -0.859692
0, 312, 0.837808
0, 313, -1
0, 314, -0.558565
0, 315, -0.264077
0, 316, -0.97099
0, 317, -0.727995
0, 318, 0.519058
0, 319, -0.328377
0, 320, -1
0, 321, -1
0, 322, -0.909939
0, 323, -0.122076
0, 324, 0.464532
0, 325, -1
0, 326, -0.921162
0, 327, 0.999811
0, 328, 0.579414
0, 329, -0.963831
0, 330, -1
0, 331, 0.361601
0, 332, 0.631993
0, 333, -1
0, 334, -0.897075
0, 335, -0.188429
0, 336, -0.801152
0, 337, 0.576446
0, 338, -1
0, 339, 0.409611
0, 340, -0.65245
0, 341, -1
0, 342, 0.584048
0, 343, 0.756103
0, 344, -1
0, 345, -0.608994
0, 346, -1
0, 347, 0.497619
0, 348, -1
0, 349, 0.899095
0, 350, 0.728022
0, 351, -1
0, 352, -1
0, 353, -1
0, 354, -0.291781
0, 355, -0.287375
0, 356, 0.736477
0, 357, 0.0698611
0, 358, -1
0, 359, -1
0, 360, 0.737195
0, 361, 0.736487
0, 362, -1
0, 363, -0.864871
0, 364, -1
0, 365, -1
0, 366, 0.99991
0, 367, -1
0, 368, 0.16053
0, 369, 0.130756
0, 370, -0.0547979
0, 371, -1
0, 372, 0.0698744
0, 373, 0.0698753
0, 374, 0.305628
0, 375, -0.709229
0, 376, 0.0234604
0, 377, -0.53444
0, 378, -1
0, 379, 0.403203
0, 380, -0.0259678
0, 381, 0.688665
0, 382, 0.630073
0, 383, -1
0, 384, 0.823835
0, 385, -0.552835
0, 386, -1
0, 387, -0.880974
0, 388, 0.6711
0, 389, -0.65567
0, 390, 0.309191
0, 391, -0.225689
0, 392, -0.643327
0, 393, -0.432221
0, 394, -0.0520251
0, 395, -1
0, 396, 0.0105187
0, 397, -0.400503
0, 398, -1
0, 399, -1
1, 0, -1
1, 1, 0.0240718
1, 2, 0.363109
1, 3, -0.240823
1, 4, -1
1, 5, -0.964529
1, 6, 0.883716
1, 7, -0.308921
1, 8, -1
1, 9, 0.396173
1, 10, 0.998998
1, 11, -0.697222
1, 12, 0.771138
1, 13, -0.23637
1, 14, -1
1, 15, -1
1, 16, 0.809739
1, 17, 0.338559
1, 18, -0.700953
1, 19, 0.566789
1, 20, 0.999023
1, 21, 0.534474
1, 22, -1
1, 23, 0.590692
1, 24, -1
1, 25, -0.273131
1, 26, -0.744973
1, 27, 0.638368
1, 28, -0.475158
1, 29, -1
1, 30, 0.0967027
1, 31, 0.183046
1, 32, 0.999054
1, 33, 0.144439
1, 34, 0.298606
1, 35, -0.327887
1, 36, -0.649148
1, 37, -1
1, 38, 0.733789
1, 39, -0.290806
1, 40, -0.25134
1, 41, 0.487748
1, 42, 0.390463
1, 43, -1
1, 44, -1
1, 45, -0.116548
1, 46, -1
1, 47, -0.866552
1, 48, -1
1, 49, 0.560761
1, 50, -0.341433
1, 51, 0.741336
1, 52, 0.536425
1, 53, -0.761871
1, 54, -1
1, 55, -1
1, 56, 0.636462
1, 57, -1
1, 58, -0.486903
1, 59, 0.0968504
1, 60, 0.0863592
1, 61, 0.647889
1, 62, -1
1, 63, -0.901667
1, 64, 0.016863
1, 65, -0.0823117
1, 66, -1
1, 67, -0.916069
1, 68, 0.80112
1, 69, 0.233735
1, 70, -0.755626
1, 71, -1
1, 72, -1
1, 73, 0.384798
1, 74, -0.845232
1, 75, -1
1, 76, -1
1, 77, -0.886171
1, 78, -1
1, 79, 0.767341
1, 80, -0.86828
1, 81, -0.179594
1, 82, -1
1, 83, 0.91009
1, 84, -1
1, 85, -0.0373243
1, 86, -0.891458
1, 87, -0.426691
1, 88, 0.248204
1, 89, 0.0877964
1, 90, -0.221067
1, 91, -0.784126
1, 92, -0.0970378
1, 93, -1
1, 94, -0.374674
1, 95, -1
1, 96, -0.928263
1, 97, -0.24927
1, 98, -1
1, 99, 0.0891204
1, 100, -1
1, 101, -0.265446
1, 102, -0.133254
1, 103, -0.934967
1, 104, -1
1, 105, -0.917997
1, 106, 0.786399
1, 107, -1
1, 108, 0.834736
1, 109, 0.0845599
1, 110, 0.449235
1, 111, 0.538848
1, 112, 0.157764
1, 113, -0.986446
1, 114, -1
1, 115, 0.26258
1, 116, -1
1, 117, 0.364317
1, 118, 0.0998958
1, 119, -1
1, 120, -0.288314
1, 121, -0.695009
1, 122, -1
1, 123, 0.48592
1, 124, -0.820967
1, 125, -0.828495
1, 126, 0.600843
1, 127, -1
1, 128, -0.22323
1, 129, 0.346054
1, 130, 0.650868
1, 131, 0.474622
1, 132, -1
1, 133, -1
1, 134, -1
1, 135, -0.681442
1, 136, -1
1, 137, -0.242776
1, 138, -0.51694
1, 139, 0.390313
1, 140, -0.226165
1, 141, -1
1, 142, -0.177331
1, 143, 0.168329
1, 144, 0.152489
1, 145, -0.849221
1, 146, -0.889731
1, 147, 0.274882
1, 148, -1
1, 149, 0.5464
1, 150, -1
1, 151, -0.525516
1, 152, 0.567946
1, 153, -0.0784859
1, 154, -1
1, 155, -1
1, 156, -1
1, 157, 0.772702
1, 158, -0.552036
1, 159, -0.03501
1, 160, 0.376012
1, 161, 0.069115
1, 162, 0.310952
1, 163, -1
1, 164, -0.27322
1, 165, -0.118281
1, 166, -0.829573
1, 167, -1
1, 168, -1
1, 169, 0.199106
1, 170, -0.391898
1, 171, 0.375329
1, 172, 0.776215
1, 173, -0.924246
1, 174, 0.165666
1, 175, -0.851867
1, 176, -0.759045
1, 177, 0.566332
1, 178, 0.11678
1, 179, -1
1, 180, -0.0792079
1, 181, -1
1, 182, 0.287782
1, 183, -1
1, 184, 0.172049
1, 185, 0.87435
1, 186, -0.863723
1, 187, -0.776716
1, 188, -0.55235
1, 189, 0.786068
1, 190, 0.723007
1, 191, 0.437603
1, 192, -1
1, 193, -1
1, 194, 0.711262
1, 195, -1
1, 196, -0.276663
1, 197, 0.713975
1, 198, -0.578913
1, 199, 0.263946
1, 200, -1
1, 201, -0.137316
1, 202, -0.465012
1, 203, 0.193659
1, 204, 0.657659
1, 205, -1
1, 206, -0.286686
1, 207, 0.149474
1, 208, -0.850557
1, 209, 0.752692
1, 210, -0.162954
1, 211, -1
1, 212, -1
1, 213, -0.5444
1, 214, -0.367974
1, 215, -1
1, 216, -1
1, 217, -1
1, 218, 0.587865
1, 219, -0.0135221
1, 220, -1
1, 221, -1
1, 222, -0.523254
1, 223, 0.427546
1, 224, -1
1, 225, -0.297986
1, 226, -1
1, 227, -0.965266
1, 228, -0.271663
1, 229, -0.455067
1, 230, 0.491877
1, 231, -0.510624
1, 232, -1
1, 233, -1
1, 234, -1
1, 235, -0.674858
1, 236, -0.74037
1, 237, -1
1, 238, -0.00598752
1, 239, -1
1, 240, -0.652246
1, 241, 0.415179
1, 242, -0.970189
1, 243, 0.491306
1, 244, -0.175822
1, 245, -0.815954
1, 246, -0.284425
1, 247, -1
1, 248, -1
1, 249, -0.277957
1, 250, 0.564178
1, 251, -0.204552
1, 252, 0.158021
1, 253, -1
1, 254, -1
1, 255, -1
1, 256, -1
1, 257, -1
1, 258, 0.241321
1, 259, -0.127155
1, 260, -1
1, 261, -1
1, 262, -1
1, 263, 0.188668
1, 264, 0.0490375
1, 265, -1
1, 266, -1
1, 267, -1
1, 268, 0.999657
1, 269, 0.613697
1, 270, -1
1, 271, 0.264704
1, 272, -1
1, 273, -1
1, 274, -0.674877
1, 275, -0.338367
1, 276, -0.232973
1, 277, -0.757387
1, 278, -1
1, 279, -0.728892
1, 280, -0.474934
1, 281, -0.0459545
1, 282, -0.203272
1, 283, -1
1, 284, 0.601681
1, 285, -1
1, 286, -1
1, 287, -0.786315
1, 288, 0.067829
1, 289, 0.764137
1, 290, 0.594768
1, 291, 0.377016
1, 292, -0.809953
1, 293, -0.195953
1, 294, -0.144846
1, 295, -1
1, 296, -1
1, 297, -0.505904
1, 298, 0.0565618
1, 299, -1
1, 300, -1
1, 301, -0.2346
1, 302, 0.67539
1, 303, -0.645681
1, 304, 0.198578
1, 305, -1
1, 306, -1
1, 307, -1
1, 308, -0.204078
1, 309, -0.356121
1, 310, 0.42819
1, 311, 0.906404
1, 312, -0.244754
1, 313, -1
1, 314, -0.997467
1, 315, -1
1, 316, 0.335987
1, 317, 0.897255
1, 318, -1
1, 319, 0.82188
1, 320, 0.304474
1, 321, -0.773902
1, 322, -0.842751
1, 323, 0.588974
1, 324, -0.15024
1, 325, -1
1, 326, 0.325161
1, 327, 0.753375
1, 328, 0.999811
1, 329, 0.622109
1, 330, 0.386896
1, 331, 0.758089
1, 332, -0.618731
1, 333, -0.151591
1, 334, 0.829417
1, 335, -0.0962685
1, 336, -0.261341
1, 337, 0.346012
1, 338, -0.363086
1, 339, -0.513086
1, 340, -0.599444
1, 341, -0.309113
1, 342, -1
1, 343, -0.674825
1, 344, -0.729281
1, 345, -1
1, 346, -1
1, 347, 0.588418
1, 348, 0.9038
1, 349, -1
1, 350, 0.294859
1, 351, 0.75941
1, 352, -0.163884
1, 353, -0.0498743
1, 354, -0.926765
1, 355, -1
1, 356, 0.319122
1, 357, -1
1, 358, 0.113724
1, 359, -0.420949
1, 360, -0.293561
1, 361, -0.259704
1, 362, -0.799694
1, 363, 0.121479
1, 364, -0.853765
1, 365, -1
1, 366, -0.277337
1, 367, -0.211243
1, 368, 0.437425
1, 369, 0.873111
1, 370, -1
1, 371, 0.92674
1, 372, 0.87508
1, 373, 0.386641
1, 374, -1
1, 375, -0.767372
1, 376, -1
1, 377, 0.558451
1, 378, -0.851232
1, 379, -1
1, 380, -0.336853
1, 381, 0.999946
1, 382, 0.758536
1, 383, -1
1, 384, -0.813405
1, 385, -1
1, 386, 0.470673
1, 387, -0.187266
1, 388, 0.27495
1, 389, -1
1, 390, -1
1, 391, 0.341484
1, 392, 0.137705
1, 393, -0.167829
1, 394, -0.566368
1, 395, 0.409529
1, 396, -0.848222
1, 397, -1
1, 398, 0.0101367
1, 399, -1
2, 0, 0.492047
2, 1, -0.537382
2, 2, -0.00051596
2, 3, 0.14414
2, 4, -0.824208
2, 5, -1
2, 6, -1
2, 7, -1
2, 8, -1
2, 9, -1
2, 10, -1
2, 11, -1
2, 12, -0.658256
2, 13, -0.0932103
2, 14, -1
2, 15, -0.975882
2, 16, 0.529504
2, 17, -0.27741
2, 18, 0.681942
2, 19, 0.143587
2, 20, -0.952476
2, 21, -1
2, 22, 0.436187
2, 23, -1
2, 24, 0.331119
2, 25, -1
2, 26, -1
2, 27, -0.573704
2, 28, -1
2, 29, -0.46832
2, 30, -1
2, 31, 0.219928
2, 32, -1
2, 33, -0.856236
2, 34, 0.341083
2, 35, -1
2, 36, 0.575421
2, 37, -0.810544
2, 38, -1
2, 39, 0.785727
2, 40, -1
2, 41, 0.575503
2, 42, 0.780986
2, 43, -1
2, 44, -0.96216
2, 45, -0.139485
2, 46, -1
2, 47, -0.823525
2, 48, -1
2, 49, -0.876671
2, 50, -1
2, 51, -1
2, 52, 0.601893
2, 53, -0.151525
2, 54, -1
2, 55, -1
2, 56, 0.460386
2, 57, -1
2, 58, -1
2, 59, -1
2, 60, -1
2, 61, 0.913862
2, 62, 0.552467
2, 63, -0.364973
2, 64, -1
2, 65, -1
2, 66, 0.40597
2, 67, 0.24107
2, 68, -0.369953
2, 69, 0.147868
2, 70, 0.281159
2, 71, -1
2, 72, -0.0839428
2, 73, -0.991552
2, 74, 0.950539
2, 75, -0.820368
2, 76, -0.421095
2, 77, 0.768601
2, 78, -1
2, 79, -1
2, 80, 0.0313232
2, 81, -0.671715
2, 82, -0.20677
2, 83, -1
2, 84, -0.301117
2, 85, 0.730153
2, 86, -0.12129
2, 87, 0.462176
2, 88, 0.185695
2, 89, 0.404483
2, 90, 0.440804
2, 91, 0.13542
2, 92, 0.999205
2, 93, -0.128544
2, 94, -0.7362
2, 95, 0.269841
2, 96, -0.0597705
2, 97, -1
2, 98, 0.0959928
2, 99, -0.98349
2, 100, -0.452033
2, 101, -0.011923
2, 102, -1
2, 103, 0.586078
2, 104, 0.518758
2, 105, -0.155745
2, 106, 0.244214
2, 107, 0.773636
2, 108, 0.503497
2, 109, -0.744557
2, 110, 0.844254
2, 111, 0.0272004
2, 112, 0.565763
2, 113, 0.999259
2, 114, -1
2, 115, 0.581953
2, 116, -1
2, 117, -0.994142
2, 118, 0.999271
2, 119, -1
2, 120, -0.485467
2, 121, 0.736229
2, 122, -0.296498
2, 123, -0.1121
2, 124, 0.615138
2, 125, 0.122141
2, 126, -0.21612
2, 127, 0.01226
2, 128, -0.309455
2, 129, -0.565934
2, 130, -1
2, 131, -0.125007
2, 132, 0.113952
2, 133, 0.0664227
2, 134, 0.502587
2, 135, -0.211764
2, 136, 0.989807
2, 137, -0.0936383
2, 138, 0.862993
2, 139, -0.252158
2, 140, 0.204926
2, 141, -0.797685
2, 142, -1
2, 143, -0.631748
2, 144, 0.299746
2, 145, -0.999
2, 146, 0.393463
2, 147, 0.335073
2, 148, 0.431173
2, 149, -1
2, 150, -1
2, 151, -0.211979
2, 152, 0.770642
2, 153, -0.231799
2, 154, 0.323002
2, 155, 0.978474
2, 156, 0.563432
2, 157, 0.718994
2, 158, -1
2, 159, -0.602879
2, 160, 0.950764
2, 161, 0.741052
2, 162, 0.802587
2, 163, 0.999386
2, 164, 0.999389
2, 165, 0.629579
2, 166, -0.590933
2, 167, 0.839004
2, 168, -0.568738
2, 169, -0.543195
2, 170, -1
2, 171, -0.704857
2, 172, -0.0392154
2, 173, 0.175264
2, 174, 0.322663
2, 175, 0.719032
2, 176, -0.212516
2, 177, 0.132432
2, 178, 0.387813
2, 179, -0.519727
2, 180, 0.589438
2, 181, 0.797387
2, 182, -0.117364
2, 183, 0.62975
2, 184, 0.432464
2, 185, 0.269602
2, 186, 0.266869
2, 187, 0.695795
2, 188, -0.396352
2, 189, -0.221829
2, 190, -0.724983
2, 191, 0.754113
2, 192, 0.936264
2, 193, -0.194777
2, 194, 0.81625
2, 195, 0.999468
2, 196, 0.0358397
2, 197, -1
2, 198, -1
2, 199, -1
2, 200, -1
2, 201, 0.704638
2, 202, 0.937383
2, 203, 0.372083
2, 204, 0.469107
2, 205, 0.929374
2, 206, 0.999496
2, 207, 0.569297
2, 208, -0.996902
2, 209, 0.366176
2, 210, -0.143199
2, 211, 0.629527
2, 212, 0.846654
2, 213, 0.88249
2, 214, 0.637611
2, 215, 0.41639
2, 216, -1
2, 217, 0.444966
2, 218, -0.313171
2, 219, -1
2, 220, 0.496379
2, 221, 0.223065
2, 222, -0.33231
2, 223, -1
2, 224, -0.105376
2, 225, -0.947124
2, 226, -1
2, 227, 0.146306
2, 228, -1
2, 229, 0.528285
2, 230, 0.934079
2, 231, -0.108033
2, 232, 0.0649302
2, 233, 0.780258
2, 234, 0.249394
2, 235, -1
2, 236, -0.994102
2, 237, 0.717785
2, 238, -0.121435
2, 239, -0.680936
2, 240, 0.999583
2, 241, -0.0552839
2, 242, 0.658182
2, 243, 0.36567
2, 244, -1
2, 245, -0.0715539
2, 246, -0.21639
2, 247, 0.377731
2, 248, 0.33181
2, 249, -1
2, 250, -0.761749
2, 251, 0.673804
2, 252, 0.139039
2, 253, 0.276376
2, 254, 0.23046
2, 255, -0.148104
2, 256, -0.380032
2, 257, -0.169438
2, 258, 0.864607
2, 259, -0.555275
2, 260, 0.553855
2, 261, 0.64135
2, 262, 0.868323
2, 263, -0.151552
2, 264, -0.899702
2, 265, 0.891324
2, 266, 0.344817
2, 267, -0.96676
2, 268, -1
2, 269, 0.506833
2, 270, 0.908402
2, 271, 0.715917
2, 272, 0.453646
2, 273, 0.463182
2, 274, -1
2, 275, 0.929921
2, 276, -0.122689
2, 277, -0.598677
2, 278, -1
2, 279, -0.396131
2, 280, -1
2, 281, -0.563289
2, 282, -1
2, 283, -1
2, 284, -0.0318724
2, 285, -0.0437793
2, 286, -0.548879
2, 287, -0.601221
2, 288, 0.625178
2, 289, 0.112726
2, 290, 0.110997
2, 291, -0.970016
2, 292, 0.668442
2, 293, -1
2, 294, -1
2, 295, -0.623452
2, 296, -0.889766
2, 297, -1
2, 298, -1
2, 299, -1
2, 300, 0.564704
2, 301, -1
2, 302, -1
2, 303, -0.94943
2, 304, -1
2, 305, -1
2, 306, -1
2, 307, -1
2, 308, -1
2, 309, -0.0528101
2, 310, 0.333344
2, 311, 0.0383908
2, 312, -1
2, 313, -0.425067
2, 314, -0.213897
2, 315, -0.0409804
2, 316, 0.0542088
2, 317, -0.981987
2, 318, -0.251422
2, 319, -0.55634
2, 320, -1
2, 321, -1
2, 322, -0.98259
2, 323, -1
2, 324, -0.542984
2, 325, -1
2, 326, -1
2, 327, -1
2, 328, -0.147641
2, 329, -0.0797359
2, 330, -0.852647
2, 331, -0.651608
2, 332, -1
2, 333, 0.993104
2, 334, -0.400061
2, 335, -0.99831
2, 336, -0.116416
2, 337, -0.56457
2, 338, -0.258044
2, 339, -1
2, 340, -1
2, 341, -0.905106
2, 342, -1
2, 343, -1
2, 344, -0.810378
2, 345, -0.959612
2, 346, -0.902859
2, 347, -1
2, 348, -1
2, 349, -0.906862
2, 350, -0.975337
2, 351, -1
2, 352, 0.166291
2, 353, -1
2, 354, 0.431548
2, 355, -1
2, 356, 0.950111
2, 357, -0.963282
2, 358, 0.231537
2, 359, -0.121919
2, 360, -1
2, 361, -0.691077
2, 362, -1
2, 363, -1
2, 364, -0.250526
2, 365, -0.260694
2, 366, -1
2, 367, -1
2, 368, 0.358798
2, 369, -1
2, 370, -1
2, 371, -0.187797
2, 372, -1
2, 373, -0.0205719
2, 374, -0.39767
2, 375, -0.18594
2, 376, -1
2, 377, 0.496126
2, 378, 0.348903
2, 379, 0.462734
2, 380, 0.322511
2, 381, -0.279485
2, 382, -1
2, 383, -1
2, 384, -1
2, 385, -0.43181
2, 386, 0.80838
2, 387, -1
2, 388, -1
2, 389, -0.0536628
2, 390, -1
2, 391, -1
2, 392, -0.243527
2, 393, -0.834738
2, 394, -0.482366
2, 395, 0.866543
2, 396, -1
2, 397, 0.788484
2, 398, 0.92884
2, 399, 0.814206
3, 0, -0.0515473
3, 1, 0.223001
3, 2, 0.185823
3, 3, 0.267772
3, 4, -0.531442
3, 5, -0.681189
3, 6, 0.00119885
3, 7, 0.602999
3, 8, -0.375868
3, 9, -1
3, 10, 0.876061
3, 11, 0.252249
3, 12, -1
3, 13, -0.412445
3, 14, 0.190194
3, 15, 0.999006
3, 16, -0.20794
3, 17, -1
3, 18, 0.745372
3, 19, -0.669637
3, 20, 0.941668
3, 21, 0.138902
3, 22, -0.294933
3, 23, -1
3, 24, -1
3, 25, 0.427576
3, 26, -0.684806
3, 27, -1
3, 28, -0.22791
3, 29, 0.0189527
3, 30, -1
3, 31, 0.42359
3, 32, -0.03542
3, 33, -0.884126
3, 34, 0.0620598
3, 35, -0.741525
3, 36, -0.87787
3, 37, 0.564228
3, 38, 0.0145493
3, 39, -1
3, 40, 0.308829
3, 41, -1
3, 42, 0.0847969
3, 43, -0.325047
3, 44, -1
3, 45, 0.612483
3, 46, 0.666454
3, 47, -0.127139
3, 48, 0.597094
3, 49, 0.782209
3, 50, 0.277525
3, 51, 0.0966614
3, 52, -0.636406
3, 53, 0.162668
3, 54, 0.681473
3, 55, 0.225648
3, 56, 0.312535
3, 57, 0.0834551
3, 58, -0.672248
3, 59, -1
3, 60, -0.928145
3, 61, -0.200847
3, 62, 0.0704646
3, 63, -0.0709639
3, 64, 0.0330695
3, 65, -1
3, 66, 0.514666
3, 67, -0.030392
3, 68, 0.442389
3, 69, -1
3, 70, 0.527689
3, 71, -1
3, 72, -0.0824603
3, 73, -1
3, 74, -0.304743
3, 75, 0.331807
3, 76, 0.349621
3, 77, -0.943869
3, 78, -1
3, 79, -0.0776644
3, 80, 0.667859
3, 81, -0.157529
3, 82, -1
3, 83, -1
3, 84, 0.760204
3, 85, -1
3, 86, -0.299187
3, 87, -1
3, 88, 0.56029
3, 89, 0.338119
3, 90, -1
3, 91, 0.965155
3, 92, 0.41238
3, 93, -1
3, 94, -1
3, 95, -1
3, 96, -0.909277
3, 97, 0.455974
3, 98, 0.09419
3, 99, -1
3, 100, 0.402812
3, 101, -0.263584
3, 102, -0.844217
3, 103, -1
3, 104, -0.472653
3, 105, -0.325564
3, 106, -0.729689
3, 107, -1
3, 108, -0.548773
3, 109, -0.0754355
3, 110, 0.344103
3, 111, -0.102116
3, 112, 0.621823
3, 113, -0.272518
3, 114, -0.999106
3, 115, -1
3, 116, -1
3, 117, 0.477063
3, 118, -1
3, 119, -0.582985
3, 120, -1
3, 121, 0.623577
3, 122, -1
3, 123, 0.732237
3, 124, -0.1649
3, 125, -0.855266
3, 126, -0.992203
3, 127, -0.705255
3, 128, 0.349473
3, 129, 0.449614
3, 130, 0.280026
3, 131, -0.922058
3, 132, -1
3, 133, -0.776688
3, 134, -0.221178
3, 135, -0.963079
3, 136, 0.216234
3, 137, 0.496556
3, 138, -1
3, 139, -0.0179438
3, 140, -0.96511
3, 141, -1
3, 142, -1
3, 143, 0.27439
3, 144, -0.799113
3, 145, -0.214133
3, 146, -1
3, 147, -0.81367
3, 148, 0.801992
3, 149, -0.0687502
3, 150, 0.537422
3, 151, -0.254864
3, 152, -0.970181
3, 153, 0.0282864
3, 154, 0.456418
3, 155, -1
3, 156, -0.643465
3, 157, -0.187808
3, 158, 0.898869
3, 159, -0.470458
3, 160, -1
3, 161, -1
3, 162, 0.438114
3, 163, -0.318088
3, 164, 0.59056
3, 165, 0.0218288
3, 166, -0.808775
3, 167, -1
3, 168, 0.37594
3, 169, -0.344197
3, 170, 0.326353
3, 171, 0.999404
3, 172, 0.491922
3, 173, 0.0226664
3, 174, -0.171918
3, 175, 0.484717
3, 176, -1
3, 177, -0.799187
3, 178, 0.708415
3, 179, -1
3, 180, 0.137686
3, 181, -1
3, 182, 0.32103
3, 183, -0.834871
3, 184, 0.220849
3, 185, -0.257889
3, 186, 0.34365
3, 187, -1
3, 188, 0.516135
3, 189, -0.594507
3, 190, -1
3, 191, -0.893037
3, 192, -0.0800792
3, 193, -1
3, 194, -1
3, 195, -1
3, 196, -0.807317
3, 197, -0.581815
3, 198, 0.0697173
3, 199, -1
3, 200, 0.575667
3, 201, 0.257415
3, 202, 0.0655002
3, 203, 0.605298
3, 204, -0.793772
3, 205, -1
3, 206, 0.0476019
3, 207, -1
3, 208, -0.0192836
3, 209, 0.130073
3, 210, -1
3, 211, -1
3, 212, -0.00135186
3, 213, 0.0129645
3, 214, -0.908392
3, 215, -1
3, 216, -1
3, 217, -1
3, 218, -1
3, 219, -1
3, 220, -0.963085
3, 221, -1
3, 222, 0.606808
3, 223, 0.0890586
3, 224, -1
3, 225, 0.494736
3, 226, 0.417349
3, 227, -1
3, 228, 0.438681
3, 229, -0.658265
3, 230, -1
3, 231, -0.961632
3, 232, -0.0294085
3, 233, 0.731047
3, 234, -1
3, 235, 0.0451112
3, 236, 0.427705
3, 237, -0.863617
3, 238, -1
3, 239, -1
3, 240, -0.841008
3, 241, 0.965808
3, 242, -1
3, 243, 0.61904
3, 244, 0.0311314
3, 245, -0.3328
3, 246, -0.996068
3, 247, -0.0173319
3, 248, -0.907383
3, 249, 0.524477
3, 250, 0.346862
3, 251, -0.264177
3, 252, 0.7432
3, 253, -1
3, 254, 0.885715
3, 255, 0.489249
3, 256, -0.344817
3, 257, -0.410053
3, 258, -1
3, 259, -1
3, 260, -0.210301
3, 261, 0.258875
3, 262, 0.695583
3, 263, -1
3, 264, -0.0616758
3, 265, 0.520161
3, 266, -0.913426
3, 267, -0.496981
3, 268, 0.0748494
3, 269, 0.138132
3, 270, -0.819332
3, 271, -0.0896192
3, 272, -1
3, 273, -0.124474
3, 274, -1
3, 275, -1
3, 276, -1
3, 277, -0.0657287
3, 278, -0.0592718
3, 279, -0.963986
3, 280, -1
3, 281, 0.888786
3, 282, -0.942756
3, 283, -0.0229324
3, 284, -0.343802
3, 285, -1
3, 286, -0.675046
3, 287, 0.355507
3, 288, -1
3, 289, 0.578686
3, 290, -1
3, 291, 0.459813
3, 292, -0.952863
3, 293, -0.193838
3, 294, 0.148827
3, 295, 0.364117
3, 296, 0.848334
3, 297, -0.762527
3, 298, -0.949019
3, 299, -1
3, 300, 0.21226
3, 301, -0.317727
3, 302, 0.719926
3, 303, 0.998456
3, 304, -1
3, 305, -1
3, 306, 0.820799
3, 307, -1
3, 308, -0.367693
3, 309, -0.98447
3, 310, -1
3, 311, -1
3, 312, -0.897728
3, 313, -1
3, 314, 0.101573
3, 315, 0.929881
3, 316, -1
3, 317, 0.119431
3, 318, 0.402112
3, 319, 0.951613
3, 320, 0.508736
3, 321, -1
3, 322, -0.0600502
3, 323, -1
3, 324, 0.364146
3, 325, -0.77549
3, 326, 0.0647477
3, 327, -1
3, 328, -0.0956376
3, 329, 0.673522
3, 330, -1
3, 331, -1
3, 332, -1
3, 333, 0.213943
3, 334, -1
3, 335, -1
3, 336, 0.171445
3, 337, 0.268058
3, 338, -0.694649
3, 339, -1
3, 340, -0.263465
3, 341, -0.860331
3, 342, -1
3, 343, 0.927965
3, 344, -0.335806
3, 345, -1
3, 346, 0.437568
3, 347, 0.164604
3, 348, 0.350332
3, 349, -0.132697
3, 350, -1
3, 351, -1
3, 352, -0.877292
3, 353, -0.55087
3, 354, 0.554162
3, 355, -1
3, 356, 0.0807564
3, 357, 0.0927312
3, 358, 0.483183
3, 359, -1
3, 360, -1
3, 361, 0.0122874
3, 362, 0.890145
3, 363, 0.201065
3, 364, -0.855924
3, 365, -1
3, 366, 0.0176719
3, 367, 0.999905
3, 368, -0.998309
3, 369, 0.0119062
3, 370, 0.609932
3, 371, -1
3, 372, 0.199577
3, 373, -1
3, 374, -1
3, 375, 0.330168
3, 376, 0.287412
3, 377, 0.220349
3, 378, -1
3, 379, -0.237145
3, 380, -0.671055
3, 381, -0.874891
3, 382, 0.317189
3, 383, -0.864096
3, 384, 0.299463
3, 385, 0.0752101
3, 386, -1
3, 387, 0.143562
3, 388, -0.114876
3, 389, -1
3, 390, 0.210438
3, 391, -0.560691
3, 392, 0.254542
3, 393, -0.0293512
3, 394, 0.354501
3, 395, 0.741886
3, 396, -1
3, 397, -1
3, 398, -0.0947849
3, 399, -0.593465
4, 0, -0.933728
4, 1, 0.0184771
4, 2, -1
4, 3, -0.927561
4, 4, 0.344991
4, 5, 0.82275
4, 6, 0.510345
4, 7, 0.436682
4, 8, 0.0595136
4, 9, 0.894593
4, 10, -0.841681
4, 11, 0.418841
4, 12, -1
4, 13, 0.574453
4, 14, -1
4, 15, 0.664096
4, 16, 0.069555
4, 17, -0.263627
4, 18, -1
4, 19, 0.0695576
4, 20, -0.263625
4, 21, 0.7358
4, 22, 0.735802
4, 23, 0.402704
4, 24, -1
4, 25, -0.925489
4, 26, -0.933784
4, 27, 0.225627
4, 28, -0.342279
4, 29, -1
4, 30, 0.237943
4, 31, 0.999044
4, 32, -0.0099983
4, 33, -0.128254
4, 34, 0.387875
4, 35, -0.789939
4, 36, -0.690833
4, 37, -0.263617
4, 38, -0.0194489
4, 39, 0.402726
4, 40, -1
4, 41, 0.39233
4, 42, -0.263614
4, 43, -1
4, 44, -0.884125
4, 45, -0.263613
4, 46, 0.0695816
4, 47, -0.0807102
4, 48, 0.108395
4, 49, 0.318295
4, 50, -1
4, 51, -1
4, 52, 0.444704
4, 53, 0.508766
4, 54, 0.169918
4, 55, -1
4, 56, -1
4, 57, -1
4, 58, -0.91368
4, 59, -0.250298
4, 60, -1
4, 61, 0.423644
4, 62, -0.306341
4, 63, 0.741132
4, 64, -1
4, 65, -1
4, 66, 0.311721
4, 67, -1
4, 68, -0.798204
4, 69, -1
4, 70, -1
4, 71, -1
4, 72, 0.498772
4, 73, -1
4, 74, -1
4, 75, -1
4, 76, -0.527532
4, 77, 0.0696091
4, 78, -0.424856
4, 79, 0.597076
4, 80, -0.191414
4, 81, -1
4, 82, 0.682533
4, 83, 0.318862
4, 84, -0.82636
4, 85, -0.237719
4, 86, -0.284309
4, 87, -0.134924
4, 88, -1
4, 89, 0.796656
4, 90, -0.0310882
4, 91, -0.807417
4, 92, -0.59814
4, 93, 0.226729
4, 94, 0.565571
4, 95, 0.299683
4, 96, -1
4, 97, 0.129302
4, 98, 0.845059
4, 99, 0.18543
4, 100, 0.170807
4, 101, -0.0462718
4, 102, 0.26487
4, 103, -0.6279
4, 104, -0.702882
4, 105, -0.175621
4, 106, -1
4, 107, 0.0520268
4, 108, -0.242256
4, 109, -0.0738977
4, 110, 0.484298
4, 111, -0.31781
4, 112, -1
4, 113, -0.816393
4, 114, 0.14648
4, 115, 0.637678
4, 116, -0.585544
4, 117, -1
4, 118, 0.850649
4, 119, 0.352976
4, 120, 0.247755
4, 121, -0.270892
4, 122, -1
4, 123, -1
4, 124, -1
4, 125, 0.571856
4, 126, -0.0338985
4, 127, -1
4, 128, -1
4, 129, -1
4, 130, 0.759578
4, 131, 0.826597
4, 132, 0.169192
4, 133, -1
4, 134, -1
4, 135, 0.394684
4, 136, 0.579632
4, 137, -1
4, 138, 0.407521
4, 139, 0.400293
4, 140, -0.0257211
4, 141, -0.884118
4, 142, -1
4, 143, 0.0696677
4, 144, -0.323712
4, 145, 0.0427448
4, 146, -1
4, 147, -1
4, 148, 0.40976
4, 149, -1
4, 150, -0.827984
4, 151, -0.4088
4, 152, -1
4, 153, -0.331422
4, 154, -0.185301
4, 155, -1
4, 156, -1
4, 157, -1
4, 158, -0.324113
4, 159, -1
4, 160, -1
4, 161, -0.862139
4, 162, 0.540534
4, 163, 0.0219205
4, 164, -0.180436
4, 165, 0.169036
4, 166, -0.915407
4, 167, -0.254593
4, 168, 0.50174
4, 169, -0.975944
4, 170, 0.878609
4, 171, -1
4, 172, -0.955386
4, 173, 0.6409
4, 174, 0.45033
4, 175, 0.345245
4, 176, -1
4, 177, -1
4, 178, -0.577986
4, 179, 0.0696996
4, 180, -1
4, 181, 0.754114
4, 182, -1
4, 183, -1
4, 184, -0.534554
4, 185, -0.208736
4, 186, 0.546121
4, 187, -0.78629
4, 188, -0.869913
4, 189, 0.826113
4, 190, 0.0992714
4, 191, -1
4, 192, -1
4, 193, 0.833912
4, 194, 0.495313
4, 195, -0.0408725
4, 196, -0.835352
4, 197, -1
4, 198, 0.402946
4, 199, -1
4, 200, -1
4, 201, -0.0342794
4, 202, -0.884114
4, 203, -1
4, 204, -0.79969
4, 205, -1
4, 206, 0.326687
4, 207, -0.570828
4, 208, -0.377214
4, 209, -0.513937
4, 210, -1
4, 211, -1
4, 212, 0.799095
4, 213, -1
4, 214, -1
4, 215, 0.818149
4, 216, -1
4, 217, -0.29343
4, 218, 0.736193
4, 219, -1
4, 220, -0.884112
4, 221, 0.736199
4, 222, -0.0127214
4, 223, -0.961339
4, 224, -0.517171
4, 225, 0.439442
4, 226, -0.132801
4, 227, -0.135142
4, 228, 0.239687
4, 229, -0.708061
4, 230, -0.20257
4, 231, 0.508479
4, 232, 0.523075
4, 233, -0.956347
4, 234, 0.747576
4, 235, -1
4, 236, 0.942751
4, 237, 0.135367
4, 238, -0.712729
4, 239, -0.167092
4, 240, 0.440527
4, 241, 0.00893388
4, 242, -1
4, 243, 0.312672
4, 244, -1
4, 245, -0.749277
4, 246, 0.39558
4, 247, -1
4, 248, 0.535459
4, 249, -0.766101
4, 250, -1
4, 251, 0.482673
4, 252, -0.226717
4, 253, -0.82774
4, 254, 0.791794
4, 255, -1
4, 256, -1
4, 257, -1
4, 258, 0.623988
4, 259, 0.815454
4, 260, -0.967611
4, 261, -0.853945
4, 262, 0.116438
4, 263, -1
4, 264, -1
4, 265, -0.313965
4, 266, -1
4, 267, 0.707281
4, 268, -1
4, 269, -1
4, 270, -1
4, 271, -0.0619353
4, 272, -1
4, 273, 0.00190127
4, 274, -0.971379
4, 275, -0.174373
4, 276, -0.00576303
4, 277, 0.769124
4, 278, 0.714906
4, 279, -1
4, 280, -1
4, 281, 0.0697901
4, 282, -1
4, 283, 0.736323
4, 284, -1
4, 285, 0.0697936
4, 286, -1
4, 287, -1
4, 288, 0.340816
4, 289, 0.380118
4, 290, 0.50914
4, 291, -1
4, 292, 0.0861222
4, 293, -0.69316
4, 294, -1
4, 295, -1
4, 296, -0.462484
4, 297, 0.736351
4, 298, 0.0698052
4, 299, -1
4, 300, 0.736357
4, 301, 0.850064
4, 302, 0.200003
4, 303, -1
4, 304, 0.0808167
4, 305, -1
4, 306, 0.184384
4, 307, -1
4, 308, 0.633607
4, 309, 0.187029
4, 310, -1
4, 311, 0.0107777
4, 312, -0.594126
4, 313, -1
4, 314, 0.143642
4, 315, -1
4, 316, 0.229355
4, 317, 0.378465
4, 318, -1
4, 319, -1
4, 320, -0.630881
4, 321, 0.507601
4, 322, -1
4, 323, -1
4, 324, 0.459412
4, 325, -1
4, 326, -1
4, 327, -1
4, 328, 0.106461
4, 329, 0.927751
4, 330, -1
4, 331, -0.584032
4, 332, -0.100861
4, 333, 0.0205628
4, 334, -0.0916923
4, 335, 0.681342
4, 336, 0.106042
4, 337, -0.0527313
4, 338, 0.478541
4, 339, -1
4, 340, -0.130812
4, 341, 0.707199
4, 342, 0.679015
4, 343, -1
4, 344, -1
4, 345, -0.454516
4, 346, 0.892985
4, 347, -1
4, 348, 0.0710021
4, 349, -1
4, 350, -0.481476
4, 351, 0.28789
4, 352, -1
4, 353, 0.00932789
4, 354, 0.583163
4, 355, 0.225786
4, 356, -0.217322
4, 357, 0.664758
4, 358, -0.238555
4, 359, -0.834565
4, 360, -1
4, 361, -1
4, 362, 0.26744
4, 363, 0.314707
4, 364, -0.274279
4, 365, -1
4, 366, -0.743172
4, 367, 0.88235
4, 368, 0.14287
4, 369, 0.676024
4, 370, -1
4, 371, -0.968344
4, 372, -0.298381
4, 373, 0.375097
4, 374, -1
4, 375, -0.695056
4, 376, 0.440602
4, 377, -1
4, 378, 0.0138506
4, 379, -0.287651
4, 380, -1
4, 381, 0.798741
4, 382, -1
4, 383, -1
4, 384, 0.0715536
4, 385, -1
4, 386, -1
4, 387, -1
4, 388, -0.533501
4, 389, -1
4, 390, -1
4, 391, 0.0699283
4, 392, 0.734896
4, 393, 0.482113
4, 394, -1
4, 395, -0.727822
4, 396, -0.263438
4, 397, -0.8841
4, 398, 0.736553
4, 399, -1
5, 0, -0.835539
5, 1, 0.106872
5, 2, -1
5, 3, -1
5, 4, -0.590593
5, 5, -0.292742
5, 6, -0.0296963
5, 7, -1
5, 8, -1
5, 9, -1
5, 10, -0.640624
5, 11, 0.772952
5, 12, 0.921004
5, 13, -0.263629
5, 14, -0.787311
5, 15, -1
5, 16, -1
5, 17, -1
5, 18, -1
5, 19, 0.261013
5, 20, -1
5, 21, -1
5, 22, -0.41979
5, 23, -1
5, 24, 0.137141
5, 25, -0.255958
5, 26, -1
5, 27, 0.485677
5, 28, -0.585016
5, 29, -1
5, 30, 0.263518
5, 31, -0.267773
5, 32, -0.0245123
5, 33, 0.765547
5, 34, -0.170782
5, 35, 0.0274408
5, 36, -1
5, 37, -0.572453
5, 38, 0.303022
5, 39, -1
5, 40, 0.334222
5, 41, -1
5, 42, -1
5, 43, -1
5, 44, -1
5, 45, 0.454565
5, 46, -0.478461
5, 47, -0.559154
5, 48, -1
5, 49, -0.654386
5, 50, -1
5, 51, -1
5, 52, -1
5, 53, -1
5, 54, -1
5, 55, -0.134427
5, 56, 0.0557724
5, 57, -1
5, 58, -0.790674
5, 59, -0.291941
5, 60, -1
5, 61, 0.356251
5, 62, 0.333983
5, 63, 0.00728284
5, 64, 0.521991
5, 65, -1
5, 66, 0.183649
5, 67, -0.049503
5, 68, -0.219443
5, 69, -0.0138849
5, 70, -0.0920105
5, 71, 0.636654
5, 72, -1
5, 73, -1
5, 74, -1
5, 75, 0.708719
5, 76, -1
5, 77, -1
5, 78, -0.839886
5, 79, 0.787942
5, 80, 0.406022
5, 81, 0.161386
5, 82, 0.959103
5, 83, 0.110094
5, 84, 0.139006
5, 85, 0.845845
5, 86, 0.868135
5, 87, 0.980801
5, 88, 0.0676243
5, 89, -0.108789
5, 90, -1
5, 91, -0.305245
5, 92, -1
5, 93, 0.399772
5, 94, -0.23266
5, 95, 0.908945
5, 96, 0.843933
5, 97, 0.660733
5, 98, -1
5, 99, -0.645628
5, 100, -1
5, 101, -1
5, 102, -1
5, 103, 0.372919
5, 104, -0.550162
5, 105, 0.578642
5, 106, -0.680701
5, 107, -1
5, 108, -1
5, 109, -0.92774
5, 110, 0.202224
5, 111, 0.438145
5, 112, -0.0969403
5, 113, -0.0542902
5, 114, -0.76692
5, 115, 0.0119588
5, 116, -0.391797
5, 117, 0.862658
5, 118, -1
5, 119, -0.0572938
5, 120, -1
5, 121, 0.735998
5, 122, 0.867783
5, 123, -1
5, 124, 0.604999
5, 125, -1
5, 126, -1
5, 127, -0.994462
5, 128, 0.360202
5, 129, -1
5, 130, 0.824644
5, 131, -0.971602
5, 132, -0.103899
5, 133, -1
5, 134, -1
5, 135, -0.17993
5, 136, 0.274193
5, 137, -0.757137
5, 138, -0.255883
5, 139, -0.271447
5, 140, 0.0137719
5, 141, -1
5, 142, -1
5, 143, -0.576001
5, 144, -0.644608
5, 145, -1
5, 146, 0.368526
5, 147, -1
5, 148, 0.606225
5, 149, 0.263741
5, 150, -0.949145
5, 151, -1
5, 152, 0.188427
5, 153, -1
5, 154, -1
5, 155, 0.689095
5, 156, -1
5, 157, -0.884117
5, 158, 0.496747
5, 159, -1
5, 160, -0.164857
5, 161, -0.00218135
5, 162, -1
5, 163, -0.309999
5, 164, 0.194663
5, 165, -1
5, 166, -0.215068
5, 167, -1
5, 168, -1
5, 169, 0.0506355
5, 170, -0.240566
5, 171, 0.0410458
5, 172, 0.679099
5, 173, -1
5, 174, 0.661718
5, 175, -1
5, 176, 0.0552175
5, 177, -0.71892
5, 178, 0.520591
5, 179, -1
5, 180, -0.928376
5, 181, -1
5, 182, -0.301744
5, 183, -0.267972
5, 184, -1
5, 185, -0.323985
5, 186, 0.433544
5, 187, -0.660574
5, 188, -0.399497
5, 189, -0.749541
5, 190, 0.393436
5, 191, -1
5, 192, 0.18206
5, 193, -0.116538
5, 194, -1
5, 195, -0.0722627
5, 196, -0.93278
5, 197, -1
5, 198, -0.014391
5, 199, 0.289364
5, 200, 0.754548
5, 201, -0.860819
5, 202, -0.16077
5, 203, 0.676111
5, 204, -1
5, 205, 0.468013
5, 206, -1
5, 207, 0.924945
5, 208, -0.287797
5, 209, -1
5, 210, -0.150537
5, 211, 0.482774
5, 212, -0.737642
5, 213, -1
5, 214, -0.318636
5, 215, -0.884197
5, 216, -1
5, 217, -1
5, 218, 0.601556
5, 219, -0.74312
5, 220, -0.917912
5, 221, 0.643724
5, 222, 0.401943
5, 223, -0.273176
5, 224, -1
5, 225, -0.477351
5, 226, -0.434772
5, 227, -1
5, 228, 0.0676654
5, 229, -1
5, 230, 0.636956
5, 231, -0.639526
5, 232, -1
5, 233, -0.11015
5, 234, -0.0992167
5, 235, -0.0978619
5, 236, 0.789064
5, 237, 0.528191
5, 238, -1
5, 239, 0.437401
5, 240, 0.0839605
5, 241, -1
5, 242, 0.0564313
5, 243, 0.316331
5, 244, -0.0337185
5, 245, 0.523975
5, 246, -1
5, 247, 0.345369
5, 248, 0.704852
5, 249, -0.174552
5, 250, 0.131057
5, 251, -1
5, 252, 0.0908038
5, 253, -0.934227
5, 254, 0.664252
5, 255, -1
5, 256, 0.513922
5, 257, -1
5, 258, -0.227053
5, 259, -0.026841
5, 260, 0.30079
5, 261, -1
5, 262, -1
5, 263, 0.731754
5, 264, 0.992986
5, 265, 0.548601
5, 266, 0.0273756
5, 267, 0.835447
5, 268, -0.131211
5, 269, -1
5, 270, 0.870617
5, 271, -1
5, 272, -1
5, 273, -1
5, 274, 0.555925
5, 275, -1
5, 276, 0.120126
5, 277, 0.105519
5, 278, 0.329241
5, 279, -0.219297
5, 280, -0.680696
5, 281, -0.0381751
5, 282, -0.560494
5, 283, -1
5, 284, 0.435079
5, 285, -0.0922368
5, 286, -1
5, 287, -0.0128841
5, 288, -1
5, 289, -1
5, 290, 0.206959
5, 291, -0.00406994
5, 292, -0.328089
5, 293, -0.825441
5, 294, 0.431262
5, 295, -1
5, 296, 0.475218
5, 297, -1
5, 298, 0.8194
5, 299, -0.813
5, 300, -1
5, 301, 0.256406
5, 302, -1
5, 303, -1
5, 304, -0.694729
5, 305, 0.668413
5, 306, -0.982681
5, 307, -1
5, 308, -0.287274
5, 309, -0.937116
5, 310, 0.331636
5, 311, -0.274129
5, 312, -1
5, 313, 0.560299
5, 314, -0.338066
5, 315, 0.770913
5, 316, -0.992059
5, 317, -0.195204
5, 318, 0.410681
5, 319, 0.264545
5, 320, 0.733567
5, 321, 0.902321
5, 322, -1
5, 323, -0.808504
5, 324, 0.406243
5, 325, 0.780621
5, 326, 0.12285
5, 327, -1
5, 328, -1
5, 329, 0.931071
5, 330, -0.0544742
5, 331, -1
5, 332, -1
5, 333, -0.803419
5, 334, -0.294336
5, 335, -0.16506
5, 336, 0.00702613
5, 337, -0.302169
5, 338, 0.386928
5, 339, 0.521014
5, 340, -0.0104384
5, 341, 0.260375
5, 342, -1
5, 343, 0.516387
5, 344, 0.565094
5, 345, 0.46203
5, 346, -0.146236
5, 347, -1
5, 348, 0.101368
5, 349, -0.0544078
5, 350, 0.638184
5, 351, -1
5, 352, -1
5, 353, 0.0176261
5, 354, -1
5, 355, -0.836659
5, 356, -0.157621
5, 357, -1
5, 358, 0.999877
5, 359, 0.111642
5, 360, 0.758295
5, 361, -1
5, 362, -0.504714
5, 363, 0.189327
5, 364, -0.297277
5, 365, -1
5, 366, 0.0825192
5, 367, -1
5, 368, 0.176822
5, 369, -1
5, 370, -1
5, 371, 0.99991
5, 372, 0.650779
5, 373, 0.183169
5, 374, -1
5, 375, -1
5, 376, 0.675791
5, 377, 0.0698744
5, 378, 0.0429669
5, 379, -0.625512
5, 380, 0.769138
5, 381, -0.126668
5, 382, -1
5, 383, -0.845279
5, 384, -0.853334
5, 385, -0.25573
5, 386, -0.830296
5, 387, 0.906252
5, 388, -0.309434
5, 389, -1
5, 390, -1
5, 391, -1
5, 392, 0.743823
5, 393, 0.152723
5, 394, -0.0666377
5, 395, -1
5, 396, 0.579842
5, 397, -0.675526
5, 398, -1
5, 399, -0.289284
6, 0, -1
6, 1, -0.537955
6, 2, -0.191636
6, 3, 0.515993
6, 4, 0.804158
6, 5, 0.742479
6, 6, 0.261809
6, 7, -0.751811
6, 8, 0.744269
6, 9, 0.195675
6, 10, 0.256857
6, 11, -0.13902
6, 12, -0.147866
6, 13, -0.417335
6, 14, -0.429733
6, 15, -0.954913
6, 16, -0.0837989
6, 17, -1
6, 18, -1
6, 19, -1
6, 20, -0.252206
6, 21, -0.184991
6, 22, 0.999016
6, 23, -0.580871
6, 24, -0.934072
6, 25, 0.608921
6, 26, -0.418228
6, 27, -0.890136
6, 28, 0.253997
6, 29, 0.950052
6, 30, -0.609966
6, 31, 0.999039
6, 32, -1
6, 33, -1
6, 34, -0.0659441
6, 35, -0.0321325
6, 36, -0.539884
6, 37, -1
6, 38, -1
6, 39, -1
6, 40, 0.876469
6, 41, 0.536579
6, 42, 0.813749
6, 43, 0.470281
6, 44, -1
6, 45, 0.999075
6, 46, 0.379456
6, 47, -1
6, 48, 0.527588
6, 49, 0.267563
6, 50, -0.702325
6, 51, -0.283922
6, 52, 0.137731
6, 53, 0.605384
6, 54, 0.944023
6, 55, -0.848993
6, 56, -0.559752
6, 57, -1
6, 58, -0.966235
6, 59, -0.929792
6, 60, 0.716529
6, 61, 0.0532152
6, 62, 0.809506
6, 63, 0.237535
6, 64, 0.211707
6, 65, -0.128303
6, 66, 0.150766
6, 67, 0.0987493
6, 68, 0.094596
6, 69, -1
6, 70, 0.118397
6, 71, 0.930944
6, 72, -1
6, 73, -0.0190707
6, 74, -1
6, 75, -0.561488
6, 76, 0.585831
6, 77, -0.173412
6, 78, -1
6, 79, -1
6, 80, 0.751898
6, 81, 0.776284
6, 82, -0.997892
6, 83, 0.999172
6, 84, 0.328642
6, 85, -0.131216
6, 86, 0.109506
6, 87, -0.804307
6, 88, -1
6, 89, 0.960179
6, 90, 0.619398
6, 91, -0.768058
6, 92, -1
6, 93, 0.307467
6, 94, -0.223899
6, 95, 0.981415
6, 96, 0.499096
6, 97, -0.283948
6, 98, -0.17285
6, 99, -1
6, 100, -0.0802272
6, 101, -0.368809
6, 102, 0.855416
6, 103, -1
6, 104, -0.683815
6, 105, -1
6, 106, -1
6, 107, -1
6, 108, -0.046988
6, 109, -0.875568
6, 110, 0.431777
6, 111, -0.527496
6, 112, 0.71136
6, 113, 0.629129
6, 114, -0.661684
6, 115, 0.70484
6, 116, -0.204799
6, 117, -1
6, 118, 0.647296
6, 119, -1
6, 120, 0.999266
6, 121, 0.3986
6, 122, -0.981985
6, 123, 0.0611959
6, 124, -1
6, 125, -1
6, 126, -1
6, 127, -1
6, 128, -0.74902
6, 129, -0.496001
6, 130, 0.520277
6, 131, 0.467709
6, 132, -0.748003
6, 133, 0.107542
6, 134, 0.508496
6, 135, 0.436968
6, 136, 0.407531
6, 137, -1
6, 138, 0.330319
6, 139, -0.271208
6, 140, -0.0777144
6, 141, -1
6, 142, -0.581085
6, 143, -1
6, 144, -1
6, 145, -1
6, 146, -0.581589
6, 147, -0.0213689
6, 148, 0.0331345
6, 149, -0.89211
6, 150, 0.0836595
6, 151, 0.849097
6, 152, 0.872829
6, 153, 0.307274
6, 154, 0.701299
6, 155, -0.29183
6, 156, -0.299858
6, 157, -1
6, 158, -1
6, 159, -1
6, 160, 0.0197064
6, 161, -1
6, 162, 0.0668111
6, 163, -0.921573
6, 164, -0.907671
6, 165, -0.119371
6, 166, -1
6, 167, -0.341882
6, 168, -0.0714283
6, 169, -0.469654
6, 170, 0.645254
6, 171, -1
6, 172, -0.286021
6, 173, 0.612569
6, 174, -0.433518
6, 175, 0.356933
6, 176, -0.813023
6, 177, -0.443849
6, 178, -1
6, 179, -0.883279
6, 180, -1
6, 181, -0.174895
6, 182, -1
6, 183, 0.587126
6, 184, -1
6, 185, -1
6, 186, -0.532542
6, 187, -1
6, 188, 0.992893
6, 189, 0.583754
6, 190, 0.829223
6, 191, -1
6, 192, 0.439774
6, 193, -0.134787
6, 194, 0.958701
6, 195, 0.433477
6, 196, 0.0452747
6, 197, -0.15421
6, 198, -1
6, 199, -0.95125
6, 200, 0.627589
6, 201, -1
6, 202, -1
6, 203, -0.578433
6, 204, -0.276647
6, 205, 0.612789
6, 206, -0.92584
6, 207, 0.541572
6, 208, 0.600249
6, 209, -0.717027
6, 210, -1
6, 211, 0.560982
6, 212, 0.0294321
6, 213, 0.177141
6, 214, -0.766352
6, 215, -0.0406018
6, 216, 0.915031
6, 217, 0.829764
6, 218, 0.348837
6, 219, -1
6, 220, 0.151242
6, 221, -0.652817
6, 222, -1
6, 223, -0.14907
6, 224, -0.543914
6, 225, -0.997061
6, 226, -0.309594
6, 227, -0.174095
6, 228, -0.427016
6, 229, 0.00101439
6, 230, -0.948326
6, 231, -1
6, 232, -0.307534
6, 233, -0.343816
6, 234, -0.960939
6, 235, -1
6, 236, -1
6, 237, 0.570845
6, 238, 0.433667
6, 239, -0.529609
6, 240, 0.467019
6, 241, -1
6, 242, -1
6, 243, -0.894748
6, 244, -1
6, 245, -1
6, 246, -1
6, 247, -0.0873088
6, 248, -1
6, 249, -1
6, 250, 0.0261327
6, 251, -1
6, 252, -0.835404
6, 253, 0.0494883
6, 254, 0.259711
6, 255, 0.330213
6, 256, -0.153971
6, 257, 0.492502
6, 258, 0.719661
6, 259, -0.728201
6, 260, 0.815147
6, 261, -1
6, 262, -1
6, 263, -0.280687
6, 264, -1
6, 265, -1
6, 266, -0.742343
6, 267, -1
6, 268, -0.855705
6, 269, -1
6, 270, -1
6, 271, -1
6, 272, 0.104955
6, 273, 0.415504
6, 274, 0.710045
6, 275, 0.11867
6, 276, 0.547768
6, 277, 0.694515
6, 278, -0.140552
6, 279, -0.549987
6, 280, 0.517368
6, 281, -1
6, 282, 0.271851
6, 283, -1
6, 284, -0.710771
6, 285, -1
6, 286, -1
6, 287, -1
6, 288, -1
6, 289, -1
6, 290, -1
6, 291, 0.0271478
6, 292, 0.815756
6, 293, 0.859431
6, 294, 0.858574
6, 295, -1
6, 296, -1
6, 297, -0.0685409
6, 298, 0.400941
6, 299, -0.839561
6, 300, 0.915959
6, 301, 0.23934
6, 302, 0.848867
6, 303, 0.156119
6, 304, 0.286316
6, 305, -0.896606
6, 306, -1
6, 307, -1
6, 308, -0.576088
6, 309, -0.106104
6, 310, -0.710854
6, 311, 0.999754
6, 312, -0.24594
6, 313, 0.0407476
6, 314, 0.710425
6, 315, -1
6, 316, -1
6, 317, -1
6, 318, 0.147387
6, 319, -0.872232
6, 320, 0.62328
6, 321, 0.0589976
6, 322, 0.500578
6, 323, 0.00969737
6, 324, -0.428517
6, 325, -0.805351
6, 326, 0.107335
6, 327, -1
6, 328, 0.988658
6, 329, 0.274434
6, 330, -0.737365
6, 331, -1
6, 332, -0.550634
6, 333, 0.382108
6, 334, 0.693156
6, 335, 0.0797753
6, 336, 0.203177
6, 337, 0.999821
6, 338, -0.690639
6, 339, -0.911103
6, 340, 0.700446
6, 341, 0.757001
6, 342, 0.161978
6, 343, -0.181685
6, 344, -0.700037
6, 345, 0.374979
6, 346, 0.600323
6, 347, 0.144895
6, 348, -1
6, 349, -0.582026
6, 350, -0.397552
6, 351, 0.940141
6, 352, 0.864114
6, 353, 0.638057
6, 354, 0.376989
6, 355, 0.132205
6, 356, -0.91808
6, 357, -0.987122
6, 358, -1
6, 359, -1
6, 360, 0.546539
6, 361, 0.442545
6, 362, 0.334086
6, 363, 0.936452
6, 364, 0.0510757
6, 365, -1
6, 366, 0.537301
6, 367, -0.199437
6, 368, 0.393476
6, 369, -1
6, 370, 0.904882
6, 371, -0.503891
6, 372, -1
6, 373, -1
6, 374, -0.860804
6, 375, 0.790202
6, 376, 0.132161
6, 377, 0.417274
6, 378, -0.11483
6, 379, -1
6, 380, 0.668665
6, 381, 0.915727
6, 382, 0.691276
6, 383, 0.999939
6, 384, 0.766065
6, 385, -0.870473
6, 386, 0.346381
6, 387, 0.552826
6, 388, 0.383177
6, 389, 0.704182
6, 390, 0.0746406
6, 391, 0.815136
6, 392, -1
6, 393, -0.437904
6, 394, 0.659242
6, 395, -0.12527
6, 396, -0.211015
6, 397, -1
6, 398, -0.312052
6, 399, -1
7, 0, -0.263637
7, 1, 0.99896
7, 2, -0.919831
7, 3, 0.62348
7, 4, -0.404406
7, 5, 0.473654
7, 6, 0.402676
7, 7, -0.122999
7, 8, -1
7, 9, -0.0415645
7, 10, 0.307005
7, 11, 0.28165
7, 12, 0.611768
7, 13, 0.593578
7, 14, 0.689799
7, 15, 0.642127
7, 16, 0.644222
7, 17, 0.240705
7, 18, -0.723444
7, 19, 0.97894
7, 20, -0.142739
7, 21, -1
7, 22, -1
7, 23, -1
7, 24, 0.626021
7, 25, -1
7, 26, -1
7, 27, -0.22031
7, 28, -1
7, 29, -1
7, 30, -0.212147
7, 31, -1
7, 32, 0.171811
7, 33, -1
7, 34, -1
7, 35, -0.0214897
7, 36, -1
7, 37, -0.0398123
7, 38, -1
7, 39, -0.132582
7, 40, -1
7, 41, -1
7, 42, 0.629053
7, 43, 0.649676
7, 44, -1
7, 45, 0.249765
7, 46, -1
7, 47, 0.572562
7, 48, -1
7, 49, -1
7, 50, 0.419489
7, 51, 0.785846
7, 52, -0.0175253
7, 53, 0.651676
7, 54, 0.0222581
7, 55, -0.0271581
7, 56, -1
7, 57, -0.77597
7, 58, -1
7, 59, 0.999108
7, 60, -0.0172575
7, 61, -0.263576
7, 62, -0.326544
7, 63, -0.97866
7, 64, -0.0817439
7, 65, -1
7, 66, -0.200591
7, 67, 0.344048
7, 68, -0.262939
7, 69, -1
7, 70, 0.896242
7, 71, -1
7, 72, 0.525223
7, 73, -1
7, 74, -0.962342
7, 75, -0.966428
7, 76, 0.244733
7, 77, 0.370808
7, 78, -1
7, 79, 0.16251
7, 80, 0.853251
7, 81, -0.150088
7, 82, 0.127208
7, 83, -0.139398
7, 84, -0.265133
7, 85, 0.77106
7, 86, -0.849602
7, 87, -1
7, 88, -0.779022
7, 89, -1
7, 90, -1
7, 91, 0.99919
7, 92, -0.383879
7, 93, -1
7, 94, -1
7, 95, 0.217073
7, 96, -1
7, 97, 0.861955
7, 98, -0.782121
7, 99, -0.150107
7, 100, -1
7, 101, 0.811318
7, 102, -0.343119
7, 103, -1
7, 104, -0.995871
7, 105, -0.866151
7, 106, -1
7, 107, -0.91797
7, 108, 0.646093
7, 109, -1
7, 110, 0.506099
7, 111, -0.453735
7, 112, 0.0599454
7, 113, -1
7, 114, -0.948372
7, 115, 0.629551
7, 116, 0.46412
7, 117, -0.540761
7, 118, -1
7, 119, -0.711457
7, 120, -0.648134
7, 121, -1
7, 122, -1
7, 123, -0.0366722
7, 124, -1
7, 125, -1
7, 126, -1
7, 127, -0.900954
7, 128, 0.74941
7, 129, -1
7, 130, -1
7, 131, -0.102671
7, 132, 0.530127
7, 133, 0.874878
7, 134, -1
7, 135, -1
7, 136, 0.40206
7, 137, -0.325432
7, 138, -1
7, 139, -1
7, 140, -0.50706
7, 141, 0.541706
7, 142, 0.851549
7, 143, 0.0301403
7, 144, 0.0723519
7, 145, 0.748799
7, 146, -0.287203
7, 147, 0.347152
7, 148, -1
7, 149, -0.832807
7, 150, -0.171321
7, 151, -1
7, 152, -0.627811
7, 153, 0.420028
7, 154, -0.0120983
7, 155, 0.351583
7, 156, 0.73156
7, 157, 0.580125
7, 158, 0.000984791
7, 159, -0.81611
7, 160, 0.652002
7, 161, -0.980821
7, 162, -1
7, 163, 0.395003
7, 164, 0.405148
7, 165, -0.676937
7, 166, 0.118337
7, 167, -0.919327
7, 168, 0.184682
7, 169, 0.176224
7, 170, -0.267808
7, 171, -1
7, 172, -0.900117
7, 173, -0.272664
7, 174, -1
7, 175, 0.973024
7, 176, -1
7, 177, 0.866388
7, 178, -1
7, 179, -1
7, 180, -0.395909
7, 181, 0.754053
7, 182, -1
7, 183, 0.586336
7, 184, 0.574288
7, 185, 0.275451
7, 186, -0.866186
7, 187, -1
7, 188, -0.176106
7, 189, 0.580119
7, 190, 0.103882
7, 191, -0.557159
7, 192, 0.639664
7, 193, 0.45434
7, 194, 0.900811
7, 195, -1
7, 196, -1
7, 197, 0.257285
7, 198, -0.820942
7, 199, -1
7, 200, -1
7, 201, -1
7, 202, -1
7, 203, -1
7, 204, -1
7, 205, -0.876517
7, 206, -1
7, 207, -0.49715
7, 208, -1
7, 209, -1
7, 210, -0.853674
7, 211, -0.464713
7, 212, -1
7, 213, 0.174163
7, 214, -1
7, 215, 0.520044
7, 216, -1
7, 217, -0.764809
7, 218, -1
7, 219, -0.636337
7, 220, -0.343217
7, 221, 0.540077
7, 222, -1
7, 223, -0.970609
7, 224, -0.180631
7, 225, -0.141238
7, 226, 0.680983
7, 227, -1
7, 228, -0.745574
7, 229, 0.491326
7, 230, 0.384802
7, 231, -1
7, 232, 0.863746
7, 233, -0.194658
7, 234, -1
7, 235, -1
7, 236, 0.609757
7, 237, -1
7, 238, 0.782332
7, 239, -1
7, 240, -0.190217
7, 241, -1
7, 242, 0.863821
7, 243, -0.468152
7, 244, 0.293413
7, 245, -0.271682
7, 246, -1
7, 247, -0.231239
7, 248, 0.499731
7, 249, -0.936099
7, 250, -0.660421
7, 251, 0.122108
7, 252, 0.536193
7, 253, 0.570006
7, 254, -1
7, 255, -1
7, 256, -0.219867
7, 257, -0.263816
7, 258, 0.221933
7, 259, -0.0827498
7, 260, -0.665346
7, 261, -1
7, 262, -0.263506
7, 263, 0.766406
7, 264, 0.0961309
7, 265, 0.128127
7, 266, -0.930777
7, 267, 0.254392
7, 268, 0.187511
7, 269, 0.209679
7, 270, -0.548903
7, 271, -0.573555
7, 272, -1
7, 273, 0.809079
7, 274, -1
7, 275, 0.741735
7, 276, -1
7, 277, -1
7, 278, -0.621412
7, 279, 0.675499
7, 280, -1
7, 281, -0.864084
7, 282, -0.197755
7, 283, -0.41903
7, 284, 0.968314
7, 285, -1
7, 286, 0.549147
7, 287, -1
7, 288, -0.204117
7, 289, -1
7, 290, -0.0300231
7, 291, 0.140652
7, 292, 0.012026
7, 293, -0.467861
7, 294, -0.241138
7, 295, -0.0525772
7, 296, -0.256097
7, 297, -1
7, 298, 0.74375
7, 299, -1
7, 300, 0.0279352
7, 301, -1
7, 302, -1
7, 303, -1
7, 304, 0.376356
7, 305, -1
7, 306, -0.624091
7, 307, 0.430748
7, 308, -1
7, 309, -0.163512
7, 310, -0.168179
7, 311, 0.634888
7, 312, 0.892488
7, 313, -1
7, 314, -0.0570467
7, 315, 0.402666
7, 316, 0.66744
7, 317, -0.842173
7, 318, -1
7, 319, -1
7, 320, 0.999775
7, 321, -0.155034
7, 322, -0.293555
7, 323, 0.256146
7, 324, 0.0775673
7, 325, 0.549999
7, 326, 0.676036
7, 327, -1
7, 328, -0.240607
7, 329, -1
7, 330, -1
7, 331, -1
7, 332, -0.711211
7, 333, -1
7, 334, 0.387773
7, 335, -1
7, 336, -1
7, 337, -0.551806
7, 338, 0.600243
7, 339, 0.0713825
7, 340, 0.595258
7, 341, 0.0478876
7, 342, 0.367884
7, 343, -0.677703
7, 344, -0.918192
7, 345, -0.671742
7, 346, -1
7, 347, -1
7, 348, -1
7, 349, 0.387814
7, 350, -1
7, 351, 0.52464
7, 352, -0.176526
7, 353, -1
7, 354, -0.301977
7, 355, 0.735801
7, 356, 0.751912
7, 357, -1
7, 358, -1
7, 359, -0.15675
7, 360, 0.0446332
7, 361, -1
7, 362, -1
7, 363, 0.604452
7, 364, -0.834758
7, 365, 0.39424
7, 366, 0.858201
7, 367, -1
7, 368, -1
7, 369, 0.324422
7, 370, -1
7, 371, 0.254008
7, 372, -1
7, 373, 0.285521
7, 374, -0.721933
7, 375, -1
7, 376, 0.374058
7, 377, -1
7, 378, 0.883433
7, 379, 0.596665
7, 380, 0.914546
7, 381, 0.0416675
7, 382, -0.581222
7, 383, -1
7, 384, 0.675518
7, 385, 0.651314
7, 386, -1
7, 387, -0.275806
7, 388, -1
7, 389, 0.281885
7, 390, -1
7, 391, -1
7, 392, -1
7, 393, 0.771808
7, 394, 0.0923675
7, 395, 0.320442
7, 396, 0.409683
7, 397, -0.63523
7, 398, -1
7, 399, -0.120974
8, 0, -0.218278
8, 1, -1
8, 2, 0.34715
8, 3, -0.258255
8, 4, 0.085176
8, 5, 0.600875
8, 6, -0.322372
8, 7, -1
8, 8, 0.110283
8, 9, -1
8, 10, 0.761893
8, 11, -0.260277
8, 12, -0.891538
8, 13, -1
8, 14, 0.170496
8, 15, -0.0755504
8, 16, 0.859672
8, 17, 0.195632
8, 18, -1
8, 19, -0.378846
8, 20, 0.125645
8, 21, 0.693352
8, 22, 0.480802
8, 23, 0.272877
8, 24, 0.533474
8, 25, 0.222501
8, 26, -0.758618
8, 27, 0.306565
8, 28, -1
8, 29, -0.906963
8, 30, -1
8, 31, -0.763412
8, 32, -0.0608415
8, 33, 0.394777
8, 34, 0.250228
8, 35, 0.515693
8, 36, -1
8, 37, 0.414602
8, 38, -0.405922
8, 39, 0.756716
8, 40, -1
8, 41, 0.534643
8, 42, -0.94806
8, 43, -1
8, 44, 0.221087
8, 45, 0.0809943
8, 46, -1
8, 47, -0.967506
8, 48, -1
8, 49, -1
8, 50, 0.495567
8, 51, -1
8, 52, 0.544598
8, 53, -0.718423
8, 54, 0.143228
8, 55, -1
8, 56, 0.365
8, 57, -0.814569
8, 58, 0.590398
8, 59, 0.999105
8, 60, -1
8, 61, 0.132218
8, 62, -0.603918
8, 63, -1
8, 64, -0.399627
8, 65, 0.999121
8, 66, -1
8, 67, -1
8, 68, 0.856565
8, 69, 0.21493
8, 70, 0.248241
8, 71, -0.969091
8, 72, 0.212453
8, 73, 0.082925
8, 74, 0.837416
8, 75, 0.674162
8, 76, -1
8, 77, -1
8, 78, -1
8, 79, -1
8, 80, -1
8, 81, 0.471077
8, 82, 0.0148664
8, 83, -1
8, 84, 0.735036
8, 85, -1
8, 86, -0.941548
8, 87, 0.2055
8, 88, -1
8, 89, 0.696492
8, 90, -0.00866439
8, 91, -1
8, 92, -1
8, 93, -0.667837
8, 94, -1
8, 95, -0.978103
8, 96, 0.317858
8, 97, -0.848724
8, 98, -0.238541
8, 99, -0.263588
8, 100, -0.884121
8, 101, -1
8, 102, -0.7429
8, 103, 0.0395173
8, 104, 0.395771
8, 105, -1
8, 106, -0.173572
8, 107, 0.278821
8, 108, -0.849332
8, 109, -0.668682
8, 110, -1
8, 111, -1
8, 112, 0.444677
8, 113, -0.101913
8, 114, -0.957843
8, 115, -0.218848
8, 116, -0.943544
8, 117, -0.431156
8, 118, 0.542479
8, 119, -1
8, 120, -1
8, 121, -1
8, 122, -1
8, 123, -1
8, 124, -0.151574
8, 125, -0.974676
8, 126, 0.0413853
8, 127, -0.492014
8, 128, -0.0335493
8, 129, -0.117396
8, 130, -1
8, 131, -0.166765
8, 132, 0.318026
8, 133, -0.25463
8, 134, 0.367681
8, 135, -1
8, 136, 0.23024
8, 137, -1
8, 138, 0.527098
8, 139, 0.0273369
8, 140, -0.996764
8, 141, 0.472685
8, 142, -1
8, 143, 0.438817
8, 144, 0.715434
8, 145, -1
8, 146, -0.975605
8, 147, -1
8, 148, -1
8, 149, 0.736239
8, 150, -1
8, 151, -1
8, 152, 0.884602
8, 153, -1
8, 154, -1
8, 155, -1
8, 156, -1
8, 157, -0.807714
8, 158, -1
8, 159, -0.121621
8, 160, 0.999363
8, 161, -0.0720423
8, 162, -1
8, 163, -1
8, 164, -1
8, 165, 0.521132
8, 166, 0.282523
8, 167, 0.597018
8, 168, 0.267937
8, 169, -1
8, 170, -0.587495
8, 171, 0.35376
8, 172, -0.696142
8, 173, -1
8, 174, -0.973426
8, 175, -0.630016
8, 176, 0.737237
8, 177, -0.485934
8, 178, -0.71534
8, 179, 0.981433
8, 180, -0.807488
8, 181, -1
8, 182, 0.345946
8, 183, -0.0580389
8, 184, -1
8, 185, 0.858571
8, 186, -0.128235
8, 187, -1
8, 188, 0.208412
8, 189, 0.901946
8, 190, 0.701393
8, 191, 0.232256
8, 192, -0.194134
8, 193, 0.176497
8, 194, -1
8, 195, -0.914712
8, 196, 0.0427709
8, 197, -1
8, 198, 0.7233
8, 199, -1
8, 200, -1
8, 201, -0.578258
8, 202, 0.18205
8, 203, 0.702415
8, 204, -1
8, 205, 0.653915
8, 206, 0.585084
8, 207, -1
8, 208, -1
8, 209, 0.445641
8, 210, 0.454626
8, 211, -1
8, 212, -1
8, 213, -0.542673
8, 214, -0.544005
8, 215, -1
8, 216, 0.756418
8, 217, -1
8, 218, -0.390376
8, 219, 0.255855
8, 220, 0.703322
8, 221, -0.957052
8, 222, -1
8, 223, 0.403706
8, 224, -1
8, 225, -1
8, 226, -1
8, 227, -1
8, 228, -1
8, 229, -1
8, 230, -1
8, 231, -1
8, 232, -1
8, 233, 0.108651
8, 234, 0.317064
8, 235, -0.579258
8, 236, -1
8, 237, -1
8, 238, -1
8, 239, -0.907124
8, 240, 0.31439
8, 241, -0.0120864
8, 242, 0.0919533
8, 243, -0.479481
8, 244, -1
8, 245, -0.673383
8, 246, 0.365197
8, 247, 0.439507
8, 248, -1
8, 249, -0.274756
8, 250, -1
8, 251, -1
8, 252, -1
8, 253, -0.920496
8, 254, 0.0237612
8, 255, 0.820377
8, 256, -1
8, 257, -1
8, 258, -1
8, 259, -0.510914
8, 260, 0.695748
8, 261, 0.615664
8, 262, -1
8, 263, -1
8, 264, 0.191071
8, 265, -0.0786671
8, 266, -1
8, 267, 0.774263
8, 268, -0.107317
8, 269, -0.284283
8, 270, 0.550802
8, 271, 0.269116
8, 272, 0.442638
8, 273, -0.822215
8, 274, -0.727795
8, 275, -0.173991
8, 276, -0.457703
8, 277, 0.0942189
8, 278, -1
8, 279, 0.579072
8, 280, 0.206131
8, 281, -1
8, 282, -1
8, 283, 0.999678
8, 284, -1
8, 285, -0.0680431
8, 286, 0.700454
8, 287, -1
8, 288, -1
8, 289, 0.595457
8, 290, -0.0302638
8, 291, -0.887979
8, 292, -0.380229
8, 293, -1
8, 294, 0.70662
8, 295, 0.267863
8, 296, -0.832463
8, 297, 0.861515
8, 298, 0.429107
8, 299, -0.25744
8, 300, -1
8, 301, 0.0698043
8, 302, 0.026526
8, 303, -0.261801
8, 304, 0.155696
8, 305, 0.248226
8, 306, -1
8, 307, -1
8, 308, -0.911527
8, 309, -1
8, 310, 0.515503
8, 311, -1
8, 312, -1
8, 313, 0.638822
8, 314, 0.906293
8, 315, -0.317823
8, 316, -1
8, 317, 0.686596
8, 318, -1
8, 319, -0.0957353
8, 320, -0.675253
8, 321, -0.282956
8, 322, -0.079621
8, 323, 0.163684
8, 324, 0.877957
8, 325, -0.207651
8, 326, 0.36262
8, 327, -1
8, 328, 0.718185
8, 329, 0.788881
8, 330, -1
8, 331, 0.776819
8, 332, -0.370877
8, 333, -0.165767
8, 334, -0.0466779
8, 335, 0.598147
8, 336, -0.935264
8, 337, -1
8, 338, 0.375902
8, 339, -0.970124
8, 340, -1
8, 341, 0.0698398
8, 342, -0.252475
8, 343, -1
8, 344, -1
8, 345, -0.417203
8, 346, -0.81489
8, 347, -1
8, 348, 0.867451
8, 349, -1
8, 350, 0.121369
8, 351, 0.905417
8, 352, 0.401151
8, 353, -0.152644
8, 354, 0.119044
8, 355, -1
8, 356, -0.357481
8, 357, 0.403161
8, 358, 0.736465
8, 359, -0.884103
8, 360, -0.0977991
8, 361, -1
8, 362, -1
8, 363, 0.135117
8, 364, 0.651117
8, 365, -1
8, 366, -1
8, 367, 0.782602
8, 368, -1
8, 369, -0.291749
8, 370, -0.487754
8, 371, -0.018337
8, 372, -0.803643
8, 373, -0.338408
8, 374, -1
8, 375, -0.255493
8, 376, -1
8, 377, -0.583442
8, 378, -0.233307
8, 379, -1
8, 380, -1
8, 381, -1
8, 382, -1
8, 383, 0.838543
8, 384, 0.0134188
8, 385, 0.203072
8, 386, -1
8, 387, -0.0355805
8, 388, -0.787155
8, 389, -1
8, 390, 0.537751
8, 391, -0.336512
8, 392, -1
8, 393, 0.0138248
8, 394, -0.598074
8, 395, 0.938586
8, 396, 0.00651273
8, 397, -0.0976235
8, 398, 0.226562
8, 399, -0.0155592
9, 0, 0.10229
9, 1, 0.059565
9, 2, 0.747604
9, 3, 0.112491
9, 4, -1
9, 5, 0.237317
9, 6, 0.467029
9, 7, 0.977855
9, 8, -0.00561748
9, 9, -1
9, 10, 0.797849
9, 11, -1
9, 12, -0.637949
9, 13, -0.769982
9, 14, 0.124806
9, 15, -1
9, 16, -0.265438
9, 17, 0.188616
9, 18, 0.998998
9, 19, -0.0795951
9, 20, 0.410194
9, 21, -1
9, 22, -1
9, 23, 0.472433
9, 24, 0.360194
9, 25, 0.694224
9, 26, -0.903089
9, 27, -0.373592
9, 28, -0.72497
9, 29, -1
9, 30, -1
9, 31, -0.182527
9, 32, 0.0975464
9, 33, 0.400275
9, 34, -1
9, 35, -1
9, 36, 0.244469
9, 37, 0.563264
9, 38, -1
9, 39, -0.0274403
9, 40, -1
9, 41, -1
9, 42, -1
9, 43, 0.701117
9, 44, 0.593391
9, 45, 0.191984
9, 46, -1
9, 47, -0.199811
9, 48, -1
9, 49, 0.101986
9, 50, 0.043467
9, 51, 0.314129
9, 52, -0.827178
9, 53, -0.546426
9, 54, -1
9, 55, 0.668511
9, 56, -1
9, 57, -0.708828
9, 58, 0.639617
9, 59, 0.877675
9, 60, -1
9, 61, -0.129271
9, 62, -1
9, 63, -0.0663104
9, 64, -1
9, 65, -0.211267
9, 66, 0.650827
9, 67, -1
9, 68, -1
9, 69, 0.451832
9, 70, 0.288371
9, 71, 0.342363
9, 72, -1
9, 73, -1
9, 74, 0.00538907
9, 75, -0.937916
9, 76, -0.138102
9, 77, -0.0397199
9, 78, -0.847467
9, 79, 0.198096
9, 80, -1
9, 81, 0.0696082
9, 82, -1
9, 83, 0.29431
9, 84, 0.393329
9, 85, -1
9, 86, -1
9, 87, -0.780967
9, 88, -0.33516
9, 89, 0.400652
9, 90, -0.0178348
9, 91, -0.893185
9, 92, -1
9, 93, 0.487141
9, 94, -0.0596792
9, 95, 0.493132
9, 96, 0.576839
9, 97, 0.149909
9, 98, -0.154074
9, 99, 0.431779
9, 100, -0.636223
9, 101, -0.120653
9, 102, -0.288974
9, 103, 0.30676
9, 104, -0.83579
9, 105, -0.854558
9, 106, -1
9, 107, 0.463942
9, 108, -1
9, 109, -1
9, 110, -1
9, 111, -1
9, 112, -0.207092
9, 113, 0.565129
9, 114, -0.0966769
9, 115, -1
9, 116, -1
9, 117, -1
9, 118, 0.114918
9, 119, 0.690511
9, 120, 0.775801
9, 121, -0.951487
9, 122, 0.352095
9, 123, -1
9, 124, 0.486504
9, 125, -1
9, 126, -1
9, 127, -0.113345
9, 128, 0.311705
9, 129, -0.820355
9, 130, -0.954079
9, 131, 0.320544
9, 132, 0.36213
9, 133, -1
9, 134, 0.164362
9, 135, 0.660907
9, 136, -1
9, 137, -0.274629
9, 138, -1
9, 139, -0.698663
9, 140, 0.266266
9, 141, -1
9, 142, -1
9, 143, -1
9, 144, -1
9, 145, 0.864239
9, 146, 0.999325
9, 147, -1
9, 148, 0.760453
9, 149, 0.268394
9, 150, -1
9, 151, 0.259239
9, 152, 0.0537858
9, 153, -0.14079
9, 154, 0.085857
9, 155, -0.798312
9, 156, -0.0923399
9, 157, -1
9, 158, -0.264099
9, 159, -1
9, 160, 0.629379
9, 161, -0.43277
9, 162, -0.904078
9, 163, 0.069681
9, 164, -0.0312404
9, 165, 0.588538
9, 166, -1
9, 167, 0.0933508
9, 168, -0.650895
9, 169, 0.0402439
9, 170, 0.0924011
9, 171, 0.269476
9, 172, -0.469611
9, 173, 0.0767894
9, 174, -0.572442
9, 175, 0.695838
9, 176, -0.316868
9, 177, -0.884116
9, 178, 0.430593
9, 179, -1
9, 180, 0.402915
9, 181, 0.0696969
9, 182, 0.0406125
9, 183, -1
9, 184, -1
9, 185, 0.733995
9, 186, -0.376904
9, 187, 0.264736
9, 188, -1
9, 189, -0.12469
9, 190, -1
9, 191, 0.296991
9, 192, 0.291069
9, 193, -1
9, 194, -0.522907
9, 195, -0.185795
9, 196, 0.701418
9, 197, 0.136314
9, 198, 0.812241
9, 199, -1
9, 200, 0.528702
9, 201, -1
9, 202, 0.736152
9, 203, 0.207384
9, 204, 0.339244
9, 205, -1
9, 206, -0.804428
9, 207, -1
9, 208, -0.998059
9, 209, 0.999486
9, 210, 0.808328
9, 211, -0.069094
9, 212, -0.339064
9, 213, -1
9, 214, 0.644774
9, 215, 0.414279
9, 216, 0.473495
9, 217, -1
9, 218, -0.947258
9, 219, -0.0966023
9, 220, 0.00145851
9, 221, -0.228308
9, 222, -1
9, 223, -0.984093
9, 224, -1
9, 225, -1
9, 226, 0.42802
9, 227, -1
9, 228, 0.999535
9, 229, -1
9, 230, -1
9, 231, 0.61469
9, 232, -0.958435
9, 233, -1
9, 234, -1
9, 235, 0.333974
9, 236, -1
9, 237, -1
9, 238, 0.097815
9, 239, -1
9, 240, -0.301837
9, 241, -0.968726
9, 242, -0.904531
9, 243, -0.756542
9, 244, -0.204677
9, 245, -0.479394
9, 246, -0.0287538
9, 247, -0.0236401
9, 248, -0.815326
9, 249, -0.843153
9, 250, -0.985513
9, 251, -1
9, 252, 0.382239
9, 253, 0.0485526
9, 254, 0.420959
9, 255, -1
9, 256, -0.26351
9, 257, -1
9, 258, -1
9, 259, -0.673383
9, 260, -1
9, 261, -1
9, 262, 0.234543
9, 263, -1
9, 264, -1
9, 265, 0.999629
9, 266, -0.8852
9, 267, -0.028953
9, 268, -1
9, 269, 0.899002
9, 270, 0.180041
9, 271, 0.909879
9, 272, 0.900003
9, 273, -1
9, 274, -0.930003
9, 275, -0.513054
9, 276, -0.757095
9, 277, -0.0718763
9, 278, -1
9, 279, -0.69414
9, 280, -0.254056
9, 281, 0.511317
9, 282, -0.204574
9, 283, -1
9, 284, -1
9, 285, -1
9, 286, -0.820633
9, 287, 0.253324
9, 288, -1
9, 289, 0.999691
9, 290, -1
9, 291, -0.0633505
9, 292, 0.286987
9, 293, 0.435503
9, 294, 0.731754
9, 295, 0.341839
9, 296, 0.0896657
9, 297, -1
9, 298, -0.27409
9, 299, -0.799499
9, 300, 0.708921
9, 301, 0.388656
9, 302, -1
9, 303, 0.348184
9, 304, 0.288637
9, 305, -1
9, 306, -0.165958
9, 307, 0.709718
9, 308, 0.35886
9, 309, -1
9, 310, 0.712088
9, 311, 0.558841
9, 312, 0.460337
9, 313, 0.0561025
9, 314, 0.403184
9, 315, -0.8849
9, 316, -0.26348
9, 317, 0.335278
9, 318, -0.0594575
9, 319, 0.134067
9, 320, -0.802326
9, 321, -1
9, 322, 0.100153
9, 323, -1
9, 324, -1
9, 325, -1
9, 326, 0.112829
9, 327, -1
9, 328, -1
9, 329, 0.540276
9, 330, -0.0642027
9, 331, 0.413628
9, 332, -0.461909
9, 333, -0.0135686
9, 334, -0.531296
9, 335, 0.835291
9, 336, -1
9, 337, -1
9, 338, 0.0920164
9, 339, 0.824395
9, 340, -1
9, 341, -0.263468
9, 342, 0.385828
9, 343, 0.357439
9, 344, 0.153053
9, 345, -0.88951
9, 346, -1
9, 347, -1
9, 348, -1
9, 349, 0.146284
9, 350, -1
9, 351, -1
9, 352, -1
9, 353, -1
9, 354, -1
9, 355, -0.953186
9, 356, -0.00846436
9, 357, 0.0924272
9, 358, 0.0140706
9, 359, -1
9, 360, -1
9, 361, -0.853905
9, 362, 0.829148
9, 363, -0.233186
9, 364, -1
9, 365, -1
9, 366, -1
9, 367, -0.0819592
9, 368, -1
9, 369, -0.96976
9, 370, -0.346596
9, 371, -1
9, 372, 0.999903
9, 373, 0.734893
9, 374, -0.851445
9, 375, -0.00974626
9, 376, 0.83114
9, 377, -0.326733
9, 378, -1
9, 379, -1
9, 380, 0.45163
9, 381, 0.0219067
9, 382, -0.144353
9, 383, -1
9, 384, -0.26388
9, 385, 0.941804
9, 386, -1
9, 387, -1
9, 388, -1
9, 389, -0.472277
9, 390, -0.961915
9, 391, -0.401412
9, 392, -1
9, 393, -1
9, 394, -0.805163
9, 395, -0.590569
9, 396, -0.870265
9, 397, 0.126404
9, 398, -1
9, 399, -0.128108
10, 0, -1
10, 1, -0.778545
10, 2, 0.12027
10, 3, 0.964927
10, 4, 0.99896
10, 5, 0.101827
10, 6, -1
10, 7, -0.120125
10, 8, 0.497661
10, 9, -1
10, 10, -0.93284
10, 11, 0.0966326
10, 12, 0.893965
10, 13, -0.761073
10, 14, 0.398829
10, 15, -1
10, 16, -1
10, 17, 0.595395
10, 18, -0.642209
10, 19, -1
10, 20, -1
10, 21, -0.0527094
10, 22, -1
10, 23, -1
10, 24, -0.00289228
10, 25, 0.490606
10, 26, 0.0204002
10, 27, 0.0695594
10, 28, -1
10, 29, -0.939961
10, 30, -1
10, 31, 0.793687
10, 32, -1
10, 33, -1
10, 34, 0.342468
10, 35, -0.0255296
10, 36, 0.578905
10, 37, -0.190431
10, 38, -0.989147
10, 39, 0.505763
10, 40, 0.440711
10, 41, -1
10, 42, -0.374141
10, 43, -0.472196
10, 44, -0.457547
10, 45, -1
10, 46, -0.283126
10, 47, -1
10, 48, -1
10, 49, 0.30866
10, 50, -1
10, 51, 0.297706
10, 52, -1
10, 53, -1
10, 54, 0.964485
10, 55, 0.0515111
10, 56, 0.658804
10, 57, -1
10, 58, -1
10, 59, -0.00917708
10, 60, -0.14653
10, 61, -1
10, 62, -0.220471
10, 63, 0.258955
10, 64, -1
10, 65, 0.170486
10, 66, -0.242455
10, 67, 0.00983835
10, 68, -0.263604
10, 69, 0.0463467
10, 70, -1
10, 71, -1
10, 72, 0.283355
10, 73, 0.360051
10, 74, -1
10, 75, 0.104218
10, 76, -1
10, 77, 0.551113
10, 78, 0.0568843
10, 79, 0.193627
10, 80, -0.186512
10, 81, 0.0969346
10, 82, -1
10, 83, -0.141111
10, 84, 0.0694927
10, 85, 0.547857
10, 86, 0.372293
10, 87, -1
10, 88, 0.436916
10, 89, -0.586116
10, 90, -0.555275
10, 91, -0.350204
10, 92, -0.514213
10, 93, 0.204406
10, 94, -1
10, 95, -0.574107
10, 96, 0.346148
10, 97, -0.96528
10, 98, -0.898383
10, 99, 0.318544
10, 100, -1
10, 101, -1
10, 102, -1
10, 103, -0.270566
10, 104, -0.0924205
10, 105, -1
10, 106, 0.818016
10, 107, -0.224717
10, 108, 0.331714
10, 109, 0.179308
10, 110, 0.770755
10, 111, -1
10, 112, -0.00385656
10, 113, 0.28755
10, 114, -1
10, 115, -1
10, 116, -0.231975
10, 117, 0.899738
10, 118, -1
10, 119, -1
10, 120, -0.964106
10, 121, 0.208041
10, 122, -0.693907
10, 123, 0.999264
10, 124, -0.250012
10, 125, -1
10, 126, -0.392434
10, 127, -1
10, 128, -1
10, 129, -1
10, 130, 0.563497
10, 131, -1
10, 132, -0.957509
10, 133, -0.744907
10, 134, 0.132382
10, 135, -0.0807799
10, 136, 0.739838
10, 137, 0.214214
10, 138, -0.54317
10, 139, 0.0366212
10, 140, 0.785327
10, 141, 0.513419
10, 142, -1
10, 143, 0.412246
10, 144, -0.263566
10, 145, -1
10, 146, 0.487098
10, 147, 0.00185977
10, 148, -1
10, 149, 0.884683
10, 150, 0.527918
10, 151, 0.0696694
10, 152, -0.263562
10, 153, -1
10, 154, -1
10, 155, 0.28061
10, 156, -1
10, 157, -0.517101
10, 158, 0.496053
10, 159, -0.299474
10, 160, 0.736066
10, 161, -0.858078
10, 162, -0.258535
10, 163, 0.358105
10, 164, -1
10, 165, -1
10, 166, -0.521611
10, 167, 0.0408199
10, 168, -0.32568
10, 169, -1
10, 170, -1
10, 171, -0.263553
10, 172, 0.0696881
10, 173, -1
10, 174, 0.416047
10, 175, -1
10, 176, -0.884116
10, 177, 0.0696925
10, 178, 0.649231
10, 179, -1
10, 180, -0.92721
10, 181, -0.263548
10, 182, 0.0870606
10, 183, -0.301066
10, 184, 0.0696987
10, 185, 0.721114
10, 186, 0.704762
10, 187, 0.061603
10, 188, -0.292459
10, 189, -0.884115
10, 190, -1
10, 191, 0.649209
10, 192, 0.00818364
10, 193, -0.0973701
10, 194, 0.397382
10, 195, 0.00013452
10, 196, -0.395836
10, 197, 0.361869
10, 198, -1
10, 199, 0.999458
10, 200, -1
10, 201, -0.63762
10, 202, -1
10, 203, 0.536978
10, 204, -1
10, 205, 0.448255
10, 206, -0.178165
10, 207, -1
10, 208, -1
10, 209, -1
10, 210, -1
10, 211, -0.576471
10, 212, 0.236326
10, 213, 0.227925
10, 214, 0.26949
10, 215, 0.311786
10, 216, 0.297736
10, 217, 0.431307
10, 218, -1
10, 219, -1
10, 220, -0.89695
10, 221, 0.498254
10, 222, 0.402242
10, 223, -1
10, 224, -0.102928
10, 225, 0.0899998
10, 226, 0.394126
10, 227, 0.415624
10, 228, -0.293643
10, 229, -0.146195
10, 230, 0.525994
10, 231, -0.583821
10, 232, -1
10, 233, 0.48217
10, 234, 0.419084
10, 235, -1
10, 236, -0.473739
10, 237, -1
10, 238, -1
10, 239, -0.652265
10, 240, -1
10, 241, -1
10, 242, 0.402999
10, 243, -0.255217
10, 244, -1
10, 245, -1
10, 246, -1
10, 247, 0.0701512
10, 248, -0.782885
10, 249, 0.371853
10, 250, -1
10, 251, -1
10, 252, 0.848925
10, 253, -1
10, 254, -1
10, 255, -0.983808
10, 256, -0.273113
10, 257, 0.64731
10, 258, -1
10, 259, -0.563733
10, 260, -0.828029
10, 261, 0.910761
10, 262, -0.101245
10, 263, -1
10, 264, -0.186453
10, 265, -0.88411
10, 266, -0.884109
10, 267, 0.456323
10, 268, -0.884109
10, 269, -0.663638
10, 270, -1
10, 271, -0.709593
10, 272, -0.302239
10, 273, -1
10, 274, 0.124286
10, 275, -0.588898
10, 276, -1
10, 277, 0.0455318
10, 278, 0.324803
10, 279, 0.359396
10, 280, -0.950766
10, 281, 0.403053
10, 282, -0.263498
10, 283, 0.774837
10, 284, 0.407724
10, 285, 0.378784
10, 286, -1
10, 287, 0.77277
10, 288, -0.727176
10, 289, -1
10, 290, -0.717264
10, 291, -1
10, 292, -1
10, 293, 0.0407405
10, 294, -0.511443
10, 295, -1
10, 296, 0.738026
10, 297, -0.26349
10, 298, 0.667931
10, 299, 0.741446
10, 300, 0.370164
10, 301, -1
10, 302, 0.941795
10, 303, -1
10, 304, -1
10, 305, 0.335892
10, 306, -0.884107
10, 307, -1
10, 308, -1
10, 309, 0.554421
10, 310, -0.12974
10, 311, -1
10, 312, -0.79067
10, 313, -0.993037
10, 314, -1
10, 315, 0.4031
10, 316, -0.00566585
10, 317, -1
10, 318, 0.266374
10, 319, 0.868605
10, 320, -0.945664
10, 321, 0.525566
10, 322, -1
10, 323, -1
10, 324, -1
10, 325, -1
10, 326, -0.630305
10, 327, -0.921668
10, 328, 0.703555
10, 329, -1
10, 330, 0.8382
10, 331, -1
10, 332, -0.747222
10, 333, 0.0587113
10, 334, -1
10, 335, -0.298009
10, 336, -0.0161464
10, 337, -1
10, 338, -1
10, 339, -0.118598
10, 340, -0.103727
10, 341, 0.15797
10, 342, -0.200896
10, 343, -1
10, 344, -1
10, 345, 0.59457
10, 346, 0.494169
10, 347, 0.40313
10, 348, -0.924084
10, 349, -0.759432
10, 350, 0.697021
10, 351, -0.198254
10, 352, -1
10, 353, -0.689999
10, 354, 0.55198
10, 355, -0.638683
10, 356, -0.868792
10, 357, 0.910227
10, 358, -0.926798
10, 359, -1
10, 360, -1
10, 361, -1
10, 362, -1
10, 363, -1
10, 364, 0.816539
10, 365, -1
10, 366, -0.294766
10, 367, -1
10, 368, -0.067366
10, 369, -0.192346
10, 370, -0.207434
10, 371, 0.0529412
10, 372, -0.217517
10, 373, 0.703942
10, 374, 0.623995
10, 375, 0.935253
10, 376, -1
10, 377, -0.0116004
10, 378, -0.144991
10, 379, 0.306057
10, 380, 0.00740497
10, 381, 0.784998
10, 382, -1
10, 383, -0.182578
10, 384, 0.742346
10, 385, 0.442708
10, 386, 0.069878
10, 387, -1
10, 388, 0.373848
10, 389, 0.400923
10, 390, 0.999946
10, 391, -0.0850589
10, 392, -1
10, 393, 0.801255
10, 394, 0.308293
10, 395, 0.378664
10, 396, -0.663706
10, 397, 0.814976
10, 398, -1
10, 399, -1
11, 0, -1
11, 1, -1
11, 2, 0.602666
11, 3, 0.17472
11, 4, -1
11, 5, -1
11, 6, -0.798577
11, 7, -1
11, 8, 0.039832
11, 9, 0.278992
11, 10, 0.127459
11, 11, -1
11, 12, -1
11, 13, -0.0135232
11, 14, -0.988958
11, 15, -1
11, 16, -0.996684
11, 17, 0.735778
11, 18, -1
11, 19, 0.492337
11, 20, -0.0299145
11, 21, -0.124593
11, 22, -1
11, 23, -0.263627
11, 24, -1
11, 25, 0.0127762
11, 26, -1
11, 27, -1
11, 28, -1
11, 29, 0.386196
11, 30, -1
11, 31, -0.884126
11, 32, -1
11, 33, 0.0508447
11, 34, 0.265664
11, 35, 0.748098
11, 36, 0.588303
11, 37, 0.380583
11, 38, -1
11, 39, 0.240382
11, 40, -1
11, 41, -0.263618
11, 42, -0.234448
11, 43, -1
11, 44, -1
11, 45, 0.437749
11, 46, 0.729192
11, 47, -1
11, 48, -0.263615
11, 49, 0.805854
11, 50, 0.469724
11, 51, 0.836654
11, 52, -1
11, 53, 0.24783
11, 54, -1
11, 55, -0.142677
11, 56, -1
11, 57, -1
11, 58, -0.534988
11, 59, -1
11, 60, -0.052756
11, 61, -1
11, 62, -1
11, 63, 0.910579
11, 64, 0.93835
11, 65, 0.543424
11, 66, -0.752654
11, 67, 0.215426
11, 68, -0.884124
11, 69, -1
11, 70, 0.987251
11, 71, -1
11, 72, 0.152385
11, 73, -0.938513
11, 74, -0.646807
11, 75, -0.175019
11, 76, 0.540924
11, 77, -1
11, 78, -0.634507
11, 79, -0.133704
11, 80, -0.186025
11, 81, -1
11, 82, 0.999156
11, 83, -1
11, 84, -1
11, 85, -1
11, 86, -1
11, 87, 0.215325
11, 88, -1
11, 89, 0.400474
11, 90, -0.298899
11, 91, 0.656605
11, 92, -0.227609
11, 93, 0.353844
11, 94, -0.817036
11, 95, -0.470039
11, 96, -0.451674
11, 97, -0.14419
11, 98, 0.0710253
11, 99, -0.382003
11, 100, 0.389004
11, 101, -0.884121
11, 102, 0.739768
11, 103, -0.973075
11, 104, -1
11, 105, -1
11, 106, 0.477683
11, 107, -0.563891
11, 108, -0.940809
11, 109, -1
11, 110, -1
11, 111, 0.215103
11, 112, -1
11, 113, -1
11, 114, 0.88485
11, 115, 0.347513
11, 116, -1
11, 117, -1
11, 118, -1
11, 119, -0.669388
11, 120, 0.198447
11, 121, -0.651311
11, 122, 0.424744
11, 123, -1
11, 124, -1
11, 125, 0.646615
11, 126, -1
11, 127, -0.416415
11, 128, 0.0696481
11, 129, -0.260636
11, 130, -1
11, 131, -1
11, 132, 0.207341
11, 133, -0.0409888
11, 134, -0.345689
11, 135, -1
11, 136, -0.263571
11, 137, -1
11, 138, -1
11, 139, 0.363995
11, 140, -0.850007
11, 141, -0.884118
11, 142, 0.0696606
11, 143, -1
11, 144, -0.263567
11, 145, -1
11, 146, 0.853582
11, 147, -1
11, 148, -1
11, 149, -0.310162
11, 150, -1
11, 151, -1
11, 152, 0.468786
11, 153, -1
11, 154, -1
11, 155, 0.999343
11, 156, -1
11, 157, -1
11, 158, -1
11, 159, -0.846802
11, 160, -0.3541
11, 161, -1
11, 162, -0.670139
11, 163, -0.281465
11, 164, 0.777057
11, 165, 0.670686
11, 166, -1
11, 167, -1
11, 168, 0.357068
11, 169, -1
11, 170, 0.485984
11, 171, -1
11, 172, -1
11, 173, -1
11, 174, -0.950112
11, 175, -1
11, 176, -0.335595
11, 177, 0.81986
11, 178, 0.353348
11, 179, -1
11, 180, -1
11, 181, -1
11, 182, -1
11, 183, 0.898726
11, 184, 0.866804
11, 185, -1
11, 186, -0.204534
11, 187, -0.0783053
11, 188, -1
11, 189, 0.350089
11, 190, 0.168255
11, 191, -1
11, 192, 0.695723
11, 193, -0.969794
11, 194, -0.0968098
11, 195, -0.806823
11, 196, 0.599039
11, 197, -0.279959
11, 198, -1
11, 199, 0.0361003
11, 200, -0.296807
11, 201, -1
11, 202, -0.347562
11, 203, -0.0589049
11, 204, 0.817066
11, 205, 0.0444568
11, 206, 0.15131
11, 207, 0.654528
11, 208, -1
11, 209, -0.232485
11, 210, 0.121787
11, 211, -1
11, 212, -1
11, 213, -0.0641059
11, 214, 0.503848
11, 215, 0.864193
11, 216, 0.402435
11, 217, -1
11, 218, -0.663832
11, 219, -0.854432
11, 220, 0.764995
11, 221, 0.833485
11, 222, 0.939693
11, 223, -0.802326
11, 224, 0.19978
11, 225, -0.885317
11, 226, -0.00120136
11, 227, -1
11, 228, -0.602242
11, 229, -1
11, 230, 0.176886
11, 231, 0.690788
11, 232, 0.688642
11, 233, -1
11, 234, -1
11, 235, 0.736213
11, 236, -0.903362
11, 237, 0.437516
11, 238, -0.264405
11, 239, -1
11, 240, 0.731703
11, 241, -1
11, 242, -1
11, 243, 0.442243
11, 244, -0.121625
11, 245, -1
11, 246, -0.00410072
11, 247, 0.391593
11, 248, -1
11, 249, 0.236356
11, 250, 0.0634711
11, 251, -1
11, 252, -0.884111
11, 253, -0.263513
11, 254, -0.433933
11, 255, -1
11, 256, -0.88411
11, 257, -1
11, 258, -1
11, 259, -0.0288712
11, 260, 0.606453
11, 261, 0.403024
11, 262, -1
11, 263, 0.725539
11, 264, 0.00657074
11, 265, -1
11, 266, 0.431409
11, 267, 0.676108
11, 268, 0.0205627
11, 269, -1
11, 270, 0.690883
11, 271, -1
11, 272, -1
11, 273, -0.881725
11, 274, -1
11, 275, -0.864536
11, 276, -1
11, 277, -0.263501
11, 278, -1
11, 279, -0.884109
11, 280, 0.658306
11, 281, 0.324691
11, 282, -1
11, 283, -1
11, 284, -1
11, 285, 0.0697874
11, 286, -1
11, 287, -0.884108
11, 288, -0.511749
11, 289, -0.242065
11, 290, 0.190087
11, 291, -1
11, 292, 0.603532
11, 293, 0.0777206
11, 294, -1
11, 295, -0.248934
11, 296, -0.835472
11, 297, 0.0697981
11, 298, -0.836428
11, 299, -0.0555738
11, 300, 0.0667701
11, 301, -1
11, 302, 0.133232
11, 303, -0.99251
11, 304, -1
11, 305, 0.0136639
11, 306, 0.0208839
11, 307, -1
11, 308, 0.0720325
11, 309, -1
11, 310, -1
11, 311, -0.17952
11, 312, 0.71431
11, 313, -1
11, 314, 0.879898
11, 315, 0.71016
11, 316, 0.0627892
11, 317, 0.23257
11, 318, 0.736379
11, 319, 0.427409
11, 320, 0.681123
11, 321, -0.28952
11, 322, -1
11, 323, 0.646128
11, 324, 0.313036
11, 325, -1
11, 326, -0.822826
11, 327, 0.53403
11, 328, -1
11, 329, -1
11, 330, -1
11, 331, 0.289814
11, 332, 0.741247
11, 333, 0.621868
11, 334, -1
11, 335, 0.314077
11, 336, -1
11, 337, -0.90762
11, 338, -0.217823
11, 339, 0.938427
11, 340, 0.403134
11, 341, -1
11, 342, -0.0801816
11, 343, -0.134494
11, 344, -0.900202
11, 345, -1
11, 346, -1
11, 347, 0.15596
11, 348, 0.94841
11, 349, -1
11, 350, -1
11, 351, 0.224466
11, 352, -1
11, 353, -1
11, 354, 0.542
11, 355, 0.143233
11, 356, -1
11, 357, 0.403157
11, 358, -1
11, 359, -1
11, 360, 0.0106975
11, 361, -1
11, 362, 0.334934
11, 363, 0.0698567
11, 364, 0.0698575
11, 365, -0.377728
11, 366, 0.726659
11, 367, 0.412018
11, 368, 0.760626
11, 369, -0.827134
11, 370, -0.780011
11, 371, -1
11, 372, -0.120051
11, 373, 0.545514
11, 374, 0.0956792
11, 375, 0.736493
11, 376, -0.00142269
11, 377, 0.403185
11, 378, -1
11, 379, -1
11, 380, -0.184597
11, 381, -0.545066
11, 382, 0.736507
11, 383, 0.0262656
11, 384, 0.0698753
11, 385, -1
11, 386, 0.19192
11, 387, -0.991789
11, 388, 0.591676
11, 389, 0.916315
11, 390, -0.127735
11, 391, -1
11, 392, 0.662075
11, 393, -1
11, 394, -0.950167
11, 395, -0.187982
11, 396, -0.112276
11, 397, -1
11, 398, 0.75775
11, 399, -1
12, 0, 0.0695337
12, 1, -0.60657
12, 2, -0.884129
12, 3, -1
12, 4, 0.442677
12, 5, 0.643912
12, 6, 0.735754
12, 7, -0.843668
12, 8, -0.269765
12, 9, -1
12, 10, -0.313082
12, 11, 0.524407
12, 12, -0.772862
12, 13, -1
12, 14, -1
12, 15, 0.0836127
12, 16, -0.901933
12, 17, 0.037388
12, 18, 0.493384
12, 19, 0.149667
12, 20, 0.17491
12, 21, -0.908937
12, 22, 0.515001
12, 23, -0.997311
12, 24, -1
12, 25, -1
12, 26, 0.135051
12, 27, -0.900144
12, 28, -0.424153
12, 29, -0.11699
12, 30, -0.398911
12, 31, -1
12, 32, -0.0658115
12, 33, 0.211772
12, 34, -1
12, 35, -0.966019
12, 36, -1
12, 37, 0.0376389
12, 38, -1
12, 39, -0.673407
12, 40, -1
12, 41, 0.00594368
12, 42, -1
12, 43, 0.341876
12, 44, -0.233659
12, 45, -1
12, 46, -1
12, 47, -0.249016
12, 48, -1
12, 49, 0.770965
12, 50, -1
12, 51, -0.198371
12, 52, 0.326533
12, 53, 0.685596
12, 54, 0.0416508
12, 55, 0.709095
12, 56, -0.734146
12, 57, -1
12, 58, 0.257611
12, 59, -0.76441
12, 60, -1
12, 61, -0.0588442
12, 62, -1
12, 63, 0.130584
12, 64, -1
12, 65, -1
12, 66, 0.310517
12, 67, 0.334834
12, 68, 0.069594
12, 69, -0.632657
12, 70, -1
12, 71, 0.476942
12, 72, -0.858256
12, 73, -0.527075
12, 74, -0.952621
12, 75, 0.365388
12, 76, 0.235414
12, 77, -0.694485
12, 78, -1
12, 79, -0.752488
12, 80, 0.86617
12, 81, -0.251419
12, 82, -0.114616
12, 83, -0.019013
12, 84, -1
12, 85, -1
12, 86, -0.249885
12, 87, -1
12, 88, -1
12, 89, -1
12, 90, -1
12, 91, -0.901345
12, 92, -0.41063
12, 93, -0.877886
12, 94, -1
12, 95, -1
12, 96, -1
12, 97, 0.545717
12, 98, 0.215308
12, 99, 0.776502
12, 100, 0.38909
12, 101, 0.0696233
12, 102, -0.263588
12, 103, 0.464277
12, 104, -1
12, 105, -0.508304
12, 106, -0.0639772
12, 107, -0.263586
12, 108, -0.304832
12, 109, 0.0621598
12, 110, 0.199759
12, 111, -0.908983
12, 112, 0.75917
12, 113, -1
12, 114, 0.842101
12, 115, 0.490736
12, 116, -0.493188
12, 117, -1
12, 118, 0.223461
12, 119, -1
12, 120, -1
12, 121, 0.805923
12, 122, -1
12, 123, -1
12, 124, -1
12, 125, -1
12, 126, -1
12, 127, -0.701724
12, 128, -0.0193753
12, 129, 0.197534
12, 130, -0.0705353
12, 131, -0.290479
12, 132, -1
12, 133, 0.962332
12, 134, -0.996305
12, 135, 0.730556
12, 136, -1
12, 137, 0.636211
12, 138, -0.499593
12, 139, 0.129722
12, 140, -1
12, 141, 0.561007
12, 142, 0.736026
12, 143, -1
12, 144, 0.48331
12, 145, 0.679204
12, 146, 0.201691
12, 147, 0.207785
12, 148, -0.00315518
12, 149, -0.421943
12, 150, 0.584546
12, 151, 0.388566
12, 152, -0.00413715
12, 153, -1
12, 154, -1
12, 155, -0.718591
12, 156, -1
12, 157, -1
12, 158, -0.0672188
12, 159, 0.207938
12, 160, -0.142171
12, 161, -0.707811
12, 162, -1
12, 163, -0.298519
12, 164, -0.0997969
12, 165, -1
12, 166, -1
12, 167, 0.500957
12, 168, 0.127961
12, 169, 0.0696836
12, 170, -0.862242
12, 171, 0.271966
12, 172, -1
12, 173, 0.996766
12, 174, 0.623993
12, 175, 0.635543
12, 176, -0.158414
12, 177, -1
12, 178, -0.322086
12, 179, -0.929695
12, 180, 0.605068
12, 181, -1
12, 182, 0.772146
12, 183, 0.416836
12, 184, -0.654161
12, 185, 0.258833
12, 186, -1
12, 187, -1
12, 188, -0.663316
12, 189, -1
12, 190, 0.341206
12, 191, 0.0242301
12, 192, -0.181737
12, 193, 0.101147
12, 194, -1
12, 195, -1
12, 196, 0.915857
12, 197, -1
12, 198, 0.0709737
12, 199, -1
12, 200, -0.4385
12, 201, 0.412569
12, 202, -1
12, 203, 0.0789969
12, 204, 0.393151
12, 205, 0.0015669
12, 206, -1
12, 207, -1
12, 208, 0.921118
12, 209, -0.502741
12, 210, -1
12, 211, -0.349416
12, 212, -0.275575
12, 213, -1
12, 214, -1
12, 215, -0.157005
12, 216, -0.095179
12, 217, -1
12, 218, -0.170935
12, 219, 0.73015
12, 220, -0.26353
12, 221, 0.763162
12, 222, -0.888807
12, 223, 0.317069
12, 224, -0.352451
12, 225, -0.858982
12, 226, -0.0116483
12, 227, -1
12, 228, -0.884112
12, 229, -1
12, 230, -0.237999
12, 231, 0.473705
12, 232, 0.0166156
12, 233, -0.884112
12, 234, -1
12, 235, -0.884112
12, 236, -1
12, 237, 0.628625
12, 238, 0.0452312
12, 239, 0.736219
12, 240, -1
12, 241, 0.0697475
12, 242, -1
12, 243, -0.101683
12, 244, -1
12, 245, -1
12, 246, 0.314181
12, 247, 0.403003
12, 248, -1
12, 249, 0.999581
12, 250, -0.922287
12, 251, -1
12, 252, 0.0619177
12, 253, 0.650628
12, 254, 0.531956
12, 255, -1
12, 256, 0.92314
12, 257, -0.88411
12, 258, -1
12, 259, -1
12, 260, -1
12, 261, 0.123005
12, 262, 0.0697661
12, 263, 0.242573
12, 264, 0.587703
12, 265, -1
12, 266, -1
12, 267, 0.664056
12, 268, -0.579668
12, 269, -0.887714
12, 270, -0.0258631
12, 271, -1
12, 272, 0.600292
12, 273, -0.540725
12, 274, -0.143427
12, 275, -0.89991
12, 276, -0.256994
12, 277, -1
12, 278, 0.5002
12, 279, -0.151974
12, 280, 0.137866
12, 281, -1
12, 282, 0.443384
12, 283, -1
12, 284, 0.380802
12, 285, 0.510875
12, 286, -0.593627
12, 287, -0.233131
12, 288, -1
12, 289, -1
12, 290, -0.636039
12, 291, 0.216103
12, 292, -0.0464061
12, 293, 0.0885507
12, 294, 0.328038
12, 295, -0.955145
12, 296, -1
12, 297, -0.263491
12, 298, -1
12, 299, -1
12, 300, 0.71569
12, 301, 0.0698007
12, 302, -0.178983
12, 303, -0.327082
12, 304, -0.87166
12, 305, 0.879458
12, 306, 0.109153
12, 307, -0.0886075
12, 308, 0.249215
12, 309, -1
12, 310, 0.5492
12, 311, 0.303185
12, 312, -1
12, 313, 0.45066
12, 314, 0.403096
12, 315, 0.888728
12, 316, -1
12, 317, 0.795188
12, 318, -1
12, 319, 0.447939
12, 320, -0.840021
12, 321, -0.707145
12, 322, 0.401003
12, 323, 0.390132
12, 324, 0.134972
12, 325, -0.873433
12, 326, -1
12, 327, 0.846395
12, 328, 0.0545071
12, 329, -1
12, 330, 0.334413
12, 331, -1
12, 332, 0.0885766
12, 333, -1
12, 334, 0.06983
12, 335, -1
12, 336, 0.322321
12, 337, -1
12, 338, -0.301074
12, 339, 0.0504212
12, 340, -1
12, 341, -0.884104
12, 342, 0.778591
12, 343, -1
12, 344, 0.517529
12, 345, -0.172682
12, 346, 0.234454
12, 347, 0.63418
12, 348, -0.71183
12, 349, 0.247831
12, 350, -0.417713
12, 351, -0.245718
12, 352, 0.403149
12, 353, -1
12, 354, 0.403152
12, 355, -0.738256
12, 356, -0.884103
12, 357, 0.736455
12, 358, 0.408549
12, 359, 0.683598
12, 360, 0.387111
12, 361, 0.069854
12, 362, -1
12, 363, -1
12, 364, 0.0698567
12, 365, 0.403167
12, 366, -1
12, 367, -1
12, 368, 0.255301
12, 369, -0.026092
12, 370, -0.275777
12, 371, -0.263454
12, 372, 0.194955
12, 373, -0.207488
12, 374, 0.112999
12, 375, -1
12, 376, 0.8526
12, 377, -0.992253
12, 378, 0.525234
12, 379, -1
12, 380, 0.498156
12, 381, -0.884101
12, 382, -0.832903
12, 383, -1
12, 384, -0.0433479
12, 385, -1
12, 386, -0.101224
12, 387, -0.512501
12, 388, 0.136386
12, 389, -0.821496
12, 390, -0.854973
12, 391, -1
12, 392, 0.863866
12, 393, -1
12, 394, -0.764419
12, 395, -1
12, 396, 0.0779964
12, 397, -0.461922
12, 398, -1
12, 399, -1
13, 0, 0.40266
13, 1, 0.622676
13, 2, -0.263639
13, 3, -0.880331
13, 4, 0.735748
13, 5, -1
13, 6, -0.422555
13, 7, 0.423816
13, 8, -1
13, 9, -1
13, 10, 0.224173
13, 11, 0.0184775
13, 12, -0.818632
13, 13, -0.0848731
13, 14, 0.537372
13, 15, 0.0487545
13, 16, 0.306642
13, 17, -0.303732
13, 18, -0.272097
13, 19, -0.96804
13, 20, -0.649219
13, 21, -0.311073
13, 22, -0.152324
13, 23, 0.886989
13, 24, -0.439752
13, 25, 0.83842
13, 26, 0.176841
13, 27, -1
13, 28, 0.947732
13, 29, 0.164679
13, 30, -1
13, 31, -0.237652
13, 32, -1
13, 33, -0.516758
13, 34, 0.069563
13, 35, -1
13, 36, -1
13, 37, 0.51431
13, 38, 0.00770582
13, 39, -1
13, 40, 0.879933
13, 41, 0.803313
13, 42, 0.0109712
13, 43, -0.853418
13, 44, 0.356987
13, 45, -1
13, 46, 0.86852
13, 47, -1
13, 48, -0.153306
13, 49, 0.645536
13, 50, -1
13, 51, -1
13, 52, -0.965465
13, 53, 0.0860094
13, 54, -1
13, 55, -0.263612
13, 56, 0.688775
13, 57, 0.110819
13, 58, -0.014061
13, 59, -0.388559
13, 60, -0.884124
13, 61, -0.251651
13, 62, -0.600158
13, 63, -1
13, 64, -0.268012
13, 65, -0.296146
13, 66, -1
13, 67, 0.0695922
13, 68, -0.884124
13, 69, -0.896553
13, 70, -0.263605
13, 71, -1
13, 72, -1
13, 73, 0.735886
13, 74, -1
13, 75, -0.391811
13, 76, 0.738125
13, 77, 0.0934116
13, 78, -1
13, 79, -1
13, 80, 0.212554
13, 81, -0.884123
13, 82, -1
13, 83, 0.0816167
13, 84, -0.263598
13, 85, -0.884123
13, 86, -1
13, 87, -1
13, 88, -1
13, 89, -0.715595
13, 90, 0.236231
13, 91, -1
13, 92, 0.0696144
13, 93, -0.241548
13, 94, -1
13, 95, 0.475904
13, 96, 0.667923
13, 97, -1
13, 98, -0.263591
13, 99, 0.735938
13, 100, -0.884122
13, 101, 0.0696224
13, 102, 0.402801
13, 103, -1
13, 104, -0.263588
13, 105, 0.521908
13, 106, 0.402806
13, 107, -1
13, 108, -0.930732
13, 109, 0.0696295
13, 110, -1
13, 111, 0.783116
13, 112, 0.577867
13, 113, -1
13, 114, -1
13, 115, -0.780344
13, 116, 0.527565
13, 117, -1
13, 118, -0.308794
13, 119, -0.351561
13, 120, -0.395292
13, 121, 0.787032
13, 122, -0.246415
13, 123, 0.495869
13, 124, -0.968346
13, 125, -0.101177
13, 126, -0.00859535
13, 127, -1
13, 128, -0.317275
13, 129, 0.100794
13, 130, 0.40284
13, 131, -0.265718
13, 132, 0.736004
13, 133, -0.646661
13, 134, 0.550156
13, 135, -1
13, 136, -1
13, 137, -1
13, 138, -1
13, 139, -0.0577458
13, 140, 0.164493
13, 141, -1
13, 142, -1
13, 143, -0.425702
13, 144, -0.235259
13, 145, -0.0870248
13, 146, -0.0141626
13, 147, 0.715162
13, 148, -0.190972
13, 149, 0.435125
13, 150, -1
13, 151, -0.559325
13, 152, -0.0539517
13, 153, 0.438057
13, 154, 0.628902
13, 155, 0.106966
13, 156, -1
13, 157, -1
13, 158, 0.27214
13, 159, -1
13, 160, -0.461881
13, 161, 0.276685
13, 162, 0.177876
13, 163, -0.0400618
13, 164, -1
13, 165, -1
13, 166, -0.131796
13, 167, -1
13, 168, -1
13, 169, 0.0696827
13, 170, -0.89403
13, 171, 0.277322
13, 172, -0.790261
13, 173, 0.416109
13, 174, -1
13, 175, 0.486832
13, 176, 0.81288
13, 177, -0.192748
13, 178, 0.0790329
13, 179, -1
13, 180, -1
13, 181, 0.46651
13, 182, -0.115342
13, 183, 0.0646478
13, 184, -0.219287
13, 185, -1
13, 186, -0.300664
13, 187, -1
13, 188, -0.884115
13, 189, -1
13, 190, -1
13, 191, -0.0847323
13, 192, -0.0275618
13, 193, 0.264406
13, 194, -1
13, 195, 0.0120333
13, 196, 0.736132
13, 197, -1
13, 198, -0.165541
13, 199, -0.0842369
13, 200, 0.525783
13, 201, -1
13, 202, -0.173516
13, 203, -1
13, 204, 0.0697138
13, 205, -0.884114
13, 206, 0.140008
13, 207, 0.0315812
13, 208, 0.0746022
13, 209, -1
13, 210, 0.0622857
13, 211, -0.00308686
13, 212, 0.0697209
13, 213, 0.742411
13, 214, -1
13, 215, -1
13, 216, -1
13, 217, 0.396408
13, 218, 0.908051
13, 219, -1
13, 220, 0.0898828
13, 221, -1
13, 222, -0.293966
13, 223, -1
13, 224, 0.391041
13, 225, -0.303507
13, 226, -0.875827
13, 227, -0.263527
13, 228, 0.33908
13, 229, 0.0213703
13, 230, -1
13, 231, -1
13, 232, 0.443189
13, 233, -0.263524
13, 234, -1
13, 235, -1
13, 236, 0.0403987
13, 237, -0.229411
13, 238, 0.292204
13, 239, -1
13, 240, -0.581366
13, 241, -1
13, 242, 0.314765
13, 243, -1
13, 244, -1
13, 245, -1
13, 246, 0.770915
13, 247, 0.829204
13, 248, -0.598429
13, 249, 0.726997
13, 250, 0.403006
13, 251, 0.711028
13, 252, -1
13, 253, -0.844436
13, 254, 0.305057
13, 255, 0.162625
13, 256, -0.261337
13, 257, 0.766554
13, 258, -0.971397
13, 259, 0.995506
13, 260, -0.932394
13, 261, -0.891961
13, 262, -1
13, 263, 0.669487
13, 264, 0.069767
13, 265, 0.736269
13, 266, -1
13, 267, 0.57443
13, 268, -0.736981
13, 269, -0.494856
13, 270, -1
13, 271, -0.191849
13, 272, 0.123714
13, 273, -0.0449774
13, 274, 0.561774
13, 275, 0.165061
13, 276, -1
13, 277, -0.33139
13, 278, -0.259668
13, 279, -0.188155
13, 280, 0.564873
13, 281, 0.365285
13, 282, -1
13, 283, 0.740202
13, 284, 0.897677
13, 285, 0.272056
13, 286, -1
13, 287, -0.0822182
13, 288, 0.0458357
13, 289, -1
13, 290, -0.940101
13, 291, 0.0346165
13, 292, -0.840636
13, 293, -1
13, 294, -1
13, 295, -0.578629
13, 296, 0.275584
13, 297, -1
13, 298, 0.126291
13, 299, 0.435986
13, 300, 0.591182
13, 301, -1
13, 302, -0.0817937
13, 303, -1
13, 304, -0.211823
13, 305, -1
13, 306, -1
13, 307, -0.256163
13, 308, -1
13, 309, -0.263486
13, 310, 0.801524
13, 311, -1
13, 312, -0.218319
13, 313, -1
13, 314, -0.620555
13, 315, -1
13, 316, 0.403098
13, 317, 0.422465
13, 318, -0.414564
13, 319, 0.999757
13, 320, -1
13, 321, 0.0698176
13, 322, -1
13, 323, -1
13, 324, -0.263478
13, 325, -0.315541
13, 326, 0.518661
13, 327, -0.998885
13, 328, -0.14079
13, 329, -1
13, 330, -0.841193
13, 331, 0.736401
13, 332, -1
13, 333, 0.403121
13, 334, -1
13, 335, 0.0873013
13, 336, -0.153577
13, 337, -0.798559
13, 338, -1
13, 339, -0.884104
13, 340, 0.736419
13, 341, 0.736421
13, 342, -1
13, 343, -1
13, 344, -1
13, 345, 0.123866
13, 346, -1
13, 347, -0.00707188
13, 348, -1
13, 349, 0.114722
13, 350, -1
13, 351, -0.995909
13, 352, 0.679702
13, 353, -0.203285
13, 354, -1
13, 355, -1
13, 356, 0.736451
13, 357, 0.403154
13, 358, 0.403156
13, 359, -0.884103
13, 360, 0.403159
13, 361, 0.263204
13, 362, -1
13, 363, 0.403163
13, 364, -1
13, 365, 0.706862
13, 366, -1
13, 367, -0.884102
13, 368, -1
13, 369, -1
13, 370, 0.0302433
13, 371, 0.739069
13, 372, -1
13, 373, -0.93602
13, 374, 0.621634
13, 375, 0.157199
13, 376, -0.171809
13, 377, 0.673599
13, 378, -1
13, 379, 0.268849
13, 380, -1
13, 381, -1
13, 382, -0.0107644
13, 383, -1
13, 384, -0.939789
13, 385, 0.0690731
13, 386, -1
13, 387, -1
13, 388, -1
13, 389, 0.762982
13, 390, -1
13, 391, 0.860046
13, 392, -1
13, 393, 0.861696
13, 394, 0.0698824
13, 395, -0.263443
13, 396, 0.851177
13, 397, 0.102918
13, 398, 0.932884
13, 399, 0.818547
14, 0, -0.485908
14, 1, -0.883101
14, 2, 0.667972
14, 3, -0.871962
14, 4, -1
14, 5, 0.648848
14, 6, 0.193779
14, 7, 0.892443
14, 8, -1
14, 9, 0.228466
14, 10, -0.944872
14, 11, -0.124439
14, 12, -0.359138
14, 13, 0.720409
14, 14, -1
14, 15, 0.559652
14, 16, -0.681858
14, 17, -1
14, 18, 0.91001
14, 19, -0.907292
14, 20, 0.840027
14, 21, 0.51898
14, 22, 0.211655
14, 23, -1
14, 24, -1
14, 25, -0.0214914
14, 26, 0.268357
14, 27, -1
14, 28, 0.470079
14, 29, -1
14, 30, 0.101623
14, 31, -1
14, 32, 0.447223
14, 33, -1
14, 34, -1
14, 35, 0.77658
14, 36, 0.521081
14, 37, 0.526409
14, 38, 0.0178764
14, 39, 0.730203
14, 40, -1
14, 41, 0.287548
14, 42, -1
14, 43, 0.0695701
14, 44, -1
14, 45, 0.581988
14, 46, -0.244529
14, 47, -0.917766
14, 48, -0.842862
14, 49, -1
14, 50, -0.486073
14, 51, 0.668105
14, 52, -0.681519
14, 53, -0.421929
14, 54, -1
14, 55, 0.202039
14, 56, -0.0680832
14, 57, -0.302147
14, 58, -1
14, 59, -1
14, 60, 0.223613
14, 61, -1
14, 62, -1
14, 63, -1
14, 64, -1
14, 65, -1
14, 66, 0.560374
14, 67, 0.355717
14, 68, 0.0866312
14, 69, -0.0763155
14, 70, 0.645854
14, 71, -0.549659
14, 72, 0.73543
14, 73, 0.16272
14, 74, -1
14, 75, -1
14, 76, -0.950689
14, 77, -1
14, 78, -1
14, 79, -0.72373
14, 80, -0.159869
14, 81, -0.370147
14, 82, -0.0669664
14, 83, 0.151611
14, 84, 0.907803
14, 85, -0.760076
14, 86, -1
14, 87, -1
14, 88, 0.455418
14, 89, -0.29988
14, 90, -1
14, 91, -1
14, 92, -0.744977
14, 93, -1
14, 94, -1
14, 95, -0.194516
14, 96, -1
14, 97, 0.248218
14, 98, -1
14, 99, -0.946039
14, 100, -0.938241
14, 101, 0.348732
14, 102, 0.456633
14, 103, 0.953348
14, 104, -1
14, 105, -1
14, 106, 0.246252
14, 107, -0.849098
14, 108, -1
14, 109, 0.999218
14, 110, 0.165777
14, 111, 0.398704
14, 112, -0.939912
14, 113, 0.108638
14, 114, -1
14, 115, 0.831412
14, 116, 0.583558
14, 117, -1
14, 118, 0.866237
14, 119, -0.0691224
14, 120, -0.215818
14, 121, -1
14, 122, -0.286454
14, 123, -0.575018
14, 124, -1
14, 125, -1
14, 126, -1
14, 127, 0.999264
14, 128, -1
14, 129, -0.839789
14, 130, -1
14, 131, -1
14, 132, -1
14, 133, -1
14, 134, 0.239374
14, 135, -1
14, 136, -0.637771
14, 137, -0.37586
14, 138, -1
14, 139, -0.420355
14, 140, -1
14, 141, 0.349075
14, 142, -1
14, 143, -1
14, 144, -0.904733
14, 145, -1
14, 146, -1
14, 147, -1
14, 148, -0.800422
14, 149, 0.225775
14, 150, -0.421676
14, 151, -0.0224652
14, 152, -0.836377
14, 153, 0.382947
14, 154, -0.861451
14, 155, -0.180547
14, 156, 0.387352
14, 157, 0.169959
14, 158, -1
14, 159, 0.384279
14, 160, 0.444947
14, 161, -0.931942
14, 162, 0.378822
14, 163, 0.550622
14, 164, 0.00336328
14, 165, -1
14, 166, 0.0453846
14, 167, 0.584261
14, 168, 0.238645
14, 169, -0.447973
14, 170, -1
14, 171, 0.449352
14, 172, -1
14, 173, 0.908718
14, 174, -1
14, 175, 0.84615
14, 176, 0.291736
14, 177, -1
14, 178, -1
14, 179, 0.510759
14, 180, -0.557886
14, 181, -1
14, 182, -1
14, 183, 0.706522
14, 184, 0.189337
14, 185, -1
14, 186, -1
14, 187, -1
14, 188, 0.279792
14, 189, -1
14, 190, 0.373248
14, 191, 0.171785
14, 192, -0.182015
14, 193, -0.804196
14, 194, -0.784828
14, 195, 0.461973
14, 196, 0.155833
14, 197, 0.762968
14, 198, -0.765576
14, 199, -1
14, 200, -0.140017
14, 201, 0.098951
14, 202, -1
14, 203, -0.937716
14, 204, -1
14, 205, 0.999463
14, 206, -1
14, 207, 0.634275
14, 208, 0.356123
14, 209, 0.747034
14, 210, -0.0474973
14, 211, -1
14, 212, -1
14, 213, -0.188449
14, 214, 0.306483
14, 215, -0.444891
14, 216, 0.651978
14, 217, 0.160235
14, 218, 0.110479
14, 219, -1
14, 220, -0.0504918
14, 221, -1
14, 222, -1
14, 223, -1
14, 224, -0.789235
14, 225, -1
14, 226, 0.505092
14, 227, -0.170457
14, 228, 0.677146
14, 229, -0.42946
14, 230, 0.300657
14, 231, -1
14, 232, 0.272459
14, 233, 0.290017
14, 234, 0.136918
14, 235, 0.534607
14, 236, -0.727524
14, 237, 0.630945
14, 238, 0.635522
14, 239, 0.570587
14, 240, 0.314278
14, 241, -0.963464
14, 242, 0.744162
14, 243, -0.602812
14, 244, 0.0982467
14, 245, 0.461363
14, 246, -0.194669
14, 247, -1
14, 248, -1
14, 249, -0.879384
14, 250, -1
14, 251, 0.0575976
14, 252, 0.789032
14, 253, -0.972073
14, 254, 0.204325
14, 255, -1
14, 256, -1
14, 257, -0.712146
14, 258, 0.213478
14, 259, -0.893839
14, 260, 0.075657
14, 261, -0.820261
14, 262, -0.0900589
14, 263, -1
14, 264, -1
14, 265, 0.676829
14, 266, -1
14, 267, -0.610489
14, 268, -0.117216
14, 269, 0.168011
14, 270, 0.447396
14, 271, 0.124256
14, 272, 0.421928
14, 273, 0.59277
14, 274, -0.979809
14, 275, -1
14, 276, -1
14, 277, -0.118653
14, 278, -1
14, 279, -1
14, 280, 0.25074
14, 281, 0.209181
14, 282, 0.523442
14, 283, -1
14, 284, 0.343149
14, 285, -0.993616
14, 286, -0.726003
14, 287, -0.747802
14, 288, -0.279978
14, 289, 0.891066
14, 290, 0.0192019
14, 291, 0.616792
14, 292, -1
14, 293, 0.96207
14, 294, -1
14, 295, 0.550457
14, 296, 0.812619
14, 297, 0.438194
14, 298, 0.697819
14, 299, -1
14, 300, -1
14, 301, 0.419762
14, 302, 0.186572
14, 303, -0.469309
14, 304, -0.257547
14, 305, 0.622073
14, 306, 0.051398
14, 307, -1
14, 308, -1
14, 309, 0.379715
14, 310, -0.0733438
14, 311, -0.199086
14, 312, -0.307356
14, 313, -1
14, 314, 0.428513
14, 315, -1
14, 316, -1
14, 317, 0.750863
14, 318, -1
14, 319, 0.621233
14, 320, 0.528003
14, 321, 0.224127
14, 322, -0.447317
14, 323, 0.31579
14, 324, 0.225255
14, 325, 0.325496
14, 326, -0.884105
14, 327, -1
14, 328, -1
14, 329, -1
14, 330, -1
14, 331, -0.864997
14, 332, -0.412223
14, 333, 0.506139
14, 334, 0.562976
14, 335, 0.309707
14, 336, 0.37061
14, 337, -0.381723
14, 338, -1
14, 339, -1
14, 340, -0.957505
14, 341, 0.0505499
14, 342, 0.403132
14, 343, -1
14, 344, 0.359562
14, 345, -1
14, 346, -0.863833
14, 347, -1
14, 348, -1
14, 349, -1
14, 350, 0.179827
14, 351, 0.147075
14, 352, -1
14, 353, -1
14, 354, -1
14, 355, 0.0814116
14, 356, -0.0880938
14, 357, -1
14, 358, -0.8877
14, 359, 0.00313886
14, 360, -0.00102806
14, 361, -1
14, 362, 0.323615
14, 363, -0.682228
14, 364, -1
14, 365, -1
14, 366, 0.152427
14, 367, -1
14, 368, -0.240986
14, 369, -0.324879
14, 370, -1
14, 371, -1
14, 372, -1
14, 373, 0.164004
14, 374, -1
14, 375, -0.166307
14, 376, 0.9999
14, 377, -0.508327
14, 378, -0.124396
14, 379, -1
14, 380, 0.030094
14, 381, 0.999913
14, 382, -0.0586288
14, 383, 0.135077
14, 384, -1
14, 385, 0.320953
14, 386, 0.919559
14, 387, -0.739537
14, 388, 0.653025
14, 389, -0.747863
14, 390, -0.247001
14, 391, -0.966888
14, 392, 0.265572
14, 393, -1
14, 394, -0.054168
14, 395, 0.692209
14, 396, -1
14, 397, -1
14, 398, -1
14, 399, -1
15, 0, 0.180797
15, 1, 0.582438
15, 2, 0.0718061
15, 3, -0.769589
15, 4, 0.712461
15, 5, 0.998949
15, 6, -0.0540641
15, 7, -1
15, 8, 0.282331
15, 9, 0.692177
15, 10, -0.16504
15, 11, 0.585918
15, 12, 0.51655
15, 13, 0.677361
15, 14, 0.984852
15, 15, 0.0903241
15, 16, -0.0196714
15, 17, 0.5091
15, 18, 0.925947
15, 19, -0.95266
15, 20, -1
15, 21, -1
15, 22, -0.230372
15, 23, -0.203793
15, 24, -0.422339
15, 25, -0.442046
15, 26, -0.0926442
15, 27, -0.748119
15, 28, -0.0820983
15, 29, -0.588435
15, 30, -0.492804
15, 31, 0.313969
15, 32, -1
15, 33, 0.374309
15, 34, 0.585218
15, 35, 0.816242
15, 36, -0.952967
15, 37, -1
15, 38, -1
15, 39, -1
15, 40, 0.674948
15, 41, -1
15, 42, 0.222539
15, 43, -0.0844453
15, 44, 0.963808
15, 45, -1
15, 46, 0.880352
15, 47, 0.878747
15, 48, 0.700208
15, 49, -0.14373
15, 50, 0.364646
15, 51, 0.688298
15, 52, 0.581255
15, 53, 0.502371
15, 54, 0.29532
15, 55, 0.251036
15, 56, 0.46207
15, 57, -0.188728
15, 58, 0.802383
15, 59, 0.812432
15, 60, 0.203059
15, 61, -1
15, 62, -0.440561
15, 63, 0.964111
15, 64, 0.727811
15, 65, 0.64698
15, 66, 0.808948
15, 67, 0.44428
15, 68, 0.655985
15, 69, -0.287629
15, 70, 0.777707
15, 71, -0.0656423
15, 72, -1
15, 73, 0.999123
15, 74, 0.251389
15, 75, 0.832746
15, 76, 0.453691
15, 77, 0.0487937
15, 78, -0.11511
15, 79, -0.274067
15, 80, -1
15, 81, 0.82008
15, 82, 0.456369
15, 83, 0.455109
15, 84, -1
15, 85, 0.522701
15, 86, -1
15, 87, 0.896546
15, 88, -0.905523
15, 89, 0.988454
15, 90, 0.532731
15, 91, 0.999169
15, 92, 0.747631
15, 93, 0.849444
15, 94, 0.0789954
15, 95, -0.495973
15, 96, 0.299517
15, 97, 0.423475
15, 98, 0.973111
15, 99, -0.858631
15, 100, 0.367305
15, 101, -1
15, 102, 0.683522
15, 103, 0.840492
15, 104, -0.134387
15, 105, -0.419223
15, 106, 0.763315
15, 107, 0.111142
15, 108, 0.999213
15, 109, 0.999215
15, 110, -0.169176
15, 111, 0.96041
15, 112, 0.855788
15, 113, -0.979774
15, 114, 0.111841
15, 115, 0.93282
15, 116, 0.721153
15, 117, -0.8884
15, 118, 0.638064
15, 119, -0.450019
15, 120, 0.056312
15, 121, -0.991298
15, 122, -0.880287
15, 123, -0.778854
15, 124, 0.79314
15, 125, -0.392074
15, 126, 0.966357
15, 127, 0.154934
15, 128, 0.537594
15, 129, -0.996229
15, 130, 0.421702
15, 131, 0.213066
15, 132, 0.813088
15, 133, 0.938025
15, 134, -0.182441
15, 135, 0.585596
15, 136, 0.999284
15, 137, -0.87584
15, 138, -1
15, 139, 0.354684
15, 140, 0.0101887
15, 141, 0.950903
15, 142, -0.521926
15, 143, 0.571601
15, 144, 0.795592
15, 145, 0.380027
15, 146, -1
15, 147, 0.705896
15, 148, -0.461265
15, 149, 0.999317
15, 150, -0.865762
15, 151, 0.960945
15, 152, 0.96725
15, 153, -0.556559
15, 154, 0.963928
15, 155, 0.343252
15, 156, -0.570265
15, 157, -0.0938138
15, 158, 0.800218
15, 159, -0.989337
15, 160, 0.0815644
15, 161, -0.572569
15, 162, 0.244743
15, 163, -0.509055
15, 164, 0.878152
15, 165, -0.0915782
15, 166, -0.43469
15, 167, 0.454666
15, 168, 0.969991
15, 169, 0.803634
15, 170, 0.726948
15, 171, 0.457131
15, 172, 0.0247725
15, 173, 0.283327
15, 174, 0.922381
15, 175, 0.25493
15, 176, -0.0349752
15, 177, -1
15, 178, -0.180584
15, 179, 0.825763
15, 180, -0.53829
15, 181, 0.458874
15, 182, -0.143126
15, 183, 0.935326
15, 184, 0.244096
15, 185, -0.891484
15, 186, 0.662428
15, 187, 0.212173
15, 188, -0.0939442
15, 189, -1
15, 190, -0.153648
15, 191, 0.355773
15, 192, 0.270182
15, 193, 0.523518
15, 194, 0.73749
15, 195, 0.910759
15, 196, -1
15, 197, -0.847194
15, 198, 0.38091
15, 199, 0.545353
15, 200, 0.698713
15, 201, 0.362746
15, 202, -0.310291
15, 203, 0.999455
15, 204, -0.409483
15, 205, 0.205036
15, 206, -0.151724
15, 207, 0.999466
15, 208, 0.549656
15, 209, 0.657795
15, 210, 0.427731
15, 211, 0.310128
15, 212, 0.95715
15, 213, 0.74126
15, 214, -0.106683
15, 215, -1
15, 216, 0.999489
15, 217, 0.135908
15, 218, -0.193023
15, 219, -0.830769
15, 220, -0.0377214
15, 221, 0.740807
15, 222, 0.491271
15, 223, 0.650071
15, 224, 0.542985
15, 225, -1
15, 226, 0.160935
15, 227, -0.0316371
15, 228, -1
15, 229, -0.720259
15, 230, 0.75938
15, 231, 0.875151
15, 232, 0.978904
15, 233, 0.434178
15, 234, 0.397063
15, 235, -0.25645
15, 236, 0.784305
15, 237, 0.829448
15, 238, 0.175575
15, 239, -1
15, 240, -0.583961
15, 241, -0.761557
15, 242, -1
15, 243, 0.733043
15, 244, 0.598269
15, 245, -0.954189
15, 246, 0.407394
15, 247, -0.432463
15, 248, -0.239403
15, 249, 0.82275
15, 250, 0.211527
15, 251, 0.732892
15, 252, 0.82617
15, 253, 0.894699
15, 254, 0.299933
15, 255, 0.909453
15, 256, 0.999591
15, 257, 0.881354
15, 258, 0.0647712
15, 259, 0.904706
15, 260, 0.350774
15, 261, -0.286254
15, 262, 0.349849
15, 263, -0.158434
15, 264, -0.0583821
15, 265, 0.940209
15, 266, -1
15, 267, 0.67143
15, 268, 0.481016
15, 269, -0.0890263
15, 270, -1
15, 271, -0.0332924
15, 272, -0.868692
15, 273, -0.276563
15, 274, 0.999637
15, 275, -0.984546
15, 276, -0.113787
15, 277, -0.8449
15, 278, -0.122811
15, 279, 0.0458245
15, 280, -1
15, 281, 0.466908
15, 282, -0.973711
15, 283, 0.249196
15, 284, 0.301112
15, 285, -0.50419
15, 286, -0.633327
15, 287, -0.694492
15, 288, -0.791557
15, 289, 0.578824
15, 290, -0.0678209
15, 291, 0.39116
15, 292, 0.999683
15, 293, 0.237011
15, 294, 0.381507
15, 295, 0.284251
15, 296, -0.477028
15, 297, -1
15, 298, -0.230663
15, 299, -0.0855683
15, 300, 0.282036
15, 301, 0.716946
15, 302, 0.874166
15, 303, 0.206297
15, 304, 0.665925
15, 305, 0.506163
15, 306, 0.519576
15, 307, 0.392729
15, 308, 0.280447
15, 309, 0.999726
15, 310, 0.603531
15, 311, 0.219907
15, 312, -0.31162
15, 313, -1
15, 314, 0.646922
15, 315, -0.352663
15, 316, -0.325522
15, 317, 0.999747
15, 318, -0.15389
15, 319, -0.928155
15, 320, -1
15, 321, -1
15, 322, -0.610895
15, 323, -1
15, 324, -0.101069
15, 325, 0.547801
15, 326, 0.375035
15, 327, -0.0668681
15, 328, 0.919997
15, 329, 0.600113
15, 330, 0.753575
15, 331, -0.700758
15, 332, -0.924512
15, 333, -0.209211
15, 334, 0.142095
15, 335, -0.190142
15, 336, 0.999795
15, 337, -0.594905
15, 338, -1
15, 339, -0.880968
15, 340, -0.237709
15, 341, 0.0356696
15, 342, 0.931062
15, 343, 0.217162
15, 344, 0.274656
15, 345, -0.165536
15, 346, -1
15, 347, 0.515035
15, 348, -0.221403
15, 349, -0.515799
15, 350, 0.807347
15, 351, -0.0588065
15, 352, -0.248829
15, 353, 0.963875
15, 354, -0.91801
15, 355, 0.00176928
15, 356, 0.234954
15, 357, -0.235169
15, 358, 0.312482
15, 359, -0.777298
15, 360, 0.806453
15, 361, -1
15, 362, 0.06704
15, 363, -1
15, 364, -1
15, 365, -1
15, 366, -0.990681
15, 367, -0.159644
15, 368, 0.881631
15, 369, 0.00433467
15, 370, -0.164908
15, 371, 0.0763398
15, 372, 0.956339
15, 373, 0.232213
15, 374, 0.202191
15, 375, -1
15, 376, -0.909151
15, 377, 0.221283
15, 378, 0.566503
15, 379, -0.772731
15, 380, -0.0129514
15, 381, -1
15, 382, -1
15, 383, 0.797446
15, 384, -1
15, 385, -0.892302
15, 386, -0.0086241
15, 387, 0.91088
15, 388, -0.218236
15, 389, 0.896273
15, 390, 0.721252
15, 391, -0.773182
15, 392, 0.414814
15, 393, -0.516027
15, 394, -0.226831
