
0, 0, 0.0695443
0, 1, -0.00924071
0, 2, 0.40268
0, 3, -0.263632
0, 4, -1
0, 5, -1
0, 6, 0.735778
0, 7, -1
0, 8, 0.402689
0, 9, -1
0, 10, -1
0, 11, -1
0, 12, 0.325082
0, 13, -1
0, 14, 0.223211
0, 15, -1
0, 16, -0.263625
0, 17, -0.263625
0, 18, 0.416061
0, 19, 0.0695612
0, 20, -1
0, 21, -1
0, 22, -1
0, 23, -0.0533318
0, 24, 0.0695656
0, 25, -0.0892141
0, 26, 0.291167
0, 27, 0.771588
0, 28, -0.263619
0, 29, -1
0, 30, -1
0, 31, -1
0, 32, 0.44551
0, 33, -1
0, 34, -0.292781
0, 35, 0.269632
0, 36, -1
0, 37, -1
0, 38, 0.40273
0, 39, 0.735844
0, 40, -1
0, 41, 0.402734
0, 42, 0.375415
0, 43, 0.649473
0, 44, 0.577685
0, 45, -0.300614
0, 46, -1
0, 47, -1
0, 48, 0.129729
0, 49, -0.597541
0, 50, 0.310734
0, 51, 0.179251
0, 52, -0.246553
0, 53, 0.0917745
0, 54, -0.920859
0, 55, -1
0, 56, -1
0, 57, 0.402757
0, 58, -0.0468831
0, 59, -0.391382
0, 60, -1
0, 61, -1
0, 62, -1
0, 63, 0.311853
0, 64, 0.735894
0, 65, -1
0, 66, -0.183161
0, 67, -1
0, 68, -1
0, 69, -1
0, 70, 0.13362
0, 71, -1
0, 72, 0.326827
0, 73, -1
0, 74, -1
0, 75, -0.161035
0, 76, -0.263595
0, 77, 0.738672
0, 78, -0.262729
0, 79, 0.45521
0, 80, -1
0, 81, 0.81985
0, 82, -1
0, 83, -0.0122723
0, 84, 0.31623
0, 85, -1
0, 86, -0.420536
0, 87, -0.63342
0, 88, 0.24764
0, 89, -1
0, 90, 0.0736792
0, 91, -0.0388388
0, 92, 0.243316
0, 93, 0.652925
0, 94, -1
0, 95, 0.0696286
0, 96, 0.735958
0, 97, -1
0, 98, -1
0, 99, -1
0, 100, -1
0, 101, 0.735968
0, 102, -1
0, 103, -1
0, 104, 0.735974
0, 105, -1
0, 106, -0.0998331
0, 107, -1
0, 108, 0.735982
0, 109, -0.00404154
0, 110, -1
0, 111, -0.0593052
0, 112, -0.0642679
0, 113, -1
0, 114, -1
0, 115, -1
0, 116, -1
0, 117, -0.263575
0, 118, 0.069649
0, 119, 0.629162
0, 120, -1
0, 121, 0.736008
0, 122, -0.154777
0, 123, -1
0, 124, -0.55188
0, 125, -0.0411724
0, 126, -0.735073
0, 127, -1
0, 128, -1
0, 129, -0.546479
0, 130, -1
0, 131, -0.791019
0, 132, -0.744798
0, 133, -1
0, 134, -1
0, 135, -1
0, 136, -1
0, 137, -1
0, 138, -0.263564
0, 139, 0.404626
0, 140, 0.754282
0, 141, 0.114271
0, 142, -0.263562
0, 143, -0.263562
0, 144, -0.625459
0, 145, -1
0, 146, -0.299076
0, 147, 0.192242
0, 148, -0.622243
0, 149, 0.160678
0, 150, -1
0, 151, -0.042435
0, 152, 0.424751
0, 153, 0.468882
0, 154, 0.0854035
0, 155, 0.605141
0, 156, -1
0, 157, 0.482319
0, 158, -1
0, 159, 0.748613
0, 160, -1
0, 161, -1
0, 162, 0.957268
0, 163, -1
0, 164, -1
0, 165, 0.703675
0, 166, -0.313787
0, 167, -1
0, 168, 0.368128
0, 169, 0.623439
0, 170, -0.24349
0, 171, -0.172397
0, 172, -1
0, 173, 0.262117
0, 174, 0.402891
0, 175, 0.0696996
0, 176, -1
0, 177, -1
0, 178, -1
0, 179, 0.119136
0, 180, -0.263544
0, 181, -0.335429
0, 182, -1
0, 183, 0.558961
0, 184, 0.936039
0, 185, -0.847729
0, 186, 0.677073
0, 187, -1
0, 188, -0.99169
0, 189, 0.710768
0, 190, 0.18567
0, 191, -0.88765
0, 192, 0.163611
0, 193, -0.463506
0, 194, -1
0, 195, 0.232682
0, 196, -1
0, 197, -0.263535
0, 198, 0.402952
0, 199, 0.787224
0, 200, -1
0, 201, -1
0, 202, -0.263533
0, 203, -1
0, 204, -1
0, 205, -1
0, 206, 0.0697271
0, 207, 0.679607
0, 208, -1
0, 209, -0.304776
0, 210, -0.570578
0, 211, -0.239698
0, 212, 0.364633
0, 213, -1
0, 214, -0.263527
0, 215, 0.402976
0, 216, 0.069736
0, 217, -1
0, 218, -0.198704
0, 219, -1
0, 220, 0.556496
0, 221, -1
0, 222, -1
0, 223, -1
0, 224, 0.0628193
0, 225, -0.263521
0, 226, -1
0, 227, 0.360827
0, 228, 0.714014
0, 229, 0.187027
0, 230, -1
0, 231, -1
0, 232, 0.453764
0, 233, 0.443838
0, 234, -1
0, 235, -0.263516
0, 236, -0.289838
0, 237, 0.455487
0, 238, -1
0, 239, -0.50497
0, 240, -1
0, 241, -0.320716
0, 242, 0.651428
0, 243, 0.736251
0, 244, 0.403016
0, 245, 0.723943
0, 246, -1
0, 247, -1
0, 248, -1
0, 249, -0.240741
0, 250, -1
0, 251, 0.140367
0, 252, 0.365327
0, 253, 0.356614
0, 254, -1
0, 255, -1
0, 256, 0.723418
0, 257, -1
0, 258, 0.38448
0, 259, 0.403037
0, 260, -0.263504
0, 261, -1
0, 262, -0.263503
0, 263, 0.676607
0, 264, 0.182753
0, 265, 0.403045
0, 266, -1
0, 267, -1
0, 268, -1
0, 269, -1
0, 270, -1
0, 271, -1
0, 272, -0.145216
0, 273, -1
0, 274, 0.225452
0, 275, -1
0, 276, 0.736317
0, 277, -1
0, 278, -1
0, 279, 0.0697919
0, 280, 0.0697928
0, 281, -0.263493
0, 282, -1
0, 283, -1
0, 284, 0.441472
0, 285, -1
0, 286, -1
0, 287, 0.425998
0, 288, 0.289596
0, 289, -0.0644181
0, 290, -1
0, 291, 0.992655
0, 292, 0.553391
0, 293, 0.176071
0, 294, 0.112942
0, 295, -1
0, 296, -1
0, 297, -1
0, 298, 0.450127
0, 299, -1
0, 300, -1
0, 301, -1
0, 302, -0.375102
0, 303, 0.216126
0, 304, 0.403099
0, 305, -1
0, 306, -0.141273
0, 307, -0.091304
0, 308, 0.582827
0, 309, 0.304395
0, 310, -1
0, 311, -1
0, 312, 0.999772
0, 313, -1
0, 314, -1
0, 315, -0.392962
0, 316, -1
0, 317, -0.303765
0, 318, 0.521341
0, 319, -0.486643
0, 320, -1
0, 321, -1
0, 322, -1
0, 323, 0.0698309
0, 324, 0.403127
0, 325, -1
0, 326, -1
0, 327, 0.37646
0, 328, -0.12124
0, 329, -1
0, 330, -1
0, 331, 0.293333
0, 332, 0.757477
0, 333, -1
0, 334, -1
0, 335, 0.349854
0, 336, -1
0, 337, 0.561135
0, 338, -1
0, 339, 0.728768
0, 340, -0.983236
0, 341, -1
0, 342, 0.736449
0, 343, 0.736451
0, 344, -1
0, 345, -1
0, 346, -1
0, 347, 0.273748
0, 348, 0.0611951
0, 349, 0.345638
0, 350, 0.606241
0, 351, -1
0, 352, -1
0, 353, -1
0, 354, 0.146719
0, 355, -0.242667
0, 356, 0.736477
0, 357, 0.176118
0, 358, -1
0, 359, -1
0, 360, 0.403177
0, 361, 0.736487
0, 362, -1
0, 363, -1
0, 364, -1
0, 365, -1
0, 366, 0.736497
0, 367, -1
0, 368, 0.114014
0, 369, 0.528776
0, 370, -0.0810256
0, 371, -1
0, 372, 0.0698744
0, 373, 0.190931
0, 374, 0.403196
0, 375, -1
0, 376, 0.0976725
0, 377, -0.263445
0, 378, -1
0, 379, 0.350814
0, 380, -0.244247
0, 381, 0.736527
0, 382, 0.736529
0, 383, -1
0, 384, 0.40321
0, 385, -0.263441
0, 386, -0.946709
0, 387, -1
0, 388, 0.714902
0, 389, -0.929621
0, 390, 0.414532
0, 391, 0.0698913
0, 392, -1
0, 393, -0.0969125
0, 394, -0.0608552
0, 395, -1
0, 396, 0.0698957
0, 397, -0.263435
0, 398, -1
0, 399, -1
1, 0, -0.0734142
1, 1, -0.144713
1, 2, 0.329235
1, 3, -0.260741
1, 4, -1
1, 5, -0.263631
1, 6, 0.735776
1, 7, -1
1, 8, -1
1, 9, 0.914803
1, 10, 0.279106
1, 11, -1
1, 12, -0.246181
1, 13, 0.146076
1, 14, -1
1, 15, -1
1, 16, 0.746671
1, 17, 0.103534
1, 18, -0.233468
1, 19, 0.402703
1, 20, 0.735804
1, 21, 0.735806
1, 22, -1
1, 23, 0.73581
1, 24, -1
1, 25, 0.067386
1, 26, -1
1, 27, -0.00891177
1, 28, -1
1, 29, 0.207072
1, 30, 0.328621
1, 31, 0.869168
1, 32, 0.928111
1, 33, -0.204312
1, 34, -0.694047
1, 35, -0.0131061
1, 36, 0.162619
1, 37, -1
1, 38, 0.73584
1, 39, -1
1, 40, 0.133173
1, 41, 0.55931
1, 42, -0.443736
1, 43, -1
1, 44, -1
1, 45, 0.00252026
1, 46, -1
1, 47, 0.999092
1, 48, 0.61938
1, 49, -1
1, 50, -0.17761
1, 51, 0.154678
1, 52, -1
1, 53, -1
1, 54, -1
1, 55, -0.844547
1, 56, 0.819011
1, 57, -1
1, 58, -0.263605
1, 59, 0.38255
1, 60, -0.0234375
1, 61, 0.44851
1, 62, 0.0695985
1, 63, 0.0511568
1, 64, 0.562024
1, 65, 0.145918
1, 66, -1
1, 67, -1
1, 68, 0.264678
1, 69, 0.269674
1, 70, 0.0376624
1, 71, -1
1, 72, -0.175254
1, 73, 0.800152
1, 74, -1
1, 75, -1
1, 76, -1
1, 77, -1
1, 78, -1
1, 79, 0.915351
1, 80, -1
1, 81, -0.0794485
1, 82, -0.97913
1, 83, 0.747877
1, 84, 0.724529
1, 85, 0.15537
1, 86, 0.402795
1, 87, 0.606842
1, 88, -0.0280241
1, 89, 0.650456
1, 90, -0.82648
1, 91, -0.994373
1, 92, -1
1, 93, -0.0163209
1, 94, 0.150509
1, 95, -1
1, 96, -0.405194
1, 97, -0.263585
1, 98, -1
1, 99, 0.514193
1, 100, -1
1, 101, 0.0696331
1, 102, -1
1, 103, -0.487739
1, 104, -1
1, 105, -1
1, 106, 0.420571
1, 107, -1
1, 108, 0.663024
1, 109, 0.0672445
1, 110, -1
1, 111, 0.691942
1, 112, -1
1, 113, -1
1, 114, -0.135982
1, 115, 0.715361
1, 116, -1
1, 117, 0.735998
1, 118, 0.445451
1, 119, -1
1, 120, 0.304519
1, 121, -1
1, 122, -1
1, 123, 0.73601
1, 124, -1
1, 125, 0.0696543
1, 126, 0.599394
1, 127, -0.281065
1, 128, -1
1, 129, 0.875904
1, 130, -0.480256
1, 131, 0.736026
1, 132, -1
1, 133, -1
1, 134, -1
1, 135, -0.241601
1, 136, -0.937243
1, 137, 0.476869
1, 138, -0.265072
1, 139, 0.583017
1, 140, -0.251262
1, 141, -1
1, 142, 0.10707
1, 143, 0.100828
1, 144, 0.224121
1, 145, -1
1, 146, -0.162547
1, 147, -1
1, 148, -1
1, 149, 0.806505
1, 150, 0.189072
1, 151, -0.358023
1, 152, -0.128728
1, 153, 0.589881
1, 154, -1
1, 155, -1
1, 156, -1
1, 157, 0.837475
1, 158, -0.240531
1, 159, 0.627048
1, 160, 0.520367
1, 161, -0.0316048
1, 162, 0.35179
1, 163, -1
1, 164, 0.0614883
1, 165, 0.593149
1, 166, -1
1, 167, -1
1, 168, 0.0940932
1, 169, 0.204335
1, 170, -1
1, 171, -1
1, 172, 0.777238
1, 173, 0.147416
1, 174, 0.317169
1, 175, -1
1, 176, -0.745541
1, 177, 0.653867
1, 178, -0.0564323
1, 179, -0.995033
1, 180, 0.342375
1, 181, -1
1, 182, 0.198991
1, 183, -1
1, 184, 0.279201
1, 185, 0.754788
1, 186, 0.715129
1, 187, -0.0699741
1, 188, -0.799571
1, 189, -1
1, 190, -0.298553
1, 191, -1
1, 192, 0.440605
1, 193, -0.995681
1, 194, 0.736152
1, 195, -1
1, 196, -1
1, 197, 0.402949
1, 198, -0.263535
1, 199, 0.66349
1, 200, -1
1, 201, -0.272231
1, 202, 0.932429
1, 203, 0.0857121
1, 204, 0.724761
1, 205, -1
1, 206, 0.633147
1, 207, -1
1, 208, 0.919569
1, 209, 0.012488
1, 210, -0.153674
1, 211, -0.494496
1, 212, -0.502955
1, 213, 0.326425
1, 214, -0.306283
1, 215, -1
1, 216, -1
1, 217, -1
1, 218, 0.652315
1, 219, 0.0697377
1, 220, -1
1, 221, -1
1, 222, -0.263523
1, 223, 0.402985
1, 224, -1
1, 225, -1
1, 226, 0.427666
1, 227, -1
1, 228, 0.464244
1, 229, -1
1, 230, 0.391715
1, 231, -0.537367
1, 232, 0.352946
1, 233, -1
1, 234, -1
1, 235, 0.0697519
1, 236, -1
1, 237, -1
1, 238, 0.0697546
1, 239, -1
1, 240, -1
1, 241, 0.512241
1, 242, -1
1, 243, 0.403013
1, 244, -0.639075
1, 245, -1
1, 246, 0.264692
1, 247, -0.281413
1, 248, 0.366677
1, 249, -0.0258116
1, 250, -1
1, 251, 0.0730433
1, 252, -1
1, 253, -1
1, 254, -1
1, 255, -0.210412
1, 256, -1
1, 257, -1
1, 258, 0.403034
1, 259, 0.0697732
1, 260, -1
1, 261, -1
1, 262, -1
1, 263, 0.403041
1, 264, -1
1, 265, -1
1, 266, -1
1, 267, -1
1, 268, 0.708383
1, 269, 0.716876
1, 270, -1
1, 271, -1
1, 272, -1
1, 273, -1
1, 274, 0.0253179
1, 275, -0.010946
1, 276, 0.0697883
1, 277, -1
1, 278, -1
1, 279, -1
1, 280, -1
1, 281, 0.586315
1, 282, -0.691905
1, 283, -0.229049
1, 284, 0.675415
1, 285, -0.267799
1, 286, 0.0765122
1, 287, -1
1, 288, -1
1, 289, -1
1, 290, -0.0700557
1, 291, -0.833922
1, 292, -0.526569
1, 293, -0.116711
1, 294, 0.777267
1, 295, -0.943532
1, 296, -1
1, 297, -1
1, 298, 0.0791567
1, 299, -1
1, 300, -1
1, 301, -0.191652
1, 302, 0.841108
1, 303, 0.403096
1, 304, 0.717616
1, 305, -1
1, 306, -1
1, 307, -1
1, 308, -1
1, 309, -1
1, 310, 0.863121
1, 311, 0.691869
1, 312, 0.571155
1, 313, -0.92456
1, 314, -1
1, 315, -1
1, 316, -0.263476
1, 317, 0.451938
1, 318, -1
1, 319, 0.736401
1, 320, 0.483253
1, 321, -1
1, 322, -1
1, 323, 0.736409
1, 324, 0.0698309
1, 325, -1
1, 326, -1
1, 327, 0.701062
1, 328, 0.419608
1, 329, -0.656956
1, 330, 0.713044
1, 331, -1
1, 332, 0.64097
1, 333, -0.263468
1, 334, 0.257989
1, 335, -0.0612146
1, 336, -1
1, 337, 0.483593
1, 338, -0.263465
1, 339, -1
1, 340, -0.263464
1, 341, -1
1, 342, -1
1, 343, 0.736449
1, 344, -0.930456
1, 345, -1
1, 346, -1
1, 347, 0.45037
1, 348, 0.720016
1, 349, -1
1, 350, 0.217882
1, 351, 0.806298
1, 352, 0.0359705
1, 353, 0.132208
1, 354, 0.159434
1, 355, -1
1, 356, 0.00767824
1, 357, -0.202741
1, 358, 0.0698611
1, 359, -0.263455
1, 360, -1
1, 361, -0.269202
1, 362, -0.263453
1, 363, 0.736489
1, 364, 0.0698664
1, 365, -1
1, 366, -1
1, 367, 0.530044
1, 368, 0.196983
1, 369, -0.215519
1, 370, -1
1, 371, -1
1, 372, 0.625643
1, 373, -1
1, 374, 0.778558
1, 375, -1
1, 376, -0.164118
1, 377, 0.38978
1, 378, -0.263445
1, 379, -1
1, 380, 0.0698806
1, 381, 0.736525
1, 382, 0.736527
1, 383, -1
1, 384, -0.528456
1, 385, -1
1, 386, 0.403211
1, 387, -1
1, 388, 0.403214
1, 389, -1
1, 390, -1
1, 391, -0.243906
1, 392, -0.110063
1, 393, -0.714776
1, 394, -1
1, 395, 0.736553
1, 396, -0.263436
1, 397, -1
1, 398, 0.403228
1, 399, -1
2, 0, 0.800604
2, 1, -1
2, 2, 0.805619
2, 3, 0.998977
2, 4, -1
2, 5, -1
2, 6, 0.348914
2, 7, -1
2, 8, -1
2, 9, -1
2, 10, -1
2, 11, -1
2, 12, -1
2, 13, -1
2, 14, -1
2, 15, -0.891894
2, 16, -1
2, 17, -1
2, 18, -1
2, 19, -0.111243
2, 20, -1
2, 21, -1
2, 22, 0.527994
2, 23, -0.0605197
2, 24, 0.749978
2, 25, -1
2, 26, -1
2, 27, -1
2, 28, -0.974584
2, 29, -1
2, 30, -1
2, 31, -1
2, 32, -1
2, 33, -1
2, 34, -1
2, 35, -1
2, 36, -1
2, 37, -0.885171
2, 38, 0.134904
2, 39, 0.786075
2, 40, -1
2, 41, 0.0255098
2, 42, -0.256593
2, 43, 0.183411
2, 44, -0.272264
2, 45, -0.0563321
2, 46, -0.642745
2, 47, -0.410584
2, 48, -0.853212
2, 49, -1
2, 50, -1
2, 51, -1
2, 52, -1
2, 53, 0.0724077
2, 54, -0.123328
2, 55, -0.828414
2, 56, -0.554803
2, 57, -0.922645
2, 58, -0.156819
2, 59, 0.798858
2, 60, -0.76853
2, 61, 0.70577
2, 62, 0.782695
2, 63, 0.658192
2, 64, 0.75952
2, 65, 0.523293
2, 66, 0.807359
2, 67, 0.935801
2, 68, -0.009655
2, 69, -1
2, 70, -0.374286
2, 71, -0.534455
2, 72, 0.120098
2, 73, -0.122087
2, 74, -0.602441
2, 75, -0.316519
2, 76, 0.472022
2, 77, -1
2, 78, 0.741211
2, 79, 0.599724
2, 80, 0.481233
2, 81, 0.799208
2, 82, 0.750676
2, 83, 0.916672
2, 84, 0.922079
2, 85, 0.0161271
2, 86, 0.467061
2, 87, 0.68053
2, 88, 0.874353
2, 89, -1
2, 90, 0.461619
2, 91, 0.701996
2, 92, -1
2, 93, 0.661474
2, 94, 0.84747
2, 95, 0.231908
2, 96, 0.453144
2, 97, 0.738379
2, 98, 0.610739
2, 99, 0.812072
2, 100, 0.80834
2, 101, 0.892893
2, 102, 0.755262
2, 103, -1
2, 104, 0.435141
2, 105, -0.246164
2, 106, 0.30015
2, 107, -1
2, 108, 0.955505
2, 109, 0.664339
2, 110, -0.254039
2, 111, 0.996622
2, 112, 0.728008
2, 113, 0.804436
2, 114, 0.0210129
2, 115, 0.837085
2, 116, -0.605583
2, 117, 0.00948188
2, 118, 0.465597
2, 119, 0.470024
2, 120, -0.116981
2, 121, 0.180319
2, 122, 0.527247
2, 123, 0.126554
2, 124, 0.795041
2, 125, -0.202925
2, 126, 0.351687
2, 127, 0.984932
2, 128, 0.578526
2, 129, 0.358038
2, 130, 0.830818
2, 131, 0.888022
2, 132, 0.311033
2, 133, 0.945592
2, 134, -0.793731
2, 135, 0.794373
2, 136, 0.0552143
2, 137, -0.0274127
2, 138, -1
2, 139, 0.960261
2, 140, 0.671959
2, 141, 0.486608
2, 142, -0.631689
2, 143, 0.142105
2, 144, -0.645106
2, 145, 0.224622
2, 146, -0.290474
2, 147, -0.303555
2, 148, 0.323655
2, 149, 0.0481783
2, 150, 0.0537936
2, 151, -0.0426459
2, 152, 0.160471
2, 153, 0.386211
2, 154, -0.0453356
2, 155, -0.114809
2, 156, 0.0340654
2, 157, -1
2, 158, -0.758043
2, 159, -0.732455
2, 160, 0.901304
2, 161, -0.224486
2, 162, 0.918281
2, 163, -0.077694
2, 164, -0.0727536
2, 165, -1
2, 166, -0.452157
2, 167, 0.371341
2, 168, -0.799497
2, 169, -0.896136
2, 170, -1
2, 171, -0.523136
2, 172, -0.789122
2, 173, -0.206975
2, 174, -1
2, 175, 0.0423947
2, 176, -0.543032
2, 177, -0.679916
2, 178, -1
2, 179, -1
2, 180, 0.167574
2, 181, 0.466557
2, 182, -0.135793
2, 183, -0.19385
2, 184, 0.653387
2, 185, -0.986401
2, 186, -0.860856
2, 187, 0.0729523
2, 188, -0.203223
2, 189, -1
2, 190, -1
2, 191, -1
2, 192, -0.95606
2, 193, -0.816561
2, 194, 0.0594377
2, 195, 0.603215
2, 196, -0.327508
2, 197, -0.0366569
2, 198, -1
2, 199, -1
2, 200, 0.942536
2, 201, 0.269077
2, 202, -1
2, 203, -0.603911
2, 204, -1
2, 205, 0.140187
2, 206, -1
2, 207, -1
2, 208, -1
2, 209, -0.900771
2, 210, -1
2, 211, -0.503565
2, 212, 0.340475
2, 213, -0.958346
2, 214, -1
2, 215, -0.905815
2, 216, -0.28331
2, 217, -0.584951
2, 218, -1
2, 219, -1
2, 220, -0.878378
2, 221, -0.00706163
2, 222, -1
2, 223, -1
2, 224, 0.0235645
2, 225, -0.953113
2, 226, -0.360803
2, 227, -1
2, 228, -1
2, 229, -1
2, 230, -1
2, 231, 0.298806
2, 232, -0.280963
2, 233, 0.540617
2, 234, -0.851964
2, 235, 0.110437
2, 236, 0.856161
2, 237, 0.566514
2, 238, -0.602295
2, 239, -1
2, 240, 0.233262
2, 241, -0.682192
2, 242, -0.325677
2, 243, -0.98531
2, 244, 0.133254
2, 245, -0.577321
2, 246, -0.736522
2, 247, -0.704921
2, 248, -0.711164
2, 249, -0.839942
2, 250, 0.00888973
2, 251, -1
2, 252, 0.641361
2, 253, 0.636237
2, 254, 0.644291
2, 255, 0.225561
2, 256, -0.279479
2, 257, -1
2, 258, -1
2, 259, -0.800545
2, 260, 0.271462
2, 261, -1
2, 262, -0.0517552
2, 263, -1
2, 264, -0.880925
2, 265, -0.907559
2, 266, -1
2, 267, -1
2, 268, -1
2, 269, -0.0854941
2, 270, 0.390951
2, 271, -0.0868237
2, 272, -0.180072
2, 273, 0.161267
2, 274, -0.960666
2, 275, -0.886211
2, 276, -1
2, 277, -1
2, 278, -0.65499
2, 279, -1
2, 280, -1
2, 281, -0.660516
2, 282, 0.144564
2, 283, 0.105126
2, 284, -1
2, 285, -1
2, 286, -1
2, 287, -0.647508
2, 288, 0.991879
2, 289, 0.776255
2, 290, 0.694049
2, 291, -0.280517
2, 292, -1
2, 293, -0.190548
2, 294, -1
2, 295, 0.785752
2, 296, -1
2, 297, -1
2, 298, -1
2, 299, -1
2, 300, -0.666513
2, 301, -0.456338
2, 302, -0.151205
2, 303, 0.725054
2, 304, 0.902023
2, 305, 0.958911
2, 306, -0.252061
2, 307, 0.458053
2, 308, -0.240686
2, 309, 0.47302
2, 310, 0.0409759
2, 311, 0.451791
2, 312, 0.036024
2, 313, -0.9395
2, 314, -0.065235
2, 315, 0.103364
2, 316, -1
2, 317, -1
2, 318, -1
2, 319, -1
2, 320, -0.986969
2, 321, 0.38346
2, 322, 0.317076
2, 323, -0.170197
2, 324, -0.182895
2, 325, -0.570676
2, 326, 0.999803
2, 327, -0.459959
2, 328, -0.108404
2, 329, 0.362226
2, 330, 0.437801
2, 331, 0.481869
2, 332, -0.909037
2, 333, -0.459493
2, 334, -0.0503169
2, 335, -1
2, 336, -0.939261
2, 337, -1
2, 338, -1
2, 339, -1
2, 340, -1
2, 341, -1
2, 342, -1
2, 343, 0.547325
2, 344, -0.933211
2, 345, 0.591168
2, 346, 0.814774
2, 347, 0.107082
2, 348, 0.698099
2, 349, -0.927591
2, 350, 0.259059
2, 351, -0.080773
2, 352, -0.933485
2, 353, -1
2, 354, -0.27939
2, 355, -0.766058
2, 356, -0.108667
2, 357, -0.867235
2, 358, -1
2, 359, 0.0462714
2, 360, -1
2, 361, -0.707933
2, 362, -1
2, 363, -0.989064
2, 364, 0.311737
2, 365, 0.619584
2, 366, 0.32194
2, 367, 0.373974
2, 368, 0.0748639
2, 369, -0.297206
2, 370, 0.126677
2, 371, 0.549737
2, 372, -0.132406
2, 373, -1
2, 374, -0.944198
2, 375, -1
2, 376, -1
2, 377, -1
2, 378, -0.759993
2, 379, -0.10883
2, 380, -0.468481
2, 381, 0.205564
2, 382, 0.175934
2, 383, 0.529037
2, 384, -0.365076
2, 385, -1
2, 386, -0.130556
2, 387, 0.195821
2, 388, -0.161356
2, 389, -1
2, 390, -0.124947
2, 391, 0.515121
2, 392, 0.779502
2, 393, -0.617725
2, 394, 0.481076
2, 395, -0.553171
2, 396, -1
2, 397, -1
2, 398, -1
2, 399, -0.799028
3, 0, -1
3, 1, 0.573389
3, 2, -1
3, 3, 0.718426
3, 4, 0.192967
3, 5, -1
3, 6, -0.214692
3, 7, 0.680801
3, 8, -1
3, 9, -1
3, 10, -0.151437
3, 11, -0.229793
3, 12, 0.0310131
3, 13, -1
3, 14, -0.913908
3, 15, 0.74911
3, 16, -0.222638
3, 17, -1
3, 18, 0.700564
3, 19, -0.263625
3, 20, 0.775362
3, 21, 0.274507
3, 22, -0.263624
3, 23, -1
3, 24, -1
3, 25, 0.151718
3, 26, -1
3, 27, -1
3, 28, -0.275329
3, 29, 0.413886
3, 30, -0.865871
3, 31, 0.364676
3, 32, 0.0928569
3, 33, -1
3, 34, -1
3, 35, -1
3, 36, -1
3, 37, 0.0695745
3, 38, 0.391605
3, 39, -1
3, 40, 0.402729
3, 41, -1
3, 42, 0.426633
3, 43, -1
3, 44, -1
3, 45, 0.26155
3, 46, 0.286591
3, 47, -0.182918
3, 48, 0.799158
3, 49, 0.0641484
3, 50, 0.0848815
3, 51, -0.211432
3, 52, -1
3, 53, -1
3, 54, -0.31926
3, 55, -0.263607
3, 56, 0.402751
3, 57, -0.263606
3, 58, -1
3, 59, -1
3, 60, -1
3, 61, -0.288234
3, 62, 0.382422
3, 63, 0.0270669
3, 64, 0.0268065
3, 65, -1
3, 66, -0.422518
3, 67, 0.0436294
3, 68, 0.191686
3, 69, -1
3, 70, 0.251735
3, 71, -1
3, 72, 0.109155
3, 73, -1
3, 74, -0.189341
3, 75, 0.22621
3, 76, 0.77468
3, 77, -1
3, 78, -1
3, 79, 0.0993005
3, 80, 0.394053
3, 81, 0.439293
3, 82, -1
3, 83, -1
3, 84, -0.0964791
3, 85, -1
3, 86, -0.326303
3, 87, -1
3, 88, 0.365012
3, 89, 0.239955
3, 90, -1
3, 91, 0.883916
3, 92, 0.229492
3, 93, -1
3, 94, -1
3, 95, -1
3, 96, -1
3, 97, 0.402808
3, 98, 0.418546
3, 99, -1
3, 100, -0.0151718
3, 101, -0.294832
3, 102, -0.969188
3, 103, -1
3, 104, -0.0323941
3, 105, -0.444664
3, 106, -0.171096
3, 107, -1
3, 108, -0.345098
3, 109, -0.713688
3, 110, 0.486909
3, 111, -0.305922
3, 112, 0.807342
3, 113, -0.301821
3, 114, -1
3, 115, -0.800241
3, 116, -0.891114
3, 117, 0.504568
3, 118, -1
3, 119, 0.152276
3, 120, -1
3, 121, 0.371787
3, 122, -1
3, 123, 0.395007
3, 124, 0.173193
3, 125, -1
3, 126, -1
3, 127, 0.796174
3, 128, 0.375935
3, 129, 0.321137
3, 130, 0.212335
3, 131, -1
3, 132, -1
3, 133, 0.176838
3, 134, -1
3, 135, -0.490262
3, 136, 0.4329
3, 137, 0.438597
3, 138, -0.96976
3, 139, -1
3, 140, -1
3, 141, -1
3, 142, -0.660301
3, 143, 0.92843
3, 144, -0.0710111
3, 145, -0.178719
3, 146, -1
3, 147, -1
3, 148, 0.337611
3, 149, -1
3, 150, -0.143678
3, 151, -1
3, 152, -1
3, 153, -0.0302658
3, 154, 0.57514
3, 155, -1
3, 156, -0.353363
3, 157, 0.0185441
3, 158, 0.846069
3, 159, -1
3, 160, -1
3, 161, -1
3, 162, -1
3, 163, -1
3, 164, 0.0381863
3, 165, -0.224325
3, 166, -1
3, 167, -0.210364
3, 168, 0.783485
3, 169, 0.164517
3, 170, -0.341939
3, 171, 0.751478
3, 172, -0.361606
3, 173, -0.196439
3, 174, -0.149851
3, 175, 0.254301
3, 176, -1
3, 177, -0.263547
3, 178, 0.736116
3, 179, -1
3, 180, 0.421038
3, 181, -0.294466
3, 182, 0.430958
3, 183, -0.398344
3, 184, 0.192753
3, 185, -1
3, 186, 0.408515
3, 187, -1
3, 188, 0.773414
3, 189, -1
3, 190, -1
3, 191, -1
3, 192, 0.106506
3, 193, -1
3, 194, -1
3, 195, -1
3, 196, -0.34125
3, 197, -1
3, 198, 0.0697173
3, 199, -1
3, 200, 0.402951
3, 201, 0.736162
3, 202, 0.583155
3, 203, 0.709309
3, 204, -0.277824
3, 205, -1
3, 206, -0.0717449
3, 207, -1
3, 208, -0.238038
3, 209, 0.0697271
3, 210, -1
3, 211, -1
3, 212, -0.120537
3, 213, -0.101268
3, 214, -0.588831
3, 215, -1
3, 216, -1
3, 217, -1
3, 218, -1
3, 219, -1
3, 220, -1
3, 221, -1
3, 222, 0.803598
3, 223, -0.540637
3, 224, -1
3, 225, 0.350885
3, 226, 0.400151
3, 227, -1
3, 228, 0.197443
3, 229, -1
3, 230, -1
3, 231, -0.222549
3, 232, -0.273897
3, 233, 0.501593
3, 234, -0.258526
3, 235, 0.252124
3, 236, 0.657321
3, 237, -1
3, 238, -1
3, 239, -0.144425
3, 240, -0.945723
3, 241, 0.835173
3, 242, -1
3, 243, 0.433415
3, 244, 0.0253986
3, 245, 0.240034
3, 246, -1
3, 247, -0.0499021
3, 248, -0.605451
3, 249, 0.541541
3, 250, -0.876418
3, 251, -0.324008
3, 252, 0.842952
3, 253, -1
3, 254, 0.316531
3, 255, -0.107872
3, 256, -0.206762
3, 257, 0.0675191
3, 258, 0.386556
3, 259, -1
3, 260, -0.267408
3, 261, 0.713912
3, 262, 0.266412
3, 263, -1
3, 264, 0.151549
3, 265, 0.821556
3, 266, 0.304357
3, 267, -0.696021
3, 268, 0.166774
3, 269, 0.039606
3, 270, 0.0193928
3, 271, 0.297647
3, 272, 0.318309
3, 273, 0.0977872
3, 274, -0.286255
3, 275, -1
3, 276, -1
3, 277, -1
3, 278, 0.102491
3, 279, -1
3, 280, -1
3, 281, 0.069791
3, 282, -1
3, 283, 0.343735
3, 284, -0.329932
3, 285, -1
3, 286, -1
3, 287, 0.624564
3, 288, -0.866057
3, 289, 0.226358
3, 290, -1
3, 291, 0.449327
3, 292, -0.265151
3, 293, 0.26658
3, 294, 0.204612
3, 295, 0.771424
3, 296, 0.0698043
3, 297, 0.0698052
3, 298, -1
3, 299, -1
3, 300, -1
3, 301, -0.258162
3, 302, 0.736363
3, 303, 0.403093
3, 304, -1
3, 305, -1
3, 306, 0.0698132
3, 307, -1
3, 308, -1
3, 309, -1
3, 310, -1
3, 311, -1
3, 312, -0.691003
3, 313, -0.204499
3, 314, 0.490116
3, 315, 0.6556
3, 316, -1
3, 317, -1
3, 318, 0.42663
3, 319, 0.589902
3, 320, 0.403117
3, 321, -1
3, 322, -0.263474
3, 323, -1
3, 324, 0.376928
3, 325, -0.998786
3, 326, 0.476061
3, 327, -1
3, 328, -0.152945
3, 329, 0.81783
3, 330, -1
3, 331, 0.0248929
3, 332, -1
3, 333, 0.331948
3, 334, -0.664839
3, 335, -0.994453
3, 336, 0.631031
3, 337, 0.222823
3, 338, -1
3, 339, -1
3, 340, -0.23404
3, 341, -1
3, 342, -1
3, 343, 0.713979
3, 344, -0.263463
3, 345, -1
3, 346, 0.483564
3, 347, 0.273818
3, 348, 0.511262
3, 349, -0.159966
3, 350, -1
3, 351, -1
3, 352, 0.170403
3, 353, 0.0932299
3, 354, 0.527699
3, 355, -1
3, 356, 0.656663
3, 357, 0.192092
3, 358, 0.614123
3, 359, -0.784244
3, 360, -0.888102
3, 361, 0.0309879
3, 362, 0.986442
3, 363, -0.378966
3, 364, -1
3, 365, -1
3, 366, 0.0178241
3, 367, 0.418074
3, 368, 0.275162
3, 369, -0.125796
3, 370, 0.721826
3, 371, -1
3, 372, 0.0467391
3, 373, -1
3, 374, -1
3, 375, 0.327191
3, 376, 0.899223
3, 377, 0.680216
3, 378, -1
3, 379, 0.0362486
3, 380, -1
3, 381, -1
3, 382, 0.244539
3, 383, -0.504072
3, 384, 0.786289
3, 385, 0.273745
3, 386, -0.604768
3, 387, 0.0651046
3, 388, -0.751754
3, 389, -1
3, 390, 0.411255
3, 391, 0.281227
3, 392, 0.200799
3, 393, -0.174475
3, 394, 0.624376
3, 395, 0.249992
3, 396, -1
3, 397, -1
3, 398, 0.057422
3, 399, -1
4, 0, -0.408703
4, 1, 0.188314
4, 2, -1
4, 3, -1
4, 4, 0.402678
4, 5, 0.735768
4, 6, 0.40268
4, 7, 0.187871
4, 8, -0.220881
4, 9, 0.648457
4, 10, -1
4, 11, 0.362188
4, 12, -1
4, 13, 0.619267
4, 14, -1
4, 15, 0.670124
4, 16, 0.165474
4, 17, -0.24586
4, 18, -1
4, 19, 0.0695576
4, 20, -0.263625
4, 21, 0.752028
4, 22, 0.815756
4, 23, 0.402704
4, 24, -1
4, 25, -0.263623
4, 26, -0.377172
4, 27, 0.0351863
4, 28, -0.275148
4, 29, -1
4, 30, 0.403963
4, 31, 0.768391
4, 32, 0.351922
4, 33, -0.163762
4, 34, 0.469392
4, 35, -1
4, 36, -1
4, 37, -0.270038
4, 38, 0.0695745
4, 39, 0.402726
4, 40, -1
4, 41, 0.402729
4, 42, -0.263614
4, 43, -1
4, 44, -1
4, 45, -0.263613
4, 46, 0.0339933
4, 47, 0.0512248
4, 48, -0.0920385
4, 49, 0.298462
4, 50, -1
4, 51, -1
4, 52, 0.440719
4, 53, 0.725513
4, 54, 0.332164
4, 55, -1
4, 56, -1
4, 57, -1
4, 58, -0.970013
4, 59, -0.225156
4, 60, -1
4, 61, 0.402757
4, 62, -0.361374
4, 63, 0.735884
4, 64, -1
4, 65, -1
4, 66, -0.196495
4, 67, -1
4, 68, -1
4, 69, -1
4, 70, -1
4, 71, -1
4, 72, 0.808142
4, 73, -1
4, 74, -1
4, 75, -1
4, 76, -1
4, 77, 0.0293829
4, 78, -0.423308
4, 79, 0.674558
4, 80, -0.243276
4, 81, -1
4, 82, 0.55117
4, 83, 0.999177
4, 84, -1
4, 85, -0.138756
4, 86, 0.68122
4, 87, -0.634505
4, 88, 0.0282697
4, 89, 0.257451
4, 90, -0.763744
4, 91, -1
4, 92, -0.220521
4, 93, -0.12991
4, 94, 0.541102
4, 95, 0.128622
4, 96, -0.934434
4, 97, 0.0182692
4, 98, 0.655145
4, 99, 0.100064
4, 100, 0.452762
4, 101, 0.100278
4, 102, 0.382486
4, 103, -1
4, 104, -0.139476
4, 105, 0.00128457
4, 106, -1
4, 107, 0.893726
4, 108, -1
4, 109, -0.0642351
4, 110, 0.255422
4, 111, -0.949271
4, 112, -0.799693
4, 113, -0.549318
4, 114, 0.555492
4, 115, 0.448878
4, 116, 0.147526
4, 117, -1
4, 118, 0.770987
4, 119, 0.489834
4, 120, 0.589174
4, 121, -0.291258
4, 122, -0.997041
4, 123, -1
4, 124, -1
4, 125, 0.329387
4, 126, -0.0553795
4, 127, -1
4, 128, -1
4, 129, -1
4, 130, 0.808232
4, 131, 0.417719
4, 132, 0.180959
4, 133, -1
4, 134, -1
4, 135, 0.595569
4, 136, 0.560133
4, 137, -1
4, 138, 0.234166
4, 139, 0.402865
4, 140, 0.069665
4, 141, -1
4, 142, -1
4, 143, 0.0696677
4, 144, -0.511993
4, 145, -0.234413
4, 146, -1
4, 147, -1
4, 148, 0.384604
4, 149, -1
4, 150, -0.338801
4, 151, -0.297609
4, 152, -1
4, 153, -0.193387
4, 154, -0.276426
4, 155, -1
4, 156, -1
4, 157, -1
4, 158, -0.263556
4, 159, -1
4, 160, -1
4, 161, -1
4, 162, 0.999379
4, 163, -0.0448898
4, 164, 0.0971624
4, 165, 0.172904
4, 166, -0.181439
4, 167, -0.263552
4, 168, 0.330843
4, 169, -1
4, 170, 0.393055
4, 171, -1
4, 172, -1
4, 173, 0.602233
4, 174, 0.483387
4, 175, 0.274124
4, 176, -1
4, 177, -1
4, 178, -0.447375
4, 179, -0.024371
4, 180, -1
4, 181, 0.775167
4, 182, -1
4, 183, -1
4, 184, -1
4, 185, -1
4, 186, -0.229202
4, 187, -1
4, 188, -1
4, 189, 0.907574
4, 190, 0.752167
4, 191, -1
4, 192, -1
4, 193, 0.696149
4, 194, 0.739825
4, 195, -0.044876
4, 196, -0.91185
4, 197, -1
4, 198, 0.306747
4, 199, -1
4, 200, -1
4, 201, -0.0366199
4, 202, -1
4, 203, -1
4, 204, -1
4, 205, -1
4, 206, 0.694111
4, 207, -0.209664
4, 208, 0.221295
4, 209, -1
4, 210, -1
4, 211, -1
4, 212, 0.559494
4, 213, -1
4, 214, -1
4, 215, 0.8679
4, 216, -1
4, 217, -0.230016
4, 218, 0.442998
4, 219, -0.973502
4, 220, -1
4, 221, 0.814139
4, 222, -0.277042
4, 223, -1
4, 224, -0.256842
4, 225, 0.772775
4, 226, 0.0790351
4, 227, 0.614217
4, 228, 0.477324
4, 229, -1
4, 230, 0.561677
4, 231, 0.17785
4, 232, 0.459029
4, 233, -1
4, 234, 0.952786
4, 235, -1
4, 236, 0.775125
4, 237, 0.792571
4, 238, -0.739857
4, 239, 0.0670351
4, 240, 0.841181
4, 241, -1
4, 242, -1
4, 243, 0.950386
4, 244, -1
4, 245, -1
4, 246, 0.319519
4, 247, -1
4, 248, 0.4613
4, 249, -0.562565
4, 250, -0.804777
4, 251, -0.0688053
4, 252, -0.0923849
4, 253, -0.0296646
4, 254, 0.66162
4, 255, -1
4, 256, -1
4, 257, -1
4, 258, 0.926782
4, 259, 0.66453
4, 260, -1
4, 261, -1
4, 262, 0.0739057
4, 263, -1
4, 264, -1
4, 265, -0.263503
4, 266, -1
4, 267, 0.616474
4, 268, -1
4, 269, -0.752089
4, 270, -1
4, 271, 0.27533
4, 272, -1
4, 273, 0.040925
4, 274, -1
4, 275, 0.0373887
4, 276, 0.0149843
4, 277, 0.145369
4, 278, -0.517647
4, 279, -1
4, 280, -1
4, 281, 0.074136
4, 282, -0.869362
4, 283, 0.865468
4, 284, -1
4, 285, -0.00725701
4, 286, -1
4, 287, -1
4, 288, 0.565024
4, 289, 0.482489
4, 290, 0.35682
4, 291, -1
4, 292, 0.999711
4, 293, -1
4, 294, -1
4, 295, -1
4, 296, -0.295523
4, 297, 0.665884
4, 298, 0.24013
4, 299, -1
4, 300, 0.736357
4, 301, 0.710388
4, 302, 0.359527
4, 303, -1
4, 304, 0.0698105
4, 305, -1
4, 306, -0.839624
4, 307, -1
4, 308, 0.367214
4, 309, 0.675224
4, 310, -1
4, 311, 0.50206
4, 312, -0.579444
4, 313, -1
4, 314, 0.490068
4, 315, -1
4, 316, -0.0468423
4, 317, 0.273109
4, 318, -1
4, 319, -1
4, 320, -1
4, 321, 0.403117
4, 322, -1
4, 323, -0.766946
4, 324, 0.420539
4, 325, -1
4, 326, -1
4, 327, -1
4, 328, 0.53311
4, 329, 0.426256
4, 330, -0.613885
4, 331, -0.111519
4, 332, -0.463717
4, 333, -0.0201042
4, 334, -0.22345
4, 335, 0.625246
4, 336, -0.15179
4, 337, -1
4, 338, 0.583237
4, 339, -1
4, 340, -0.136965
4, 341, 0.0666277
4, 342, 0.654781
4, 343, -1
4, 344, -1
4, 345, -1
4, 346, 0.780982
4, 347, -1
4, 348, 0.349703
4, 349, -0.869442
4, 350, -0.491797
4, 351, 0.172898
4, 352, -0.102575
4, 353, 0.883383
4, 354, 0.434852
4, 355, -1
4, 356, 0.246767
4, 357, 0.300886
4, 358, -1
4, 359, -1
4, 360, -1
4, 361, -1
4, 362, 0.256906
4, 363, 0.237785
4, 364, -0.0892459
4, 365, -1
4, 366, -0.626212
4, 367, 0.783949
4, 368, 0.363383
4, 369, 0.0537618
4, 370, -1
4, 371, -0.386613
4, 372, 0.235284
4, 373, -0.099633
4, 374, -1
4, 375, -1
4, 376, 0.115323
4, 377, -1
4, 378, 0.367832
4, 379, -0.277577
4, 380, -1
4, 381, 0.525768
4, 382, -1
4, 383, -1
4, 384, 0.0698815
4, 385, -1
4, 386, -0.882074
4, 387, -1
4, 388, -0.166591
4, 389, -1
4, 390, -1
4, 391, 0.223761
4, 392, 0.352715
4, 393, 0.409665
4, 394, -1
4, 395, -1
4, 396, -1
4, 397, -1
4, 398, 0.999982
4, 399, -1
5, 0, 0.710459
5, 1, 0.0902257
5, 2, -1
5, 3, -1
5, 4, -0.975518
5, 5, -0.263633
5, 6, 0.114484
5, 7, -1
5, 8, -0.993557
5, 9, -1
5, 10, -1
5, 11, 0.725504
5, 12, 0.758128
5, 13, -0.30957
5, 14, -1
5, 15, -1
5, 16, -1
5, 17, -1
5, 18, -1
5, 19, 0.179736
5, 20, -1
5, 21, -1
5, 22, -1
5, 23, -1
5, 24, 0.192659
5, 25, -0.400621
5, 26, -1
5, 27, 0.309624
5, 28, -0.311754
5, 29, -1
5, 30, 0.174093
5, 31, -0.24135
5, 32, 0.455116
5, 33, 0.701093
5, 34, 0.402718
5, 35, -1
5, 36, -0.991202
5, 37, -1
5, 38, 0.781879
5, 39, -1
5, 40, 0.586014
5, 41, -1
5, 42, -1
5, 43, -1
5, 44, -1
5, 45, 0.450827
5, 46, -0.254097
5, 47, -0.0241195
5, 48, -1
5, 49, -0.930546
5, 50, -1
5, 51, -1
5, 52, -1
5, 53, -1
5, 54, -1
5, 55, -0.636183
5, 56, -1
5, 57, -1
5, 58, -1
5, 59, 0.218532
5, 60, -0.998316
5, 61, 0.346316
5, 62, 0.746057
5, 63, 0.875316
5, 64, 0.1791
5, 65, -0.976165
5, 66, -0.0755229
5, 67, 0.193748
5, 68, -1
5, 69, -0.108464
5, 70, -0.90347
5, 71, 0.11861
5, 72, -1
5, 73, -0.0265492
5, 74, -1
5, 75, 0.884027
5, 76, -1
5, 77, 0.227042
5, 78, -0.269419
5, 79, 0.914869
5, 80, 0.99773
5, 81, -1
5, 82, 0.179443
5, 83, -0.361209
5, 84, -0.724309
5, 85, 0.0419503
5, 86, -0.274426
5, 87, -0.398087
5, 88, -0.29096
5, 89, -0.44565
5, 90, -1
5, 91, -0.0727802
5, 92, -1
5, 93, 0.709667
5, 94, -0.719167
5, 95, -0.00762665
5, 96, 0.683702
5, 97, 0.236184
5, 98, -0.846447
5, 99, 0.672514
5, 100, -0.102014
5, 101, -0.897133
5, 102, -1
5, 103, 0.0583278
5, 104, 0.137487
5, 105, 0.377291
5, 106, -1
5, 107, -1
5, 108, -1
5, 109, -0.161108
5, 110, -0.074232
5, 111, 0.304977
5, 112, 0.625182
5, 113, -0.265061
5, 114, -0.0617542
5, 115, 0.882008
5, 116, 0.402831
5, 117, 0.532075
5, 118, -1
5, 119, -0.0891865
5, 120, -1
5, 121, 0.305094
5, 122, 0.670032
5, 123, -0.115918
5, 124, -0.430124
5, 125, 0.288908
5, 126, 0.137847
5, 127, -0.260615
5, 128, 0.942528
5, 129, -0.95052
5, 130, 0.480567
5, 131, -1
5, 132, -0.235964
5, 133, -1
5, 134, -1
5, 135, 0.0696597
5, 136, 0.402859
5, 137, -1
5, 138, -0.413124
5, 139, -0.339325
5, 140, 0.0109092
5, 141, -1
5, 142, 0.73604
5, 143, -1
5, 144, -1
5, 145, -1
5, 146, 0.366238
5, 147, -1
5, 148, 0.946449
5, 149, 0.462677
5, 150, -0.999032
5, 151, -1
5, 152, 0.0325797
5, 153, -0.683165
5, 154, -1
5, 155, 0.836375
5, 156, -1
5, 157, -1
5, 158, 0.736072
5, 159, -1
5, 160, 0.596878
5, 161, 0.165669
5, 162, -1
5, 163, 0.541125
5, 164, 0.551086
5, 165, -1
5, 166, -1
5, 167, -1
5, 168, -0.774476
5, 169, 0.0696898
5, 170, -0.20459
5, 171, -0.202983
5, 172, 0.133178
5, 173, -1
5, 174, 0.698855
5, 175, -1
5, 176, 0.871948
5, 177, -1
5, 178, 0.115532
5, 179, -1
5, 180, -1
5, 181, -0.919378
5, 182, -0.73405
5, 183, -0.673898
5, 184, -1
5, 185, 0.799752
5, 186, -1
5, 187, -0.547197
5, 188, -1
5, 189, -1
5, 190, 0.894926
5, 191, -0.252912
5, 192, 0.082126
5, 193, 0.376175
5, 194, -0.544043
5, 195, 0.68063
5, 196, 0.290573
5, 197, -1
5, 198, -0.00194731
5, 199, 0.330233
5, 200, 0.429623
5, 201, -1
5, 202, 0.73616
5, 203, 0.0271276
5, 204, -1
5, 205, 0.340138
5, 206, -1
5, 207, 0.481991
5, 208, 0.384177
5, 209, -1
5, 210, 0.876793
5, 211, 0.489014
5, 212, -1
5, 213, 0.0487229
5, 214, -1
5, 215, -0.861162
5, 216, -0.71971
5, 217, -0.755117
5, 218, -0.22963
5, 219, -1
5, 220, -0.853506
5, 221, 0.616454
5, 222, 0.514094
5, 223, -1
5, 224, -0.294206
5, 225, 0.365369
5, 226, -0.0949004
5, 227, -1
5, 228, 0.262513
5, 229, -1
5, 230, 0.0643286
5, 231, 0.256244
5, 232, -0.688771
5, 233, 0.0560463
5, 234, -0.244269
5, 235, -1
5, 236, -1
5, 237, -0.137764
5, 238, -0.11628
5, 239, 0.484332
5, 240, 0.388372
5, 241, -1
5, 242, 0.200334
5, 243, 0.466957
5, 244, -0.11971
5, 245, 0.181087
5, 246, -1
5, 247, -0.223373
5, 248, 0.705683
5, 249, -0.0817046
5, 250, 0.0799582
5, 251, -1
5, 252, -1
5, 253, -0.933582
5, 254, -1
5, 255, -0.970487
5, 256, -0.0777314
5, 257, -0.0220184
5, 258, 0.164308
5, 259, -0.160264
5, 260, -0.498912
5, 261, -1
5, 262, 0.0697724
5, 263, -0.31054
5, 264, 0.875444
5, 265, 0.999639
5, 266, 0.904555
5, 267, 0.884267
5, 268, 0.109586
5, 269, -1
5, 270, 0.521608
5, 271, -1
5, 272, -0.101705
5, 273, -1
5, 274, 0.827939
5, 275, -1
5, 276, 0.176262
5, 277, 0.0759615
5, 278, 0.49285
5, 279, -0.172942
5, 280, -0.861093
5, 281, 0.0521204
5, 282, -0.156512
5, 283, -1
5, 284, 0.195176
5, 285, -0.205909
5, 286, -1
5, 287, -1
5, 288, -0.638662
5, 289, -1
5, 290, 0.499016
5, 291, -1
5, 292, 0.111891
5, 293, -1
5, 294, 0.221061
5, 295, -1
5, 296, 0.202173
5, 297, -1
5, 298, 0.645433
5, 299, -1
5, 300, -1
5, 301, -0.263486
5, 302, -1
5, 303, -1
5, 304, 0.0582258
5, 305, 0.37725
5, 306, -0.318666
5, 307, -1
5, 308, -0.0894016
5, 309, -1
5, 310, -0.249144
5, 311, -1
5, 312, -0.207193
5, 313, 0.774614
5, 314, -0.432786
5, 315, 0.822873
5, 316, -1
5, 317, -0.0582293
5, 318, -1
5, 319, -1
5, 320, 0.475613
5, 321, 0.114097
5, 322, -0.941452
5, 323, 0.0376573
5, 324, -1
5, 325, 0.75499
5, 326, -1
5, 327, -0.104267
5, 328, -1
5, 329, 0.887372
5, 330, -1
5, 331, -0.367549
5, 332, -1
5, 333, -0.426965
5, 334, 0.403134
5, 335, 0.1152
5, 336, -0.217089
5, 337, -0.0299367
5, 338, -1
5, 339, -0.531794
5, 340, -1
5, 341, 0.610466
5, 342, -1
5, 343, -0.255772
5, 344, -0.223899
5, 345, -1
5, 346, -0.179508
5, 347, -1
5, 348, 0.128625
5, 349, -0.735022
5, 350, 0.293786
5, 351, -0.927272
5, 352, -1
5, 353, 0.624409
5, 354, 0.119663
5, 355, -0.10945
5, 356, -1
5, 357, -1
5, 358, 0.0832605
5, 359, -0.059456
5, 360, 0.0950423
5, 361, -0.888208
5, 362, -0.310608
5, 363, -0.168405
5, 364, -0.545552
5, 365, -1
5, 366, 0.779365
5, 367, -0.232231
5, 368, 0.0404128
5, 369, -1
5, 370, -1
5, 371, 0.576016
5, 372, 0.644095
5, 373, 0.729619
5, 374, 0.119428
5, 375, -1
5, 376, 0.5912
5, 377, 0.147746
5, 378, 0.155178
5, 379, -0.0600886
5, 380, 0.276457
5, 381, 0.138137
5, 382, 0.357765
5, 383, 0.28704
5, 384, -0.503066
5, 385, 0.0433826
5, 386, -0.253044
5, 387, 0.999951
5, 388, -0.0805462
5, 389, -1
5, 390, -0.818536
5, 391, -1
5, 392, 0.999964
5, 393, 0.848205
5, 394, 0.990553
5, 395, -1
5, 396, 0.807316
5, 397, 0.0272312
5, 398, 0.0937322
5, 399, -1
6, 0, 0.069539
6, 1, -1
6, 2, -1
6, 3, -1
6, 4, -1
6, 5, -1
6, 6, 0.668414
6, 7, -0.0575513
6, 8, -1
6, 9, -1
6, 10, -0.665402
6, 11, -0.962478
6, 12, -0.973776
6, 13, 0.497257
6, 14, -1
6, 15, -0.167805
6, 16, -1
6, 17, -1
6, 18, 0.937697
6, 19, -0.946891
6, 20, -1
6, 21, -1
6, 22, -0.897366
6, 23, 0.35001
6, 24, 0.308207
6, 25, 0.389255
6, 26, -1
6, 27, 0.00402644
6, 28, 0.649484
6, 29, -1
6, 30, -0.0420756
6, 31, -0.471212
6, 32, 0.172256
6, 33, 0.542549
6, 34, -1
6, 35, -0.968511
6, 36, 0.76301
6, 37, 0.239847
6, 38, 0.785216
6, 39, -1
6, 40, -0.967194
6, 41, -1
6, 42, -1
6, 43, 0.301777
6, 44, 0.290536
6, 45, 0.709309
6, 46, 0.0843967
6, 47, -1
6, 48, -0.223566
6, 49, -1
6, 50, -0.978814
6, 51, 0.499318
6, 52, -1
6, 53, -0.993761
6, 54, 0.842304
6, 55, -0.164671
6, 56, -0.368694
6, 57, -1
6, 58, -0.531124
6, 59, 0.117576
6, 60, 0.914707
6, 61, -0.733585
6, 62, 0.296299
6, 63, -0.854184
6, 64, 0.284001
6, 65, 0.731271
6, 66, -0.21353
6, 67, 0.266849
6, 68, 0.464356
6, 69, -0.262847
6, 70, -0.241517
6, 71, 0.505343
6, 72, 0.962518
6, 73, -1
6, 74, -0.827661
6, 75, -0.404977
6, 76, 0.322444
6, 77, 0.945663
6, 78, -0.00992729
6, 79, -0.648842
6, 80, -1
6, 81, -0.382355
6, 82, 0.389235
6, 83, -1
6, 84, -0.849038
6, 85, -1
6, 86, -1
6, 87, 0.220212
6, 88, 0.954895
6, 89, -0.617474
6, 90, -0.402045
6, 91, 0.762753
6, 92, -0.950907
6, 93, -1
6, 94, 0.531453
6, 95, 0.0472532
6, 96, -1
6, 97, -0.86575
6, 98, -0.218753
6, 99, 0.665319
6, 100, 0.551176
6, 101, -1
6, 102, -0.449014
6, 103, -0.944631
6, 104, -0.0301758
6, 105, -0.142126
6, 106, -0.953647
6, 107, -1
6, 108, -0.984656
6, 109, 0.687569
6, 110, -0.148968
6, 111, -1
6, 112, -0.951902
6, 113, -1
6, 114, -0.457699
6, 115, 0.387864
6, 116, 0.565684
6, 117, 0.873306
6, 118, -0.864899
6, 119, 0.665507
6, 120, 0.0722338
6, 121, 0.444164
6, 122, -1
6, 123, 0.279981
6, 124, 0.463102
6, 125, -1
6, 126, 0.880536
6, 127, 0.152768
6, 128, 0.354233
6, 129, -1
6, 130, -0.227305
6, 131, 0.315748
6, 132, -1
6, 133, 0.0989188
6, 134, -0.765812
6, 135, 0.507963
6, 136, -0.263568
6, 137, -1
6, 138, 0.329123
6, 139, 0.344386
6, 140, -0.306292
6, 141, -1
6, 142, -1
6, 143, -0.364097
6, 144, -0.404464
6, 145, -0.528202
6, 146, -0.104247
6, 147, -1
6, 148, -0.996156
6, 149, 0.543176
6, 150, -1
6, 151, 0.0349849
6, 152, -0.500754
6, 153, -0.630126
6, 154, -0.0502344
6, 155, -0.121253
6, 156, -1
6, 157, -0.385527
6, 158, -0.654408
6, 159, -0.578186
6, 160, -0.908675
6, 161, -0.791669
6, 162, 0.112441
6, 163, -1
6, 164, 0.148643
6, 165, -1
6, 166, 0.0437678
6, 167, 0.184153
6, 168, -0.661924
6, 169, -0.272981
6, 170, 0.0799976
6, 171, -0.31741
6, 172, 0.750345
6, 173, 0.354783
6, 174, -1
6, 175, -0.494401
6, 176, -0.912083
6, 177, 0.0786015
6, 178, -0.281033
6, 179, -0.409516
6, 180, -0.827228
6, 181, -1
6, 182, 0.956087
6, 183, -0.069116
6, 184, -0.109152
6, 185, 0.435872
6, 186, -0.0668643
6, 187, -0.674833
6, 188, -0.920215
6, 189, 0.26863
6, 190, -0.206581
6, 191, -0.890453
6, 192, -0.073708
6, 193, 0.757928
6, 194, 0.210484
6, 195, 0.191014
6, 196, -0.550666
6, 197, -1
6, 198, -0.1933
6, 199, -0.973682
6, 200, -0.282747
6, 201, -0.473353
6, 202, -1
6, 203, 0.228517
6, 204, 0.61235
6, 205, 0.856857
6, 206, -0.894942
6, 207, -0.120066
6, 208, -1
6, 209, 0.566867
6, 210, -0.169814
6, 211, 0.0383422
6, 212, -0.0907964
6, 213, -0.396411
6, 214, 0.440233
6, 215, -0.766262
6, 216, -0.798255
6, 217, -0.242622
6, 218, 0.817775
6, 219, -1
6, 220, 0.252262
6, 221, -1
6, 222, -1
6, 223, -0.695353
6, 224, 0.999532
6, 225, -0.988622
6, 226, -0.818227
6, 227, -0.00976206
6, 228, 0.487635
6, 229, -0.843987
6, 230, -1
6, 231, -0.325948
6, 232, -0.0348187
6, 233, -0.968847
6, 234, -1
6, 235, 0.387387
6, 236, 0.0946116
6, 237, -0.158295
6, 238, 0.999568
6, 239, -0.948269
6, 240, 0.79641
6, 241, -1
6, 242, 0.21179
6, 243, -1
6, 244, 0.709012
6, 245, -0.910961
6, 246, 0.0758449
6, 247, -0.103727
6, 248, -0.213512
6, 249, -0.983914
6, 250, -0.0995149
6, 251, -1
6, 252, -1
6, 253, 0.408192
6, 254, 0.93185
6, 255, 0.637569
6, 256, -0.110373
6, 257, -0.969515
6, 258, -0.322375
6, 259, -1
6, 260, -0.101418
6, 261, -1
6, 262, -1
6, 263, -1
6, 264, 0.254669
6, 265, -0.926238
6, 266, -0.724898
6, 267, -1
6, 268, -0.275608
6, 269, -1
6, 270, -0.824804
6, 271, 0.395728
6, 272, 0.137335
6, 273, -1
6, 274, 0.556577
6, 275, -1
6, 276, -1
6, 277, -1
6, 278, -0.8096
6, 279, -0.873442
6, 280, -1
6, 281, -1
6, 282, -1
6, 283, -1
6, 284, 0.636846
6, 285, -0.326259
6, 286, -1
6, 287, -1
6, 288, -0.120661
6, 289, -0.56076
6, 290, -1
6, 291, -0.298217
6, 292, -0.585097
6, 293, -1
6, 294, 0.821474
6, 295, -1
6, 296, 0.753407
6, 297, -0.0394223
6, 298, -0.245707
6, 299, -0.170182
6, 300, 0.411522
6, 301, -1
6, 302, -0.160961
6, 303, -1
6, 304, -1
6, 305, 0.291996
6, 306, -0.0496313
6, 307, -0.288396
6, 308, -0.174375
6, 309, 0.372498
6, 310, -0.142513
6, 311, -0.792646
6, 312, -1
6, 313, 0.281288
6, 314, -1
6, 315, -1
6, 316, 0.993841
6, 317, 0.45496
6, 318, 0.192122
6, 319, 0.0586184
6, 320, -0.919838
6, 321, -1
6, 322, -1
6, 323, -1
6, 324, 0.704036
6, 325, 0.228377
6, 326, 0.027337
6, 327, -0.502321
6, 328, -0.44979
6, 329, -1
6, 330, -0.199305
6, 331, -1
6, 332, -1
6, 333, -0.691051
6, 334, -1
6, 335, -0.164612
6, 336, 0.982698
6, 337, -0.0851603
6, 338, 0.610126
6, 339, -0.162567
6, 340, -1
6, 341, -0.222972
6, 342, -0.0623914
6, 343, -1
6, 344, -1
6, 345, -1
6, 346, -1
6, 347, 0.250445
6, 348, -1
6, 349, -1
6, 350, 0.716046
6, 351, -0.330895
6, 352, -1
6, 353, 0.623017
6, 354, -1
6, 355, 0.0045874
6, 356, 0.217056
6, 357, -1
6, 358, -0.149011
6, 359, 0.999877
6, 360, -1
6, 361, 0.112281
6, 362, 0.269751
6, 363, -0.898069
6, 364, -1
6, 365, -1
6, 366, -0.226705
6, 367, 0.0698646
6, 368, -0.938532
6, 369, -1
6, 370, -0.892653
6, 371, -0.293906
6, 372, -1
6, 373, -0.642736
6, 374, 0.62731
6, 375, -0.941138
6, 376, -0.0362907
6, 377, 0.72151
6, 378, 0.629918
6, 379, -1
6, 380, -0.733092
6, 381, -0.263993
6, 382, -0.974229
6, 383, 0.718648
6, 384, -0.856725
6, 385, -1
6, 386, -1
6, 387, -0.139874
6, 388, -0.0682814
6, 389, -1
6, 390, -1
6, 391, -0.498029
6, 392, -0.111046
6, 393, -0.121778
6, 394, -0.440802
6, 395, -1
6, 396, -1
6, 397, -0.122439
6, 398, 0.437885
6, 399, -0.677958
7, 0, -0.230722
7, 1, 0.954494
7, 2, -1
7, 3, 0.481943
7, 4, -0.445512
7, 5, 0.447974
7, 6, 0.562156
7, 7, 0.158869
7, 8, -1
7, 9, 0.153319
7, 10, 0.308881
7, 11, -0.00388926
7, 12, 0.493469
7, 13, 0.582358
7, 14, 0.0371429
7, 15, 0.361027
7, 16, 0.413645
7, 17, 0.225688
7, 18, -0.705281
7, 19, 0.757221
7, 20, -0.121593
7, 21, -0.663574
7, 22, -1
7, 23, -1
7, 24, -0.849238
7, 25, -0.153853
7, 26, -1
7, 27, 0.529645
7, 28, -1
7, 29, -1
7, 30, -0.0352434
7, 31, -0.880117
7, 32, 0.745324
7, 33, -1
7, 34, -1
7, 35, 0.999046
7, 36, -0.220583
7, 37, -0.723802
7, 38, -0.205029
7, 39, -1
7, 40, -0.812833
7, 41, -1
7, 42, 0.736067
7, 43, -0.733688
7, 44, -1
7, 45, -0.300131
7, 46, -1
7, 47, 0.228847
7, 48, -0.856312
7, 49, -1
7, 50, 0.328752
7, 51, -0.0981746
7, 52, -1
7, 53, 0.78418
7, 54, 0.0341396
7, 55, -0.116068
7, 56, -1
7, 57, 0.0945441
7, 58, -1
7, 59, 0.47944
7, 60, 0.501192
7, 61, -0.0768595
7, 62, -1
7, 63, -1
7, 64, -0.210045
7, 65, -1
7, 66, -1
7, 67, 0.263096
7, 68, -0.647009
7, 69, -1
7, 70, 0.576712
7, 71, -1
7, 72, 0.260742
7, 73, -0.602194
7, 74, -0.220513
7, 75, -1
7, 76, 0.926172
7, 77, 0.213289
7, 78, -1
7, 79, 0.500462
7, 80, 0.753558
7, 81, 0.125802
7, 82, -0.204221
7, 83, 0.814664
7, 84, -1
7, 85, 0.575221
7, 86, -1
7, 87, -1
7, 88, -0.18139
7, 89, -1
7, 90, -1
7, 91, 0.809417
7, 92, -0.510703
7, 93, -1
7, 94, -1
7, 95, 0.159036
7, 96, -1
7, 97, 0.594218
7, 98, -1
7, 99, -0.23631
7, 100, -1
7, 101, 0.58467
7, 102, -0.559822
7, 103, -1
7, 104, -0.981716
7, 105, -1
7, 106, -1
7, 107, -1
7, 108, 0.530716
7, 109, -1
7, 110, 0.852861
7, 111, -0.255532
7, 112, 0.0564581
7, 113, -0.995945
7, 114, -0.748822
7, 115, 0.714012
7, 116, 0.491834
7, 117, -0.112492
7, 118, -1
7, 119, -1
7, 120, -0.884397
7, 121, -1
7, 122, -1
7, 123, 0.38192
7, 124, -1
7, 125, -1
7, 126, -0.713766
7, 127, -1
7, 128, 0.478612
7, 129, -1
7, 130, -0.600088
7, 131, -0.0830088
7, 132, -0.0547738
7, 133, 0.822742
7, 134, -1
7, 135, -1
7, 136, 0.393142
7, 137, -0.642222
7, 138, -1
7, 139, -1
7, 140, -0.478072
7, 141, -0.177902
7, 142, 0.99932
7, 143, 0.206779
7, 144, 0.386752
7, 145, 0.68951
7, 146, -0.162955
7, 147, 0.21635
7, 148, -0.828449
7, 149, -1
7, 150, 0.303004
7, 151, -1
7, 152, -0.423372
7, 153, 0.42637
7, 154, -0.108688
7, 155, 0.240361
7, 156, 0.414438
7, 157, 0.867417
7, 158, 0.172827
7, 159, -0.639806
7, 160, 0.923394
7, 161, -0.952675
7, 162, -1
7, 163, 0.296723
7, 164, 0.389887
7, 165, -0.733442
7, 166, -0.336236
7, 167, -0.608202
7, 168, 0.374252
7, 169, -0.0666029
7, 170, -0.357828
7, 171, 0.309126
7, 172, -1
7, 173, -0.506863
7, 174, 0.40972
7, 175, 0.545103
7, 176, -1
7, 177, 0.875269
7, 178, 0.11425
7, 179, -1
7, 180, -0.112214
7, 181, 0.516407
7, 182, -1
7, 183, 0.825698
7, 184, 0.606298
7, 185, 0.473953
7, 186, -1
7, 187, -0.724698
7, 188, -0.2758
7, 189, 0.29221
7, 190, 0.0229037
7, 191, -0.274316
7, 192, -0.135352
7, 193, 0.582705
7, 194, 0.505413
7, 195, -1
7, 196, -1
7, 197, 0.0922005
7, 198, -0.117787
7, 199, -0.46108
7, 200, -1
7, 201, -1
7, 202, -1
7, 203, -1
7, 204, -1
7, 205, -0.351961
7, 206, -1
7, 207, -1
7, 208, -1
7, 209, -1
7, 210, -1
7, 211, -0.214494
7, 212, -1
7, 213, -0.199317
7, 214, -1
7, 215, 0.374394
7, 216, -1
7, 217, -0.990199
7, 218, -1
7, 219, 0.0697324
7, 220, -1
7, 221, 0.572857
7, 222, -1
7, 223, -0.090053
7, 224, -0.40534
7, 225, 0.323361
7, 226, 0.421079
7, 227, -1
7, 228, -1
7, 229, 0.320091
7, 230, 0.413105
7, 231, -1
7, 232, 0.396884
7, 233, 0.215722
7, 234, -1
7, 235, -1
7, 236, 0.499071
7, 237, -1
7, 238, 0.504698
7, 239, -1
7, 240, -0.746886
7, 241, -1
7, 242, -0.0613992
7, 243, -1
7, 244, -0.608902
7, 245, -0.685792
7, 246, -1
7, 247, 0.18022
7, 248, 0.422446
7, 249, -1
7, 250, -1
7, 251, -0.105823
7, 252, 0.546386
7, 253, 0.959087
7, 254, -1
7, 255, -0.873853
7, 256, 0.151467
7, 257, -0.86217
7, 258, -0.383225
7, 259, 0.117773
7, 260, -0.318093
7, 261, -1
7, 262, 0.0851659
7, 263, 0.999629
7, 264, 0.254993
7, 265, 0.910787
7, 266, 0.00791414
7, 267, 0.254618
7, 268, 0.0709698
7, 269, 0.0816744
7, 270, -0.452852
7, 271, 0.0834954
7, 272, -0.490988
7, 273, 0.376889
7, 274, -1
7, 275, 0.488156
7, 276, -1
7, 277, -1
7, 278, -1
7, 279, 0.797545
7, 280, -1
7, 281, -1
7, 282, -1
7, 283, 0.340567
7, 284, 0.776942
7, 285, -1
7, 286, 0.269028
7, 287, -0.17968
7, 288, -0.205392
7, 289, -1
7, 290, 0.685965
7, 291, 0.11225
7, 292, -0.25201
7, 293, -1
7, 294, -0.705016
7, 295, -0.381741
7, 296, 0.354286
7, 297, -1
7, 298, 0.402702
7, 299, -1
7, 300, -0.219716
7, 301, -1
7, 302, -1
7, 303, -1
7, 304, 0.860581
7, 305, -1
7, 306, 0.192901
7, 307, 0.760744
7, 308, -1
7, 309, -0.0321954
7, 310, 0.186658
7, 311, 0.298982
7, 312, 0.485608
7, 313, -1
7, 314, -0.0125704
7, 315, 0.624328
7, 316, 0.649246
7, 317, -1
7, 318, -0.959646
7, 319, -1
7, 320, 0.28819
7, 321, 0.0249098
7, 322, -0.566784
7, 323, 0.646894
7, 324, 0.310637
7, 325, 0.379725
7, 326, 0.848296
7, 327, -1
7, 328, -0.0253706
7, 329, -1
7, 330, -1
7, 331, -1
7, 332, 0.0466388
7, 333, -1
7, 334, 0.646117
7, 335, -1
7, 336, -1
7, 337, -0.607968
7, 338, 0.999555
7, 339, 0.715887
7, 340, 0.3032
7, 341, 0.156363
7, 342, 0.633637
7, 343, -0.455407
7, 344, -1
7, 345, -1
7, 346, -1
7, 347, -1
7, 348, -1
7, 349, 0.777913
7, 350, -1
7, 351, 0.105764
7, 352, -0.248697
7, 353, -1
7, 354, -0.265939
7, 355, 0.545887
7, 356, 0.999867
7, 357, -1
7, 358, -1
7, 359, -0.174703
7, 360, 0.0537076
7, 361, -1
7, 362, -1
7, 363, 0.758752
7, 364, -1
7, 365, 0.547944
7, 366, 0.714882
7, 367, -1
7, 368, -1
7, 369, -0.00831942
7, 370, -1
7, 371, 0.334813
7, 372, -1
7, 373, -0.0790732
7, 374, -1
7, 375, -1
7, 376, 0.403189
7, 377, -1
7, 378, 0.720991
7, 379, 0.72572
7, 380, 0.026068
7, 381, 0.161866
7, 382, -1
7, 383, -0.958731
7, 384, 0.601503
7, 385, 0.730064
7, 386, -1
7, 387, 0.147553
7, 388, -1
7, 389, 0.660515
7, 390, -1
7, 391, -1
7, 392, -1
7, 393, 0.763714
7, 394, 0.745944
7, 395, -1
7, 396, 0.274075
7, 397, 0.378937
7, 398, -0.953589
7, 399, 0.6023
8, 0, -0.263637
8, 1, -1
8, 2, 0.139221
8, 3, -1
8, 4, 0.0858323
8, 5, -0.0862358
8, 6, -0.0724234
8, 7, -1
8, 8, 0.215571
8, 9, -1
8, 10, 0.862545
8, 11, -0.53431
8, 12, -1
8, 13, -1
8, 14, 0.49507
8, 15, -0.123016
8, 16, 0.463644
8, 17, 0.20539
8, 18, -1
8, 19, -0.799113
8, 20, -0.163615
8, 21, 0.228515
8, 22, 0.383694
8, 23, -0.398587
8, 24, 0.399129
8, 25, 0.224872
8, 26, 0.0310793
8, 27, -0.734107
8, 28, -0.89906
8, 29, -1
8, 30, -1
8, 31, -0.208498
8, 32, -0.263621
8, 33, 0.0695665
8, 34, 0.266492
8, 35, 0.999044
8, 36, -0.960412
8, 37, 0.66433
8, 38, -1
8, 39, 0.601141
8, 40, -1
8, 41, 0.039156
8, 42, -1
8, 43, -1
8, 44, 0.275911
8, 45, 0.703626
8, 46, -0.978778
8, 47, -1
8, 48, -1
8, 49, -1
8, 50, 0.838154
8, 51, -1
8, 52, 0.865974
8, 53, -0.215145
8, 54, 0.0695851
8, 55, -0.972206
8, 56, 0.735862
8, 57, -1
8, 58, 0.389719
8, 59, 0.691147
8, 60, -1
8, 61, -0.115391
8, 62, -0.524003
8, 63, -0.984251
8, 64, -1
8, 65, 0.882309
8, 66, -1
8, 67, -1
8, 68, 0.757725
8, 69, 0.71778
8, 70, 0.500341
8, 71, -1
8, 72, 0.348975
8, 73, 0.072998
8, 74, 0.0282356
8, 75, 0.306042
8, 76, -1
8, 77, -1
8, 78, -0.988789
8, 79, -1
8, 80, -0.929806
8, 81, 0.385519
8, 82, -0.00162063
8, 83, -1
8, 84, 0.957859
8, 85, -1
8, 86, -1
8, 87, -0.030041
8, 88, -1
8, 89, 0.72499
8, 90, -0.629645
8, 91, -1
8, 92, -1
8, 93, -0.0902324
8, 94, -1
8, 95, -1
8, 96, -0.0139412
8, 97, -1
8, 98, -0.150302
8, 99, -0.157314
8, 100, -1
8, 101, -1
8, 102, -1
8, 103, 0.0983053
8, 104, 0.233276
8, 105, -1
8, 106, 0.309377
8, 107, -0.0420361
8, 108, -1
8, 109, -0.504812
8, 110, -1
8, 111, -1
8, 112, 0.681551
8, 113, -0.207202
8, 114, -1
8, 115, -0.219306
8, 116, -1
8, 117, -1
8, 118, 0.299527
8, 119, -1
8, 120, -1
8, 121, -1
8, 122, -1
8, 123, -1
8, 124, -0.95378
8, 125, -0.93294
8, 126, 0.475915
8, 127, -0.151918
8, 128, -1
8, 129, 0.0667965
8, 130, -1
8, 131, -0.273331
8, 132, -1
8, 133, 0.103975
8, 134, 0.682364
8, 135, -1
8, 136, 0.438009
8, 137, -1
8, 138, 0.28266
8, 139, 0.568967
8, 140, -1
8, 141, 0.390518
8, 142, -1
8, 143, 0.686117
8, 144, 0.564304
8, 145, -1
8, 146, -0.663886
8, 147, -1
8, 148, -1
8, 149, 0.758152
8, 150, -1
8, 151, -1
8, 152, 0.844367
8, 153, -1
8, 154, -1
8, 155, -1
8, 156, -0.873447
8, 157, -1
8, 158, -1
8, 159, -0.271424
8, 160, 0.719568
8, 161, -0.655012
8, 162, -1
8, 163, -1
8, 164, -1
8, 165, 0.810775
8, 166, -0.478362
8, 167, 0.459471
8, 168, 0.264946
8, 169, -1
8, 170, -0.370228
8, 171, 0.567426
8, 172, 0.15038
8, 173, -1
8, 174, -1
8, 175, -0.47079
8, 176, 0.685729
8, 177, -0.338208
8, 178, -1
8, 179, 0.990042
8, 180, -1
8, 181, -1
8, 182, 0.0974046
8, 183, 0.194763
8, 184, -1
8, 185, 0.340836
8, 186, -0.164098
8, 187, -1
8, 188, 0.999435
8, 189, 0.819531
8, 190, 0.791227
8, 191, 0.373784
8, 192, -0.211103
8, 193, 0.402934
8, 194, -1
8, 195, -0.986299
8, 196, 0.100121
8, 197, -1
8, 198, 0.697641
8, 199, -1
8, 200, -1
8, 201, -1
8, 202, 0.243634
8, 203, -0.0453832
8, 204, -0.72675
8, 205, 0.410494
8, 206, -0.0316673
8, 207, -0.831834
8, 208, -0.172153
8, 209, 0.819705
8, 210, 0.285081
8, 211, -0.975043
8, 212, -1
8, 213, -0.453995
8, 214, -1
8, 215, -1
8, 216, 0.52046
8, 217, -1
8, 218, 0.219359
8, 219, 0.325888
8, 220, 0.200297
8, 221, -1
8, 222, -1
8, 223, 0.66181
8, 224, -1
8, 225, -1
8, 226, -1
8, 227, -1
8, 228, -1
8, 229, -1
8, 230, -1
8, 231, -1
8, 232, -1
8, 233, 0.0837983
8, 234, -0.0916126
8, 235, -0.0577473
8, 236, -1
8, 237, -0.922799
8, 238, -1
8, 239, -0.163193
8, 240, 0.212999
8, 241, 0.354129
8, 242, -0.0204933
8, 243, -0.227543
8, 244, -1
8, 245, -0.236984
8, 246, 0.453274
8, 247, 0.428725
8, 248, -1
8, 249, -1
8, 250, -1
8, 251, -0.820168
8, 252, -1
8, 253, -1
8, 254, 0.921133
8, 255, 0.722012
8, 256, -0.591449
8, 257, -1
8, 258, -1
8, 259, -1
8, 260, -0.128784
8, 261, 0.678132
8, 262, -1
8, 263, -1
8, 264, 0.403522
8, 265, -0.725038
8, 266, -1
8, 267, 0.312239
8, 268, -0.476335
8, 269, -1
8, 270, 0.82604
8, 271, 0.831816
8, 272, 0.972397
8, 273, -1
8, 274, -0.229693
8, 275, -0.0550502
8, 276, 0.00633268
8, 277, 0.411993
8, 278, -1
8, 279, 0.469817
8, 280, 0.212893
8, 281, -1
8, 282, -0.953824
8, 283, 0.877713
8, 284, -1
8, 285, 0.187934
8, 286, 0.529517
8, 287, -1
8, 288, -1
8, 289, 0.106898
8, 290, -1
8, 291, -1
8, 292, -0.70641
8, 293, -1
8, 294, 0.999706
8, 295, 0.726124
8, 296, -1
8, 297, 0.875937
8, 298, 0.341264
8, 299, -0.288951
8, 300, -1
8, 301, -0.443379
8, 302, -0.832815
8, 303, -0.0983617
8, 304, 0.499524
8, 305, -0.250822
8, 306, -0.65182
8, 307, -1
8, 308, -0.454041
8, 309, -1
8, 310, 0.349978
8, 311, -0.356773
8, 312, -1
8, 313, 0.348548
8, 314, 0.891523
8, 315, -1
8, 316, -1
8, 317, 0.467891
8, 318, -1
8, 319, 0.135604
8, 320, -1
8, 321, 0.123665
8, 322, -0.675661
8, 323, 0.103304
8, 324, 0.544108
8, 325, -1
8, 326, -0.257756
8, 327, -1
8, 328, 0.650065
8, 329, 0.75661
8, 330, -1
8, 331, 0.830268
8, 332, -1
8, 333, 0.547602
8, 334, -0.323158
8, 335, 0.276317
8, 336, -1
8, 337, -1
8, 338, 0.230428
8, 339, -0.833692
8, 340, -1
8, 341, 0.132584
8, 342, -0.45574
8, 343, -1
8, 344, -1
8, 345, -0.377783
8, 346, -0.747728
8, 347, -1
8, 348, 0.640744
8, 349, -1
8, 350, 0.999849
8, 351, 0.577521
8, 352, 0.380376
8, 353, -1
8, 354, 0.0620631
8, 355, -1
8, 356, -0.351967
8, 357, -0.0592275
8, 358, 0.783602
8, 359, -1
8, 360, -0.0903475
8, 361, -1
8, 362, -1
8, 363, 0.613061
8, 364, 0.999885
8, 365, -1
8, 366, -1
8, 367, 0.552113
8, 368, -1
8, 369, 0.683978
8, 370, -0.982412
8, 371, -1
8, 372, -1
8, 373, 0.100261
8, 374, -1
8, 375, -1
8, 376, 0.150514
8, 377, -1
8, 378, -0.534584
8, 379, -1
8, 380, -1
8, 381, -1
8, 382, -1
8, 383, 0.877459
8, 384, -0.973977
8, 385, 0.249921
8, 386, -1
8, 387, -0.673978
8, 388, -1
8, 389, -1
8, 390, 0.779457
8, 391, -0.632273
8, 392, -1
8, 393, -0.292927
8, 394, -1
8, 395, 0.626908
8, 396, 0.214804
8, 397, -1
8, 398, 0.168177
8, 399, 0.653237
9, 0, 0.665769
9, 1, -0.170748
9, 2, 0.869785
9, 3, 0.265855
9, 4, 0.424506
9, 5, 0.793439
9, 6, -1
9, 7, 0.0392318
9, 8, 0.872586
9, 9, -0.775617
9, 10, -1
9, 11, -1
9, 12, -0.815789
9, 13, -0.810789
9, 14, -1
9, 15, -1
9, 16, 0.410986
9, 17, 0.0991587
9, 18, 0.500696
9, 19, -0.587674
9, 20, -0.442957
9, 21, -0.648333
9, 22, -0.927516
9, 23, -0.0767477
9, 24, -0.222334
9, 25, -0.289297
9, 26, -1
9, 27, -1
9, 28, -0.927359
9, 29, -1
9, 30, -1
9, 31, -1
9, 32, -1
9, 33, -1
9, 34, -1
9, 35, -1
9, 36, -1
9, 37, -1
9, 38, -1
9, 39, -1
9, 40, -1
9, 41, -0.0837844
9, 42, -0.0556753
9, 43, -0.89076
9, 44, -1
9, 45, -1
9, 46, -1
9, 47, -0.398819
9, 48, -1
9, 49, 0.283805
9, 50, -0.134432
9, 51, 0.994102
9, 52, 0.864669
9, 53, -1
9, 54, 0.552561
9, 55, -1
9, 56, -1
9, 57, -1
9, 58, -1
9, 59, -1
9, 60, -1
9, 61, -0.281279
9, 62, -1
9, 63, -1
9, 64, -1
9, 65, -0.832362
9, 66, -1
9, 67, 0.667372
9, 68, 0.779155
9, 69, 0.999128
9, 70, 0.887678
9, 71, 0.683813
9, 72, 0.595356
9, 73, 0.729657
9, 74, 0.364837
9, 75, -0.918522
9, 76, -0.19257
9, 77, -0.934798
9, 78, -1
9, 79, -1
9, 80, -1
9, 81, -0.76678
9, 82, -1
9, 83, -0.946153
9, 84, -0.831417
9, 85, -0.79518
9, 86, -1
9, 87, -1
9, 88, -0.20724
9, 89, 0.830236
9, 90, 0.950154
9, 91, 0.772396
9, 92, 0.53091
9, 93, 0.216623
9, 94, 0.26136
9, 95, -0.204561
9, 96, -1
9, 97, -0.0893094
9, 98, -1
9, 99, -1
9, 100, -1
9, 101, -1
9, 102, -1
9, 103, -0.602402
9, 104, -0.346462
9, 105, -0.542661
9, 106, -0.368501
9, 107, -0.798648
9, 108, 0.0307791
9, 109, 0.249544
9, 110, 0.449903
9, 111, 0.80431
9, 112, 0.0206283
9, 113, 0.543359
9, 114, -1
9, 115, 0.0248617
9, 116, -1
9, 117, -0.224551
9, 118, 0.265618
9, 119, -1
9, 120, 0.067928
9, 121, -0.844993
9, 122, -0.453863
9, 123, 0.541812
9, 124, 0.0734297
9, 125, 0.824805
9, 126, -0.83514
9, 127, 0.145026
9, 128, 0.00792791
9, 129, -0.279104
9, 130, 0.579043
9, 131, -0.111625
9, 132, 0.968727
9, 133, -1
9, 134, 0.57787
9, 135, -0.430452
9, 136, 0.508728
9, 137, 0.773206
9, 138, -0.188836
9, 139, -1
9, 140, -0.628422
9, 141, -1
9, 142, -0.973629
9, 143, 0.478126
9, 144, -0.169841
9, 145, 0.768668
9, 146, -0.194605
9, 147, -0.766025
9, 148, -0.718575
9, 149, -0.981301
9, 150, -1
9, 151, -0.436537
9, 152, -1
9, 153, -1
9, 154, 0.503395
9, 155, 0.175125
9, 156, 0.0924733
9, 157, 0.393787
9, 158, 0.0899555
9, 159, -1
9, 160, 0.0351046
9, 161, -0.13477
9, 162, 0.712042
9, 163, -0.981083
9, 164, -0.0846448
9, 165, 0.891815
9, 166, 0.466832
9, 167, -0.255014
9, 168, 0.805987
9, 169, 0.539566
9, 170, 0.407256
9, 171, -0.450313
9, 172, 0.454495
9, 173, 0.5604
9, 174, 0.0925079
9, 175, 0.802268
9, 176, 0.999402
9, 177, 0.999404
9, 178, 0.503156
9, 179, -1
9, 180, 0.0365701
9, 181, -1
9, 182, 0.999417
9, 183, 0.90823
9, 184, -0.979111
9, 185, -0.298423
9, 186, 0.455685
9, 187, 0.0705866
9, 188, -0.68372
9, 189, 0.907531
9, 190, 0.824532
9, 191, 0.48435
9, 192, 0.864566
9, 193, -0.0791651
9, 194, 0.298682
9, 195, 0.297462
9, 196, 0.637492
9, 197, 0.147705
9, 198, -1
9, 199, -1
9, 200, -0.63023
9, 201, -0.1394
9, 202, -0.195397
9, 203, 0.933528
9, 204, 0.0664629
9, 205, -1
9, 206, -0.347782
9, 207, 0.814214
9, 208, 0.416894
9, 209, 0.999486
9, 210, -0.694499
9, 211, 0.33019
9, 212, 0.376037
9, 213, 0.729441
9, 214, -0.218811
9, 215, -0.118123
9, 216, -1
9, 217, 0.268086
9, 218, -1
9, 219, -0.130047
9, 220, -0.779919
9, 221, -0.787395
9, 222, -1
9, 223, 0.0771725
9, 224, -0.210129
9, 225, 0.0160128
9, 226, 0.872719
9, 227, 0.236558
9, 228, 0.274255
9, 229, -0.217944
9, 230, 0.425653
9, 231, 0.914869
9, 232, -1
9, 233, -1
9, 234, -0.283115
9, 235, -0.087942
9, 236, -1
9, 237, -0.815499
9, 238, -1
9, 239, -0.942422
9, 240, -0.838787
9, 241, -1
9, 242, -1
9, 243, 0.0648513
9, 244, 0.743316
9, 245, 0.770502
9, 246, 0.347791
9, 247, 0.252587
9, 248, -1
9, 249, 0.599233
9, 250, -0.947039
9, 251, 0.919931
9, 252, -1
9, 253, -1
9, 254, -1
9, 255, -1
9, 256, -0.286671
9, 257, -0.966494
9, 258, -1
9, 259, -1
9, 260, -1
9, 261, -0.662568
9, 262, -1
9, 263, -0.80221
9, 264, -1
9, 265, 0.523893
9, 266, -0.127265
9, 267, 0.0111759
9, 268, 0.753131
9, 269, 0.179454
9, 270, 0.965431
9, 271, -0.942547
9, 272, 0.822625
9, 273, -0.100905
9, 274, -0.787952
9, 275, -1
9, 276, -1
9, 277, -0.950039
9, 278, -1
9, 279, -1
9, 280, -0.36387
9, 281, -1
9, 282, -0.924933
9, 283, -0.554678
9, 284, -0.835822
9, 285, -1
9, 286, -1
9, 287, -0.543791
9, 288, 0.355538
9, 289, -1
9, 290, 0.305353
9, 291, -0.961212
9, 292, -0.817261
9, 293, -0.661107
9, 294, 0.349766
9, 295, -1
9, 296, -0.842263
9, 297, -0.980314
9, 298, -0.93946
9, 299, -1
9, 300, 0.357232
9, 301, -0.31208
9, 302, -1
9, 303, -1
9, 304, -1
9, 305, -1
9, 306, -1
9, 307, -0.918812
9, 308, -0.902004
9, 309, -0.291993
9, 310, -0.394282
9, 311, 0.433986
9, 312, -0.0557056
9, 313, 0.761285
9, 314, -0.110157
9, 315, 0.0917382
9, 316, 0.357246
9, 317, 0.817663
9, 318, -1
9, 319, -1
9, 320, -0.256446
9, 321, -1
9, 322, -0.109967
9, 323, -1
9, 324, -1
9, 325, -1
9, 326, -1
9, 327, -0.539281
9, 328, -0.0244999
9, 329, -1
9, 330, -1
9, 331, -0.955133
9, 332, 0.728998
9, 333, -0.492588
9, 334, 0.754534
9, 335, -0.709051
9, 336, 0.0952725
9, 337, -0.968207
9, 338, 0.947616
9, 339, 0.394102
9, 340, -1
9, 341, -0.497842
9, 342, -1
9, 343, -0.06957
9, 344, -1
9, 345, -0.523125
9, 346, -1
9, 347, -0.343307
9, 348, -1
9, 349, -0.232473
9, 350, 0.835
9, 351, -1
9, 352, -0.197507
9, 353, -1
9, 354, 0.502544
9, 355, 0.148184
9, 356, 0.881056
9, 357, -0.19846
9, 358, 0.0343036
9, 359, -0.461102
9, 360, -0.837405
9, 361, -1
9, 362, -0.00430257
9, 363, -0.826762
9, 364, -0.724669
9, 365, -0.720782
9, 366, -0.361612
9, 367, -1
9, 368, -0.912643
9, 369, -0.715181
9, 370, -0.793362
9, 371, -0.287634
9, 372, 0.265469
9, 373, 0.341386
9, 374, -0.0680494
9, 375, 0.774993
9, 376, 0.658431
9, 377, -1
9, 378, -0.271531
9, 379, 0.252815
9, 380, 0.39061
9, 381, -1
9, 382, -0.72016
9, 383, -0.731571
9, 384, -0.919463
9, 385, -0.193199
9, 386, -0.309648
9, 387, -0.765413
9, 388, -0.798524
9, 389, -1
9, 390, -1
9, 391, -0.213722
9, 392, -0.171277
9, 393, 0.184056
9, 394, -0.47601
9, 395, -1
9, 396, -0.118568
9, 397, -0.370361
9, 398, -0.684378
9, 399, -0.861104
10, 0, -1
10, 1, -1
10, 2, -1
10, 3, 0.898952
10, 4, 0.33708
10, 5, 0.402671
10, 6, -1
10, 7, 0.343188
10, 8, 0.477621
10, 9, -0.758563
10, 10, -1
10, 11, 0.0870414
10, 12, 0.542956
10, 13, -1
10, 14, 0.7173
10, 15, -1
10, 16, -1
10, 17, 0.0128609
10, 18, -0.912936
10, 19, -1
10, 20, -1
10, 21, -0.262177
10, 22, -1
10, 23, -1
10, 24, -0.0013112
10, 25, 0.355542
10, 26, 0.140085
10, 27, 0.0695594
10, 28, -1
10, 29, -1
10, 30, -1
10, 31, 0.728054
10, 32, -1
10, 33, -1
10, 34, 0.27831
10, 35, 0.0628029
10, 36, 0.543729
10, 37, 0.12852
10, 38, -0.875246
10, 39, 0.561653
10, 40, 0.647792
10, 41, -0.943048
10, 42, -1
10, 43, -0.632503
10, 44, -1
10, 45, -1
10, 46, -0.0344825
10, 47, -0.74767
10, 48, -0.62893
10, 49, 0.238154
10, 50, -1
10, 51, -0.0797063
10, 52, -1
10, 53, -1
10, 54, 0.535474
10, 55, -0.0314339
10, 56, 0.408962
10, 57, -1
10, 58, -1
10, 59, -0.0428167
10, 60, 0.0774624
10, 61, -1
10, 62, -0.473333
10, 63, 0.0406646
10, 64, -1
10, 65, 0.194834
10, 66, -0.0484427
10, 67, -0.0172848
10, 68, -0.232149
10, 69, -0.813488
10, 70, -1
10, 71, -0.702458
10, 72, -0.729814
10, 73, 0.0239307
10, 74, -0.185982
10, 75, 0.409367
10, 76, -1
10, 77, 0.712487
10, 78, 0.594856
10, 79, -0.567672
10, 80, -0.918863
10, 81, 0.0562089
10, 82, -0.962859
10, 83, -0.357842
10, 84, -0.117413
10, 85, 0.21807
10, 86, 0.39055
10, 87, -1
10, 88, 0.770032
10, 89, -0.1425
10, 90, -0.406627
10, 91, -0.97429
10, 92, -0.792272
10, 93, -0.0576645
10, 94, -1
10, 95, 0.0371165
10, 96, 0.956034
10, 97, -1
10, 98, -1
10, 99, 0.991886
10, 100, -0.848688
10, 101, -1
10, 102, -0.0721613
10, 103, -0.25399
10, 104, -0.187878
10, 105, -0.942704
10, 106, 0.94425
10, 107, -0.0438279
10, 108, 0.324087
10, 109, 0.312697
10, 110, 0.526219
10, 111, -1
10, 112, 0.363078
10, 113, 0.490216
10, 114, -1
10, 115, -1
10, 116, -0.194453
10, 117, 0.907203
10, 118, -1
10, 119, -0.675013
10, 120, -0.13513
10, 121, 0.398759
10, 122, -1
10, 123, 0.572935
10, 124, 0.192064
10, 125, -1
10, 126, -0.20683
10, 127, -1
10, 128, -1
10, 129, -1
10, 130, 0.254863
10, 131, -1
10, 132, -1
10, 133, -0.164516
10, 134, 0.62279
10, 135, 0.0628584
10, 136, 0.55815
10, 137, 0.025482
10, 138, -1
10, 139, -0.164971
10, 140, 0.90249
10, 141, 0.325924
10, 142, -1
10, 143, 0.355548
10, 144, -0.510823
10, 145, -1
10, 146, 0.376055
10, 147, 0.145406
10, 148, -1
10, 149, 0.651676
10, 150, -0.298128
10, 151, 0.303992
10, 152, 0.25143
10, 153, -1
10, 154, -1
10, 155, 0.431011
10, 156, -1
10, 157, -0.2111
10, 158, 0.364563
10, 159, -0.245563
10, 160, 0.701631
10, 161, -0.816596
10, 162, -0.464921
10, 163, 0.253649
10, 164, -1
10, 165, -1
10, 166, -0.216755
10, 167, 0.000194941
10, 168, -0.227998
10, 169, -1
10, 170, -1
10, 171, -0.19846
10, 172, 0.101881
10, 173, -1
10, 174, 0.0800803
10, 175, -1
10, 176, -1
10, 177, 0.0209212
10, 178, 0.736102
10, 179, -1
10, 180, -1
10, 181, -0.263548
10, 182, 0.152187
10, 183, -1
10, 184, 0.11282
10, 185, 0.602015
10, 186, 0.398386
10, 187, 0.0697014
10, 188, -1
10, 189, -1
10, 190, -1
10, 191, 0.969093
10, 192, -0.16401
10, 193, -0.23178
10, 194, 0.27113
10, 195, -0.220207
10, 196, -0.296564
10, 197, 0.366962
10, 198, -0.93691
10, 199, 0.773302
10, 200, -1
10, 201, -1
10, 202, -1
10, 203, 0.637887
10, 204, -0.852918
10, 205, 0.547699
10, 206, -0.28914
10, 207, -0.927099
10, 208, -0.987962
10, 209, -0.984418
10, 210, -1
10, 211, -1
10, 212, 0.221087
10, 213, 0.62809
10, 214, 0.443041
10, 215, 0.947907
10, 216, 0.301813
10, 217, 0.218156
10, 218, -0.275757
10, 219, -1
10, 220, -0.331263
10, 221, -0.366374
10, 222, 0.339908
10, 223, -1
10, 224, -0.17624
10, 225, -1
10, 226, -0.866083
10, 227, 0.833376
10, 228, -1
10, 229, 0.354187
10, 230, 0.248701
10, 231, -0.258463
10, 232, -1
10, 233, 0.597252
10, 234, 0.0286658
10, 235, -1
10, 236, -0.27457
10, 237, -1
10, 238, -1
10, 239, -0.823006
10, 240, -0.302145
10, 241, -0.930653
10, 242, 0.888496
10, 243, -0.391342
10, 244, -0.759991
10, 245, -1
10, 246, -1
10, 247, -0.687653
10, 248, -0.256214
10, 249, 0.893343
10, 250, -1
10, 251, -1
10, 252, 0.872628
10, 253, -1
10, 254, -1
10, 255, -1
10, 256, -0.272134
10, 257, 0.718232
10, 258, -1
10, 259, -0.0373714
10, 260, -1
10, 261, 0.841921
10, 262, -0.924625
10, 263, -1
10, 264, -0.263507
10, 265, -1
10, 266, -1
10, 267, 0.44863
10, 268, -1
10, 269, -1
10, 270, -1
10, 271, -1
10, 272, -0.630813
10, 273, -0.992273
10, 274, 0.498709
10, 275, -1
10, 276, -1
10, 277, 0.0697812
10, 278, 0.278723
10, 279, 0.383349
10, 280, -0.977096
10, 281, 0.383313
10, 282, -0.115222
10, 283, 0.458058
10, 284, 0.100981
10, 285, 0.293797
10, 286, -1
10, 287, 0.876449
10, 288, -1
10, 289, -1
10, 290, -1
10, 291, -1
10, 292, -1
10, 293, 0.117005
10, 294, 0.381544
10, 295, -1
10, 296, 0.750702
10, 297, -0.303829
10, 298, 0.735428
10, 299, 0.684282
10, 300, 0.29212
10, 301, -1
10, 302, 0.937745
10, 303, -1
10, 304, -1
10, 305, 0.403086
10, 306, -1
10, 307, -1
10, 308, -1
10, 309, 0.403092
10, 310, -0.857209
10, 311, -1
10, 312, -1
10, 313, -1
10, 314, -1
10, 315, 0.424421
10, 316, -0.669847
10, 317, -1
10, 318, -0.0679524
10, 319, 0.751223
10, 320, -0.921392
10, 321, 0.67826
10, 322, -1
10, 323, -1
10, 324, 0.0363551
10, 325, -0.860468
10, 326, -1
10, 327, -0.856741
10, 328, 0.627387
10, 329, -1
10, 330, 0.33765
10, 331, -0.0596941
10, 332, -0.0735205
10, 333, 0.475933
10, 334, -1
10, 335, -1
10, 336, -0.669377
10, 337, -1
10, 338, -1
10, 339, -0.986758
10, 340, 0.582616
10, 341, 0.0486339
10, 342, -1
10, 343, -0.853512
10, 344, -1
10, 345, -0.0474164
10, 346, 0.56363
10, 347, 0.470234
10, 348, -0.0858924
10, 349, -1
10, 350, -0.400876
10, 351, -0.156934
10, 352, -1
10, 353, -0.568459
10, 354, -0.170006
10, 355, -1
10, 356, -1
10, 357, 0.698984
10, 358, -1
10, 359, -1
10, 360, -1
10, 361, -1
10, 362, -1
10, 363, -0.730454
10, 364, 0.67277
10, 365, -0.85693
10, 366, -0.333606
10, 367, -1
10, 368, -1
10, 369, -0.46322
10, 370, -0.841295
10, 371, 0.119111
10, 372, 0.293503
10, 373, 0.999903
10, 374, 0.764916
10, 375, 0.710843
10, 376, -1
10, 377, -1
10, 378, 0.192878
10, 379, 0.0698717
10, 380, -0.285414
10, 381, 0.736507
10, 382, -1
10, 383, -0.573525
10, 384, 0.96725
10, 385, 0.522813
10, 386, 0.112646
10, 387, -1
10, 388, 0.403202
10, 389, 0.540007
10, 390, 0.558999
10, 391, 0.195902
10, 392, -1
10, 393, 0.448601
10, 394, 0.0860769
10, 395, 0.708558
10, 396, -1
10, 397, 0.742429
10, 398, -1
10, 399, -0.695598
11, 0, -1
11, 1, -0.969851
11, 2, 0.73364
11, 3, -1
11, 4, -1
11, 5, -0.93634
11, 6, -1
11, 7, -0.560423
11, 8, -0.139151
11, 9, -0.418842
11, 10, 0.866788
11, 11, -1
11, 12, -1
11, 13, -0.0329339
11, 14, -1
11, 15, -1
11, 16, -0.939865
11, 17, 0.825283
11, 18, -1
11, 19, 0.345514
11, 20, -0.216693
11, 21, 0.0585659
11, 22, -0.780517
11, 23, 0.266342
11, 24, -1
11, 25, -0.0770999
11, 26, -1
11, 27, -1
11, 28, -1
11, 29, 0.515366
11, 30, -0.7156
11, 31, -0.596115
11, 32, -1
11, 33, -0.216711
11, 34, 0.346797
11, 35, 0.805979
11, 36, 0.893446
11, 37, 0.594237
11, 38, -1
11, 39, -0.0423417
11, 40, -1
11, 41, -0.330994
11, 42, 0.0344432
11, 43, -1
11, 44, -1
11, 45, 0.323077
11, 46, 0.555133
11, 47, -1
11, 48, -0.648886
11, 49, 0.999072
11, 50, 0.0576207
11, 51, 0.839477
11, 52, -1
11, 53, 0.921072
11, 54, -1
11, 55, -0.281275
11, 56, -1
11, 57, -1
11, 58, -0.668092
11, 59, -1
11, 60, 0.984337
11, 61, -0.710406
11, 62, -0.900482
11, 63, -0.0303059
11, 64, 0.172382
11, 65, 0.611971
11, 66, -0.102802
11, 67, -0.339012
11, 68, -1
11, 69, -0.723388
11, 70, 0.465943
11, 71, -1
11, 72, 0.903224
11, 73, -1
11, 74, -0.00295431
11, 75, -0.222762
11, 76, 0.89053
11, 77, -1
11, 78, -0.83412
11, 79, -0.338361
11, 80, 0.27745
11, 81, -1
11, 82, 0.883496
11, 83, -0.77036
11, 84, -0.172386
11, 85, -1
11, 86, -0.967173
11, 87, 0.184769
11, 88, -0.962198
11, 89, 0.254825
11, 90, -0.102866
11, 91, -0.302333
11, 92, 0.0696792
11, 93, 0.365535
11, 94, -0.867407
11, 95, -1
11, 96, -0.252394
11, 97, 0.0344447
11, 98, -0.577314
11, 99, -0.038567
11, 100, 0.48408
11, 101, -0.857494
11, 102, 0.751936
11, 103, -0.99279
11, 104, -1
11, 105, -1
11, 106, 0.514177
11, 107, -1
11, 108, -1
11, 109, -0.913644
11, 110, -1
11, 111, 0.369918
11, 112, -1
11, 113, -1
11, 114, 0.806513
11, 115, 0.113318
11, 116, -1
11, 117, -1
11, 118, -1
11, 119, -1
11, 120, -0.0251705
11, 121, -1
11, 122, 0.429685
11, 123, -1
11, 124, -1
11, 125, 0.860537
11, 126, -1
11, 127, -0.0560348
11, 128, 0.168429
11, 129, -0.955533
11, 130, -1
11, 131, -1
11, 132, 0.0847186
11, 133, 0.171852
11, 134, -0.263572
11, 135, -1
11, 136, -0.263571
11, 137, -1
11, 138, -1
11, 139, 0.373848
11, 140, -1
11, 141, -1
11, 142, -0.00337729
11, 143, -1
11, 144, -0.118147
11, 145, -1
11, 146, 0.0924067
11, 147, -1
11, 148, -1
11, 149, -0.417827
11, 150, -1
11, 151, -1
11, 152, 0.677581
11, 153, -1
11, 154, -1
11, 155, 0.430056
11, 156, -1
11, 157, -0.891959
11, 158, -1
11, 159, -1
11, 160, -0.427277
11, 161, -1
11, 162, -0.139577
11, 163, -1
11, 164, 0.71435
11, 165, 0.569387
11, 166, -0.90403
11, 167, -0.617439
11, 168, 0.234947
11, 169, -1
11, 170, 0.389397
11, 171, -1
11, 172, -1
11, 173, -1
11, 174, -1
11, 175, -1
11, 176, -1
11, 177, 0.193724
11, 178, 0.0613786
11, 179, -0.984379
11, 180, -1
11, 181, -0.87661
11, 182, -1
11, 183, 0.871727
11, 184, -0.260159
11, 185, -1
11, 186, 0.102615
11, 187, 0.405537
11, 188, -1
11, 189, -0.285499
11, 190, 0.202538
11, 191, -0.982185
11, 192, 0.630656
11, 193, -1
11, 194, -0.21301
11, 195, -0.472619
11, 196, 0.300045
11, 197, -0.105185
11, 198, -0.0229696
11, 199, -0.471179
11, 200, -0.699418
11, 201, -1
11, 202, -0.263538
11, 203, -0.164103
11, 204, 0.572512
11, 205, -0.180375
11, 206, 0.819181
11, 207, 0.864026
11, 208, -1
11, 209, -0.0788109
11, 210, 0.360949
11, 211, -1
11, 212, -1
11, 213, -0.02555
11, 214, 0.651387
11, 215, 0.250901
11, 216, 0.0180097
11, 217, -0.823264
11, 218, -0.713135
11, 219, -1
11, 220, 0.825854
11, 221, 0.654929
11, 222, 0.407005
11, 223, -0.0156327
11, 224, 0.323051
11, 225, -1
11, 226, -0.228851
11, 227, -1
11, 228, -1
11, 229, -1
11, 230, -0.580598
11, 231, 0.199615
11, 232, 0.409338
11, 233, -0.997726
11, 234, -1
11, 235, 0.736213
11, 236, -0.880677
11, 237, 0.362102
11, 238, -0.260546
11, 239, -1
11, 240, 0.690065
11, 241, -1
11, 242, -0.263518
11, 243, 0.586194
11, 244, 0.461824
11, 245, -1
11, 246, -0.0268887
11, 247, 0.553479
11, 248, -1
11, 249, -0.00933826
11, 250, 0.19097
11, 251, -1
11, 252, -1
11, 253, -0.469018
11, 254, -0.82437
11, 255, -1
11, 256, -0.877314
11, 257, -1
11, 258, -1
11, 259, 0.19605
11, 260, 0.88107
11, 261, 0.711187
11, 262, -1
11, 263, 0.709318
11, 264, 0.0697688
11, 265, -1
11, 266, 0.403031
11, 267, 0.736277
11, 268, 0.0350523
11, 269, -0.276703
11, 270, 0.960875
11, 271, -1
11, 272, -1
11, 273, -1
11, 274, -1
11, 275, -1
11, 276, -0.360584
11, 277, -0.234263
11, 278, -1
11, 279, -1
11, 280, 0.736303
11, 281, 0.403052
11, 282, -1
11, 283, -1
11, 284, -1
11, 285, -0.0563638
11, 286, -1
11, 287, -1
11, 288, -0.430583
11, 289, -0.23392
11, 290, 0.233712
11, 291, -1
11, 292, 0.400671
11, 293, -0.0801619
11, 294, -0.870312
11, 295, -0.263492
11, 296, -1
11, 297, 0.0515584
11, 298, -1
11, 299, -0.160579
11, 300, 0.291109
11, 301, -1
11, 302, -0.0326105
11, 303, -1
11, 304, -1
11, 305, 0.0670534
11, 306, 0.0764771
11, 307, -1
11, 308, 0.307777
11, 309, -1
11, 310, -1
11, 311, 0.145004
11, 312, 0.623976
11, 313, -1
11, 314, 0.712098
11, 315, 0.825945
11, 316, 0.0514832
11, 317, 0.767169
11, 318, 0.45764
11, 319, 0.11961
11, 320, 0.784337
11, 321, -0.755439
11, 322, -1
11, 323, 0.608402
11, 324, 0.820798
11, 325, -0.605316
11, 326, -0.993459
11, 327, 0.426347
11, 328, -1
11, 329, -1
11, 330, -1
11, 331, 0.00551216
11, 332, -0.14128
11, 333, 0.174417
11, 334, -1
11, 335, -0.158357
11, 336, -0.9427
11, 337, -1
11, 338, 0.129768
11, 339, 0.530171
11, 340, 0.268843
11, 341, -0.930349
11, 342, -0.00375488
11, 343, 0.262345
11, 344, -1
11, 345, -0.936401
11, 346, -1
11, 347, 0.018137
11, 348, 0.684544
11, 349, -0.670967
11, 350, -1
11, 351, 0.324378
11, 352, -1
11, 353, -1
11, 354, 0.0698487
11, 355, 0.0830396
11, 356, -0.901686
11, 357, 0.659435
11, 358, -1
11, 359, -0.883687
11, 360, 0.17857
11, 361, -1
11, 362, 0.417496
11, 363, 0.122901
11, 364, 0.0698575
11, 365, -0.484989
11, 366, 0.589744
11, 367, 0.417779
11, 368, 0.50908
11, 369, -1
11, 370, -1
11, 371, -1
11, 372, 0.393856
11, 373, 0.543826
11, 374, 0.00582436
11, 375, 0.736493
11, 376, 0.0361753
11, 377, 0.41169
11, 378, -1
11, 379, -1
11, 380, -0.772074
11, 381, -0.824487
11, 382, 0.791995
11, 383, 0.0897425
11, 384, 0.44633
11, 385, -1
11, 386, -0.149727
11, 387, -0.930607
11, 388, 0.696133
11, 389, 0.835932
11, 390, -0.173082
11, 391, -1
11, 392, 0.661049
11, 393, -1
11, 394, -1
11, 395, -0.263442
11, 396, -0.711246
11, 397, -0.980931
11, 398, 0.736539
11, 399, -1
12, 0, 0.0423538
12, 1, -1
12, 2, -0.959928
12, 3, -1
12, 4, 0.402666
12, 5, 0.735752
12, 6, 0.735754
12, 7, -1
12, 8, -1
12, 9, -1
12, 10, -1
12, 11, 0.142538
12, 12, -1
12, 13, -1
12, 14, -1
12, 15, 0.139751
12, 16, -1
12, 17, 0.739079
12, 18, 0.153283
12, 19, 0.207537
12, 20, -0.0881252
12, 21, -0.936646
12, 22, 0.652036
12, 23, -0.596251
12, 24, -1
12, 25, -1
12, 26, -0.562988
12, 27, -1
12, 28, 0.670211
12, 29, 0.210869
12, 30, 0.228627
12, 31, -1
12, 32, -0.398395
12, 33, -0.482406
12, 34, -1
12, 35, -1
12, 36, -1
12, 37, 0.333149
12, 38, -0.887435
12, 39, -0.157704
12, 40, -0.773376
12, 41, 0.0457633
12, 42, -0.543322
12, 43, 0.501904
12, 44, -0.212271
12, 45, -1
12, 46, -1
12, 47, -0.360764
12, 48, -1
12, 49, 0.857614
12, 50, -1
12, 51, 0.582
12, 52, 0.540503
12, 53, 0.871605
12, 54, 0.498302
12, 55, 0.568109
12, 56, -1
12, 57, -1
12, 58, 0.999092
12, 59, -0.814409
12, 60, -1
12, 61, -1
12, 62, -1
12, 63, 0.5929
12, 64, 0.105932
12, 65, -1
12, 66, -0.156596
12, 67, 0.484522
12, 68, 0.069594
12, 69, -0.656396
12, 70, -1
12, 71, 0.519918
12, 72, -0.223117
12, 73, -0.220469
12, 74, -1
12, 75, 0.48429
12, 76, 0.0696011
12, 77, -1
12, 78, -1
12, 79, -1
12, 80, 0.604944
12, 81, -1
12, 82, 0.0763284
12, 83, -0.204768
12, 84, -1
12, 85, -1
12, 86, -0.156594
12, 87, -1
12, 88, -1
12, 89, -0.993029
12, 90, -1
12, 91, -0.439835
12, 92, -0.21725
12, 93, -1
12, 94, -1
12, 95, -1
12, 96, -1
12, 97, 0.337999
12, 98, -0.449826
12, 99, 0.0862658
12, 100, 0.566095
12, 101, 0.23181
12, 102, -0.263588
12, 103, 0.386517
12, 104, -1
12, 105, 0.0148755
12, 106, -0.0461426
12, 107, -0.893881
12, 108, 0.171237
12, 109, 0.201574
12, 110, -0.27586
12, 111, -1
12, 112, 0.872777
12, 113, -0.710029
12, 114, 0.987545
12, 115, -0.0805779
12, 116, -1
12, 117, -0.815035
12, 118, 0.967743
12, 119, -1
12, 120, -1
12, 121, 0.652286
12, 122, -1
12, 123, -0.881503
12, 124, -1
12, 125, -1
12, 126, -1
12, 127, -1
12, 128, 0.196118
12, 129, 0.398611
12, 130, 0.467136
12, 131, -0.996154
12, 132, -0.85602
12, 133, 0.80187
12, 134, -1
12, 135, 0.731065
12, 136, -1
12, 137, 0.999294
12, 138, -0.357152
12, 139, 0.00191866
12, 140, -1
12, 141, 0.293596
12, 142, 0.736026
12, 143, -1
12, 144, 0.570209
12, 145, 0.736032
12, 146, 0.447895
12, 147, 0.0948293
12, 148, 0.262316
12, 149, -0.0581945
12, 150, 0.696194
12, 151, 0.186065
12, 152, -0.475237
12, 153, -1
12, 154, -0.534402
12, 155, -0.903127
12, 156, -0.737237
12, 157, -1
12, 158, 0.101186
12, 159, -0.25276
12, 160, -0.194851
12, 161, -1
12, 162, -1
12, 163, 0.264684
12, 164, 0.0862737
12, 165, -0.936469
12, 166, -0.844663
12, 167, 0.226648
12, 168, 0.697995
12, 169, -0.366956
12, 170, -0.852963
12, 171, 0.415261
12, 172, -1
12, 173, 0.75322
12, 174, 0.698977
12, 175, 0.734146
12, 176, -0.111497
12, 177, -1
12, 178, -1
12, 179, -1
12, 180, 0.48736
12, 181, -1
12, 182, 0.805711
12, 183, 0.332512
12, 184, -0.975508
12, 185, -0.0597395
12, 186, -0.870143
12, 187, -1
12, 188, 0.125522
12, 189, -1
12, 190, 0.234233
12, 191, 0.324356
12, 192, -0.458147
12, 193, 0.132556
12, 194, -1
12, 195, -0.958575
12, 196, 0.458925
12, 197, -1
12, 198, 0.391507
12, 199, -1
12, 200, -0.235809
12, 201, -0.163163
12, 202, -1
12, 203, 0.44695
12, 204, 0.508531
12, 205, 0.0581507
12, 206, -1
12, 207, -1
12, 208, 0.736158
12, 209, -0.563892
12, 210, -1
12, 211, -0.397315
12, 212, -0.263534
12, 213, -1
12, 214, -1
12, 215, -0.0620904
12, 216, -0.2596
12, 217, -1
12, 218, -0.865817
12, 219, 0.909829
12, 220, -0.486478
12, 221, 0.708412
12, 222, -0.790995
12, 223, 0.0673873
12, 224, -0.697141
12, 225, -1
12, 226, 0.588562
12, 227, -1
12, 228, -0.817256
12, 229, -1
12, 230, -0.0639857
12, 231, 0.529439
12, 232, 0.16917
12, 233, -1
12, 234, -1
12, 235, -1
12, 236, -0.885936
12, 237, 0.37316
12, 238, 0.0404351
12, 239, 0.618811
12, 240, -1
12, 241, -0.294978
12, 242, -0.937011
12, 243, 0.0160087
12, 244, -1
12, 245, -1
12, 246, 0.29742
12, 247, 0.319678
12, 248, -1
12, 249, 0.708196
12, 250, -0.851032
12, 251, -1
12, 252, 0.263806
12, 253, 0.783818
12, 254, 0.773049
12, 255, -1
12, 256, 0.999599
12, 257, -1
12, 258, -0.764674
12, 259, -1
12, 260, -1
12, 261, -0.326497
12, 262, 0.173132
12, 263, 0.511017
12, 264, 0.657786
12, 265, -0.0646178
12, 266, -1
12, 267, 0.389229
12, 268, -1
12, 269, -1
12, 270, -0.126733
12, 271, -1
12, 272, 0.496087
12, 273, 0.0153832
12, 274, -0.870452
12, 275, -1
12, 276, 0.265337
12, 277, -1
12, 278, 0.999655
12, 279, 0.362014
12, 280, 0.690076
12, 281, -1
12, 282, -0.0378033
12, 283, -0.990926
12, 284, 0.0768317
12, 285, 0.356722
12, 286, 0.0398022
12, 287, -0.22644
12, 288, -1
12, 289, -0.622533
12, 290, -1
12, 291, 0.915666
12, 292, -0.0294704
12, 293, 0.237575
12, 294, -0.09329
12, 295, -0.0779831
12, 296, -1
12, 297, -0.0346702
12, 298, -1
12, 299, -1
12, 300, 0.736341
12, 301, 0.0698007
12, 302, -0.760287
12, 303, -0.126219
12, 304, -1
12, 305, 0.85472
12, 306, -0.535751
12, 307, -1
12, 308, 0.185415
12, 309, -0.876276
12, 310, 0.617528
12, 311, -0.0102289
12, 312, -1
12, 313, 0.558337
12, 314, 0.366665
12, 315, 0.482736
12, 316, -1
12, 317, 0.623665
12, 318, -1
12, 319, 0.736379
12, 320, -1
12, 321, -1
12, 322, 0.923492
12, 323, -0.118001
12, 324, 0.132708
12, 325, -1
12, 326, -1
12, 327, 0.320361
12, 328, 0.000858756
12, 329, -0.933476
12, 330, 0.686755
12, 331, -0.994075
12, 332, -0.310928
12, 333, -1
12, 334, 0.06983
12, 335, -1
12, 336, 0.654063
12, 337, -1
12, 338, -0.158545
12, 339, -0.234272
12, 340, -1
12, 341, -1
12, 342, 0.554265
12, 343, -1
12, 344, 0.519893
12, 345, -0.404988
12, 346, 0.529184
12, 347, 0.753796
12, 348, -1
12, 349, 0.482242
12, 350, -0.0778421
12, 351, -0.21416
12, 352, 0.20102
12, 353, -1
12, 354, 0.469836
12, 355, -1
12, 356, -1
12, 357, 0.689015
12, 358, 0.435531
12, 359, 0.263192
12, 360, 0.170644
12, 361, 0.150633
12, 362, -1
12, 363, -1
12, 364, -0.0376687
12, 365, 0.595773
12, 366, -1
12, 367, -1
12, 368, -0.0480037
12, 369, 0.0884133
12, 370, -0.0769406
12, 371, -0.613756
12, 372, 0.0662735
12, 373, -0.418859
12, 374, -0.056579
12, 375, -1
12, 376, 0.664408
12, 377, -1
12, 378, 0.48748
12, 379, -1
12, 380, 0.403188
12, 381, -1
12, 382, -1
12, 383, -1
12, 384, -0.21269
12, 385, -1
12, 386, 0.192742
12, 387, -0.285693
12, 388, 0.141124
12, 389, -1
12, 390, -1
12, 391, -1
12, 392, 0.504478
12, 393, -1
12, 394, -1
12, 395, -1
12, 396, 0.185702
12, 397, -0.253958
12, 398, -1
12, 399, -1
13, 0, 0.40266
13, 1, -0.62442
13, 2, 0.00418965
13, 3, -1
13, 4, 0.591409
13, 5, -0.571776
13, 6, -0.353411
13, 7, 0.338894
13, 8, -1
13, 9, -0.912731
13, 10, 0.0306038
13, 11, -0.0704656
13, 12, -1
13, 13, 0.187065
13, 14, 0.710187
13, 15, 0.284041
13, 16, 0.0384136
13, 17, -0.191041
13, 18, -1
13, 19, -1
13, 20, -1
13, 21, -1
13, 22, -0.0485317
13, 23, 0.64626
13, 24, 0.111517
13, 25, 0.551998
13, 26, 0.241164
13, 27, -1
13, 28, 0.467201
13, 29, 0.447682
13, 30, -1
13, 31, 0.225666
13, 32, -1
13, 33, -0.801117
13, 34, 0.069563
13, 35, -0.351246
13, 36, -1
13, 37, 0.560688
13, 38, -0.146436
13, 39, -1
13, 40, 0.659747
13, 41, 0.323424
13, 42, -0.316098
13, 43, -0.812941
13, 44, -0.710818
13, 45, -1
13, 46, 0.605619
13, 47, -1
13, 48, -1
13, 49, 0.539049
13, 50, -0.915454
13, 51, -0.266916
13, 52, -1
13, 53, -0.813085
13, 54, -0.397664
13, 55, -0.12421
13, 56, 0.931819
13, 57, -0.244162
13, 58, 0.00451893
13, 59, -0.140858
13, 60, -1
13, 61, -0.926561
13, 62, -1
13, 63, -1
13, 64, -1
13, 65, -1
13, 66, -1
13, 67, 0.0582057
13, 68, -1
13, 69, -0.885679
13, 70, -0.24389
13, 71, -1
13, 72, -1
13, 73, 0.614983
13, 74, -1
13, 75, -0.263602
13, 76, 0.735892
13, 77, 0.105181
13, 78, -1
13, 79, -1
13, 80, -0.152172
13, 81, -1
13, 82, -1
13, 83, -0.021009
13, 84, -0.263598
13, 85, -1
13, 86, -0.948771
13, 87, -1
13, 88, -1
13, 89, -1
13, 90, -0.258337
13, 91, -1
13, 92, 0.0696144
13, 93, -0.236947
13, 94, -1
13, 95, 0.402791
13, 96, 0.384972
13, 97, -1
13, 98, -0.54602
13, 99, 0.735938
13, 100, -1
13, 101, 0.0696224
13, 102, 0.345507
13, 103, -1
13, 104, 0.221733
13, 105, 0.394722
13, 106, 0.402806
13, 107, -1
13, 108, -1
13, 109, 0.102646
13, 110, -1
13, 111, 0.735962
13, 112, 0.714025
13, 113, -0.943731
13, 114, -1
13, 115, -0.991046
13, 116, 0.448965
13, 117, -0.886222
13, 118, -0.838315
13, 119, -0.33339
13, 120, -0.544602
13, 121, 0.766247
13, 122, -0.754404
13, 123, 0.841687
13, 124, -1
13, 125, -0.229352
13, 126, -0.120711
13, 127, -1
13, 128, -1
13, 129, 0.204485
13, 130, 0.849479
13, 131, -1
13, 132, 0.680883
13, 133, -1
13, 134, -0.295606
13, 135, -1
13, 136, -1
13, 137, -0.124355
13, 138, -1
13, 139, 0.134718
13, 140, -0.271637
13, 141, -1
13, 142, -1
13, 143, -0.343415
13, 144, 0.141302
13, 145, -0.283418
13, 146, -0.312632
13, 147, 0.36648
13, 148, -0.793006
13, 149, 0.528514
13, 150, -1
13, 151, -0.677158
13, 152, -0.089567
13, 153, 0.799357
13, 154, 0.526214
13, 155, 0.928046
13, 156, -0.569175
13, 157, -0.679996
13, 158, 0.939442
13, 159, -0.746349
13, 160, -1
13, 161, -0.192136
13, 162, 0.288555
13, 163, -0.297851
13, 164, -1
13, 165, -1
13, 166, -0.00908727
13, 167, -1
13, 168, -1
13, 169, -0.0322198
13, 170, -0.0263747
13, 171, 0.339397
13, 172, -1
13, 173, 0.618634
13, 174, -1
13, 175, 0.431474
13, 176, 0.533602
13, 177, -0.576301
13, 178, -0.0345291
13, 179, -1
13, 180, -1
13, 181, 0.707123
13, 182, 0.163275
13, 183, 0.0696952
13, 184, 0.0217671
13, 185, -1
13, 186, -0.33421
13, 187, -1
13, 188, -1
13, 189, -1
13, 190, -0.860914
13, 191, -0.0402179
13, 192, 0.03856
13, 193, 0.11226
13, 194, -1
13, 195, 0.0679681
13, 196, 0.846327
13, 197, -1
13, 198, 0.013522
13, 199, 0.152601
13, 200, 0.368706
13, 201, -1
13, 202, -0.263539
13, 203, -1
13, 204, -0.000861772
13, 205, -0.933215
13, 206, 0.0462353
13, 207, 0.0697164
13, 208, -0.19181
13, 209, -1
13, 210, -0.58405
13, 211, 0.000270747
13, 212, 0.0756224
13, 213, 0.356393
13, 214, -1
13, 215, -1
13, 216, -1
13, 217, -0.0193305
13, 218, 0.709698
13, 219, -0.421831
13, 220, 0.0426656
13, 221, -1
13, 222, -0.0264005
13, 223, -1
13, 224, -0.0178204
13, 225, -0.25465
13, 226, -1
13, 227, -0.397546
13, 228, 0.56921
13, 229, 0.0763686
13, 230, -1
13, 231, -1
13, 232, 0.587476
13, 233, -0.0251201
13, 234, -1
13, 235, -1
13, 236, 0.268391
13, 237, -0.0651174
13, 238, 0.0580114
13, 239, -1
13, 240, -0.0917365
13, 241, -0.996803
13, 242, 0.547324
13, 243, -1
13, 244, -1
13, 245, -1
13, 246, 0.849193
13, 247, 0.849313
13, 248, -0.787093
13, 249, 0.254027
13, 250, 0.475257
13, 251, 0.469894
13, 252, -1
13, 253, -0.679497
13, 254, 0.254014
13, 255, -0.0616683
13, 256, -0.121175
13, 257, 0.160367
13, 258, -1
13, 259, 0.613178
13, 260, -0.15024
13, 261, -0.942167
13, 262, -1
13, 263, 0.74143
13, 264, -0.102154
13, 265, 0.384128
13, 266, -1
13, 267, 0.0492084
13, 268, -1
13, 269, -0.667692
13, 270, -0.924988
13, 271, -0.391572
13, 272, 0.228066
13, 273, -0.220569
13, 274, 0.186537
13, 275, 0.165423
13, 276, -1
13, 277, -0.0581685
13, 278, -1
13, 279, 0.189362
13, 280, 0.594991
13, 281, 0.872316
13, 282, -0.933694
13, 283, 0.358182
13, 284, 0.446607
13, 285, 0.184731
13, 286, -1
13, 287, -0.405729
13, 288, -0.129332
13, 289, -0.841893
13, 290, -0.826046
13, 291, -0.0171277
13, 292, -1
13, 293, -1
13, 294, -1
13, 295, 0.0705319
13, 296, 0.428619
13, 297, -0.963964
13, 298, -0.66283
13, 299, 0.770411
13, 300, 0.573204
13, 301, -1
13, 302, -0.167994
13, 303, -1
13, 304, -0.507292
13, 305, -0.925734
13, 306, -1
13, 307, 0.366605
13, 308, -1
13, 309, -0.457149
13, 310, 0.530397
13, 311, -1
13, 312, -0.631346
13, 313, -1
13, 314, -0.275313
13, 315, -1
13, 316, 0.305536
13, 317, 0.403099
13, 318, -0.20888
13, 319, 0.736377
13, 320, -1
13, 321, 0.143026
13, 322, -1
13, 323, -1
13, 324, -0.263478
13, 325, -0.34013
13, 326, 0.403111
13, 327, -1
13, 328, -0.480237
13, 329, -1
13, 330, -1
13, 331, 0.936482
13, 332, -1
13, 333, 0.403121
13, 334, -1
13, 335, 0.231229
13, 336, -0.253156
13, 337, -1
13, 338, -1
13, 339, -1
13, 340, 0.580667
13, 341, 0.92667
13, 342, -0.878336
13, 343, -1
13, 344, -1
13, 345, -0.259693
13, 346, -1
13, 347, 0.19896
13, 348, -1
13, 349, 0.0698425
13, 350, -1
13, 351, -1
13, 352, 0.639777
13, 353, -0.0627109
13, 354, -1
13, 355, -0.643314
13, 356, 0.71676
13, 357, 0.701716
13, 358, 0.616362
13, 359, -1
13, 360, 0.489862
13, 361, 0.371612
13, 362, -1
13, 363, 0.40667
13, 364, -1
13, 365, 0.736469
13, 366, -1
13, 367, -1
13, 368, -0.62768
13, 369, -1
13, 370, 0.0340193
13, 371, 0.816232
13, 372, -1
13, 373, -0.983239
13, 374, 0.803356
13, 375, 0.404768
13, 376, -0.0487354
13, 377, 0.950544
13, 378, -0.765505
13, 379, 0.825762
13, 380, -1
13, 381, -1
13, 382, 0.0763542
13, 383, -1
13, 384, -0.00998242
13, 385, 0.0889857
13, 386, -1
13, 387, -1
13, 388, -0.32392
13, 389, 0.999936
13, 390, -0.679796
13, 391, 0.999941
13, 392, -0.955275
13, 393, 0.685658
13, 394, -0.2128
13, 395, -0.596371
13, 396, 0.698544
13, 397, -0.405548
13, 398, 0.240835
13, 399, 0.0866076
14, 0, -0.26364
14, 1, -1
14, 2, 0.272027
14, 3, -1
14, 4, -1
14, 5, 0.113818
14, 6, 0.118557
14, 7, 0.377118
14, 8, -1
14, 9, 0.345765
14, 10, -1
14, 11, -0.391595
14, 12, 0.328633
14, 13, 0.370203
14, 14, -1
14, 15, 0.998977
14, 16, -1
14, 17, -1
14, 18, 0.868033
14, 19, -0.990496
14, 20, 0.786388
14, 21, 0.14811
14, 22, 0.709668
14, 23, -0.939184
14, 24, -0.990155
14, 25, -0.146792
14, 26, 0.0619294
14, 27, -1
14, 28, 0.80867
14, 29, -1
14, 30, -0.19123
14, 31, -1
14, 32, 0.430033
14, 33, -1
14, 34, -1
14, 35, 0.636254
14, 36, 0.247065
14, 37, 0.402709
14, 38, 0.0458583
14, 39, 0.735816
14, 40, -1
14, 41, 0.341235
14, 42, -1
14, 43, 0.0695701
14, 44, -1
14, 45, 0.893288
14, 46, -0.251403
14, 47, -0.263617
14, 48, -1
14, 49, -1
14, 50, -0.199739
14, 51, 0.694934
14, 52, -1
14, 53, -0.237952
14, 54, -1
14, 55, 0.0695807
14, 56, 0.0838996
14, 57, -0.263612
14, 58, -1
14, 59, -1
14, 60, 0.205091
14, 61, -1
14, 62, -1
14, 63, -1
14, 64, -1
14, 65, -1
14, 66, 0.923265
14, 67, 0.168903
14, 68, 0.063556
14, 69, -0.552504
14, 70, 0.165576
14, 71, -0.257783
14, 72, 0.847088
14, 73, -0.0654981
14, 74, -1
14, 75, -1
14, 76, -0.263602
14, 77, -1
14, 78, -0.906332
14, 79, -0.265275
14, 80, -0.267355
14, 81, -0.245078
14, 82, -0.288874
14, 83, 0.402773
14, 84, 0.735906
14, 85, -1
14, 86, -1
14, 87, -1
14, 88, 0.145052
14, 89, -0.0351942
14, 90, -1
14, 91, -1
14, 92, -0.531311
14, 93, -1
14, 94, -1
14, 95, -0.120179
14, 96, -1
14, 97, 0.223008
14, 98, -1
14, 99, -0.512396
14, 100, -1
14, 101, 0.402798
14, 102, 0.735942
14, 103, 0.927518
14, 104, -1
14, 105, -1
14, 106, 0.257408
14, 107, -1
14, 108, -0.384504
14, 109, 0.685326
14, 110, -0.693951
14, 111, 0.0696304
14, 112, -1
14, 113, 0.281786
14, 114, -1
14, 115, 0.735968
14, 116, 0.726614
14, 117, -1
14, 118, 0.736033
14, 119, -0.257354
14, 120, 0.0518579
14, 121, -1
14, 122, -0.146086
14, 123, -1
14, 124, -1
14, 125, -1
14, 126, -0.282756
14, 127, 0.837571
14, 128, -1
14, 129, -0.258181
14, 130, -1
14, 131, -1
14, 132, -1
14, 133, -1
14, 134, 0.544227
14, 135, -1
14, 136, -1
14, 137, -0.175389
14, 138, -1
14, 139, -0.254168
14, 140, -1
14, 141, -0.666131
14, 142, -1
14, 143, -1
14, 144, -1
14, 145, -1
14, 146, -1
14, 147, -0.851285
14, 148, -1
14, 149, 0.303886
14, 150, -0.52459
14, 151, 0.035796
14, 152, -0.797578
14, 153, 0.493892
14, 154, -0.803594
14, 155, -0.875888
14, 156, 0.0954598
14, 157, -0.0831168
14, 158, -1
14, 159, 0.272243
14, 160, 0.818498
14, 161, -0.224185
14, 162, 0.402883
14, 163, 0.736064
14, 164, 0.372551
14, 165, -1
14, 166, 0.513552
14, 167, 0.837591
14, 168, 0.444275
14, 169, -0.117079
14, 170, -1
14, 171, 0.73608
14, 172, -1
14, 173, 0.525969
14, 174, -1
14, 175, 0.747723
14, 176, 0.0837919
14, 177, -1
14, 178, -1
14, 179, 0.363696
14, 180, -0.26355
14, 181, -1
14, 182, -0.986488
14, 183, 0.755428
14, 184, 0.0966201
14, 185, -0.835745
14, 186, -1
14, 187, -1
14, 188, 0.279015
14, 189, -1
14, 190, 0.197757
14, 191, 0.668582
14, 192, -0.263545
14, 193, -1
14, 194, -0.989362
14, 195, 0.628334
14, 196, 0.114547
14, 197, 0.700517
14, 198, -0.765594
14, 199, -1
14, 200, -0.263541
14, 201, 0.115024
14, 202, -1
14, 203, -0.642083
14, 204, -0.297115
14, 205, 0.677226
14, 206, -1
14, 207, 0.834223
14, 208, 0.515021
14, 209, 0.636557
14, 210, -0.0288079
14, 211, -1
14, 212, -1
14, 213, 0.0697209
14, 214, 0.850223
14, 215, -0.233987
14, 216, 0.736169
14, 217, 0.114362
14, 218, 0.0697253
14, 219, -1
14, 220, 0.0697271
14, 221, -1
14, 222, -1
14, 223, -1
14, 224, -1
14, 225, -1
14, 226, 0.70276
14, 227, 0.0662982
14, 228, 0.784244
14, 229, -0.277201
14, 230, -0.108907
14, 231, -1
14, 232, 0.253032
14, 233, 0.321631
14, 234, -0.415948
14, 235, 0.736207
14, 236, -1
14, 237, 0.73305
14, 238, 0.595629
14, 239, 0.866983
14, 240, 0.398936
14, 241, -1
14, 242, 0.629202
14, 243, -1
14, 244, 0.18161
14, 245, 0.197255
14, 246, -0.188721
14, 247, -1
14, 248, -1
14, 249, -1
14, 250, -0.689349
14, 251, -0.154208
14, 252, 0.805995
14, 253, -1
14, 254, -0.139979
14, 255, -1
14, 256, -1
14, 257, -1
14, 258, 0.610344
14, 259, -1
14, 260, -0.585587
14, 261, -1
14, 262, 0.447527
14, 263, -1
14, 264, -0.946855
14, 265, 0.815775
14, 266, -1
14, 267, -1
14, 268, -0.168127
14, 269, 0.270433
14, 270, 0.914582
14, 271, 0.829508
14, 272, 0.39599
14, 273, 0.340491
14, 274, -0.923989
14, 275, -1
14, 276, -1
14, 277, -0.151411
14, 278, -1
14, 279, -1
14, 280, 0.0583675
14, 281, 0.3001
14, 282, 0.642652
14, 283, -1
14, 284, 0.642154
14, 285, -1
14, 286, -0.717267
14, 287, -0.255219
14, 288, -1
14, 289, 0.649733
14, 290, 0.058635
14, 291, 0.610553
14, 292, -1
14, 293, 0.326375
14, 294, -1
14, 295, 0.736327
14, 296, 0.698204
14, 297, 0.40307
14, 298, 0.736333
14, 299, -1
14, 300, -1
14, 301, 0.403075
14, 302, 0.921309
14, 303, 0.0197963
14, 304, -0.181676
14, 305, 0.724299
14, 306, -0.0489186
14, 307, -1
14, 308, -1
14, 309, 0.403086
14, 310, -0.0772554
14, 311, -0.0898045
14, 312, -0.225413
14, 313, -1
14, 314, 0.4194
14, 315, -1
14, 316, -1
14, 317, 0.626819
14, 318, -1
14, 319, 0.55137
14, 320, 0.437345
14, 321, 0.0698167
14, 322, -0.0799878
14, 323, 0.641075
14, 324, 0.0971316
14, 325, 0.130664
14, 326, -1
14, 327, -1
14, 328, -1
14, 329, -1
14, 330, -1
14, 331, -1
14, 332, -0.263475
14, 333, 0.704335
14, 334, 0.751039
14, 335, 0.186733
14, 336, 0.338008
14, 337, -1
14, 338, -1
14, 339, -1
14, 340, -1
14, 341, 0.05252
14, 342, 0.365286
14, 343, -1
14, 344, 0.403135
14, 345, -1
14, 346, -1
14, 347, -1
14, 348, -1
14, 349, -1
14, 350, 0.737921
14, 351, 0.171064
14, 352, -1
14, 353, -1
14, 354, -1
14, 355, -0.0705533
14, 356, -0.0197702
14, 357, -0.716481
14, 358, 0.0370403
14, 359, 0.224003
14, 360, -0.403118
14, 361, -0.244555
14, 362, 0.233199
14, 363, -0.00303481
14, 364, -0.568091
14, 365, -1
14, 366, -1
14, 367, -1
14, 368, -0.207355
14, 369, -0.234594
14, 370, -0.492943
14, 371, -1
14, 372, -1
14, 373, -0.0346224
14, 374, -1
14, 375, -0.404376
14, 376, 0.850325
14, 377, -0.290674
14, 378, 0.00611285
14, 379, -1
14, 380, 0.0436723
14, 381, 0.858546
14, 382, 0.0903691
14, 383, -0.105788
14, 384, -1
14, 385, 0.390864
14, 386, 0.6083
14, 387, -1
14, 388, 0.557446
14, 389, -1
14, 390, -0.0963219
14, 391, -1
14, 392, 0.600257
14, 393, -1
14, 394, 0.0698815
14, 395, 0.566636
14, 396, -1
14, 397, -1
14, 398, -0.880742
14, 399, -1
15, 0, 0.248802
15, 1, 0.83446
15, 2, 0.332557
15, 3, -0.585669
15, 4, -0.214216
15, 5, 0.841412
15, 6, -0.459513
15, 7, -0.992829
15, 8, -0.928739
15, 9, 0.753652
15, 10, 0.0677416
15, 11, 0.502525
15, 12, 0.940449
15, 13, 0.99897
15, 14, 0.435827
15, 15, 0.0177016
15, 16, -1
15, 17, 0.809327
15, 18, 0.9941
15, 19, -1
15, 20, -1
15, 21, -1
15, 22, -1
15, 23, 0.0646148
15, 24, -0.616891
15, 25, -0.137004
15, 26, -0.178531
15, 27, -0.592091
15, 28, -0.0256997
15, 29, -0.417791
15, 30, -0.350483
15, 31, 0.509443
15, 32, -0.481028
15, 33, 0.686697
15, 34, 0.633507
15, 35, 0.498911
15, 36, -0.792978
15, 37, -0.864
15, 38, -1
15, 39, -1
15, 40, 0.639313
15, 41, -1
15, 42, 0.133292
15, 43, -0.967447
15, 44, 0.0238853
15, 45, -0.166296
15, 46, 0.722002
15, 47, 0.896974
15, 48, 0.657575
15, 49, -0.0463063
15, 50, 0.764638
15, 51, 0.999067
15, 52, 0.537342
15, 53, 0.105143
15, 54, -0.219419
15, 55, 0.673019
15, 56, 0.436957
15, 57, -0.208487
15, 58, 0.660842
15, 59, 0.825162
15, 60, 0.0353838
15, 61, -1
15, 62, -0.423102
15, 63, 0.939963
15, 64, 0.919334
15, 65, 0.950256
15, 66, 0.134857
15, 67, 0.681063
15, 68, 0.627228
15, 69, -0.467409
15, 70, 0.999115
15, 71, 0.711125
15, 72, -0.797158
15, 73, 0.973875
15, 74, 0.999126
15, 75, 0.967965
15, 76, 0.8977
15, 77, 0.701694
15, 78, -0.215647
15, 79, -1
15, 80, -1
15, 81, 0.950559
15, 82, 0.967499
15, 83, 0.448331
15, 84, -1
15, 85, 0.885306
15, 86, -0.892519
15, 87, 0.969112
15, 88, 0.0248259
15, 89, 0.899096
15, 90, 0.782124
15, 91, 0.999169
15, 92, 0.802542
15, 93, 0.620146
15, 94, 0.107027
15, 95, -1
15, 96, 0.899853
15, 97, 0.863415
15, 98, 0.342135
15, 99, -1
15, 100, 0.928521
15, 101, -1
15, 102, 0.44298
15, 103, 0.293838
15, 104, 0.599076
15, 105, -0.371918
15, 106, 0.375625
15, 107, -0.275654
15, 108, 0.517323
15, 109, 0.999215
15, 110, 0.641007
15, 111, 0.99922
15, 112, 0.715807
15, 113, -0.554468
15, 114, -0.015633
15, 115, -0.0561493
15, 116, 0.0388289
15, 117, -0.792654
15, 118, 0.235579
15, 119, 0.0380639
15, 120, 0.630946
15, 121, -1
15, 122, -0.512994
15, 123, 0.147861
15, 124, 0.538052
15, 125, -0.0926751
15, 126, 0.700719
15, 127, 0.44153
15, 128, 0.8059
15, 129, -0.0560224
15, 130, 0.202355
15, 131, 0.258844
15, 132, 0.695555
15, 133, 0.999276
15, 134, -0.79746
15, 135, 0.0976009
15, 136, 0.762691
15, 137, -0.0788845
15, 138, -1
15, 139, 0.522883
15, 140, -1
15, 141, 0.999297
15, 142, -0.0724029
15, 143, 0.768343
15, 144, 0.429625
15, 145, 0.309255
15, 146, 0.295407
15, 147, 0.55431
15, 148, -0.194116
15, 149, 0.873732
15, 150, -0.897476
15, 151, 0.997369
15, 152, 0.84667
15, 153, -0.490776
15, 154, 0.51352
15, 155, 0.933734
15, 156, -0.554667
15, 157, -0.0243324
15, 158, 0.99934
15, 159, -1
15, 160, 0.193154
15, 161, -1
15, 162, -0.0441407
15, 163, -0.264904
15, 164, 0.363269
15, 165, 0.169372
15, 166, 0.618544
15, 167, 0.764349
15, 168, 0.992758
15, 169, 0.819599
15, 170, 0.582894
15, 171, 0.0132415
15, 172, -0.713794
15, 173, 0.999379
15, 174, 0.899054
15, 175, 0.411075
15, 176, 0.578416
15, 177, -1
15, 178, -0.218162
15, 179, 0.487856
15, 180, -1
15, 181, 0.226006
15, 182, -0.0999691
15, 183, 0.740848
15, 184, 0.327462
15, 185, -0.467155
15, 186, 0.256988
15, 187, 0.233159
15, 188, -0.426885
15, 189, -0.176437
15, 190, 0.82602
15, 191, -0.00540741
15, 192, -0.14323
15, 193, 0.905693
15, 194, 0.583653
15, 195, 0.596021
15, 196, -0.57936
15, 197, -0.751331
15, 198, 0.25241
15, 199, 0.386941
15, 200, 0.999448
15, 201, 0.687241
15, 202, 0.426252
15, 203, 0.637904
15, 204, -1
15, 205, 0.364777
15, 206, -0.246992
15, 207, 0.850938
15, 208, -0.275817
15, 209, 0.644808
15, 210, -0.598168
15, 211, 0.581336
15, 212, 0.999478
15, 213, 0.968897
15, 214, -0.27089
15, 215, -1
15, 216, 0.678204
15, 217, 0.13446
15, 218, 0.702101
15, 219, -0.46765
15, 220, 0.406453
15, 221, 0.96847
15, 222, 0.760809
15, 223, 0.545314
15, 224, 0.148804
15, 225, -0.963988
15, 226, 0.734814
15, 227, -0.671814
15, 228, -0.461708
15, 229, -0.0415225
15, 230, 0.999524
15, 231, 0.590684
15, 232, 0.999529
15, 233, 0.566113
15, 234, 0.836567
15, 235, -0.150299
15, 236, 0.455681
15, 237, 0.721141
15, 238, 0.449039
15, 239, -0.819606
15, 240, -1
15, 241, -0.798205
15, 242, -1
15, 243, 0.449414
15, 244, 0.690888
15, 245, -0.788142
15, 246, 0.260035
15, 247, 0.234259
15, 248, 0.285828
15, 249, 0.975999
15, 250, 0.191247
15, 251, 0.965609
15, 252, 0.443428
15, 253, 0.678846
15, 254, 0.171302
15, 255, 0.84749
15, 256, 0.947213
15, 257, 0.510357
15, 258, 0.64106
15, 259, 0.999599
15, 260, 0.0261402
15, 261, -1
15, 262, 0.299015
15, 263, -0.145179
15, 264, 0.152723
15, 265, 0.925078
15, 266, -0.422933
15, 267, 0.665362
15, 268, 0.834595
15, 269, -1
15, 270, -0.576636
15, 271, 0.0984947
15, 272, 0.0350819
15, 273, -0.0817831
15, 274, 0.754826
15, 275, -0.280755
15, 276, 0.276846
15, 277, -1
15, 278, 0.139549
15, 279, 0.16842
15, 280, -1
15, 281, 0.372565
15, 282, -0.651631
15, 283, 0.0714087
15, 284, 0.0485003
15, 285, 0.0638754
15, 286, -0.353496
15, 287, -0.311822
15, 288, -0.292714
15, 289, 0.438414
15, 290, 0.453078
15, 291, 0.76641
15, 292, 0.999683
15, 293, -1
15, 294, 0.366709
15, 295, 0.514457
15, 296, -1
15, 297, -0.271186
15, 298, 0.242292
15, 299, 0.0633472
15, 300, 0.183884
15, 301, 0.356124
15, 302, 0.838715
15, 303, 0.679796
15, 304, 0.589149
15, 305, 0.191985
15, 306, 0.42611
15, 307, -0.260887
15, 308, 0.607939
15, 309, 0.964541
15, 310, 0.546512
15, 311, 0.26186
15, 312, -0.309275
15, 313, -0.120824
15, 314, 0.909141
15, 315, -0.195141
15, 316, -0.850947
15, 317, 0.902041
15, 318, -0.049505
15, 319, -1
15, 320, -1
15, 321, -1
15, 322, -0.117981
15, 323, -0.98706
15, 324, -1
15, 325, 0.247375
15, 326, -0.0141973
15, 327, 0.0598044
15, 328, 0.895232
15, 329, 0.999778
15, 330, 0.889906
15, 331, -0.516723
15, 332, -0.372415
15, 333, -0.00802273
15, 334, 0.921556
15, 335, -0.278959
15, 336, 0.705679
15, 337, -0.28265
15, 338, -0.689235
15, 339, -1
15, 340, -0.295662
15, 341, 0.20063
15, 342, 0.998509
15, 343, 0.56274
15, 344, 0.724824
15, 345, 0.104717
15, 346, -0.844347
15, 347, 0.907274
15, 348, -0.784951
15, 349, -0.357643
15, 350, 0.774418
15, 351, -0.501166
15, 352, 0.428604
15, 353, 0.972511
15, 354, -0.936657
15, 355, 0.360758
15, 356, 0.426757
15, 357, -0.0757655
15, 358, 0.550329
15, 359, -0.13025
15, 360, 0.722742
15, 361, -1
15, 362, -0.37742
15, 363, -1
15, 364, -1
15, 365, -0.612884
15, 366, 0.398762
15, 367, -0.86871
15, 368, 0.926654
15, 369, -0.152838
15, 370, -0.293382
15, 371, -1
15, 372, 0.434383
15, 373, 0.447682
15, 374, -0.185266
15, 375, -1
15, 376, -0.483625
15, 377, -0.28182
15, 378, 0.107587
15, 379, -1
15, 380, -0.007472
15, 381, -1
15, 382, -1
15, 383, 0.952483
15, 384, -0.863092
15, 385, -0.75948
15, 386, -0.139694
15, 387, 0.724129
15, 388, 0.999928
15, 389, 0.932593
15, 390, 0.681681
15, 391, -0.842759
15, 392, 0.584461
15, 393, -0.863056
15, 394, -1
15, 395, 0.986053
15, 396, 0.907499
15, 397, -1
15, 398, -0.0764173
15, 399, 0.229273
16, 0, -0.474957
16, 1, -1
16, 2, 0.763654
16, 3, 0.134956
16, 4, -0.0874702
16, 5, -1
16, 6, -1
16, 7, -1
16, 8, 0.697936
16, 9, -1
16, 10, -0.181139
16, 11, -0.114621
16, 12, 0.43764
16, 13, 0.31818
16, 14, -0.861164
16, 15, 0.281502
16, 16, -0.571541
16, 17, 0.358914
16, 18, -0.0295397
16, 19, -1
16, 20, 0.971203
16, 21, 0.690188
16, 22, 0.190572
16, 23, -1
16, 24, 0.0688952
16, 25, -0.920816
16, 26, -0.664794
16, 27, -0.707873
16, 28, -1
16, 29, 0.513468
16, 30, -1
16, 31, 0.819527
16, 32, 0.661274
16, 33, -1
16, 34, -0.169908
16, 35, 0.700155
16, 36, 0.208669
16, 37, 0.999029
16, 38, -0.349289
16, 39, 0.584889
16, 40, -1
16, 41, -1
16, 42, 0.203547
16, 43, -0.537053
16, 44, 0.126027
16, 45, -1
16, 46, -1
16, 47, -1
16, 48, -1
16, 49, 0.123678
16, 50, 0.621575
16, 51, -0.861015
16, 52, -1
16, 53, -0.258344
16, 54, -1
16, 55, -0.969783
16, 56, -0.582896
16, 57, -1
16, 58, 0.678013
16, 59, 0.756894
16, 60, 0.508291
16, 61, 0.329624
16, 62, 0.0312519
16, 63, 0.568529
16, 64, -0.938767
16, 65, -1
16, 66, -1
16, 67, -0.706361
16, 68, -0.995243
16, 69, -0.0840739
16, 70, 0.335978
16, 71, 0.0458683
16, 72, -1
16, 73, -0.809863
16, 74, 0.52063
16, 75, -0.763249
16, 76, 0.778038
16, 77, 0.265097
16, 78, 0.112638
16, 79, -0.688638
16, 80, -1
16, 81, -1
16, 82, 0.217494
16, 83, -1
16, 84, -1
16, 85, -1
16, 86, -0.985572
16, 87, -1
16, 88, -1
16, 89, -0.873415
16, 90, 0.202395
16, 91, 0.0768061
16, 92, 0.167922
16, 93, 0.391052
16, 94, 0.405446
16, 95, -1
16, 96, -0.0769141
16, 97, -0.544963
16, 98, -1
16, 99, -1
16, 100, -0.140787
16, 101, -0.397973
16, 102, 0.43012
16, 103, 0.069323
16, 104, -1
16, 105, -0.164564
