
0, 0, 0.0695443
0, 1, 0.0695452
0, 2, 0.40268
0, 3, -0.263632
0, 4, -1
0, 5, -0.943087
0, 6, 0.735778
0, 7, -1
0, 8, 0.402689
0, 9, -0.943087
0, 10, -0.845451
0, 11, -1
0, 12, 0.488449
0, 13, -1
0, 14, 0.558334
0, 15, -1
0, 16, -0.263625
0, 17, -0.263625
0, 18, 0.344272
0, 19, 0.0695612
0, 20, -1
0, 21, -0.943086
0, 22, -0.943086
0, 23, 0.0695647
0, 24, 0.0695656
0, 25, -0.263621
0, 26, 0.446947
0, 27, 0.779117
0, 28, -0.277682
0, 29, -0.954921
0, 30, -1
0, 31, -1
0, 32, 0.355851
0, 33, -1
0, 34, -0.414777
0, 35, 0.344336
0, 36, -1
0, 37, -1
0, 38, 0.40273
0, 39, 0.735844
0, 40, -1
0, 41, 0.402734
0, 42, 0.402736
0, 43, 0.944163
0, 44, 0.295722
0, 45, -0.124143
0, 46, -1
0, 47, -1
0, 48, 0.0695869
0, 49, -0.263609
0, 50, 0.402747
0, 51, 0.0742407
0, 52, -0.928653
0, 53, 0.258652
0, 54, -1
0, 55, -1
0, 56, -1
0, 57, 0.402757
0, 58, 0.0695958
0, 59, -0.263604
0, 60, -1
0, 61, -1
0, 62, -1
0, 63, 0.130109
0, 64, 0.591419
0, 65, -0.943084
0, 66, -0.238392
0, 67, -1
0, 68, -1
0, 69, -1
0, 70, -0.0870925
0, 71, -0.95566
0, 72, 0.218873
0, 73, -1
0, 74, -1
0, 75, -0.263596
0, 76, -0.263595
0, 77, 0.73592
0, 78, -0.263594
0, 79, 0.402787
0, 80, -1
0, 81, 0.859303
0, 82, -0.943083
0, 83, 0.069618
0, 84, 0.372444
0, 85, -0.859926
0, 86, -0.402323
0, 87, -0.428699
0, 88, 0.340119
0, 89, -1
0, 90, 0.0784079
0, 91, -0.432228
0, 92, 0.285251
0, 93, 0.325782
0, 94, -1
0, 95, 0.0696286
0, 96, 0.735958
0, 97, -0.943082
0, 98, -0.943082
0, 99, -1
0, 100, -0.943082
0, 101, 0.735968
0, 102, -0.943082
0, 103, -1
0, 104, 0.774836
0, 105, -1
0, 106, -0.26358
0, 107, -0.970052
0, 108, 0.766012
0, 109, -0.0185868
0, 110, -1
0, 111, 0.831224
0, 112, -0.929371
0, 113, -1
0, 114, -1
0, 115, -1
0, 116, -1
0, 117, -0.263575
0, 118, 0.069649
0, 119, 0.736004
0, 120, -0.943081
0, 121, 0.736008
0, 122, -0.263572
0, 123, -1
0, 124, -0.263571
0, 125, 0.0696552
0, 126, -0.26357
0, 127, -1
0, 128, -1
0, 129, -0.164
0, 130, -1
0, 131, -1
0, 132, -0.58163
0, 133, -1
0, 134, -1
0, 135, -0.94308
0, 136, -1
0, 137, -1
0, 138, -0.263564
0, 139, 0.40287
0, 140, 0.736046
0, 141, 0.0696694
0, 142, -0.263562
0, 143, -0.263562
0, 144, -0.216063
0, 145, -0.94308
0, 146, -0.26356
0, 147, 0.402881
0, 148, -0.280071
0, 149, 0.302381
0, 150, -1
0, 151, -0.0694867
0, 152, 0.275075
0, 153, 0.391891
0, 154, 0.069681
0, 155, 0.736076
0, 156, -1
0, 157, 0.402895
0, 158, -1
0, 159, 0.736084
0, 160, -1
0, 161, -1
0, 162, 0.73609
0, 163, -0.943079
0, 164, -1
0, 165, 0.736096
0, 166, -0.26355
0, 167, -1
0, 168, 0.266069
0, 169, 0.706664
0, 170, -0.292219
0, 171, -0.0298533
0, 172, -1
0, 173, 0.285654
0, 174, 0.324947
0, 175, 0.0696996
0, 176, -1
0, 177, -1
0, 178, -1
0, 179, 0.0697031
0, 180, -0.263544
0, 181, -0.263543
0, 182, -1
0, 183, 0.736132
0, 184, 0.736134
0, 185, -0.943078
0, 186, 0.402935
0, 187, -1
0, 188, -1
0, 189, 0.353362
0, 190, 0.352875
0, 191, -1
0, 192, 0.422165
0, 193, -0.182468
0, 194, -1
0, 195, 0.0697173
0, 196, -1
0, 197, -0.263535
0, 198, 0.402952
0, 199, 0.736164
0, 200, -0.943077
0, 201, -1
0, 202, -0.263533
0, 203, -1
0, 204, -1
0, 205, -1
0, 206, 0.0697271
0, 207, 0.736179
0, 208, -1
0, 209, -0.618426
0, 210, -0.918345
0, 211, -0.202414
0, 212, 0.354377
0, 213, -1
0, 214, -0.237276
0, 215, 0.402976
0, 216, 0.069736
0, 217, -1
0, 218, -0.263525
0, 219, -0.943076
0, 220, 0.736205
0, 221, -1
0, 222, -0.943076
0, 223, -0.943076
0, 224, 0.0697431
0, 225, -0.263521
0, 226, -1
0, 227, 0.382558
0, 228, 0.467237
0, 229, 0.105442
0, 230, -1
0, 231, -1
0, 232, 0.44398
0, 233, 0.39398
0, 234, -1
0, 235, -0.179197
0, 236, -0.263516
0, 237, 0.403006
0, 238, -0.943075
0, 239, -0.263514
0, 240, -1
0, 241, -0.263513
0, 242, 0.403013
0, 243, 0.736251
0, 244, 0.403016
0, 245, 0.736255
0, 246, -0.943074
0, 247, -1
0, 248, -1
0, 249, 0.193025
0, 250, -1
0, 251, 0.069767
0, 252, 0.36625
0, 253, 0.548819
0, 254, -1
0, 255, -1
0, 256, 0.818595
0, 257, -1
0, 258, 0.403035
0, 259, 0.403037
0, 260, -0.263504
0, 261, -1
0, 262, -0.263503
0, 263, 0.736291
0, 264, 0.0697786
0, 265, 0.306655
0, 266, -0.943073
0, 267, -1
0, 268, -1
0, 269, -1
0, 270, -1
0, 271, -1
0, 272, 0.0428174
0, 273, -1
0, 274, 0.464855
0, 275, -1
0, 276, 0.735493
0, 277, -1
0, 278, -1
0, 279, 0.0697919
0, 280, 0.0697928
0, 281, -0.263493
0, 282, -1
0, 283, -1
0, 284, 0.736333
0, 285, -1
0, 286, -1
0, 287, 0.351087
0, 288, 0.223339
0, 289, -0.157944
0, 290, -1
0, 291, 0.773284
0, 292, 0.272427
0, 293, 0.403084
0, 294, 0.403085
0, 295, -1
0, 296, -1
0, 297, -1
0, 298, 0.403091
0, 299, -0.943072
0, 300, -1
0, 301, -1
0, 302, -0.263483
0, 303, 0.0698132
0, 304, 0.403099
0, 305, -1
0, 306, 0.0698158
0, 307, 0.0128668
0, 308, 0.815974
0, 309, 0.157402
0, 310, -1
0, 311, -1
0, 312, 0.741158
0, 313, -1
0, 314, -0.943071
0, 315, -0.263476
0, 316, -1
0, 317, -0.263475
0, 318, 0.685027
0, 319, -0.263474
0, 320, -1
0, 321, -1
0, 322, -0.943071
0, 323, 0.0698309
0, 324, 0.375335
0, 325, -1
0, 326, -0.94307
0, 327, 0.464897
0, 328, 0.246959
0, 329, -1
0, 330, -1
0, 331, 0.236963
0, 332, 0.736429
0, 333, -1
0, 334, -0.94307
0, 335, 0.11108
0, 336, -1
0, 337, 0.736439
0, 338, -1
0, 339, 0.736443
0, 340, -0.94307
0, 341, -1
0, 342, 0.736449
0, 343, 0.736451
0, 344, -1
0, 345, -0.943069
0, 346, -1
0, 347, 0.223434
0, 348, -1
0, 349, 0.396449
0, 350, 0.690851
0, 351, -1
0, 352, -1
0, 353, -1
0, 354, 0.14137
0, 355, -0.263456
0, 356, 0.736477
0, 357, 0.0698611
0, 358, -1
0, 359, -0.943069
0, 360, 0.403177
0, 361, 0.736487
0, 362, -1
0, 363, -0.943068
0, 364, -1
0, 365, -1
0, 366, 0.736497
0, 367, -1
0, 368, -0.0578799
0, 369, 0.828858
0, 370, 0.0577151
0, 371, -1
0, 372, 0.108128
0, 373, 0.0315144
0, 374, 0.403196
0, 375, -0.943068
0, 376, 0.0156587
0, 377, -0.263445
0, 378, -1
0, 379, 0.379166
0, 380, -0.263444
0, 381, 0.736527
0, 382, 0.706118
0, 383, -1
0, 384, 0.366299
0, 385, -0.160955
0, 386, -0.943067
0, 387, -0.982441
0, 388, 0.293075
0, 389, -1
0, 390, 0.468878
0, 391, 0.0799836
0, 392, -1
0, 393, -0.644802
0, 394, 0.0698939
0, 395, -1
0, 396, 0.0698957
0, 397, -0.263435
0, 398, -1
0, 399, -1
1, 0, 0.928339
1, 1, -0.263633
1, 2, 0.402679
1, 3, -0.263632
1, 4, -1
1, 5, -0.263631
1, 6, 0.735776
1, 7, -0.943087
1, 8, -1
1, 9, 0.735782
1, 10, 0.40269
1, 11, -1
1, 12, 0.0695541
1, 13, 0.0517003
1, 14, -0.943086
1, 15, -1
1, 16, 0.735796
1, 17, 0.0695585
1, 18, -0.263625
1, 19, 0.402703
1, 20, 0.735804
1, 21, 0.735806
1, 22, -1
1, 23, 0.73581
1, 24, -1
1, 25, 0.0695656
1, 26, -1
1, 27, 0.0695674
1, 28, -1
1, 29, 0.402716
1, 30, 0.0695701
1, 31, 0.735826
1, 32, 0.735828
1, 33, -0.263617
1, 34, -0.755084
1, 35, 0.0695745
1, 36, 0.0695754
1, 37, -1
1, 38, 0.735834
1, 39, -0.943085
1, 40, 0.0695789
1, 41, 0.402733
1, 42, -0.263613
1, 43, -1
1, 44, -1
1, 45, -0.263611
1, 46, -1
1, 47, 0.735858
1, 48, 0.73586
1, 49, -1
1, 50, 0.133191
1, 51, 0.276525
1, 52, -1
1, 53, -0.943084
1, 54, -0.941427
1, 55, -1
1, 56, 0.735876
1, 57, -1
1, 58, -0.263605
1, 59, 0.402758
1, 60, 0.0695967
1, 61, 0.402761
1, 62, 0.0611679
1, 63, -0.263602
1, 64, 0.735892
1, 65, 0.44688
1, 66, -1
1, 67, -0.926893
1, 68, -0.0576894
1, 69, 0.274737
1, 70, 0.0696055
1, 71, -1
1, 72, -0.263598
1, 73, 0.604659
1, 74, -0.943083
1, 75, -0.943083
1, 76, -1
1, 77, -1
1, 78, -1
1, 79, 0.735922
1, 80, -1
1, 81, 0.0696153
1, 82, -0.943083
1, 83, 0.753727
1, 84, 0.697321
1, 85, 0.498291
1, 86, 0.390748
1, 87, 0.512345
1, 88, -0.683686
1, 89, 0.522793
1, 90, -0.965303
1, 91, -1
1, 92, -0.943082
1, 93, -0.120531
1, 94, 0.0610097
1, 95, -1
1, 96, -0.263586
1, 97, -0.263585
1, 98, -0.943082
1, 99, 0.735962
1, 100, -1
1, 101, 0.0696331
1, 102, -0.680051
1, 103, -0.19147
1, 104, -1
1, 105, -1
1, 106, 0.460283
1, 107, -0.99141
1, 108, 0.73598
1, 109, 0.0696401
1, 110, -1
1, 111, 0.668059
1, 112, -1
1, 113, -1
1, 114, -0.263577
1, 115, 0.735994
1, 116, -1
1, 117, 0.735998
1, 118, 0.40284
1, 119, -1
1, 120, 0.402843
1, 121, -1
1, 122, -0.982584
1, 123, 0.748007
1, 124, -0.943081
1, 125, 0.0696543
1, 126, 0.825372
1, 127, -0.219434
1, 128, -1
1, 129, 0.736022
1, 130, -0.263569
1, 131, 0.671851
1, 132, -1
1, 133, -1
1, 134, -0.94308
1, 135, -0.263566
1, 136, -1
1, 137, 0.402866
1, 138, -0.263565
1, 139, 0.402869
1, 140, -0.263564
1, 141, -0.94308
1, 142, 0.0696694
1, 143, 0.0879158
1, 144, 0.0696712
1, 145, -1
1, 146, -0.234575
1, 147, -1
1, 148, -1
1, 149, 0.7873
1, 150, 0.0696765
1, 151, -0.263558
1, 152, 0.0418981
1, 153, 0.661228
1, 154, -0.959842
1, 155, -1
1, 156, -1
1, 157, 0.736078
1, 158, -0.263555
1, 159, 0.736082
1, 160, 0.402898
1, 161, 0.0696863
1, 162, 0.402901
1, 163, -1
1, 164, -0.0248654
1, 165, 0.700785
1, 166, -1
1, 167, -0.943079
1, 168, 0.0696925
1, 169, 0.0564533
1, 170, -1
1, 171, -1
1, 172, 0.535309
1, 173, 0.023668
1, 174, 0.489532
1, 175, -0.943078
1, 176, -0.263546
1, 177, 0.736118
1, 178, 0.0697014
1, 179, -1
1, 180, 0.0697031
1, 181, -1
1, 182, 0.0697049
1, 183, -1
1, 184, 0.22632
1, 185, 0.365019
1, 186, 0.746872
1, 187, 0.0697094
1, 188, -0.943077
1, 189, -1
1, 190, -0.263539
1, 191, -1
1, 192, 0.223774
1, 193, -1
1, 194, 0.686834
1, 195, -1
1, 196, -1
1, 197, 0.402949
1, 198, -0.263535
1, 199, 0.402952
1, 200, -1
1, 201, -0.263534
1, 202, 0.182814
1, 203, 0.0697235
1, 204, 0.736171
1, 205, -1
1, 206, 0.871766
1, 207, -1
1, 208, 0.69363
1, 209, 0.0445169
1, 210, -0.32549
1, 211, -0.0938213
1, 212, -0.608154
1, 213, 0.375047
1, 214, -0.443369
1, 215, -0.943076
1, 216, -1
1, 217, -1
1, 218, 0.736199
1, 219, 0.0697377
1, 220, -1
1, 221, -1
1, 222, -0.263523
1, 223, 0.402985
1, 224, -1
1, 225, -1
1, 226, 0.31888
1, 227, -0.943075
1, 228, 0.402992
1, 229, -1
1, 230, 0.395888
1, 231, -0.462343
1, 232, 0.364635
1, 233, -1
1, 234, -1
1, 235, 0.215188
1, 236, -0.943075
1, 237, -1
1, 238, 0.0697546
1, 239, -1
1, 240, -0.943075
1, 241, 0.40301
1, 242, -1
1, 243, 0.403013
1, 244, -0.263512
1, 245, -0.943075
1, 246, 0.348451
1, 247, -0.263511
1, 248, -0.0833971
1, 249, -0.389647
1, 250, -1
1, 251, 0.0496934
1, 252, -0.949784
1, 253, -1
1, 254, -0.769858
1, 255, -0.263507
1, 256, -1
1, 257, -1
1, 258, 0.403034
1, 259, 0.0697732
1, 260, -1
1, 261, -1
1, 262, -1
1, 263, 0.403041
1, 264, -0.943074
1, 265, -1
1, 266, -1
1, 267, -1
1, 268, 0.200552
1, 269, 0.0697821
1, 270, -1
1, 271, -1
1, 272, -0.943073
1, 273, -1
1, 274, -0.0029435
1, 275, 0.0697874
1, 276, 0.0697883
1, 277, -1
1, 278, -1
1, 279, -1
1, 280, -1
1, 281, 0.403066
1, 282, -0.263493
1, 283, -0.263493
1, 284, 0.736331
1, 285, -0.263492
1, 286, -0.0884328
1, 287, -1
1, 288, -0.943072
1, 289, -1
1, 290, 0.0698007
1, 291, -0.274971
1, 292, -0.943072
1, 293, -0.020367
1, 294, 0.672388
1, 295, -0.792912
1, 296, -0.943072
1, 297, -1
1, 298, 0.0698078
1, 299, -1
1, 300, -0.943072
1, 301, -1
1, 302, 0.736367
1, 303, 0.403096
1, 304, 0.403098
1, 305, -1
1, 306, -1
1, 307, -1
1, 308, -1
1, 309, -1
1, 310, 0.736383
1, 311, 0.698965
1, 312, 0.403109
1, 313, -0.726982
1, 314, -1
1, 315, -0.943071
1, 316, -0.187505
1, 317, 0.403116
1, 318, -1
1, 319, 0.736401
1, 320, 0.736403
1, 321, -0.943071
1, 322, -0.943071
1, 323, 0.736409
1, 324, 0.0698309
1, 325, -1
1, 326, -1
1, 327, 0.736417
1, 328, 0.736419
1, 329, -0.26347
1, 330, 0.403134
1, 331, -0.916299
1, 332, 0.736427
1, 333, -0.263468
1, 334, 0.358068
1, 335, 0.0698407
1, 336, -0.94307
1, 337, 0.403143
1, 338, -0.263465
1, 339, -1
1, 340, -0.263464
1, 341, -0.94307
1, 342, -0.94307
1, 343, 0.736449
1, 344, -0.943069
1, 345, -1
1, 346, -1
1, 347, 0.403157
1, 348, 0.736459
1, 349, -1
1, 350, 0.0674503
1, 351, 0.364068
1, 352, -0.263458
1, 353, 0.0698567
1, 354, -0.000187349
1, 355, -1
1, 356, 0.0698593
1, 357, -0.263456
1, 358, 0.0581315
1, 359, -0.263455
1, 360, -1
1, 361, -0.263454
1, 362, -0.258423
1, 363, 0.736489
1, 364, 0.0698664
1, 365, -1
1, 366, -0.943068
1, 367, 0.515098
1, 368, 0.06987
1, 369, -0.26345
1, 370, -0.94117
1, 371, -1
1, 372, 0.403192
1, 373, -0.943068
1, 374, 0.724906
1, 375, -1
1, 376, -0.263446
1, 377, 0.315787
1, 378, -0.263445
1, 379, -1
1, 380, 0.0698806
1, 381, 0.736525
1, 382, 0.736527
1, 383, -1
1, 384, -0.263442
1, 385, -1
1, 386, 0.403211
1, 387, -1
1, 388, 0.381595
1, 389, -1
1, 390, -0.714468
1, 391, -0.309698
1, 392, 0.0698913
1, 393, -0.263438
1, 394, -1
1, 395, 0.623204
1, 396, -0.263436
1, 397, -1
1, 398, 0.403228
1, 399, -1
2, 0, -1
2, 1, -1
2, 2, 0.787274
2, 3, 0.603628
2, 4, -0.722825
2, 5, -1
2, 6, -0.817809
2, 7, -0.698365
2, 8, -1
2, 9, -1
2, 10, -1
2, 11, -1
2, 12, -1
2, 13, -1
2, 14, 0.189539
2, 15, -0.374965
2, 16, -0.848445
2, 17, 0.155933
2, 18, -0.075718
2, 19, 0.0213105
2, 20, -0.725919
2, 21, -0.154729
2, 22, 0.956598
2, 23, -0.134256
2, 24, -0.752728
2, 25, -0.275929
2, 26, -1
2, 27, -1
2, 28, -1
2, 29, -1
2, 30, -1
2, 31, -1
2, 32, -0.961694
2, 33, -0.886716
2, 34, -0.643646
2, 35, -0.992925
2, 36, -1
2, 37, -1
2, 38, -0.827799
2, 39, 0.833031
2, 40, -0.85759
2, 41, -0.345212
2, 42, -0.36048
2, 43, -0.317387
2, 44, 0.825251
2, 45, -1
2, 46, -1
2, 47, -1
2, 48, -1
2, 49, -1
2, 50, 0.799807
2, 51, -0.719609
2, 52, -0.258834
2, 53, 0.858848
2, 54, -0.607684
2, 55, -0.438361
2, 56, 0.355332
2, 57, -1
2, 58, -1
2, 59, -0.854895
2, 60, -0.96657
2, 61, 0.403205
2, 62, -0.00483482
2, 63, 0.686628
2, 64, -1
2, 65, 0.334458
2, 66, -1
2, 67, -0.487711
2, 68, 0.747561
2, 69, -0.9835
2, 70, 0.856761
2, 71, 0.204179
2, 72, -1
2, 73, 0.483486
2, 74, 0.00694514
2, 75, -0.831688
2, 76, 0.894733
2, 77, 0.0372082
2, 78, -1
2, 79, -1
2, 80, 0.807428
2, 81, 0.999177
2, 82, -0.954962
2, 83, 0.754393
2, 84, -0.0669344
2, 85, 0.259344
2, 86, 0.419898
2, 87, 0.37932
2, 88, 0.456198
2, 89, 0.134913
2, 90, -0.596373
2, 91, -0.277016
2, 92, -0.280699
2, 93, -0.0770774
2, 94, -0.0304379
2, 95, -0.498392
2, 96, 0.432228
2, 97, 0.665454
2, 98, 0.325342
2, 99, -1
2, 100, -0.386831
2, 101, 0.5626
2, 102, -1
2, 103, -0.180352
2, 104, -0.0647584
2, 105, -1
2, 106, -0.259389
2, 107, 0.729581
2, 108, 0.168513
2, 109, -0.0592908
2, 110, -1
2, 111, -1
2, 112, 0.835063
2, 113, -0.386127
2, 114, 0.427839
2, 115, -1
2, 116, 0.991984
2, 117, -1
2, 118, -0.953464
2, 119, -1
2, 120, 0.823083
2, 121, 0.1726
2, 122, -0.00998419
2, 123, 0.483897
2, 124, 0.183005
2, 125, -1
2, 126, 0.39315
2, 127, -1
2, 128, 0.839097
2, 129, 0.0023591
2, 130, -1
2, 131, 0.300277
2, 132, 0.704668
2, 133, 0.234495
2, 134, 0.862801
2, 135, 0.378184
2, 136, 0.343271
2, 137, 0.0317412
2, 138, -0.818686
2, 139, 0.244405
2, 140, 0.565841
2, 141, 0.0916521
2, 142, 0.540986
2, 143, -0.0845144
2, 144, 0.597366
2, 145, 0.843423
2, 146, 0.932706
2, 147, -0.567773
2, 148, 0.106744
2, 149, -1
2, 150, -0.222088
2, 151, 0.549965
2, 152, 0.453162
2, 153, 0.999361
2, 154, 0.94046
2, 155, 0.652532
2, 156, 0.201201
2, 157, 0.12118
2, 158, -0.305413
2, 159, -1
2, 160, 0.999379
2, 161, 0.256933
2, 162, 0.379572
2, 163, 0.78619
2, 164, 0.829187
2, 165, -0.893786
2, 166, 0.769091
2, 167, -0.26579
2, 168, 0.476011
2, 169, -0.0479623
2, 170, -1
2, 171, 0.212575
2, 172, 0.518271
2, 173, 0.524529
2, 174, 0.242378
2, 175, -1
2, 176, 0.232803
2, 177, 0.60481
2, 178, -1
2, 179, -1
2, 180, 0.111344
2, 181, 0.999432
2, 182, 0.673717
2, 183, 0.813845
2, 184, 0.163003
2, 185, -0.377775
2, 186, 0.821244
2, 187, 0.132179
2, 188, 0.337962
2, 189, -1
2, 190, -1
2, 191, -0.683553
2, 192, 0.237094
2, 193, 0.0366254
2, 194, 0.920368
2, 195, -0.0491511
2, 196, 0.532653
2, 197, -1
2, 198, -1
2, 199, -0.993611
2, 200, 0.950654
2, 201, 0.578877
2, 202, 0.867337
2, 203, 0.188168
2, 204, 0.39218
2, 205, -0.561871
2, 206, 0.429631
2, 207, -1
2, 208, 0.137938
2, 209, -0.258428
2, 210, -0.117782
2, 211, 0.575734
2, 212, 0.829358
2, 213, 0.170751
2, 214, 0.795386
2, 215, 0.466334
2, 216, -1
2, 217, 0.474701
2, 218, -0.0653762
2, 219, -1
2, 220, 0.667027
2, 221, -0.413365
2, 222, 0.29446
2, 223, 0.93362
2, 224, 0.548731
2, 225, 0.95407
2, 226, 0.647147
2, 227, -0.668852
2, 228, -0.970506
2, 229, -1
2, 230, -0.0647045
2, 231, -0.231802
2, 232, 0.394246
2, 233, 0.612935
2, 234, 0.924999
2, 235, 0.948422
2, 236, 0.999573
2, 237, 0.276641
2, 238, -1
2, 239, -1
2, 240, 0.999583
2, 241, 0.412223
2, 242, 0.55729
2, 243, -0.0856667
2, 244, 0.598342
2, 245, 0.0910403
2, 246, -0.119161
2, 247, 0.951796
2, 248, -0.125964
2, 249, 0.379226
2, 250, -1
2, 251, 0.719249
2, 252, 0.737443
2, 253, 0.896479
2, 254, -0.790504
2, 255, -0.662508
2, 256, 0.380865
2, 257, -1
2, 258, -0.789697
2, 259, -1
2, 260, -0.335399
2, 261, 0.188669
2, 262, -0.121873
2, 263, 0.472078
2, 264, -0.0750317
2, 265, -0.195069
2, 266, 0.815387
2, 267, -1
2, 268, 0.228046
2, 269, 0.400295
2, 270, 0.152192
2, 271, 0.0872893
2, 272, 0.447667
2, 273, -0.910087
2, 274, -0.718269
2, 275, -1
2, 276, -0.966923
2, 277, -1
2, 278, -1
2, 279, -1
2, 280, -1
2, 281, -1
2, 282, -1
2, 283, -0.572788
2, 284, -0.917386
2, 285, -0.768408
2, 286, -0.871183
2, 287, -0.933036
2, 288, -0.658276
2, 289, 0.460629
2, 290, 0.986363
2, 291, 0.983361
2, 292, 0.048898
2, 293, -0.234823
2, 294, -1
2, 295, -0.0233845
2, 296, -1
2, 297, -1
2, 298, -1
2, 299, -1
2, 300, 0.204157
2, 301, -1
2, 302, -1
2, 303, -1
2, 304, -1
2, 305, -1
2, 306, -1
2, 307, -1
2, 308, -0.866348
2, 309, 0.13622
2, 310, -0.0816801
2, 311, -0.00515895
2, 312, 0.109164
2, 313, -1
2, 314, -1
2, 315, 0.134772
2, 316, -1
2, 317, -1
2, 318, -1
2, 319, -0.781508
2, 320, -1
2, 321, -1
2, 322, -1
2, 323, -1
2, 324, -1
2, 325, -1
2, 326, -1
2, 327, -1
2, 328, -1
2, 329, -1
2, 330, -1
2, 331, -0.852973
2, 332, -1
2, 333, -0.648854
2, 334, -1
2, 335, -0.155349
2, 336, -0.247905
2, 337, -1
2, 338, -1
2, 339, -1
2, 340, -1
2, 341, -1
2, 342, -1
2, 343, -1
2, 344, -1
2, 345, -1
2, 346, -0.788648
2, 347, 0.556222
2, 348, -0.4641
2, 349, -0.342133
2, 350, 0.243067
2, 351, -1
2, 352, 0.0401568
2, 353, -0.419005
2, 354, -0.491447
2, 355, -1
2, 356, -1
2, 357, -1
2, 358, -0.829239
2, 359, -1
2, 360, -0.835509
2, 361, -0.514048
2, 362, -1
2, 363, -0.814914
2, 364, -1
2, 365, -0.791896
2, 366, -1
2, 367, -1
2, 368, 0.566598
2, 369, -1
2, 370, -0.610056
2, 371, -1
2, 372, -1
2, 373, 0.999923
2, 374, -1
2, 375, -0.516958
2, 376, -0.354117
2, 377, 0.969667
2, 378, 0.952979
2, 379, 0.456503
2, 380, -0.0536815
2, 381, 0.123822
2, 382, -1
2, 383, -0.84849
2, 384, -0.897904
2, 385, -0.505933
2, 386, -0.97292
2, 387, -0.811147
2, 388, -1
2, 389, -0.294342
2, 390, -1
2, 391, -0.11988
2, 392, 0.209193
2, 393, 0.944312
2, 394, 0.303571
2, 395, 0.795474
2, 396, 0.341863
2, 397, -1
2, 398, -0.293258
2, 399, -0.00316064
3, 0, -0.363417
3, 1, 0.735762
3, 2, -1
3, 3, 0.735766
3, 4, 0.402679
3, 5, -1
3, 6, 0.069547
3, 7, 0.735774
3, 8, -1
3, 9, -1
3, 10, -0.16698
3, 11, -0.815299
3, 12, 0.0709098
3, 13, -1
3, 14, -0.943086
3, 15, 0.73579
3, 16, -0.263627
3, 17, -1
3, 18, 0.735796
3, 19, -0.263625
3, 20, 0.7358
3, 21, 0.402703
3, 22, -0.263624
3, 23, -1
3, 24, -1
3, 25, 0.402708
3, 26, -1
3, 27, -1
3, 28, 0.14482
3, 29, 0.416922
3, 30, -1
3, 31, 0.565024
3, 32, -0.126811
3, 33, -0.943086
3, 34, -0.407896
3, 35, -1
3, 36, -1
3, 37, 0.0695745
3, 38, 0.402726
3, 39, -1
3, 40, 0.402729
3, 41, -0.943085
3, 42, 0.402732
3, 43, -0.943085
3, 44, -0.943085
3, 45, 0.290066
3, 46, 0.642517
3, 47, -0.142498
3, 48, 0.382332
3, 49, 0.0547099
3, 50, 0.695334
3, 51, -0.08031
3, 52, -1
3, 53, -1
3, 54, -0.263608
3, 55, -0.263607
3, 56, 0.402751
3, 57, -0.263606
3, 58, -1
3, 59, -0.943084
3, 60, -0.943084
3, 61, -0.263604
3, 62, 0.402759
3, 63, 0.0695976
3, 64, 0.0695985
3, 65, -1
3, 66, -0.388897
3, 67, 0.292656
3, 68, 0.391105
3, 69, -1
3, 70, -0.171684
3, 71, -1
3, 72, -0.255009
3, 73, -1
3, 74, -0.384593
3, 75, 0.409298
3, 76, 0.735912
3, 77, -0.943083
3, 78, -1
3, 79, 0.0696118
3, 80, 0.73592
3, 81, 0.402786
3, 82, -1
3, 83, -1
3, 84, 0.0696162
3, 85, -0.506036
3, 86, -0.304326
3, 87, -1
3, 88, 0.244152
3, 89, 0.226848
3, 90, -1
3, 91, 0.839359
3, 92, 0.422887
3, 93, -1
3, 94, -1
3, 95, -1
3, 96, -0.943082
3, 97, 0.452143
3, 98, 0.461263
3, 99, -1
3, 100, 0.402812
3, 101, -0.263584
3, 102, -0.59954
3, 103, -1
3, 104, -0.011346
3, 105, -0.781344
3, 106, -0.263582
3, 107, -1
3, 108, -0.230879
3, 109, -0.842705
3, 110, 0.307276
3, 111, -0.260226
3, 112, 0.734931
3, 113, -0.295552
3, 114, -1
3, 115, -0.943081
3, 116, -1
3, 117, 0.277705
3, 118, -0.943081
3, 119, 0.0696472
3, 120, -1
3, 121, 0.402841
3, 122, -1
3, 123, 0.29269
3, 124, -0.193649
3, 125, -1
3, 126, -1
3, 127, 0.670021
3, 128, 0.238273
3, 129, 0.370367
3, 130, 0.146808
3, 131, -1
3, 132, -1
3, 133, -0.906346
3, 134, -1
3, 135, -0.263567
3, 136, 0.6615
3, 137, 0.258022
3, 138, -0.94308
3, 139, -1
3, 140, -1
3, 141, -1
3, 142, -0.94308
3, 143, 0.748084
3, 144, -0.564442
3, 145, -0.460822
3, 146, -1
3, 147, -1
3, 148, 0.453673
3, 149, -1
3, 150, -0.301993
3, 151, -1
3, 152, -1
3, 153, 0.191143
3, 154, 0.527261
3, 155, -0.943079
3, 156, -0.420567
3, 157, -0.00507529
3, 158, 0.736076
3, 159, -1
3, 160, -0.943079
3, 161, -1
3, 162, -1
3, 163, -1
3, 164, 0.0755275
3, 165, -0.263552
3, 166, -0.943079
3, 167, -0.467327
3, 168, 0.740887
3, 169, -0.343972
3, 170, -0.0673241
3, 171, 0.562496
3, 172, -0.889886
3, 173, 0.0804503
3, 174, 0.069696
3, 175, 0.344813
3, 176, -1
3, 177, -0.263547
3, 178, 0.736116
3, 179, -1
3, 180, 0.402923
3, 181, -0.263545
3, 182, 0.257968
3, 183, -0.355085
3, 184, 0.468469
3, 185, -0.943078
3, 186, 0.402931
3, 187, -1
3, 188, 0.749041
3, 189, -1
3, 190, -1
3, 191, -1
3, 192, -0.118734
3, 193, -1
3, 194, -1
3, 195, -1
3, 196, -0.327927
3, 197, -0.943077
3, 198, 0.0697173
3, 199, -1
3, 200, 0.402951
3, 201, 0.686394
3, 202, -1
3, 203, 0.584997
3, 204, -0.171321
3, 205, -1
3, 206, -0.0967836
3, 207, -1
3, 208, -0.255307
3, 209, 0.150955
3, 210, -1
3, 211, -1
3, 212, 0.41648
3, 213, 0.10656
3, 214, -0.406331
3, 215, -1
3, 216, -1
3, 217, -1
3, 218, -1
3, 219, -1
3, 220, -0.943076
3, 221, -1
3, 222, 0.716336
3, 223, -0.190687
3, 224, -1
3, 225, 0.402985
3, 226, 0.402987
3, 227, -1
3, 228, 0.244337
3, 229, -1
3, 230, -1
3, 231, -0.311597
3, 232, -0.191283
3, 233, 0.670006
3, 234, -0.256899
3, 235, 0.558701
3, 236, 0.704348
3, 237, -1
3, 238, -1
3, 239, -0.263516
3, 240, -0.943075
3, 241, 0.690913
3, 242, -1
3, 243, 0.407119
3, 244, -0.11291
3, 245, 0.0426073
3, 246, -1
3, 247, -0.263512
3, 248, -1
3, 249, 0.636659
3, 250, -0.570766
3, 251, -0.808621
3, 252, 0.642098
3, 253, -1
3, 254, 0.0921926
3, 255, -0.0313455
3, 256, -0.263507
3, 257, 0.0697697
3, 258, 0.311516
3, 259, -0.943074
3, 260, -0.943074
3, 261, 0.736281
3, 262, 0.333989
3, 263, -1
3, 264, 0.0157822
3, 265, 0.520027
3, 266, 0.402961
3, 267, -0.263502
3, 268, -0.0613567
3, 269, 0.174645
3, 270, -0.180881
3, 271, 0.0264154
3, 272, -0.0210904
3, 273, 0.192133
3, 274, 0.173317
3, 275, -1
3, 276, -1
3, 277, -0.943073
3, 278, -0.263496
3, 279, -1
3, 280, -1
3, 281, 0.069791
3, 282, -0.943073
3, 283, 0.414152
3, 284, -0.251553
3, 285, -1
3, 286, -1
3, 287, 0.803244
3, 288, -0.801088
3, 289, 0.36208
3, 290, -1
3, 291, 0.291413
3, 292, -0.166119
3, 293, 0.191233
3, 294, 0.162724
3, 295, 0.576263
3, 296, 0.0698043
3, 297, 0.0698052
3, 298, -1
3, 299, -1
3, 300, -1
3, 301, -1
3, 302, 0.736363
3, 303, 0.403093
3, 304, -0.943072
3, 305, -1
3, 306, 0.0698132
3, 307, -1
3, 308, -0.774912
3, 309, -1
3, 310, -1
3, 311, -0.712601
3, 312, -0.604335
3, 313, -0.432841
3, 314, 0.0336161
3, 315, 0.633553
3, 316, -0.943071
3, 317, -1
3, 318, 0.403114
3, 319, 0.403116
3, 320, 0.327988
3, 321, -1
3, 322, -0.263474
3, 323, -1
3, 324, 0.403123
3, 325, -0.943071
3, 326, 0.256326
3, 327, -1
3, 328, 0.0430175
3, 329, 0.726333
3, 330, -1
3, 331, 0.070264
3, 332, -1
3, 333, -0.0526708
3, 334, -1
3, 335, -0.807891
3, 336, 0.736431
3, 337, 0.403141
3, 338, -1
3, 339, -1
3, 340, -0.263465
3, 341, -0.94307
3, 342, -0.94307
3, 343, 0.736445
3, 344, -0.263463
3, 345, -1
3, 346, 0.118913
3, 347, 0.35272
3, 348, 0.313071
3, 349, 0.0118455
3, 350, -1
3, 351, -1
3, 352, -0.590714
3, 353, -0.477732
3, 354, 0.420221
3, 355, -1
3, 356, 0.736471
3, 357, 0.0698584
3, 358, 0.40317
3, 359, -1
3, 360, -1
3, 361, 0.069862
3, 362, 0.736483
3, 363, 0.0698638
3, 364, -0.943069
3, 365, -1
3, 366, 0.0316896
3, 367, 0.10109
3, 368, 0.28049
3, 369, 0.0345969
3, 370, 0.587379
3, 371, -1
3, 372, 0.00134505
3, 373, -1
3, 374, -1
3, 375, 0.340913
3, 376, 0.736511
3, 377, 0.736513
3, 378, -1
3, 379, 0.069878
3, 380, -1
3, 381, -0.775136
3, 382, 0.403203
3, 383, -0.222221
3, 384, 0.695841
3, 385, 0.420901
3, 386, -0.287232
3, 387, -0.134073
3, 388, -1
3, 389, -1
3, 390, 0.368896
3, 391, 0.0698886
3, 392, 0.101561
3, 393, 0.0710421
3, 394, 0.581642
3, 395, 0.361358
3, 396, -0.943067
3, 397, -1
3, 398, 0.0698948
3, 399, -1
4, 0, -0.340975
4, 1, 0.0695417
4, 2, -1
4, 3, -1
4, 4, 0.402678
4, 5, 0.735768
4, 6, 0.40268
4, 7, 0.289704
4, 8, -0.439238
4, 9, 0.725914
4, 10, -1
4, 11, 0.378739
4, 12, -1
4, 13, 0.635317
4, 14, -1
4, 15, 0.735788
4, 16, 0.069555
4, 17, -0.263627
4, 18, -1
4, 19, 0.0695576
4, 20, -0.263625
4, 21, 0.7358
4, 22, 0.735802
4, 23, 0.466651
4, 24, -0.943086
4, 25, -0.24953
4, 26, -0.263622
4, 27, 0.0695647
4, 28, -0.302172
4, 29, -1
4, 30, 0.367009
4, 31, 0.581745
4, 32, 0.112474
4, 33, -0.427908
4, 34, 0.0810849
4, 35, -1
4, 36, -0.943085
4, 37, -0.263617
4, 38, 0.0695745
4, 39, 0.402726
4, 40, -1
4, 41, 0.402729
4, 42, -0.251872
4, 43, -1
4, 44, -0.850104
4, 45, -0.263613
4, 46, 0.147559
4, 47, 0.185013
4, 48, 0.2799
4, 49, 0.3936
4, 50, -1
4, 51, -1
4, 52, 0.0221098
4, 53, 0.488928
4, 54, 0.266154
4, 55, -1
4, 56, -1
4, 57, -0.943084
4, 58, -0.943084
4, 59, -0.263606
4, 60, -1
4, 61, 0.402757
4, 62, -0.30379
4, 63, 0.735884
4, 64, -1
4, 65, -1
4, 66, 0.499423
4, 67, -1
4, 68, -0.871984
4, 69, -1
4, 70, -1
4, 71, -1
4, 72, 0.709446
4, 73, -1
4, 74, -1
4, 75, -1
4, 76, -1
4, 77, 0.0358371
4, 78, -0.263596
4, 79, 0.757279
4, 80, -0.271441
4, 81, -0.943083
4, 82, 0.769129
4, 83, 0.777076
4, 84, -1
4, 85, -0.864446
4, 86, 0.0903325
4, 87, -0.655149
4, 88, -0.243871
4, 89, 0.931492
4, 90, -0.158415
4, 91, -0.641425
4, 92, -0.935334
4, 93, 0.0751699
4, 94, 0.660003
4, 95, -0.234851
4, 96, 0.0021539
4, 97, -0.0150442
4, 98, 0.702853
4, 99, 0.0704827
4, 100, 0.402811
4, 101, 0.0696304
4, 102, 0.440065
4, 103, -1
4, 104, -0.217901
4, 105, -0.18146
4, 106, -1
4, 107, 0.658402
4, 108, -1
4, 109, -0.0776874
4, 110, 0.403348
4, 111, -1
4, 112, -1
4, 113, -0.562775
4, 114, 0.830594
4, 115, 0.442711
4, 116, 0.0228789
4, 117, -1
4, 118, 0.710528
4, 119, 0.402837
4, 120, 0.402838
4, 121, -0.201393
4, 122, -1
4, 123, -1
4, 124, -1
4, 125, 0.231636
4, 126, 0.267383
4, 127, -0.998437
4, 128, -1
4, 129, -1
4, 130, 0.720624
4, 131, -0.0182311
4, 132, 0.442378
4, 133, -1
4, 134, -1
4, 135, 0.908496
4, 136, 0.787937
4, 137, -0.94308
4, 138, 0.402863
4, 139, 0.402865
4, 140, 0.069665
4, 141, -0.94308
4, 142, -1
4, 143, 0.0696677
4, 144, -0.635996
4, 145, 0.153732
4, 146, -1
4, 147, -1
4, 148, 0.329659
4, 149, -1
4, 150, -0.642801
4, 151, -0.750781
4, 152, -0.882092
4, 153, -0.288323
4, 154, -0.299514
4, 155, -1
4, 156, -1
4, 157, -1
4, 158, -0.263556
4, 159, -1
4, 160, -1
4, 161, -0.943079
4, 162, 0.651361
4, 163, -0.0197527
4, 164, 0.214239
4, 165, 0.630953
4, 166, -0.764184
4, 167, -0.698265
4, 168, 0.429762
4, 169, -0.943079
4, 170, 0.39157
4, 171, -1
4, 172, -0.878296
4, 173, 0.721176
4, 174, 0.409849
4, 175, 0.402915
4, 176, -1
4, 177, -1
4, 178, -0.271354
4, 179, 0.0696996
4, 180, -1
4, 181, 0.73612
4, 182, -1
4, 183, -1
4, 184, -1
4, 185, -0.704664
4, 186, -0.227699
4, 187, -1
4, 188, -0.969203
4, 189, 0.58924
4, 190, 0.559432
4, 191, -1
4, 192, -1
4, 193, 0.78195
4, 194, 0.240888
4, 195, -0.263538
4, 196, -0.926131
4, 197, -1
4, 198, 0.402946
4, 199, -1
4, 200, -1
4, 201, 0.0697191
4, 202, -0.943077
4, 203, -1
4, 204, -0.96835
4, 205, -1
4, 206, 0.325527
4, 207, -0.836882
4, 208, 0.292413
4, 209, -1
4, 210, -1
4, 211, -1
4, 212, 0.405689
4, 213, -1
4, 214, -1
4, 215, 0.719637
4, 216, -0.826184
4, 217, -0.263527
4, 218, 0.736193
4, 219, -0.943076
4, 220, -0.943076
4, 221, 0.736199
4, 222, -0.263525
4, 223, -1
4, 224, -0.0853794
4, 225, 0.687782
4, 226, -0.0462019
4, 227, 0.166182
4, 228, 0.397818
4, 229, -1
4, 230, 0.0886054
4, 231, 0.207338
4, 232, 0.649678
4, 233, -1
4, 234, 0.580201
4, 235, -1
4, 236, 0.736229
4, 237, 0.814147
4, 238, -0.263517
4, 239, 0.0697528
4, 240, 0.736237
4, 241, -0.943075
4, 242, -0.943075
4, 243, 0.590547
4, 244, -1
4, 245, -0.943075
4, 246, 0.424879
4, 247, -1
4, 248, 0.439084
4, 249, -0.8454
4, 250, -1
4, 251, 0.346835
4, 252, -1
4, 253, -0.28183
4, 254, 0.795716
4, 255, -1
4, 256, -1
4, 257, -0.943074
4, 258, 0.736273
4, 259, 0.736275
4, 260, -0.943074
4, 261, -0.943074
4, 262, 0.0697732
4, 263, -1
4, 264, -1
4, 265, -0.207535
4, 266, -1
4, 267, 0.767974
4, 268, -1
4, 269, -1
4, 270, -1
4, 271, 0.219554
4, 272, 0.447174
4, 273, 0.0576387
4, 274, -1
4, 275, -0.263498
4, 276, 0.403055
4, 277, 0.459994
4, 278, -0.263497
4, 279, -1
4, 280, -1
4, 281, 0.003793
4, 282, -1
4, 283, 0.659565
4, 284, -1
4, 285, -0.134702
4, 286, -1
4, 287, -1
4, 288, 0.969489
4, 289, 0.66877
4, 290, 0.495524
4, 291, -1
4, 292, 0.51627
4, 293, -1
4, 294, -1
4, 295, -1
4, 296, -0.221535
4, 297, 0.736351
4, 298, 0.0698052
4, 299, -0.943072
4, 300, 0.736357
4, 301, 0.467841
4, 302, 0.403091
4, 303, -1
4, 304, -0.0282306
4, 305, -1
4, 306, 0.0698123
4, 307, -1
4, 308, 0.0269627
4, 309, 0.853891
4, 310, -1
4, 311, 0.462469
4, 312, -0.109105
4, 313, -1
4, 314, 0.0698194
4, 315, -1
4, 316, 0.0698212
4, 317, 0.403111
4, 318, -1
4, 319, -1
4, 320, -0.943071
4, 321, 0.403117
4, 322, -1
4, 323, -1
4, 324, 0.308279
4, 325, -1
4, 326, -1
4, 327, -1
4, 328, 0.545404
4, 329, -0.195941
4, 330, -1
4, 331, -0.583419
4, 332, 0.130279
4, 333, 0.56964
4, 334, -0.109719
4, 335, 0.736427
4, 336, 0.0546135
4, 337, -1
4, 338, 0.538074
4, 339, -1
4, 340, 0.0698425
4, 341, 0.403145
4, 342, 0.736441
4, 343, -1
4, 344, -1
4, 345, -1
4, 346, 0.773115
4, 347, -1
4, 348, 0.639125
4, 349, -1
4, 350, -0.257501
4, 351, 0.269249
4, 352, -0.202034
4, 353, 0.360158
4, 354, 0.403163
4, 355, -0.926601
4, 356, 0.340232
4, 357, 0.403167
4, 358, -1
4, 359, -0.943069
4, 360, -1
4, 361, -1
4, 362, 0.518358
4, 363, 0.403175
4, 364, -0.263454
4, 365, -1
4, 366, -0.982183
4, 367, 0.781894
4, 368, 0.140089
4, 369, 0.483191
4, 370, -1
4, 371, -1
4, 372, 0.108799
4, 373, 0.330313
4, 374, -1
4, 375, -0.753805
4, 376, 0.425533
4, 377, -1
4, 378, 0.0698762
4, 379, -0.263446
4, 380, -1
4, 381, 0.736519
4, 382, -1
4, 383, -1
4, 384, 0.0410329
4, 385, -1
4, 386, -1
4, 387, -1
4, 388, -0.252178
4, 389, -1
4, 390, -1
4, 391, -0.0212111
4, 392, 0.860505
4, 393, 0.381878
4, 394, -1
4, 395, -0.943067
4, 396, -0.263438
4, 397, -0.943067
4, 398, 0.633316
4, 399, -1
5, 0, 0.722818
5, 1, 0.339611
5, 2, -0.776214
5, 3, -0.942313
5, 4, -0.311269
5, 5, -0.263633
5, 6, -0.0270853
5, 7, -1
5, 8, -1
5, 9, 0.0664621
5, 10, -1
5, 11, 0.22144
5, 12, 0.763195
5, 13, -0.734373
5, 14, -1
5, 15, -1
5, 16, -1
5, 17, -0.943086
5, 18, -1
5, 19, 0.402697
5, 20, -1
5, 21, -1
5, 22, -1
5, 23, -0.882846
5, 24, -0.662195
5, 25, -0.637609
5, 26, -1
5, 27, 0.835534
5, 28, -1
5, 29, -1
5, 30, 0.398679
5, 31, -0.217165
5, 32, 0.648367
5, 33, 0.569786
5, 34, 0.194799
5, 35, -1
5, 36, -1
5, 37, -1
5, 38, 0.735832
5, 39, -1
5, 40, 0.386669
5, 41, -1
5, 42, -1
5, 43, -0.943085
5, 44, -1
5, 45, 0.312419
5, 46, -0.486104
5, 47, 0.0103903
5, 48, -1
5, 49, -1
5, 50, -1
5, 51, -1
5, 52, -1
5, 53, -1
5, 54, -1
5, 55, -0.241372
5, 56, -0.263608
5, 57, -1
5, 58, -0.943084
5, 59, 0.402752
5, 60, -1
5, 61, 0.339178
5, 62, 0.756602
5, 63, 0.168154
5, 64, 0.401658
5, 65, -0.339898
5, 66, 0.279852
5, 67, 0.0640838
5, 68, -1
5, 69, 0.0540662
5, 70, 0.999141
5, 71, 0.889085
5, 72, -0.20438
5, 73, -1
5, 74, -1
5, 75, 0.773147
5, 76, -1
5, 77, -0.247748
5, 78, -1
5, 79, 0.460723
5, 80, 0.517189
5, 81, -1
5, 82, 0.474538
5, 83, -1
5, 84, -1
5, 85, 0.356529
5, 86, -0.604612
5, 87, -0.315132
5, 88, 0.491722
5, 89, -0.949495
5, 90, -1
5, 91, -0.0163279
5, 92, -1
5, 93, 0.272104
5, 94, 0.379198
5, 95, 0.327926
5, 96, 0.588716
5, 97, 0.670495
5, 98, -1
5, 99, 0.328429
5, 100, -0.943082
5, 101, -1
5, 102, -0.943082
5, 103, 0.144266
5, 104, -0.438302
5, 105, -1
5, 106, -1
5, 107, -1
5, 108, -1
5, 109, -0.208207
5, 110, 0.0746384
5, 111, -0.00659146
5, 112, -0.0606076
5, 113, -0.0280568
5, 114, 0.266819
5, 115, 0.940938
5, 116, -0.0345511
5, 117, 0.25314
5, 118, -1
5, 119, -0.113913
5, 120, -1
5, 121, 0.889393
5, 122, 0.742946
5, 123, -1
5, 124, 0.389387
5, 125, -0.987902
5, 126, 0.0288039
5, 127, -0.150097
5, 128, 0.906067
5, 129, -1
5, 130, 0.39137
5, 131, -1
5, 132, -0.243852
5, 133, -1
5, 134, -1
5, 135, 0.0696597
5, 136, 0.402859
5, 137, -0.94308
5, 138, -0.252567
5, 139, -0.263566
5, 140, 0.0696641
5, 141, -1
5, 142, 0.799496
5, 143, -1
5, 144, -0.824866
5, 145, -1
5, 146, 0.685287
5, 147, -1
5, 148, 0.582903
5, 149, 0.0555395
5, 150, -1
5, 151, -1
5, 152, -0.0597123
5, 153, -1
5, 154, -1
5, 155, 0.716779
5, 156, -1
5, 157, -0.943079
5, 158, 0.62695
5, 159, -1
5, 160, 0.121105
5, 161, 0.402894
5, 162, -1
5, 163, 0.274934
5, 164, 0.640496
5, 165, -1
5, 166, -1
5, 167, -0.240005
5, 168, -1
5, 169, 0.104586
5, 170, -0.36302
5, 171, 0.108975
5, 172, 0.472049
5, 173, -0.804671
5, 174, 0.8041
5, 175, -1
5, 176, -0.263548
5, 177, -0.462427
5, 178, 0.736112
5, 179, -0.943078
5, 180, -1
5, 181, -1
5, 182, -1
5, 183, -0.19841
5, 184, -0.819322
5, 185, 0.592309
5, 186, -0.59732
5, 187, -0.227285
5, 188, -1
5, 189, -0.708956
5, 190, -0.26582
5, 191, -0.529296
5, 192, 0.284856
5, 193, -0.704343
5, 194, -1
5, 195, 0.0101189
5, 196, -0.263538
5, 197, -1
5, 198, 0.0755001
5, 199, 0.0697164
5, 200, 0.402948
5, 201, -1
5, 202, 0.73616
5, 203, -0.263535
5, 204, -1
5, 205, 0.435352
5, 206, -1
5, 207, -0.202844
5, 208, 0.556344
5, 209, -1
5, 210, 0.469917
5, 211, 0.441472
5, 212, -0.943076
5, 213, 0.0697289
5, 214, -1
5, 215, -0.977114
5, 216, -0.38846
5, 217, -0.943076
5, 218, -0.217228
5, 219, -0.943076
5, 220, -0.284675
5, 221, 0.736197
5, 222, 0.389855
5, 223, -0.933224
5, 224, -1
5, 225, 0.0547741
5, 226, 0.0472003
5, 227, -1
5, 228, 0.277215
5, 229, -1
5, 230, 0.530391
5, 231, -0.327284
5, 232, -1
5, 233, 0.29633
5, 234, 0.0764956
5, 235, -1
5, 236, -0.829396
5, 237, 0.0697502
5, 238, -0.31327
5, 239, 0.75823
5, 240, 0.403003
5, 241, -1
5, 242, 0.086708
5, 243, 0.403007
5, 244, -0.227103
5, 245, 0.0888406
5, 246, -1
5, 247, -0.00151439
5, 248, 0.732931
5, 249, -0.988767
5, 250, 0.547152
5, 251, -1
5, 252, -1
5, 253, -1
5, 254, -1
5, 255, 0.297097
5, 256, 0.61281
5, 257, 0.361569
5, 258, 0.427953
5, 259, -0.0321558
5, 260, -0.314094
5, 261, -0.980574
5, 262, 0.0450843
5, 263, -0.379509
5, 264, 0.736283
5, 265, 0.795934
5, 266, -0.00420257
5, 267, 0.680735
5, 268, 0.0454356
5, 269, -1
5, 270, 0.730053
5, 271, -0.111232
5, 272, -1
5, 273, -0.223579
5, 274, 0.950405
5, 275, -1
5, 276, -0.0489105
5, 277, 0.46867
5, 278, 0.736311
5, 279, -0.532407
5, 280, -1
5, 281, 0.0697892
5, 282, -0.263495
5, 283, -1
5, 284, 0.0912061
5, 285, 0.171787
5, 286, -1
5, 287, -1
5, 288, -1
5, 289, 0.00542896
5, 290, 0.0676862
5, 291, -0.674243
5, 292, -0.0580526
5, 293, -1
5, 294, -0.164015
5, 295, -1
5, 296, 0.481926
5, 297, -1
5, 298, 0.665936
5, 299, -0.898791
5, 300, -1
5, 301, -0.263486
5, 302, -1
5, 303, -1
5, 304, -0.861124
5, 305, 0.806167
5, 306, -1
5, 307, -1
5, 308, 0.0698132
5, 309, -1
5, 310, 0.201762
5, 311, 0.00385772
5, 312, -1
5, 313, 0.999762
5, 314, -0.3031
5, 315, 0.224186
5, 316, -1
5, 317, -0.11586
5, 318, -1
5, 319, -1
5, 320, 0.590949
5, 321, 0.294849
5, 322, -1
5, 323, -1
5, 324, 0.180131
5, 325, 0.650207
5, 326, -1
5, 327, -0.984705
5, 328, -1
5, 329, 0.705095
5, 330, -1
5, 331, -1
5, 332, -1
5, 333, -0.958358
5, 334, 0.403134
5, 335, -0.136494
5, 336, -1
5, 337, -0.0738564
5, 338, -0.60376
5, 339, 0.0933564
5, 340, -0.987963
5, 341, 0.902475
5, 342, -1
5, 343, 0.151448
5, 344, -0.94307
5, 345, -0.444155
5, 346, -0.183147
5, 347, -0.94307
5, 348, 0.239756
5, 349, -0.136599
5, 350, 0.468811
5, 351, -1
5, 352, -1
5, 353, -0.15701
5, 354, -1
5, 355, 0.0400407
5, 356, -1
5, 357, -1
5, 358, 0.697339
5, 359, 0.354515
5, 360, 0.351297
5, 361, -1
5, 362, -0.301531
5, 363, 0.403174
5, 364, -0.263454
5, 365, -1
5, 366, 0.484673
5, 367, -0.263453
5, 368, 0.0498961
5, 369, -1
5, 370, -1
5, 371, 0.888126
5, 372, 0.507709
5, 373, 0.9597
5, 374, -0.258162
5, 375, -1
5, 376, 0.502653
5, 377, 0.0808758
5, 378, -1
5, 379, -0.185316
5, 380, 0.915531
5, 381, 0.193757
5, 382, 0.296215
5, 383, 0.856667
5, 384, 0.346017
5, 385, -0.238126
5, 386, -0.730086
5, 387, 0.257302
5, 388, -0.914776
5, 389, -1
5, 390, -1
5, 391, 0.999962
5, 392, 0.86384
5, 393, 0.987667
5, 394, 0.409357
5, 395, -0.998283
5, 396, 0.675494
5, 397, 0.659863
5, 398, 0.740875
5, 399, -1
6, 0, 0.00367375
6, 1, -1
6, 2, -0.245005
6, 3, -1
6, 4, -0.864483
6, 5, -0.226362
6, 6, -1
6, 7, 0.861934
6, 8, 0.433987
6, 9, -0.389451
6, 10, -1
6, 11, 0.712951
6, 12, 0.891388
6, 13, 0.463586
6, 14, -1
6, 15, -1
6, 16, -1
6, 17, -0.695589
6, 18, 0.636959
6, 19, -1
6, 20, -1
6, 21, -0.945302
6, 22, -1
6, 23, 0.702557
6, 24, 0.644798
6, 25, 0.420245
6, 26, -0.647115
6, 27, 0.0636198
6, 28, 0.642949
6, 29, -1
6, 30, 0.659057
6, 31, -0.357094
6, 32, -0.922258
6, 33, 0.212368
6, 34, -1
6, 35, -0.356193
6, 36, 0.398135
6, 37, 0.840622
6, 38, -0.487
6, 39, -0.292335
6, 40, -1
6, 41, -0.741529
6, 42, -0.268455
6, 43, -0.064535
6, 44, 0.833047
6, 45, -1
6, 46, -0.0579539
6, 47, -0.046021
6, 48, -0.330896
6, 49, 0.223328
6, 50, 0.581573
6, 51, 0.196829
6, 52, -1
6, 53, -0.589454
6, 54, -0.0573437
6, 55, 0.350254
6, 56, -1
6, 57, 0.98258
6, 58, -0.243453
6, 59, 0.548263
6, 60, -1
6, 61, -1
6, 62, 0.380164
6, 63, -1
6, 64, 0.340738
6, 65, 0.439368
6, 66, -0.28083
6, 67, 0.181442
6, 68, 0.535366
6, 69, -0.310964
6, 70, 0.0110373
6, 71, 0.546277
6, 72, 0.521782
6, 73, -0.838303
6, 74, -1
6, 75, -0.775633
6, 76, 0.616809
6, 77, -1
6, 78, 0.704864
6, 79, -0.228723
6, 80, -1
6, 81, -0.809469
6, 82, 0.879381
6, 83, -0.78028
6, 84, -0.772895
6, 85, -0.213777
6, 86, 0.179222
6, 87, 0.71918
6, 88, 0.769607
6, 89, -1
6, 90, 0.47636
6, 91, 0.35662
6, 92, 0.0074808
6, 93, -1
6, 94, 0.0654133
6, 95, 0.645525
6, 96, -1
6, 97, -1
6, 98, 0.116799
6, 99, 0.902533
6, 100, 0.801683
6, 101, -0.207421
6, 102, -0.534012
6, 103, -1
6, 104, -0.144237
6, 105, -0.0662909
6, 106, -0.895125
6, 107, -0.817269
6, 108, 0.740049
6, 109, 0.48592
6, 110, -0.246496
6, 111, -1
6, 112, -1
6, 113, -1
6, 114, -0.206016
6, 115, 0.729128
6, 116, 0.71731
6, 117, 0.773553
6, 118, -0.450348
6, 119, 0.516247
6, 120, -1
6, 121, 0.802012
6, 122, -0.0362607
6, 123, 0.340315
6, 124, 0.151231
6, 125, -1
6, 126, 0.146812
6, 127, 0.293423
6, 128, 0.786055
6, 129, -1
6, 130, 0.254012
6, 131, 0.717884
6, 132, -0.472591
6, 133, 0.23123
6, 134, -1
6, 135, -0.766428
6, 136, -0.263568
6, 137, -0.737553
6, 138, 0.325002
6, 139, 0.486601
6, 140, -0.152542
6, 141, -0.914979
6, 142, 0.489874
6, 143, 0.133952
6, 144, -0.122858
6, 145, -1
6, 146, -0.824769
6, 147, -1
6, 148, -1
6, 149, 0.984174
6, 150, -0.563765
6, 151, -0.47653
6, 152, -0.872119
6, 153, -0.217325
6, 154, -1
6, 155, -0.997854
6, 156, -0.257199
6, 157, -1
6, 158, -0.816258
6, 159, -1
6, 160, -1
6, 161, -0.081628
6, 162, 0.397198
6, 163, -0.343213
6, 164, -0.621766
6, 165, -0.0721738
6, 166, 0.642746
6, 167, -0.105919
6, 168, 0.369146
6, 169, -0.166145
6, 170, -0.0664643
6, 171, -1
6, 172, -1
6, 173, -0.746509
6, 174, -0.0847157
6, 175, -0.146404
6, 176, -0.0286153
6, 177, 0.437168
6, 178, 0.0344216
6, 179, -0.535751
6, 180, -1
6, 181, -1
6, 182, 0.394308
6, 183, 0.107245
6, 184, -1
6, 185, 0.539872
6, 186, -1
6, 187, -0.984941
6, 188, -0.560975
6, 189, -1
6, 190, -0.520025
6, 191, -1
6, 192, -1
6, 193, 0.845068
6, 194, -0.371626
6, 195, 0.227036
6, 196, 0.123915
6, 197, -1
6, 198, 0.673778
6, 199, -1
6, 200, -0.142588
6, 201, 0.116939
6, 202, -0.943093
6, 203, 0.22771
6, 204, -0.186145
6, 205, -1
6, 206, -0.907837
6, 207, -1
6, 208, -0.381276
6, 209, 0.457502
6, 210, -0.23827
6, 211, 0.615897
6, 212, -0.778732
6, 213, -0.10893
6, 214, -0.416267
6, 215, -0.297368
6, 216, -1
6, 217, -0.359331
6, 218, 0.431397
6, 219, -1
6, 220, 0.0965384
6, 221, -1
6, 222, 0.495754
6, 223, -1
6, 224, 0.494253
6, 225, -0.072435
6, 226, -0.607452
6, 227, -0.148001
6, 228, 0.199569
6, 229, -0.307903
6, 230, 0.340416
6, 231, -1
6, 232, 0.773188
6, 233, -1
6, 234, -1
6, 235, 0.23396
6, 236, 0.413751
6, 237, -0.127659
6, 238, 0.841475
6, 239, -1
6, 240, 0.523237
6, 241, -1
6, 242, 0.692026
6, 243, -1
6, 244, -0.0924297
6, 245, -1
6, 246, -0.776001
6, 247, 0.234161
6, 248, -1
6, 249, -0.136776
6, 250, -0.786224
6, 251, 0.146038
6, 252, -1
6, 253, 0.681021
6, 254, 0.236993
6, 255, 0.125651
6, 256, -0.007516
6, 257, -0.183346
6, 258, -0.126348
6, 259, -1
6, 260, -1
6, 261, -1
6, 262, -0.783346
6, 263, -1
6, 264, 0.508828
6, 265, -0.419212
6, 266, 0.00573453
6, 267, -0.95391
6, 268, -0.283653
6, 269, -0.13879
6, 270, -1
6, 271, 0.714609
6, 272, -0.228485
6, 273, -1
6, 274, 0.737776
6, 275, -1
6, 276, -1
6, 277, -1
6, 278, -0.868881
6, 279, -0.950772
6, 280, -1
6, 281, -1
6, 282, -1
6, 283, -1
6, 284, 0.374254
6, 285, -0.492664
6, 286, -0.968154
6, 287, -0.12409
6, 288, 0.0507038
6, 289, -0.0330339
6, 290, -0.103653
6, 291, -0.249212
6, 292, -0.563224
6, 293, 0.0857685
6, 294, 0.17135
6, 295, -1
6, 296, 0.999716
6, 297, 0.319199
6, 298, -1
6, 299, -1
6, 300, 0.874759
6, 301, -1
6, 302, -1
6, 303, -0.142797
6, 304, 0.999737
6, 305, 0.481341
6, 306, -1
6, 307, -1
6, 308, 0.337881
6, 309, 0.309333
6, 310, 0.258924
6, 311, 0.782922
6, 312, -0.928106
6, 313, 0.910274
6, 314, -1
6, 315, -1
6, 316, 0.57044
6, 317, 0.420021
6, 318, 0.467445
6, 319, 0.638125
6, 320, -1
6, 321, -1
6, 322, -0.940309
6, 323, -1
6, 324, 0.62675
6, 325, -0.0106044
6, 326, -0.720732
6, 327, 0.0261172
6, 328, -0.183228
6, 329, -1
6, 330, 0.250308
6, 331, -1
6, 332, 0.497208
6, 333, -0.754931
6, 334, -1
6, 335, -1
6, 336, 0.527638
6, 337, -1
6, 338, 0.816155
6, 339, 0.453376
6, 340, -0.146671
6, 341, -0.172794
6, 342, -0.580371
6, 343, -1
6, 344, -1
6, 345, -1
6, 346, -0.699119
6, 347, 0.235766
6, 348, -0.750357
6, 349, -1
6, 350, 0.273762
6, 351, -1
6, 352, -1
6, 353, 0.562198
6, 354, -1
6, 355, 0.00162362
6, 356, -0.0543315
6, 357, -1
6, 358, -1
6, 359, -0.383566
6, 360, -1
6, 361, 0.73757
6, 362, 0.27107
6, 363, -0.762494
6, 364, -1
6, 365, -1
6, 366, -1
6, 367, 0.0698646
6, 368, -1
6, 369, -0.433148
6, 370, -1
6, 371, -1
6, 372, -0.719022
6, 373, 0.928155
6, 374, -0.0159094
6, 375, -0.796735
6, 376, -1
6, 377, 0.711707
6, 378, 0.291415
6, 379, -1
6, 380, -1
6, 381, -0.500018
6, 382, -1
6, 383, -1
6, 384, -1
6, 385, -0.587847
6, 386, -1
6, 387, -0.21451
6, 388, -0.918018
6, 389, -1
6, 390, -0.441542
6, 391, -1
6, 392, -0.777869
6, 393, 0.40456
6, 394, 0.619419
6, 395, 0.0184603
6, 396, 0.673135
6, 397, -0.0196537
6, 398, -1
6, 399, -0.692023
7, 0, -0.230493
7, 1, 0.682933
7, 2, -1
7, 3, 0.456821
7, 4, -0.426863
7, 5, 0.243375
7, 6, 0.0965153
7, 7, 0.0695443
7, 8, -1
7, 9, 0.0415692
7, 10, 0.196296
7, 11, 0.271565
7, 12, 0.781257
7, 13, 0.490436
7, 14, 0.129118
7, 15, 0.357266
7, 16, 0.48447
7, 17, 0.124249
7, 18, -1
7, 19, 0.91395
7, 20, 0.0808833
7, 21, -1
7, 22, -1
7, 23, -1
7, 24, 0.170606
7, 25, -0.501998
7, 26, -1
7, 27, 0.691409
7, 28, -1
7, 29, -1
7, 30, -0.557335
7, 31, -0.592581
7, 32, 0.952647
7, 33, -1
7, 34, -1
7, 35, 0.987459
7, 36, -0.255087
7, 37, -0.304294
7, 38, -0.192133
7, 39, -1
7, 40, -1
7, 41, -1
7, 42, 0.860893
7, 43, 0.2678
7, 44, -0.654572
7, 45, 0.134985
7, 46, -0.752515
7, 47, 0.448195
7, 48, -1
7, 49, -1
7, 50, 0.47151
7, 51, -0.727686
7, 52, -1
7, 53, 0.691943
7, 54, 0.0412891
7, 55, -0.230013
7, 56, -1
7, 57, 0.0361171
7, 58, -1
7, 59, 0.637655
7, 60, -0.00264658
7, 61, 0.146911
7, 62, -0.690783
7, 63, -1
7, 64, -0.249998
7, 65, -1
7, 66, -1
7, 67, 0.0177568
7, 68, -0.183389
7, 69, -1
7, 70, 0.341973
7, 71, -1
7, 72, 0.748111
7, 73, -0.976672
7, 74, -0.449563
7, 75, -0.714767
7, 76, 0.439358
7, 77, 0.341362
7, 78, -1
7, 79, 0.268607
7, 80, 0.745731
7, 81, 0.0406464
7, 82, -0.497423
7, 83, 0.615143
7, 84, -1
7, 85, 0.515703
7, 86, -1
7, 87, -1
7, 88, -0.134231
7, 89, -1
7, 90, -1
7, 91, 0.252296
7, 92, 0.128906
7, 93, -1
7, 94, -1
7, 95, 0.423555
7, 96, -1
7, 97, 0.735907
7, 98, -1
7, 99, -1
7, 100, -1
7, 101, 0.777033
7, 102, -0.411341
7, 103, -1
7, 104, -0.999892
7, 105, -1
7, 106, -1
7, 107, -1
7, 108, 0.983811
7, 109, -1
7, 110, 0.302508
7, 111, -0.601879
7, 112, -0.65991
7, 113, -1
7, 114, -0.728398
7, 115, 0.53065
7, 116, 0.682639
7, 117, -0.274091
7, 118, -1
7, 119, -1
7, 120, -0.656992
7, 121, -1
7, 122, -1
7, 123, 0.0851166
7, 124, -1
7, 125, -1
7, 126, -0.871063
7, 127, -1
7, 128, 0.16591
7, 129, -1
7, 130, -0.935729
7, 131, 0.182453
7, 132, 0.847606
7, 133, 0.294382
7, 134, -0.727337
7, 135, -1
7, 136, 0.305463
7, 137, -0.246869
7, 138, -1
7, 139, -0.789557
7, 140, -0.230888
7, 141, 0.442493
7, 142, 0.74099
7, 143, 0.396441
7, 144, 0.210068
7, 145, 0.812253
7, 146, 0.29138
7, 147, -0.0913514
7, 148, -1
7, 149, -0.287762
7, 150, 0.503819
7, 151, -1
7, 152, -0.308353
7, 153, 0.722611
7, 154, 0.252189
7, 155, 0.702337
7, 156, 0.329587
7, 157, 0.644979
7, 158, 0.682301
7, 159, -0.261348
7, 160, 0.152744
7, 161, -0.986573
7, 162, -1
7, 163, 0.380993
7, 164, 0.26604
7, 165, -0.100167
7, 166, 0.326816
7, 167, -0.97565
7, 168, -0.187795
7, 169, -0.0158457
7, 170, -0.960749
7, 171, -0.467557
7, 172, -1
7, 173, -0.357112
7, 174, 0.44113
7, 175, 0.592609
7, 176, -1
7, 177, 0.619703
7, 178, -0.965216
7, 179, -1
7, 180, 0.194353
7, 181, 0.8318
7, 182, -1
7, 183, 0.719416
7, 184, 0.748893
7, 185, 0.622955
7, 186, -1
7, 187, -1
7, 188, -0.449774
7, 189, 0.55483
7, 190, 0.429737
7, 191, -0.167129
7, 192, 0.79101
7, 193, 0.607246
7, 194, 0.873403
7, 195, -1
7, 196, -1
7, 197, 0.162016
7, 198, -0.393485
7, 199, -0.427618
7, 200, -1
7, 201, -1
7, 202, -1
7, 203, -1
7, 204, -1
7, 205, -0.193246
7, 206, -1
7, 207, -1
7, 208, -1
7, 209, -0.828455
7, 210, -1
7, 211, -0.324815
7, 212, -1
7, 213, -0.525213
7, 214, -1
7, 215, 0.428575
7, 216, -1
7, 217, -0.970084
7, 218, -1
7, 219, 0.583566
7, 220, -0.298626
7, 221, 0.807276
7, 222, -1
7, 223, -0.402209
7, 224, 0.134259
7, 225, 0.144315
7, 226, 0.6605
7, 227, -0.918342
7, 228, -1
7, 229, 0.433171
7, 230, 0.27912
7, 231, -1
7, 232, 0.00447668
7, 233, 0.342158
7, 234, -1
7, 235, -1
7, 236, 0.353083
7, 237, -1
7, 238, 0.740478
7, 239, -1
7, 240, -0.648197
7, 241, -1
7, 242, 0.0197945
7, 243, -1
7, 244, -0.259235
7, 245, 0.138208
7, 246, -1
7, 247, -0.239829
7, 248, 0.203636
7, 249, -1
7, 250, -1
7, 251, -0.128098
7, 252, 0.705617
7, 253, 0.3201
7, 254, -1
7, 255, -1
7, 256, 0.0971483
7, 257, -0.441953
7, 258, -0.330534
7, 259, 0.155843
7, 260, -0.955655
7, 261, -1
7, 262, -0.189703
7, 263, 0.754796
7, 264, 0.366588
7, 265, 0.177005
7, 266, -0.309737
7, 267, -0.144309
7, 268, 0.196673
7, 269, 0.258288
7, 270, -0.752641
7, 271, 0.008303
7, 272, -0.352044
7, 273, 0.468653
7, 274, -0.966835
7, 275, 0.99966
7, 276, -1
7, 277, -1
7, 278, -1
7, 279, 0.758692
7, 280, -1
7, 281, -0.973365
7, 282, -1
7, 283, 0.385815
7, 284, 0.855997
7, 285, -1
7, 286, -0.0586895
7, 287, -0.284049
7, 288, -0.829183
7, 289, -1
7, 290, 0.201554
7, 291, 0.060888
7, 292, -0.106075
7, 293, -1
7, 294, -0.721123
7, 295, -0.406121
7, 296, 0.190769
7, 297, -1
7, 298, 0.771126
7, 299, -1
7, 300, -0.263487
7, 301, -1
7, 302, -1
7, 303, -1
7, 304, 0.283302
7, 305, -1
7, 306, -0.220322
7, 307, 0.73108
7, 308, -1
7, 309, -0.0640895
7, 310, 0.218243
7, 311, 0.670704
7, 312, 0.367122
7, 313, -1
7, 314, 0.182351
7, 315, 0.77702
7, 316, 0.494976
7, 317, -1
7, 318, -1
7, 319, -1
7, 320, 0.648442
7, 321, 0.0639021
7, 322, -0.169184
7, 323, 0.575668
7, 324, 0.176893
7, 325, 0.438433
7, 326, 0.729048
7, 327, -1
7, 328, 0.118964
7, 329, -0.542568
7, 330, -1
7, 331, -1
7, 332, -0.935803
7, 333, -1
7, 334, 0.198927
7, 335, -1
7, 336, -1
7, 337, -0.61864
7, 338, 0.583318
7, 339, 0.62412
7, 340, 0.560914
7, 341, 0.00777211
7, 342, 0.335028
7, 343, -0.361505
7, 344, -1
7, 345, -0.916918
7, 346, -1
7, 347, -1
7, 348, -1
7, 349, 0.286125
7, 350, -1
7, 351, 0.136981
7, 352, -0.626892
7, 353, -1
7, 354, 0.0244576
7, 355, 0.861218
7, 356, 0.670373
7, 357, -1
7, 358, -1
7, 359, -0.288319
7, 360, 0.0698575
7, 361, -1
7, 362, -1
7, 363, 0.736477
7, 364, -1
7, 365, 0.736481
7, 366, 0.737596
7, 367, -1
7, 368, -1
7, 369, 0.370421
7, 370, -1
7, 371, -0.0342357
7, 372, -1
7, 373, 0.245153
7, 374, -0.871237
7, 375, -1
7, 376, 0.214509
7, 377, -1
7, 378, 0.78454
7, 379, 0.471501
7, 380, 0.691297
7, 381, 0.00959784
7, 382, -1
7, 383, -0.835026
7, 384, 0.703951
7, 385, 0.645708
7, 386, -1
7, 387, -0.14619
7, 388, -1
7, 389, 0.492612
7, 390, -1
7, 391, -1
7, 392, -1
7, 393, 0.585921
7, 394, 0.556483
7, 395, -0.809441
7, 396, 0.275892
7, 397, 0.833348
7, 398, -1
7, 399, 0.296764
8, 0, -0.240748
8, 1, -1
8, 2, 0.148935
8, 3, -0.906207
8, 4, 0.0695408
8, 5, -0.144803
8, 6, -0.263375
8, 7, -0.782032
8, 8, -0.148656
8, 9, -1
8, 10, 0.58996
8, 11, -0.021364
8, 12, -1
8, 13, -1
8, 14, 0.0876007
8, 15, 0.178278
8, 16, 0.228444
8, 17, -0.0609563
8, 18, -1
8, 19, -0.413159
8, 20, -0.263627
8, 21, 0.385786
8, 22, 0.77801
8, 23, -0.292089
8, 24, 0.733461
8, 25, 0.402701
8, 26, -0.300037
8, 27, -0.943086
8, 28, -0.86956
8, 29, -0.982191
8, 30, -1
8, 31, -0.263622
8, 32, -0.187835
8, 33, 0.116177
8, 34, 0.331059
8, 35, 0.311212
8, 36, -1
8, 37, 0.735824
8, 38, -1
8, 39, 0.735828
8, 40, -0.941813
8, 41, 0.0870696
8, 42, -1
8, 43, -1
8, 44, 0.0695763
8, 45, 0.402729
8, 46, -0.943085
8, 47, -1
8, 48, -1
8, 49, -1
8, 50, 0.557977
8, 51, -0.943085
8, 52, 0.6029
8, 53, -0.829335
8, 54, 0.0933527
8, 55, -0.943085
8, 56, 0.735862
8, 57, -1
8, 58, 0.0695887
8, 59, 0.735868
8, 60, -1
8, 61, 0.0270822
8, 62, -0.217094
8, 63, -1
8, 64, -0.835703
8, 65, 0.995395
8, 66, -0.568672
8, 67, -1
8, 68, 0.866625
8, 69, 0.581843
8, 70, 0.261672
8, 71, -1
8, 72, -0.305648
8, 73, 0.132116
8, 74, 0.683194
8, 75, 0.598167
8, 76, -1
8, 77, -1
8, 78, -1
8, 79, -1
8, 80, -1
8, 81, 0.402779
8, 82, 0.186884
8, 83, -1
8, 84, 0.735918
8, 85, -1
8, 86, -0.943083
8, 87, 0.174646
8, 88, -1
8, 89, 0.875611
8, 90, -0.332913
8, 91, -1
8, 92, -1
8, 93, -0.0996289
8, 94, -1
8, 95, -0.922459
8, 96, -0.0676159
8, 97, -0.943082
8, 98, -0.263588
8, 99, -0.448299
8, 100, -0.943082
8, 101, -1
8, 102, -0.943082
8, 103, 0.0696286
8, 104, -0.251555
8, 105, -1
8, 106, 0.0175774
8, 107, 0.287681
8, 108, -1
8, 109, -1
8, 110, -1
8, 111, -1
8, 112, 0.633945
8, 113, -0.0760859
8, 114, -0.943082
8, 115, -0.26358
8, 116, -0.943082
8, 117, -0.987673
8, 118, 0.304793
8, 119, -1
8, 120, -1
8, 121, -1
8, 122, -1
8, 123, -0.559443
8, 124, 0.160222
8, 125, -1
8, 126, -0.19603
8, 127, -0.456251
8, 128, -0.0172446
8, 129, 0.450854
8, 130, -1
8, 131, -0.931728
8, 132, -0.18363
8, 133, 0.00324844
8, 134, 0.380569
8, 135, -1
8, 136, 0.642271
8, 137, -1
8, 138, 0.579482
8, 139, 0.491598
8, 140, -0.954487
8, 141, 0.212501
8, 142, -1
8, 143, 0.885273
8, 144, 0.902451
8, 145, -1
8, 146, -1
8, 147, -1
8, 148, -1
8, 149, 0.915693
8, 150, -0.710763
8, 151, -0.91222
8, 152, 0.87568
8, 153, -1
8, 154, -1
8, 155, -1
8, 156, -1
8, 157, -0.943079
8, 158, -1
8, 159, -0.0572311
8, 160, 0.999363
8, 161, -0.0844285
8, 162, -1
8, 163, -0.795446
8, 164, -1
8, 165, 0.919372
8, 166, -0.283872
8, 167, 0.54569
8, 168, 0.218234
8, 169, -1
8, 170, -0.822067
8, 171, 0.482711
8, 172, 0.18661
8, 173, -1
8, 174, -0.943079
8, 175, -0.26355
8, 176, 0.537637
8, 177, -0.0409797
8, 178, -0.943078
8, 179, 0.667658
8, 180, -1
8, 181, -0.943078
8, 182, 0.402919
8, 183, 0.169826
8, 184, -0.361318
8, 185, 0.49035
8, 186, 0.402924
8, 187, -0.943078
8, 188, 0.802994
8, 189, 0.709311
8, 190, 0.701497
8, 191, 0.444403
8, 192, -0.900753
8, 193, 0.399922
8, 194, -1
8, 195, -0.993468
8, 196, 0.0697111
8, 197, -0.943077
8, 198, 0.645333
8, 199, -1
8, 200, -1
8, 201, -1
8, 202, 0.223011
8, 203, -0.624485
8, 204, -1
8, 205, 0.740863
8, 206, 0.0734675
8, 207, -1
8, 208, -1
8, 209, 0.776127
8, 210, 0.472793
8, 211, -1
8, 212, -1
8, 213, -0.263531
8, 214, -1
8, 215, -0.943076
8, 216, 0.64229
8, 217, -1
8, 218, 0.081576
8, 219, 0.40297
8, 220, 0.402971
8, 221, -0.943076
8, 222, -1
8, 223, 0.787238
8, 224, -1
8, 225, -1
8, 226, -1
8, 227, -1
8, 228, -1
8, 229, -1
8, 230, -1
8, 231, -1
8, 232, -1
8, 233, -0.164884
8, 234, -0.0867259
8, 235, -0.858059
8, 236, -0.808435
8, 237, -1
8, 238, -1
8, 239, -1
8, 240, 0.00816895
8, 241, -0.214843
8, 242, -0.254443
8, 243, -1
8, 244, -1
8, 245, -0.985273
8, 246, 0.332668
8, 247, -0.141406
8, 248, -1
8, 249, -1
8, 250, -1
8, 251, -1
8, 252, -1
8, 253, -1
8, 254, 0.36135
8, 255, 0.974619
8, 256, -1
8, 257, -1
8, 258, -1
8, 259, -1
8, 260, 0.585883
8, 261, 0.999622
8, 262, -1
8, 263, -1
8, 264, 0.240559
8, 265, -0.0484075
8, 266, -1
8, 267, 0.745781
8, 268, -0.337993
8, 269, -1
8, 270, 0.819032
8, 271, 0.57458
8, 272, 0.136017
8, 273, -0.944563
8, 274, -0.263501
8, 275, 0.0170162
8, 276, 0.122219
8, 277, 0.736303
8, 278, -1
8, 279, 0.736307
8, 280, 0.584474
8, 281, -1
8, 282, -1
8, 283, 0.914862
8, 284, -0.788309
8, 285, 0.100299
8, 286, 0.128762
8, 287, -1
8, 288, -1
8, 289, 0.0358226
8, 290, -0.894959
8, 291, -1
8, 292, -0.0728397
8, 293, -1
8, 294, 0.733288
8, 295, 0.750784
8, 296, -0.269448
8, 297, 0.608231
8, 298, 0.338733
8, 299, -0.256397
8, 300, -1
8, 301, -0.0986422
8, 302, 0.00721333
8, 303, -0.269494
8, 304, 0.193332
8, 305, 0.259415
8, 306, -1
8, 307, -1
8, 308, 0.0141453
8, 309, -1
8, 310, 0.508773
8, 311, -0.528138
8, 312, -1
8, 313, 0.67912
8, 314, 0.685312
8, 315, -1
8, 316, -0.225873
8, 317, 0.367877
8, 318, -0.740238
8, 319, 0.029905
8, 320, -0.747243
8, 321, -0.579608
8, 322, -0.379453
8, 323, 0.082301
8, 324, 0.563915
8, 325, -1
8, 326, -1
8, 327, -1
8, 328, 0.999793
8, 329, 0.597738
8, 330, -1
8, 331, 0.589536
8, 332, -0.832082
8, 333, 0.385017
8, 334, -0.067397
8, 335, 0.431266
8, 336, -0.66289
8, 337, -1
8, 338, 0.403135
8, 339, -0.301048
8, 340, -1
8, 341, 0.0698398
8, 342, -0.217968
8, 343, -1
8, 344, -1
8, 345, -0.0103711
8, 346, -1
8, 347, -0.853329
8, 348, 0.975085
8, 349, -0.852482
8, 350, 0.655309
8, 351, 0.602865
8, 352, 0.368143
8, 353, -0.943069
8, 354, 0.080242
8, 355, -1
8, 356, -0.26346
8, 357, 0.405664
8, 358, 0.780202
8, 359, -0.65731
8, 360, -0.556434
8, 361, -1
8, 362, -1
8, 363, 0.325409
8, 364, 0.736477
8, 365, -1
8, 366, -1
8, 367, 0.736151
8, 368, -1
8, 369, 0.916912
8, 370, -1
8, 371, -0.211134
8, 372, -1
8, 373, 0.14314
8, 374, -1
8, 375, -0.94326
8, 376, 0.30371
8, 377, -1
8, 378, -0.885021
8, 379, -1
8, 380, -1
8, 381, -0.922635
8, 382, -0.787375
8, 383, 0.906924
8, 384, -1
8, 385, -0.161183
8, 386, -1
8, 387, -0.125827
8, 388, -1
8, 389, -1
8, 390, 0.548299
8, 391, -0.878374
8, 392, -1
8, 393, 0.499152
8, 394, -1
8, 395, 0.331192
8, 396, 0.234879
8, 397, -0.990344
8, 398, -0.0114386
8, 399, 0.700071
9, 0, -1
9, 1, 0.48067
9, 2, -0.190679
9, 3, 0.48382
9, 4, -1
9, 5, 0.290244
9, 6, -0.811065
9, 7, 0.510038
9, 8, -1
9, 9, -0.331597
9, 10, -0.758797
9, 11, -1
9, 12, -0.777085
9, 13, -0.0181256
9, 14, -1
9, 15, -0.215858
9, 16, -0.106306
9, 17, -1
9, 18, 0.0512096
9, 19, -0.109738
9, 20, -0.237021
9, 21, -1
9, 22, 0.491355
9, 23, 0.595398
9, 24, -0.231295
9, 25, -1
9, 26, -1
9, 27, -0.959739
9, 28, -0.999755
9, 29, -1
9, 30, 0.49309
9, 31, -1
9, 32, -0.212238
9, 33, -0.88069
9, 34, 0.829215
9, 35, -0.361674
9, 36, 0.0543163
9, 37, 0.329325
9, 38, 0.536208
9, 39, 0.999052
9, 40, -1
9, 41, -1
9, 42, -1
9, 43, -0.218486
9, 44, -1
9, 45, 0.741104
9, 46, -0.490183
9, 47, 0.594034
9, 48, -1
9, 49, -0.410433
9, 50, -1
9, 51, 0.604534
9, 52, -1
9, 53, 0.379397
9, 54, 0.239575
9, 55, 0.739262
9, 56, 0.0313169
9, 57, 0.973864
9, 58, 0.368801
9, 59, 0.999103
9, 60, -1
9, 61, -0.486372
9, 62, -1
9, 63, -1
9, 64, -0.893262
9, 65, -1
9, 66, 0.0669759
9, 67, 0.997955
9, 68, 0.310373
9, 69, -0.205278
9, 70, 0.200877
9, 71, -0.00997253
9, 72, -1
9, 73, 0.566789
9, 74, -1
9, 75, -0.0942304
9, 76, 0.352746
9, 77, 0.527872
9, 78, 0.906432
9, 79, 0.868635
9, 80, -1
9, 81, -1
9, 82, -1
9, 83, -1
9, 84, -1
9, 85, 0.612464
9, 86, 0.222723
9, 87, 0.257668
9, 88, -0.860873
9, 89, -0.902549
9, 90, 0.358897
9, 91, 0.199955
9, 92, -1
9, 93, 0.293466
9, 94, 0.967957
9, 95, -1
9, 96, 0.999197
9, 97, 0.695291
9, 98, 0.905657
9, 99, 0.906042
9, 100, -1
9, 101, 0.573669
9, 102, 0.868207
9, 103, -1
9, 104, 0.396844
9, 105, -1
9, 106, 0.202732
9, 107, 0.0521127
9, 108, -1
9, 109, 0.301904
9, 110, 0.686228
9, 111, 0.186473
9, 112, -1
9, 113, 0.264096
9, 114, -0.23905
9, 115, -1
9, 116, -1
9, 117, -1
9, 118, -0.223617
9, 119, 0.493852
9, 120, 0.301191
9, 121, -1
9, 122, -1
9, 123, 0.593534
9, 124, 0.178529
9, 125, 0.672874
9, 126, 0.928545
9, 127, 0.583712
9, 128, 0.832424
9, 129, 0.0827001
9, 130, -0.29657
9, 131, -1
9, 132, -1
9, 133, -1
9, 134, 0.167662
9, 135, -1
9, 136, -1
9, 137, -1
9, 138, -1
9, 139, 0.147982
9, 140, -0.757016
9, 141, -0.972781
9, 142, -1
9, 143, 0.554327
9, 144, -0.214997
9, 145, 0.659516
9, 146, 0.735289
9, 147, 0.82621
9, 148, 0.689971
9, 149, 0.242629
9, 150, -1
9, 151, -0.307437
9, 152, -1
9, 153, -1
9, 154, -1
9, 155, -1
9, 156, -1
9, 157, -1
9, 158, -1
9, 159, -1
9, 160, 0.0694242
9, 161, -1
9, 162, 0.312188
9, 163, 0.0540845
9, 164, 0.305523
9, 165, -0.111855
9, 166, 0.445288
9, 167, 0.394926
9, 168, 0.8042
9, 169, 0.941769
9, 170, 0.237785
9, 171, 0.860872
9, 172, -1
9, 173, -1
9, 174, -1
9, 175, -1
9, 176, -1
9, 177, -1
9, 178, -0.135502
9, 179, -1
9, 180, 0.464409
9, 181, -0.112461
9, 182, -1
9, 183, -0.294977
9, 184, 0.220102
9, 185, -0.242975
9, 186, 0.944339
9, 187, 0.796018
9, 188, 0.214858
9, 189, 0.586024
9, 190, -1
9, 191, -1
9, 192, 0.632667
9, 193, -1
9, 194, -0.0632212
9, 195, 0.0881083
9, 196, -1
9, 197, -1
9, 198, 0.132132
9, 199, -1
9, 200, 0.548306
9, 201, -1
9, 202, -0.180971
9, 203, -0.238565
9, 204, -1
9, 205, 0.862074
9, 206, 0.724954
9, 207, -0.907785
9, 208, 0.029117
9, 209, -0.138157
9, 210, 0.272511
9, 211, -0.155956
9, 212, -0.815587
9, 213, -1
9, 214, -1
9, 215, 0.00868761
9, 216, -0.792847
9, 217, -1
9, 218, -1
9, 219, -1
9, 220, -1
9, 221, -1
9, 222, 0.149185
9, 223, -1
9, 224, -0.61169
9, 225, 0.773718
9, 226, -1
9, 227, 0.343915
9, 228, 0.349143
9, 229, 0.195108
9, 230, -1
9, 231, -0.229151
9, 232, -1
9, 233, -1
9, 234, -0.291141
9, 235, -1
9, 236, -0.423939
9, 237, -0.487022
9, 238, 0.554151
9, 239, -0.854383
9, 240, 0.237186
9, 241, -0.66126
9, 242, -1
9, 243, -1
9, 244, -1
9, 245, -1
9, 246, -1
9, 247, 0.18132
9, 248, -1
9, 249, -0.62305
9, 250, -1
9, 251, -1
9, 252, -1
9, 253, 0.658206
9, 254, -1
9, 255, -0.989918
9, 256, -1
9, 257, -1
9, 258, -1
9, 259, -1
9, 260, -1
9, 261, -0.901946
9, 262, -0.516694
9, 263, -0.774472
9, 264, -1
9, 265, -1
9, 266, 0.725407
9, 267, -1
9, 268, -0.291284
9, 269, -1
9, 270, -0.162648
9, 271, -1
9, 272, 0.957417
9, 273, -0.152356
9, 274, 0.282136
9, 275, -1
9, 276, -0.941432
9, 277, -0.96253
9, 278, -0.176394
9, 279, 0.227188
9, 280, -0.0896444
9, 281, 0.598424
9, 282, 0.774122
9, 283, 0.812298
9, 284, -1
9, 285, -1
9, 286, -0.85961
9, 287, -1
9, 288, -0.842124
9, 289, 0.239044
9, 290, 0.0164505
9, 291, 0.0312314
9, 292, 0.0632618
9, 293, 0.501375
9, 294, 0.190421
9, 295, 0.468627
9, 296, 0.135079
9, 297, -1
9, 298, 0.120328
9, 299, -1
9, 300, 0.738095
9, 301, 0.92502
9, 302, 0.899541
9, 303, -0.2737
9, 304, 0.259598
9, 305, 0.255846
9, 306, -1
9, 307, -0.845048
9, 308, -0.113431
9, 309, 0.27791
9, 310, -0.238655
9, 311, -1
9, 312, 0.168487
9, 313, -1
9, 314, -1
9, 315, 0.309004
9, 316, 0.0446328
9, 317, -0.176589
9, 318, -0.749521
9, 319, 0.306684
9, 320, -1
9, 321, -0.720557
9, 322, 0.804202
9, 323, 0.956274
9, 324, 0.0657722
9, 325, -0.252883
9, 326, -0.935394
9, 327, -0.761259
9, 328, 0.119196
9, 329, 0.685295
9, 330, 0.977669
9, 331, -1
9, 332, -0.843984
9, 333, 0.48529
9, 334, -0.28126
9, 335, 0.208383
9, 336, 0.374825
9, 337, -0.93733
9, 338, 0.224632
9, 339, 0.794583
9, 340, -1
9, 341, -0.226917
9, 342, 0.167052
9, 343, -1
9, 344, -0.252073
9, 345, 0.762712
9, 346, 0.379233
9, 347, -0.0985545
9, 348, -0.853269
9, 349, -0.0832126
9, 350, -0.554696
9, 351, -0.16362
9, 352, -0.233724
9, 353, 0.411235
9, 354, -0.307918
9, 355, 0.512901
9, 356, 0.633377
9, 357, -0.110518
9, 358, -0.643781
9, 359, -0.11952
9, 360, -0.221398
9, 361, 0.015445
9, 362, 0.999877
9, 363, -0.291774
9, 364, -1
9, 365, 0.948747
9, 366, -1
9, 367, 0.602689
9, 368, 0.617612
9, 369, 0.226138
9, 370, -0.0180496
9, 371, -1
9, 372, 0.848487
9, 373, 0.637956
9, 374, 0.704374
9, 375, 0.689512
9, 376, 0.935151
9, 377, -0.185106
9, 378, -1
9, 379, -1
9, 380, 0.542155
9, 381, -0.0414812
9, 382, -1
9, 383, -1
9, 384, -1
9, 385, -1
9, 386, 0.586581
9, 387, -0.0314413
9, 388, -0.248277
9, 389, 0.810467
9, 390, 0.481329
9, 391, -0.914788
9, 392, -1
9, 393, 0.422323
9, 394, 0.602229
9, 395, 0.100634
9, 396, 0.351851
9, 397, -0.51238
9, 398, -1
9, 399, -1
10, 0, -0.263817
10, 1, -1
10, 2, -0.940778
10, 3, 0.446486
10, 4, 0.396504
10, 5, 0.203626
10, 6, -1
10, 7, 0.380451
10, 8, 0.598668
10, 9, -0.257681
10, 10, -0.0515553
10, 11, 0.263059
10, 12, 0.967435
10, 13, -1
10, 14, 0.344301
10, 15, -0.798426
10, 16, -1
10, 17, 0.308083
10, 18, -1
10, 19, -1
10, 20, -1
10, 21, -0.528508
10, 22, -1
10, 23, -1
10, 24, 0.0100276
10, 25, 0.340777
10, 26, 0.319239
10, 27, 0.051841
10, 28, -0.994306
10, 29, -1
10, 30, -1
10, 31, 0.469948
10, 32, -1
10, 33, -1
10, 34, 0.219832
10, 35, 0.212203
10, 36, 0.402714
10, 37, 0.0695683
10, 38, -0.943086
10, 39, 0.521371
10, 40, 0.672901
10, 41, -0.943085
10, 42, -0.853041
10, 43, -0.263617
10, 44, -1
10, 45, -1
10, 46, -0.233513
10, 47, -1
10, 48, -0.231502
10, 49, 0.429958
10, 50, -1
10, 51, 0.0584338
10, 52, -0.812619
10, 53, -1
10, 54, 0.585635
10, 55, 0.0695843
10, 56, 0.402741
10, 57, -1
10, 58, -1
10, 59, 0.0595705
10, 60, -0.0258802
10, 61, -1
10, 62, -0.253228
10, 63, 0.238248
10, 64, -1
10, 65, 0.726557
10, 66, -0.655123
10, 67, 0.00548436
10, 68, -0.481821
10, 69, -0.0877437
10, 70, -0.570125
10, 71, -0.921896
10, 72, -0.227639
10, 73, 0.132194
10, 74, -0.738623
10, 75, 0.535762
10, 76, -1
10, 77, -0.0784192
10, 78, 0.122233
10, 79, -0.265348
10, 80, -0.823718
10, 81, -0.292317
10, 82, -1
10, 83, -0.938286
10, 84, -0.0774979
10, 85, 0.232914
10, 86, 0.457568
10, 87, -1
10, 88, 0.589987
10, 89, 0.369552
10, 90, -0.136397
10, 91, -0.144544
10, 92, -0.393243
10, 93, 0.053346
10, 94, -1
10, 95, -0.0877845
10, 96, 0.261595
10, 97, -1
10, 98, -1
10, 99, 0.731983
10, 100, -0.868664
10, 101, -1
10, 102, -1
10, 103, -0.244028
10, 104, -0.265961
10, 105, -0.978853
10, 106, 0.520827
10, 107, -0.722086
10, 108, 0.265947
10, 109, 0.125683
10, 110, 0.5047
10, 111, -1
10, 112, 0.0810315
10, 113, 0.13944
10, 114, -1
10, 115, -0.496316
10, 116, -0.771157
10, 117, 0.691258
10, 118, -1
10, 119, -1
10, 120, -0.263578
10, 121, 0.402831
10, 122, -0.94909
10, 123, 0.723474
10, 124, 0.190353
10, 125, -0.95485
10, 126, -0.192872
10, 127, -1
10, 128, -1
10, 129, -1
10, 130, 0.714707
10, 131, -1
10, 132, -1
10, 133, -0.0819056
10, 134, 0.303146
10, 135, 0.0696552
10, 136, 0.736018
10, 137, 0.069657
10, 138, -1
10, 139, -0.202777
10, 140, 0.999307
10, 141, 0.520657
10, 142, -1
10, 143, 0.19983
10, 144, -0.847865
10, 145, -1
10, 146, 0.527797
10, 147, 0.276062
10, 148, -1
10, 149, 0.94835
10, 150, 0.771883
10, 151, 0.323548
10, 152, -0.241303
10, 153, -1
10, 154, -1
10, 155, 0.38097
10, 156, -0.480022
10, 157, -0.739893
10, 158, 0.567303
10, 159, -0.29295
10, 160, 0.852308
10, 161, -0.765735
10, 162, -0.263557
10, 163, 0.275971
10, 164, -1
10, 165, -1
10, 166, -0.310769
10, 167, 0.130134
10, 168, -0.438797
10, 169, -1
10, 170, -1
10, 171, -0.278518
10, 172, 0.188909
10, 173, -0.975604
10, 174, 0.819687
10, 175, -1
10, 176, -0.943079
10, 177, 0.0696925
10, 178, 0.74174
10, 179, -1
10, 180, -0.956414
10, 181, -0.273091
10, 182, 0.11669
10, 183, -0.487587
10, 184, 0.0761073
10, 185, 0.800909
10, 186, 0.712367
10, 187, -0.0685816
10, 188, -0.816398
10, 189, -0.560117
10, 190, -1
10, 191, 0.545974
10, 192, -0.00342039
10, 193, -0.083959
10, 194, 0.123484
10, 195, 0.16136
10, 196, -1
10, 197, 0.73614
10, 198, -1
10, 199, 0.746046
10, 200, -1
10, 201, -1
10, 202, -1
10, 203, 0.48223
10, 204, -1
10, 205, 0.973578
10, 206, 0.0253614
10, 207, -1
10, 208, -0.943077
10, 209, -1
10, 210, -1
10, 211, -0.943077
10, 212, 0.0762612
10, 213, 0.40707
10, 214, 0.0491926
10, 215, 0.765106
10, 216, 0.346198
10, 217, 0.069728
10, 218, 0.0408396
10, 219, -1
10, 220, -0.673916
10, 221, -0.655549
10, 222, 0.58582
10, 223, -1
10, 224, 0.788702
10, 225, -0.236273
10, 226, 0.0739585
10, 227, 0.724398
10, 228, -1
10, 229, -0.294674
10, 230, 0.418788
10, 231, -0.879595
10, 232, -1
10, 233, 0.238824
10, 234, 0.261861
10, 235, -1
10, 236, -0.460807
10, 237, -1
10, 238, -1
10, 239, -0.263519
10, 240, -1
10, 241, -1
10, 242, 0.333459
10, 243, -0.263517
10, 244, -0.987132
10, 245, -1
10, 246, -1
10, 247, -0.192777
10, 248, -0.23794
10, 249, 0.480593
10, 250, -1
10, 251, -1
10, 252, 0.657627
10, 253, -1
10, 254, -1
10, 255, -0.943074
10, 256, -0.263511
10, 257, 0.702885
10, 258, -1
10, 259, -0.235168
10, 260, -0.306444
10, 261, 0.75478
10, 262, 0.119061
10, 263, -1
10, 264, -0.0356496
10, 265, -0.932525
10, 266, -1
10, 267, 0.353325
10, 268, -1
10, 269, -0.866546
10, 270, -1
10, 271, -0.779632
10, 272, -0.159082
10, 273, -1
10, 274, 0.416711
10, 275, -1
10, 276, -1
10, 277, -0.14717
10, 278, 0.557199
10, 279, 0.734716
10, 280, -1
10, 281, 0.339366
10, 282, -0.205902
10, 283, 0.787439
10, 284, 0.222059
10, 285, 0.339107
10, 286, -1
10, 287, 0.689025
10, 288, -0.943073
10, 289, -1
10, 290, -1
10, 291, -1
10, 292, -1
10, 293, 0.443895
10, 294, -0.454945
10, 295, -1
10, 296, 0.736337
10, 297, -0.26349
10, 298, 0.779108
10, 299, 0.736343
10, 300, 0.357386
10, 301, -1
10, 302, 0.736349
10, 303, -1
10, 304, -1
10, 305, 0.403086
10, 306, -0.637765
10, 307, -1
10, 308, -1
10, 309, 0.408963
10, 310, -0.1807
10, 311, -1
10, 312, -0.9007
10, 313, -1
10, 314, -1
10, 315, 0.377422
10, 316, -0.117186
10, 317, -1
10, 318, 0.417937
10, 319, 0.439746
10, 320, -1
10, 321, 0.529235
10, 322, -1
10, 323, -1
10, 324, -0.55685
10, 325, -1
10, 326, -1
10, 327, -1
10, 328, 0.346193
10, 329, -1
10, 330, 0.651282
10, 331, -1
10, 332, -1
10, 333, 0.195122
10, 334, -1
10, 335, -1
10, 336, -0.372107
10, 337, -1
10, 338, -1
10, 339, -0.904679
10, 340, 0.544717
10, 341, -0.788851
10, 342, -0.446864
10, 343, -1
10, 344, -1
10, 345, -0.458218
10, 346, 0.403143
10, 347, 0.29621
10, 348, -0.0308781
10, 349, -1
10, 350, 0.106704
10, 351, 0.0907008
10, 352, -1
10, 353, -1
10, 354, 0.0565307
10, 355, -0.812178
10, 356, -1
10, 357, 0.493165
10, 358, -0.943069
10, 359, -1
10, 360, -1
10, 361, -1
10, 362, -1
10, 363, -1
10, 364, 0.694408
10, 365, -1
10, 366, -0.228356
10, 367, -1
10, 368, -0.943069
10, 369, -0.311164
10, 370, -0.9087
10, 371, 0.251854
10, 372, 0.471926
10, 373, 0.752827
10, 374, 0.438795
10, 375, 0.627046
10, 376, -0.785897
10, 377, -1
10, 378, 0.0698709
10, 379, 0.0382765
10, 380, -0.235341
10, 381, 0.75425
10, 382, -1
10, 383, -0.676481
10, 384, 0.715618
10, 385, 0.378339
10, 386, 0.069878
10, 387, -1
10, 388, 0.435358
10, 389, 0.981969
10, 390, 0.0786569
10, 391, -0.176089
10, 392, -0.93049
10, 393, 0.388752
10, 394, 0.331513
10, 395, 0.730207
10, 396, -1
10, 397, 0.999964
10, 398, -1
10, 399, -1
11, 0, -1
11, 1, -1
11, 2, 0.625871
11, 3, -0.244433
11, 4, -1
11, 5, -0.220823
11, 6, -0.333184
11, 7, -1
11, 8, -0.163986
11, 9, -0.227673
11, 10, 0.526804
11, 11, -1
11, 12, -1
11, 13, 0.18203
11, 14, -0.943087
11, 15, -1
11, 16, -0.943087
11, 17, 0.735778
11, 18, -1
11, 19, 0.348643
11, 20, -0.263629
11, 21, 0.111867
11, 22, -1
11, 23, -0.212238
11, 24, -1
11, 25, 0.0695568
11, 26, -1
11, 27, -1
11, 28, -1
11, 29, 0.770066
11, 30, -1
11, 31, -0.943086
11, 32, -1
11, 33, 0.0695639
11, 34, 0.356508
11, 35, 0.999036
11, 36, 0.196229
11, 37, 0.533535
11, 38, -1
11, 39, 0.0695692
11, 40, -1
11, 41, -0.186271
11, 42, -0.307395
11, 43, -1
11, 44, -1
11, 45, 0.402725
11, 46, 0.735836
11, 47, -1
11, 48, -0.274132
11, 49, 0.831636
11, 50, -0.0354711
11, 51, 0.735846
11, 52, -1
11, 53, 0.13006
11, 54, -1
11, 55, -0.263611
11, 56, -1
11, 57, -1
11, 58, -0.182351
11, 59, -1
11, 60, 0.535026
11, 61, -1
11, 62, -1
11, 63, 0.373949
11, 64, 0.698644
11, 65, -0.211629
11, 66, -0.560049
11, 67, 0.069594
11, 68, -0.943084
11, 69, -1
11, 70, 0.630593
11, 71, -1
11, 72, 0.402762
11, 73, -0.917922
11, 74, -0.557946
11, 75, -0.216136
11, 76, 0.681491
11, 77, -1
11, 78, 0.152601
11, 79, -1
11, 80, 0.169166
11, 81, -1
11, 82, 0.680258
11, 83, -1
11, 84, -0.155729
11, 85, -1
11, 86, -0.943083
11, 87, -0.263595
11, 88, -1
11, 89, 0.2769
11, 90, 0.0696144
11, 91, 0.488224
11, 92, 0.108744
11, 93, 0.683943
11, 94, -1
11, 95, -0.943083
11, 96, -0.367588
11, 97, 0.0696206
11, 98, 0.148108
11, 99, 0.160298
11, 100, 0.692676
11, 101, -0.989113
11, 102, 0.735948
11, 103, -1
11, 104, -1
11, 105, -1
11, 106, 0.287082
11, 107, -1
11, 108, -0.943082
11, 109, -1
11, 110, -1
11, 111, 0.42814
11, 112, -1
11, 113, -1
11, 114, 0.844741
11, 115, 0.171368
11, 116, -1
11, 117, -1
11, 118, -1
11, 119, -0.795166
11, 120, 0.0242883
11, 121, -0.602304
11, 122, 0.83905
11, 123, -1
11, 124, -1
11, 125, 0.742862
11, 126, -1
11, 127, -0.0541223
11, 128, 0.123639
11, 129, -0.279081
11, 130, -0.863258
11, 131, -1
11, 132, 0.176314
11, 133, 0.00616846
11, 134, -0.271661
11, 135, -1
11, 136, -0.263571
11, 137, -1
11, 138, -1
11, 139, 0.173542
11, 140, -1
11, 141, -1
11, 142, 0.033469
11, 143, -1
11, 144, -0.225315
11, 145, -1
11, 146, 0.405639
11, 147, -1
11, 148, -1
11, 149, -0.263564
11, 150, -1
11, 151, -0.907332
11, 152, 0.736048
11, 153, -1
11, 154, -1
11, 155, 0.402877
11, 156, -1
11, 157, -1
11, 158, -1
11, 159, -0.943079
11, 160, -0.263559
11, 161, -1
11, 162, -0.129974
11, 163, -1
11, 164, 0.654658
11, 165, 0.63569
11, 166, -1
11, 167, -0.64351
11, 168, 0.252931
11, 169, -1
11, 170, 0.735845
11, 171, -1
11, 172, -1
11, 173, -1
11, 174, -0.943079
11, 175, -0.943079
11, 176, -1
11, 177, 0.760391
11, 178, 0.36759
11, 179, -1
11, 180, -1
11, 181, -1
11, 182, -1
11, 183, 0.706214
11, 184, 0.736112
11, 185, -1
11, 186, 0.40292
11, 187, -0.0723893
11, 188, -1
11, 189, -0.204285
11, 190, 0.430006
11, 191, -0.798896
11, 192, 0.529415
11, 193, -1
11, 194, 0.189224
11, 195, -0.260077
11, 196, 0.736136
11, 197, -0.272523
11, 198, -0.26354
11, 199, -0.943077
11, 200, -0.263539
11, 201, -1
11, 202, -0.263538
11, 203, 0.129817
11, 204, 0.736152
11, 205, 0.0697164
11, 206, 0.402948
11, 207, 0.721533
11, 208, -1
11, 209, -0.309777
11, 210, -0.0701159
11, 211, -1
11, 212, -1
11, 213, 0.0623271
11, 214, 0.800314
11, 215, 0.139743
11, 216, -0.353138
11, 217, -0.943076
11, 218, -0.943076
11, 219, -1
11, 220, 0.736183
11, 221, 0.736185
11, 222, 0.40297
11, 223, -0.263528
11, 224, -0.123835
11, 225, -1
11, 226, 0.0350764
11, 227, -1
11, 228, -0.943076
11, 229, -1
11, 230, 0.0775346
11, 231, 0.419131
11, 232, 0.643346
11, 233, -1
11, 234, -1
11, 235, 0.736213
11, 236, -0.685927
11, 237, 0.422498
11, 238, -0.26352
11, 239, -1
11, 240, 0.736223
11, 241, -1
11, 242, -0.773233
11, 243, 0.526836
11, 244, -1
11, 245, -1
11, 246, 0.00597655
11, 247, 0.491139
11, 248, -0.742996
11, 249, 0.33827
11, 250, 0.619011
11, 251, -1
11, 252, -0.598494
11, 253, -0.267666
11, 254, -0.865961
11, 255, -1
11, 256, -1
11, 257, -1
11, 258, -0.293317
11, 259, 0.371187
11, 260, 0.594671
11, 261, 0.33653
11, 262, -1
11, 263, 0.634799
11, 264, 0.0697688
11, 265, -1
11, 266, 0.122079
11, 267, 0.999629
11, 268, 0.0697724
11, 269, -1
11, 270, 0.665262
11, 271, -1
11, 272, -1
11, 273, -0.772342
11, 274, -1
11, 275, -0.924193
11, 276, -1
11, 277, -0.0712759
11, 278, -1
11, 279, -0.943073
11, 280, 0.736303
11, 281, 0.403052
11, 282, -1
11, 283, -1
11, 284, -1
11, 285, 0.249954
11, 286, -1
11, 287, -1
11, 288, -0.270794
11, 289, -0.50568
11, 290, 0.106397
11, 291, -0.725768
11, 292, 0.746161
11, 293, -0.0931728
11, 294, -1
11, 295, -0.263492
11, 296, -0.943072
11, 297, 0.0697981
11, 298, -1
11, 299, 0.0392968
11, 300, 0.0698007
11, 301, -1
11, 302, 0.0698025
11, 303, -0.740969
11, 304, -1
11, 305, 0.143198
11, 306, 0.0890845
11, 307, -1
11, 308, 0.369035
11, 309, -0.927006
11, 310, -1
11, 311, -0.0779106
11, 312, 0.878716
11, 313, -1
11, 314, 0.736371
11, 315, 0.754718
11, 316, 0.0698149
11, 317, 0.403102
11, 318, 0.736379
11, 319, 0.362254
11, 320, 0.577912
11, 321, -0.263479
11, 322, -1
11, 323, 0.736389
11, 324, 0.403111
11, 325, -1
11, 326, -1
11, 327, 0.318815
11, 328, -1
11, 329, -1
11, 330, -1
11, 331, -0.0876792
11, 332, 0.686433
11, 333, 0.403124
11, 334, -1
11, 335, 0.152137
11, 336, -1
11, 337, -0.94307
11, 338, 0.128178
11, 339, 0.999813
11, 340, 0.211002
11, 341, -0.895179
11, 342, -0.263468
11, 343, 0.0698389
11, 344, -0.94307
11, 345, -1
11, 346, -1
11, 347, 0.176454
11, 348, 0.718438
11, 349, -1
11, 350, -0.94307
11, 351, 0.232746
11, 352, -1
11, 353, -1
11, 354, 0.0842073
11, 355, 0.443514
11, 356, -1
11, 357, 0.403157
11, 358, -1
11, 359, -1
11, 360, 0.069854
11, 361, -1
11, 362, 0.403164
11, 363, 0.0698567
11, 364, 0.0698575
11, 365, -0.263457
11, 366, 0.729921
11, 367, 0.308742
11, 368, 0.807529
11, 369, -0.943069
11, 370, -1
11, 371, -0.943069
11, 372, 0.00571568
11, 373, 0.403179
11, 374, 0.0698664
11, 375, 0.736493
11, 376, 0.0698682
11, 377, 0.403185
11, 378, -1
11, 379, -1
11, 380, -0.116241
11, 381, -0.176132
11, 382, 0.999923
11, 383, 0.0278808
11, 384, 0.322358
11, 385, -1
11, 386, 0.70794
11, 387, -0.876645
11, 388, 0.316847
11, 389, 0.680831
11, 390, -0.263444
11, 391, -1
11, 392, 0.563541
11, 393, -1
11, 394, -0.421209
11, 395, 0.137979
11, 396, -0.437537
11, 397, -1
11, 398, 0.736539
11, 399, -1
12, 0, 0.0695337
12, 1, -1
12, 2, -1
12, 3, -1
12, 4, 0.402666
12, 5, 0.778167
12, 6, 0.735754
12, 7, -0.943087
12, 8, -0.943087
12, 9, -1
12, 10, -0.263634
12, 11, 0.263534
12, 12, -0.943087
12, 13, -1
12, 14, -1
12, 15, 0.069547
12, 16, -1
12, 17, 0.661345
12, 18, 0.753796
12, 19, 0.568409
12, 20, 0.111472
12, 21, -1
12, 22, 0.371332
12, 23, -0.195525
12, 24, -1
12, 25, -1
12, 26, 6.75798e-05
12, 27, -0.943086
12, 28, -0.263625
12, 29, 0.0695594
12, 30, -0.32851
12, 31, -1
12, 32, -0.204236
12, 33, -0.288738
12, 34, -1
12, 35, -1
12, 36, -1
12, 37, -0.0277582
12, 38, -1
12, 39, -0.26362
12, 40, -1
12, 41, 0.126452
12, 42, -0.943086
12, 43, 0.0695718
12, 44, -0.263617
12, 45, -0.943085
12, 46, -1
12, 47, -0.263616
12, 48, -1
12, 49, 0.661485
12, 50, -0.530761
12, 51, 0.0695789
12, 52, 0.409553
12, 53, 0.99908
12, 54, 0.445491
12, 55, 0.670876
12, 56, -1
12, 57, -1
12, 58, 0.632602
12, 59, -0.943085
12, 60, -0.943085
12, 61, -0.943085
12, 62, -1
12, 63, 0.735868
12, 64, -0.122901
12, 65, -1
12, 66, 0.767303
12, 67, 0.402754
12, 68, 0.069594
12, 69, -1
12, 70, -1
12, 71, 0.315769
12, 72, -0.683
12, 73, -0.263603
12, 74, -0.909823
12, 75, 0.43192
12, 76, 0.0696011
12, 77, -1
12, 78, -0.943084
12, 79, -0.943084
12, 80, 0.434973
12, 81, -1
12, 82, 0.0696064
12, 83, 0.0696073
12, 84, -1
12, 85, -0.747473
12, 86, -0.243477
12, 87, -1
12, 88, -1
12, 89, -1
12, 90, -1
12, 91, -0.899566
12, 92, -0.185671
12, 93, -0.882167
12, 94, -1
12, 95, -1
12, 96, -1
12, 97, 0.402795
12, 98, 0.390634
12, 99, 0.402798
12, 100, 0.41161
12, 101, 0.0696233
12, 102, -0.263588
12, 103, 0.735948
12, 104, -1
12, 105, -0.306758
12, 106, 0.114918
12, 107, -0.0928333
12, 108, 0.115374
12, 109, 0.333486
12, 110, 0.529952
12, 111, -0.944505
12, 112, 0.76933
12, 113, -0.749484
12, 114, 0.524344
12, 115, 0.467896
12, 116, -0.833032
12, 117, -1
12, 118, 0.270604
12, 119, -1
12, 120, -0.992607
12, 121, 0.443104
12, 122, -1
12, 123, -1
12, 124, -1
12, 125, -0.915375
12, 126, -1
12, 127, -0.908688
12, 128, 0.370388
12, 129, 0.235452
12, 130, 0.213335
12, 131, -0.209108
12, 132, -1
12, 133, 0.695062
12, 134, -0.997531
12, 135, 0.736012
12, 136, -1
12, 137, 0.128212
12, 138, -0.927726
12, 139, 0.0482156
12, 140, -0.881404
12, 141, 0.402856
12, 142, 0.736026
12, 143, -1
12, 144, 0.172582
12, 145, 0.528792
12, 146, 0.34158
12, 147, 0.291979
12, 148, 0.069665
12, 149, -0.480515
12, 150, 0.701925
12, 151, 0.143049
12, 152, -0.14793
12, 153, -1
12, 154, -1
12, 155, -0.239537
12, 156, -1
12, 157, -1
12, 158, 0.472993
12, 159, 0.52346
12, 160, -0.226758
12, 161, -1
12, 162, -1
12, 163, 0.743312
12, 164, -0.00721051
12, 165, -1
12, 166, -1
12, 167, -0.25523
12, 168, 0.432479
12, 169, 0.021604
12, 170, -0.39893
12, 171, 0.326811
12, 172, -1
12, 173, 0.794776
12, 174, 0.402902
12, 175, 0.791255
12, 176, -0.125992
12, 177, -1
12, 178, -0.103891
12, 179, -1
12, 180, 0.999404
12, 181, -1
12, 182, 0.653766
12, 183, 0.645706
12, 184, -1
12, 185, 0.266578
12, 186, -1
12, 187, -1
12, 188, -0.546104
12, 189, -1
12, 190, 0.0326373
12, 191, 0.32246
12, 192, -0.923435
12, 193, -0.125288
12, 194, -1
12, 195, -1
12, 196, 0.736134
12, 197, -1
12, 198, 0.581719
12, 199, -0.943077
12, 200, -0.270043
12, 201, 0.40294
12, 202, -1
12, 203, 0.170671
12, 204, 0.410367
12, 205, 0.184792
12, 206, -1
12, 207, -1
12, 208, 0.74296
12, 209, -0.588397
12, 210, -1
12, 211, -0.485307
12, 212, -0.202548
12, 213, -1
12, 214, -1
12, 215, -0.263532
12, 216, -0.203225
12, 217, -1
12, 218, -0.836178
12, 219, 0.673116
12, 220, -0.474418
12, 221, 0.736183
12, 222, -0.695711
12, 223, 0.0808919
12, 224, -0.300939
12, 225, -1
12, 226, 0.0465121
12, 227, -1
12, 228, -1
12, 229, -1
12, 230, -0.887939
12, 231, 0.388409
12, 232, 0.225925
12, 233, -0.540414
12, 234, -1
12, 235, -0.943076
12, 236, -1
12, 237, 0.792983
12, 238, -0.122233
12, 239, 0.734243
12, 240, -1
12, 241, 0.300671
12, 242, -1
12, 243, 0.0492271
12, 244, -1
12, 245, -1
12, 246, 0.386432
12, 247, 0.469426
12, 248, -1
12, 249, 0.999581
12, 250, -1
12, 251, -1
12, 252, 0.258756
12, 253, 0.140777
12, 254, 0.637577
12, 255, -1
12, 256, 0.693607
12, 257, -0.757177
12, 258, -1
12, 259, -1
12, 260, -1
12, 261, 0.00920405
12, 262, -0.0618429
12, 263, 0.331737
12, 264, 0.184591
12, 265, -0.836323
12, 266, -1
12, 267, 0.815511
12, 268, -0.943074
12, 269, -0.438202
12, 270, 0.0386041
12, 271, -1
12, 272, 0.490578
12, 273, -0.058964
12, 274, -0.379437
12, 275, -1
12, 276, -0.263502
12, 277, -1
12, 278, 0.736297
12, 279, 0.403048
12, 280, -0.060138
12, 281, -0.796881
12, 282, 0.623984
12, 283, -1
12, 284, 0.156505
12, 285, 0.355831
12, 286, -0.316205
12, 287, -0.242116
12, 288, -1
12, 289, -1
12, 290, -1
12, 291, 0.780127
12, 292, 0.326937
12, 293, 0.0697936
12, 294, 0.0346475
12, 295, -0.203641
12, 296, -1
12, 297, -0.278548
12, 298, -1
12, 299, -1
12, 300, 0.731431
12, 301, 0.0698007
12, 302, -1
12, 303, -0.281027
12, 304, -1
12, 305, 0.781679
12, 306, -0.0820467
12, 307, -0.168612
12, 308, 0.199068
12, 309, -1
12, 310, 0.973161
12, 311, -0.0493747
12, 312, -0.906049
12, 313, 0.403095
12, 314, 0.294094
12, 315, 0.736371
12, 316, -1
12, 317, 0.736375
12, 318, -1
12, 319, 0.907203
12, 320, -1
12, 321, -0.943071
12, 322, 0.403107
12, 323, -0.0365723
12, 324, 0.0619835
12, 325, -0.357129
12, 326, -1
12, 327, 0.302968
12, 328, 0.308163
12, 329, -1
12, 330, 0.67668
12, 331, -1
12, 332, -0.263474
12, 333, -1
12, 334, 0.06983
12, 335, -1
12, 336, 0.403127
12, 337, -1
12, 338, -0.263471
12, 339, 0.0698345
12, 340, -1
12, 341, -0.94307
12, 342, 0.833707
12, 343, -1
12, 344, 0.297662
12, 345, 0.0923767
12, 346, 0.403141
12, 347, 0.759003
12, 348, -1
12, 349, 0.215888
12, 350, -0.227719
12, 351, -0.12985
12, 352, 0.711199
12, 353, -1
12, 354, 0.407539
12, 355, -0.262814
12, 356, -1
12, 357, 0.844527
12, 358, 0.493685
12, 359, 0.891627
12, 360, 0.381758
12, 361, 0.069854
12, 362, -1
12, 363, -1
12, 364, 0.0698567
12, 365, 0.349087
12, 366, -1
12, 367, -1
12, 368, 0.264385
12, 369, 0.305443
12, 370, 0.0127101
12, 371, -0.409336
12, 372, 0.139542
12, 373, -0.245931
12, 374, 0.25843
12, 375, -1
12, 376, 0.712958
12, 377, -0.943068
12, 378, 0.403185
12, 379, -1
12, 380, 0.453352
12, 381, -0.943068
12, 382, -0.982795
12, 383, -1
12, 384, -0.494269
12, 385, -1
12, 386, 0.0779187
12, 387, -0.311871
12, 388, 0.069878
12, 389, -0.94807
12, 390, -1
12, 391, -1
12, 392, 0.418764
12, 393, -1
12, 394, -1
12, 395, -1
12, 396, 0.076394
12, 397, -0.263441
12, 398, -1
12, 399, -1
13, 0, 0.40266
13, 1, 0.402661
13, 2, -0.263639
13, 3, -0.943088
13, 4, 0.735748
13, 5, -1
13, 6, -0.263637
13, 7, 0.50658
13, 8, -1
13, 9, -0.943087
13, 10, 0.0695417
13, 11, 0.0695426
13, 12, -0.943087
13, 13, -0.0461642
13, 14, 0.998977
13, 15, 0.0505023
13, 16, 0.402682
13, 17, -1
13, 18, -1
13, 19, -0.943087
13, 20, -1
13, 21, -0.943087
13, 22, -0.578558
13, 23, 0.857125
13, 24, -0.166365
13, 25, 0.24642
13, 26, 0.148254
13, 27, -1
13, 28, 0.851004
13, 29, 0.414098
13, 30, -1
13, 31, 0.237854
13, 32, -1
13, 33, -0.263623
13, 34, 0.069563
13, 35, -1
13, 36, -1
13, 37, 0.953189
13, 38, -0.398044
13, 39, -1
13, 40, 0.472953
13, 41, 0.816725
13, 42, -0.263619
13, 43, -1
13, 44, 0.0608189
13, 45, -0.89
13, 46, 0.571878
13, 47, -1
13, 48, -0.600053
13, 49, 0.999067
13, 50, -1
13, 51, -0.394076
13, 52, -0.572297
13, 53, -0.436389
13, 54, -1
13, 55, -0.207556
13, 56, 0.735852
13, 57, -0.11691
13, 58, 0.0695843
13, 59, -0.678135
13, 60, -0.943085
13, 61, -0.917582
13, 62, -1
13, 63, -1
13, 64, 0.102355
13, 65, -0.619627
13, 66, -1
13, 67, -0.00182352
13, 68, -0.943084
13, 69, -1
13, 70, -0.720706
13, 71, -1
13, 72, -1
13, 73, 0.462725
13, 74, -1
13, 75, -0.263602
13, 76, 0.765296
13, 77, 0.0425574
13, 78, -1
13, 79, -1
13, 80, 0.0696038
13, 81, -0.943084
13, 82, -1
13, 83, -0.0788285
13, 84, -0.463336
13, 85, -0.963345
13, 86, -1
13, 87, -1
13, 88, -1
13, 89, -0.875987
13, 90, 0.0696126
13, 91, -1
13, 92, 0.0696144
13, 93, -0.263593
13, 94, -1
13, 95, 0.393893
13, 96, 0.692741
13, 97, -1
13, 98, -0.294881
13, 99, 0.616823
13, 100, -0.954923
13, 101, 0.0696224
13, 102, 0.402801
13, 103, -1
13, 104, -0.141342
13, 105, 0.409127
13, 106, 0.49729
13, 107, -1
13, 108, -0.943082
13, 109, 0.0696295
13, 110, -1
13, 111, 0.73881
13, 112, 0.632237
13, 113, -0.932661
13, 114, -1
13, 115, -1
13, 116, 0.317774
13, 117, -1
13, 118, -0.943082
13, 119, -0.26358
13, 120, -0.943082
13, 121, 0.735982
13, 122, -0.263579
13, 123, 0.40283
13, 124, -0.975539
13, 125, -0.180949
13, 126, -0.216946
13, 127, -1
13, 128, -0.263576
13, 129, 0.0696472
13, 130, 0.40284
13, 131, -0.263574
13, 132, 0.736004
13, 133, -0.242826
13, 134, 0.402845
13, 135, -1
13, 136, -1
13, 137, -1
13, 138, -1
13, 139, 0.0696561
13, 140, 0.387173
13, 141, -1
13, 142, -0.621996
13, 143, -1
13, 144, -0.283822
13, 145, -0.263567
13, 146, 0.0113824
13, 147, 0.813138
13, 148, -0.263566
13, 149, 0.736038
13, 150, -1
13, 151, -0.119387
13, 152, -0.932665
13, 153, 0.692432
13, 154, 0.850991
13, 155, 0.44378
13, 156, -1
13, 157, -1
13, 158, 0.796687
13, 159, -1
13, 160, -0.277713
13, 161, 0.0696756
13, 162, 0.402884
13, 163, -0.263558
13, 164, -1
13, 165, -1
13, 166, -0.235463
13, 167, -1
13, 168, -1
13, 169, 0.0398245
13, 170, -0.00524176
13, 171, 0.232795
13, 172, -0.778928
13, 173, 0.510275
13, 174, -0.529223
13, 175, 0.449674
13, 176, 0.520036
13, 177, 0.328344
13, 178, 0.20886
13, 179, -1
13, 180, -1
13, 181, 0.821859
13, 182, -0.0951621
13, 183, 0.0696952
13, 184, -0.263548
13, 185, -1
13, 186, -0.263547
13, 187, -1
13, 188, -0.943078
13, 189, -1
13, 190, -0.818064
13, 191, -0.920474
13, 192, -0.587592
13, 193, 0.522267
13, 194, -0.969965
13, 195, 0.238039
13, 196, 0.768877
13, 197, -1
13, 198, -0.255713
13, 199, -0.0869475
13, 200, 0.153055
13, 201, -1
13, 202, -0.263539
13, 203, -1
13, 204, -0.0707853
13, 205, -0.871541
13, 206, 0.0382712
13, 207, 0.0697164
13, 208, 0.0697173
13, 209, -1
13, 210, 0.0326208
13, 211, 0.06972
13, 212, 0.160738
13, 213, 0.745821
13, 214, -1
13, 215, -1
13, 216, -1
13, 217, -0.163359
13, 218, 0.735299
13, 219, -1
13, 220, 0.069728
13, 221, -0.943076
13, 222, -0.208941
13, 223, -1
13, 224, 0.412147
13, 225, -0.263528
13, 226, -0.943076
13, 227, -0.263527
13, 228, 0.402976
13, 229, 0.0870489
13, 230, -1
13, 231, -1
13, 232, 0.402981
13, 233, -0.263524
13, 234, -1
13, 235, -1
13, 236, 0.0697422
13, 237, -0.282969
13, 238, 0.692007
13, 239, -1
13, 240, -0.26352
13, 241, -1
13, 242, 0.402995
13, 243, -1
13, 244, -1
13, 245, -1
13, 246, 0.853019
13, 247, 0.367894
13, 248, -0.223534
13, 249, 0.27912
13, 250, -0.00226327
13, 251, 0.79063
13, 252, -1
13, 253, -0.882866
13, 254, 0.412394
13, 255, -0.0460308
13, 256, -0.263512
13, 257, 0.408975
13, 258, -1
13, 259, 0.736257
13, 260, -0.287137
13, 261, -1
13, 262, -1
13, 263, 0.748236
13, 264, 0.11463
13, 265, 0.647312
13, 266, -1
13, 267, 0.550691
13, 268, -0.943074
13, 269, -0.116529
13, 270, -0.782086
13, 271, -0.49318
13, 272, 0.0284972
13, 273, -0.138056
13, 274, 0.0315374
13, 275, 0.0980362
13, 276, -1
13, 277, -0.121824
13, 278, -1
13, 279, -0.0133722
13, 280, 0.736299
13, 281, 0.736301
13, 282, -1
13, 283, 0.456607
13, 284, 0.736307
13, 285, 0.110338
13, 286, -1
13, 287, -0.69768
13, 288, -0.132774
13, 289, -1
13, 290, -1
13, 291, 0.014831
13, 292, -1
13, 293, -1
13, 294, -1
13, 295, -0.0364561
13, 296, 0.736331
13, 297, -0.943072
13, 298, -0.317325
13, 299, 0.880342
13, 300, 0.370411
13, 301, -1
13, 302, -0.52626
13, 303, -1
13, 304, -0.709432
13, 305, -1
13, 306, -0.924864
13, 307, 0.0878093
13, 308, -1
13, 309, -0.48625
13, 310, 0.867734
13, 311, -1
13, 312, -0.286061
13, 313, -1
13, 314, -0.171976
13, 315, -1
13, 316, 0.333606
13, 317, 0.22193
13, 318, -0.307559
13, 319, 0.490437
13, 320, -1
13, 321, 0.108318
13, 322, -1
13, 323, -1
13, 324, -0.723876
13, 325, -0.263478
13, 326, 0.168461
13, 327, -0.833961
13, 328, 0.479906
13, 329, -1
13, 330, -0.993317
13, 331, 0.566629
13, 332, -1
13, 333, 0.727257
13, 334, -1
13, 335, 0.143182
13, 336, -0.309021
13, 337, -1
13, 338, -1
13, 339, -0.94307
13, 340, 0.736419
13, 341, 0.736421
13, 342, -1
13, 343, -1
13, 344, -1
13, 345, 0.0617839
13, 346, -1
13, 347, 0.0698407
13, 348, -1
13, 349, 0.0698425
13, 350, -1
13, 351, -1
13, 352, 0.622805
13, 353, -0.269198
13, 354, -1
13, 355, -0.94307
13, 356, 0.736451
13, 357, 0.403154
13, 358, 0.403156
13, 359, -0.943069
13, 360, 0.354938
13, 361, 0.40316
13, 362, -1
13, 363, 0.403163
13, 364, -1
13, 365, 0.736469
13, 366, -1
13, 367, -0.943069
13, 368, -1
13, 369, -1
13, 370, 0.0100323
13, 371, 0.852458
13, 372, -1
13, 373, -0.759433
13, 374, 0.736487
13, 375, 0.359785
13, 376, 0.128795
13, 377, 0.736493
13, 378, -1
13, 379, 0.398921
13, 380, -1
13, 381, -1
13, 382, -0.0261305
13, 383, -1
13, 384, -0.263448
13, 385, 0.0698744
13, 386, -1
13, 387, -1
13, 388, -0.919615
13, 389, 0.736517
13, 390, -1
13, 391, 0.811325
13, 392, -1
13, 393, 0.760761
13, 394, 0.0963918
13, 395, -0.165423
13, 396, 0.736531
13, 397, 0.0824248
13, 398, 0.0657407
13, 399, 0.694646
14, 0, -0.26364
14, 1, -1
14, 2, 0.402661
14, 3, -1
14, 4, -1
14, 5, 0.0572836
14, 6, 0.0867042
14, 7, 0.46203
14, 8, -1
14, 9, 0.402671
14, 10, -1
14, 11, -0.13363
14, 12, 0.277067
14, 13, 0.496886
14, 14, -1
14, 15, 0.735768
14, 16, -0.943087
14, 17, -0.943087
14, 18, 0.55255
14, 19, -0.943087
14, 20, 0.735778
14, 21, 0.0695505
14, 22, 0.735782
14, 23, -1
14, 24, -1
14, 25, -0.261993
14, 26, 0.0774723
14, 27, -1
14, 28, 0.735794
14, 29, -1
14, 30, 0.0197718
14, 31, -1
14, 32, 0.39625
14, 33, -1
14, 34, -1
14, 35, 0.640777
14, 36, 0.0695639
14, 37, 0.402709
14, 38, 0.0695656
14, 39, 0.735816
14, 40, -1
14, 41, 0.402715
14, 42, -1
14, 43, 0.0695701
14, 44, -1
14, 45, 0.720204
14, 46, -0.275238
14, 47, -0.263617
14, 48, -0.943085
14, 49, -1
14, 50, -0.268968
14, 51, 0.652326
14, 52, -1
14, 53, -0.263614
14, 54, -1
14, 55, 0.0589344
14, 56, -0.0095073
14, 57, -0.263612
14, 58, -0.943085
14, 59, -1
14, 60, 0.0695851
14, 61, -1
14, 62, -1
14, 63, -1
14, 64, -0.943084
14, 65, -1
14, 66, 0.649016
14, 67, 0.380723
14, 68, 0.0695922
14, 69, -0.377955
14, 70, 0.0219002
14, 71, -0.263605
14, 72, 0.59903
14, 73, 0.0695967
14, 74, -1
14, 75, -1
14, 76, -0.404421
14, 77, -0.943084
14, 78, -1
14, 79, -0.263601
14, 80, -0.2636
14, 81, -0.2636
14, 82, -0.263599
14, 83, 0.402773
14, 84, 0.735906
14, 85, -0.943083
14, 86, -1
14, 87, -1
14, 88, 0.265885
14, 89, -0.80064
14, 90, -1
14, 91, -1
14, 92, -0.433707
14, 93, -0.943083
14, 94, -1
14, 95, -0.263593
14, 96, -1
14, 97, 0.402793
14, 98, -1
14, 99, -0.263591
14, 100, -0.943083
14, 101, 0.320486
14, 102, 0.64588
14, 103, 0.735944
14, 104, -1
14, 105, -1
14, 106, 0.317777
14, 107, -0.992435
14, 108, -0.246415
14, 109, 0.735956
14, 110, -0.528526
14, 111, 0.0817537
14, 112, -0.943082
14, 113, 0.0696322
14, 114, -1
14, 115, 0.735968
14, 116, 0.73597
14, 117, -1
14, 118, 0.688262
14, 119, -0.287252
14, 120, 0.0696384
14, 121, -1
14, 122, -0.680753
14, 123, -1
14, 124, -1
14, 125, -0.943081
14, 126, -0.263577
14, 127, 0.711608
14, 128, -1
14, 129, -0.422658
14, 130, -1
14, 131, -1
14, 132, -1
14, 133, -1
14, 134, 0.402844
14, 135, -1
14, 136, -1
14, 137, -0.382269
14, 138, -1
14, 139, -0.545244
14, 140, -1
14, 141, -0.26357
14, 142, -1
14, 143, -1
14, 144, -1
14, 145, -1
14, 146, -1
14, 147, -1
14, 148, -1
14, 149, 0.464622
14, 150, -0.263565
14, 151, -0.0172205
14, 152, -0.263564
14, 153, 0.40287
14, 154, -1
14, 155, -0.130155
14, 156, 0.30669
14, 157, -0.263562
14, 158, -1
14, 159, 0.069673
14, 160, 0.730037
14, 161, -0.306202
14, 162, 0.329691
14, 163, 0.586648
14, 164, 0.29818
14, 165, -0.915138
14, 166, 0.723259
14, 167, 0.663919
14, 168, 0.304397
14, 169, 0.0281802
14, 170, -1
14, 171, 0.566578
14, 172, -1
14, 173, 0.771159
14, 174, -1
14, 175, 0.684972
14, 176, 0.239455
14, 177, -1
14, 178, -1
14, 179, 0.402906
14, 180, -0.56231
14, 181, -1
14, 182, -0.943078
14, 183, 0.736104
14, 184, 0.0696952
14, 185, -0.984374
14, 186, -1
14, 187, -1
14, 188, 0.463449
14, 189, -1
14, 190, 0.451313
14, 191, 0.339432
14, 192, -0.263545
14, 193, -0.943078
14, 194, -1
14, 195, 0.514817
14, 196, -0.0167102
14, 197, 0.736132
14, 198, -0.263542
14, 199, -1
14, 200, -0.263541
14, 201, 0.0697102
14, 202, -1
14, 203, -0.263539
14, 204, -0.241852
14, 205, 0.903321
14, 206, -1
14, 207, 0.779591
14, 208, 0.5895
14, 209, 0.750243
14, 210, -0.080374
14, 211, -1
14, 212, -1
14, 213, 0.0936031
14, 214, 0.786339
14, 215, -0.190129
14, 216, 0.736169
14, 217, 0.0697244
14, 218, 0.0697253
14, 219, -1
14, 220, -0.113592
14, 221, -1
14, 222, -1
14, 223, -1
14, 224, -0.99247
14, 225, -1
14, 226, 0.736189
14, 227, 0.0697333
14, 228, 0.785619
14, 229, -0.587998
14, 230, 0.574658
14, 231, -1
14, 232, 0.414598
14, 233, 0.299893
14, 234, -0.0515083
14, 235, 0.577948
14, 236, -1
14, 237, 0.429332
14, 238, 0.271624
14, 239, 0.785454
14, 240, 0.0697448
14, 241, -0.7349
14, 242, 0.631865
14, 243, -1
14, 244, -0.0267198
14, 245, 0.406743
14, 246, -0.253028
14, 247, -1
14, 248, -1
14, 249, -1
14, 250, -0.842795
14, 251, 0.10652
14, 252, 0.580768
14, 253, -1
14, 254, 0.0438889
14, 255, -1
14, 256, -0.943075
14, 257, -0.943075
14, 258, 0.736253
14, 259, -1
14, 260, -0.261876
14, 261, -1
14, 262, -0.079695
14, 263, -1
14, 264, -1
14, 265, 0.736267
14, 266, -1
14, 267, -1
14, 268, 0.0588626
14, 269, 0.270533
14, 270, 0.648886
14, 271, 0.345523
14, 272, 0.42955
14, 273, 0.288674
14, 274, -0.943074
14, 275, -1
14, 276, -1
14, 277, -0.263502
14, 278, -1
14, 279, -1
14, 280, 0.0697803
14, 281, 0.049028
14, 282, 0.672193
14, 283, -1
14, 284, 0.736305
14, 285, -1
14, 286, -1
14, 287, -0.74707
14, 288, -0.574533
14, 289, 0.592257
14, 290, 0.113237
14, 291, 0.685556
14, 292, -1
14, 293, 0.638474
14, 294, -1
14, 295, 0.649907
14, 296, 0.708268
14, 297, 0.494166
14, 298, 0.736333
14, 299, -1
14, 300, -1
14, 301, 0.394671
14, 302, 0.609933
14, 303, -0.197041
14, 304, -0.289217
14, 305, 0.843962
14, 306, -0.129224
14, 307, -1
14, 308, -0.984144
14, 309, 0.277393
14, 310, 0.069807
14, 311, 0.0698078
14, 312, -0.206791
14, 313, -1
14, 314, 0.498466
14, 315, -1
14, 316, -0.943072
14, 317, 0.736937
14, 318, -0.750693
14, 319, 0.823337
14, 320, 0.403102
14, 321, 0.0698167
14, 322, -0.243552
14, 323, 0.36124
14, 324, 0.101295
14, 325, 0.0490166
14, 326, -0.943071
14, 327, -1
14, 328, -1
14, 329, -1
14, 330, -1
14, 331, -0.943071
14, 332, -0.263475
14, 333, 0.524005
14, 334, 0.736405
14, 335, 0.330753
14, 336, 0.403124
14, 337, -0.94307
14, 338, -1
14, 339, -1
14, 340, -1
14, 341, -0.0259092
14, 342, 0.403132
14, 343, -1
14, 344, 0.403135
14, 345, -0.94307
14, 346, -0.94307
14, 347, -1
14, 348, -1
14, 349, -0.94307
14, 350, 0.403143
14, 351, 0.0969308
14, 352, -1
14, 353, -1
14, 354, -1
14, 355, -0.0650874
14, 356, -0.263463
14, 357, -0.263462
14, 358, -0.263462
14, 359, -0.0148169
14, 360, -0.263461
14, 361, -0.422576
14, 362, 0.175397
14, 363, 0.069854
14, 364, -0.281747
14, 365, -1
14, 366, -1
14, 367, -1
14, 368, -0.263457
14, 369, -0.252484
14, 370, -1
14, 371, -1
14, 372, -1
14, 373, 0.111992
14, 374, -1
14, 375, -0.0802587
14, 376, 0.627804
14, 377, -0.263452
14, 378, -0.263452
14, 379, -1
14, 380, 0.0698691
14, 381, 0.736499
14, 382, 0.0698709
14, 383, 0.0698717
14, 384, -1
14, 385, 0.219837
14, 386, 0.60448
14, 387, -0.943068
14, 388, 0.736513
14, 389, -0.943068
14, 390, 0.069878
14, 391, -1
14, 392, 0.403202
14, 393, -1
14, 394, -0.0796026
14, 395, 0.69453
14, 396, -1
14, 397, -1
14, 398, -1
14, 399, -0.943067
15, 0, -0.29777
15, 1, 0.894784
15, 2, 0.32705
15, 3, -1
15, 4, 0.0701341
15, 5, 0.390867
15, 6, 0.252469
15, 7, -0.553791
15, 8, -0.576251
15, 9, 0.99896
15, 10, -0.46628
15, 11, 0.998965
15, 12, 0.998967
15, 13, 0.775783
15, 14, 0.998972
15, 15, -0.0497858
15, 16, -1
15, 17, 0.416197
15, 18, 0.998983
15, 19, -0.86233
15, 20, -1
15, 21, -1
15, 22, -0.806377
15, 23, 0.157959
15, 24, -0.669719
15, 25, -0.440514
15, 26, 0.321036
15, 27, -1
15, 28, -0.647818
15, 29, 0.106528
15, 30, -0.182023
15, 31, 0.165455
15, 32, -0.458023
15, 33, 0.170152
15, 34, 0.624164
15, 35, 0.491058
15, 36, -0.311862
15, 37, -1
15, 38, -1
15, 39, -1
15, 40, 0.712676
15, 41, -1
15, 42, 0.100977
15, 43, -0.151547
15, 44, 0.586052
15, 45, -1
15, 46, 0.762465
15, 47, 0.88545
15, 48, 0.848564
15, 49, -0.423864
15, 50, 0.999064
15, 51, 0.884965
15, 52, 0.999069
15, 53, 0.516452
15, 54, -0.848171
15, 55, 0.594464
15, 56, 0.893258
15, 57, -0.0405313
15, 58, 0.710264
15, 59, 0.969772
15, 60, 0.28654
15, 61, -1
15, 62, -0.117112
15, 63, 0.607253
15, 64, 0.589459
15, 65, 0.731478
15, 66, 0.440794
15, 67, 0.168361
15, 68, 0.770581
15, 69, -0.143477
15, 70, 0.999115
15, 71, 0.999118
15, 72, -0.218974
15, 73, 0.999123
15, 74, 0.999126
15, 75, 0.905658
15, 76, 0.999131
15, 77, 0.0356039
15, 78, 0.250734
15, 79, -0.794335
15, 80, -1
15, 81, 0.763804
15, 82, 0.85765
15, 83, -0.508084
15, 84, -0.392847
15, 85, 0.208921
15, 86, -1
15, 87, 0.942709
15, 88, 0.123403
15, 89, 0.444162
15, 90, 0.827939
15, 91, 0.999169
15, 92, 0.300366
15, 93, 0.999174
15, 94, 0.645457
15, 95, -1
15, 96, 0.594793
15, 97, 0.946656
15, 98, 0.580082
15, 99, -1
15, 100, 0.921259
15, 101, -1
15, 102, 0.24579
15, 103, 0.714883
15, 104, 0.676129
15, 105, -0.453952
15, 106, 0.635123
15, 107, -1
15, 108, 0.736617
15, 109, 0.999215
15, 110, -0.0775119
15, 111, 0.668379
15, 112, 0.999223
15, 113, -0.857847
15, 114, -1
15, 115, 0.967946
15, 116, -0.025927
15, 117, -1
15, 118, 0.682117
15, 119, -0.334532
15, 120, 0.351018
15, 121, -0.465476
15, 122, -0.941047
15, 123, -0.968588
15, 124, 0.999253
15, 125, -0.123725
15, 126, 0.404148
15, 127, -0.640966
15, 128, 0.999264
15, 129, -1
15, 130, -0.29093
15, 131, 0.293446
15, 132, 0.976711
15, 133, 0.899247
15, 134, -0.821098
15, 135, -0.0433012
15, 136, 0.905344
15, 137, 0.287175
15, 138, -0.225615
15, 139, 0.621716
15, 140, -0.00649678
15, 141, 0.388513
15, 142, -1
15, 143, 0.939498
15, 144, 0.587789
15, 145, -0.562133
15, 146, 0.698491
15, 147, 0.469674
15, 148, -0.225508
15, 149, 0.999317
15, 150, -0.430903
15, 151, 0.948721
15, 152, 0.999325
15, 153, 0.105637
15, 154, 0.492536
15, 155, 0.999333
15, 156, 0.0567642
15, 157, -1
15, 158, 0.99934
15, 159, -1
15, 160, -0.0229497
15, 161, -0.532753
15, 162, 0.259064
15, 163, 0.173718
15, 164, 0.629447
15, 165, 0.426963
15, 166, 0.246995
15, 167, 0.490132
15, 168, 0.854439
15, 169, 0.822228
15, 170, 0.324591
15, 171, -0.800397
15, 172, -0.0826444
15, 173, 0.578006
15, 174, 0.999381
15, 175, 0.515273
15, 176, 0.470915
15, 177, -0.853329
15, 178, -0.174884
15, 179, 0.473647
15, 180, -1
15, 181, 0.445784
15, 182, -0.119492
15, 183, 0.999404
15, 184, -0.0996419
15, 185, 0.0495146
15, 186, -0.162252
15, 187, 0.415053
15, 188, -0.745063
15, 189, -0.238034
15, 190, 0.633118
15, 191, 0.297087
15, 192, -0.582207
15, 193, 0.643804
15, 194, 0.999432
15, 195, 0.977587
15, 196, -1
15, 197, -1
15, 198, 0.00554706
15, 199, 0.454279
15, 200, 0.862684
15, 201, 0.633505
15, 202, 0.480713
15, 203, 0.479116
15, 204, -1
15, 205, 0.0782382
15, 206, -1
15, 207, 0.99085
15, 208, 0.865292
15, 209, 0.959563
15, 210, 0.579333
15, 211, 0.999476
15, 212, 0.95059
15, 213, 0.919143
15, 214, -0.756274
15, 215, -0.488739
15, 216, 0.625036
15, 217, -0.163193
15, 218, 0.440422
15, 219, -1
15, 220, 0.408352
15, 221, 0.858393
15, 222, 0.838025
15, 223, 0.743921
15, 224, -0.32001
15, 225, 0.114609
15, 226, -0.0955434
15, 227, -1
15, 228, -0.028467
15, 229, -0.160292
15, 230, 0.918708
15, 231, 0.910249
15, 232, 0.739477
15, 233, 0.647449
15, 234, 0.544184
15, 235, -0.225717
15, 236, 0.99954
15, 237, 0.800418
15, 238, -0.201552
15, 239, -1
15, 240, -1
15, 241, -1
15, 242, -1
15, 243, 0.469582
15, 244, 0.99956
15, 245, -0.497855
15, 246, 0.0966113
15, 247, -0.0128977
15, 248, 0.815836
15, 249, 0.925987
15, 250, 0.332243
15, 251, 0.745529
15, 252, 0.557837
15, 253, 0.455471
15, 254, 0.536996
15, 255, 0.806061
15, 256, 0.999591
15, 257, 0.967375
15, 258, 0.420184
15, 259, 0.669577
15, 260, -0.1809
15, 261, -0.384328
15, 262, 0.407044
15, 263, 0.154335
15, 264, 0.96757
15, 265, 0.999614
15, 266, -1
15, 267, 0.00924518
15, 268, 0.46485
15, 269, -0.274463
15, 270, -1
15, 271, -0.295977
15, 272, -1
15, 273, 0.0109956
15, 274, 0.581769
15, 275, -0.930238
15, 276, -0.076334
15, 277, -1
15, 278, -0.191164
15, 279, -0.0216601
15, 280, -1
15, 281, 0.595769
15, 282, -0.355682
15, 283, 0.0345826
15, 284, -0.116306
15, 285, 0.144353
15, 286, -0.849215
15, 287, -1
15, 288, -0.910156
15, 289, 0.679769
15, 290, -0.759291
15, 291, 0.574516
15, 292, 0.999683
15, 293, -0.70514
15, 294, 0.0155487
15, 295, 0.374868
15, 296, -1
15, 297, -1
15, 298, 0.225293
15, 299, 0.0925325
15, 300, 0.647868
15, 301, 0.665857
15, 302, 0.866833
15, 303, 0.733803
15, 304, 0.354492
15, 305, 0.759721
15, 306, 0.110912
15, 307, -0.219549
15, 308, 0.345562
15, 309, 0.906786
15, 310, 0.209085
15, 311, 0.440066
15, 312, -0.329038
15, 313, 0.102281
15, 314, 0.920581
15, 315, -0.387882
15, 316, -1
15, 317, 0.999747
15, 318, -0.236545
15, 319, -1
15, 320, -1
15, 321, -1
15, 322, 0.0242959
15, 323, -1
15, 324, 0.0672909
15, 325, 0.494623
15, 326, 0.0641469
15, 327, -0.18917
15, 328, 0.776463
15, 329, 0.903344
15, 330, 0.495388
15, 331, -0.918792
15, 332, -0.29384
15, 333, -0.183953
15, 334, -0.308127
15, 335, -0.845296
15, 336, 0.999795
15, 337, -0.590264
15, 338, -1
15, 339, -0.196506
15, 340, -0.212988
15, 341, 0.269765
15, 342, 0.999811
15, 343, 0.642347
15, 344, 0.556724
15, 345, 0.119214
15, 346, -0.561516
15, 347, 0.999824
15, 348, 0.556399
15, 349, -0.455881
15, 350, 0.935073
15, 351, -0.403279
15, 352, 0.197459
15, 353, 0.921845
15, 354, -0.933413
15, 355, -0.0663043
15, 356, 0.754697
15, 357, 0.350041
15, 358, 0.323643
15, 359, -0.0128584
15, 360, 0.820107
15, 361, -1
15, 362, 0.003618
15, 363, -1
15, 364, -0.405134
15, 365, -1
15, 366, -0.721502
15, 367, -1
15, 368, 0.640624
15, 369, 0.195781
15, 370, -0.210792
15, 371, -1
15, 372, 0.387289
15, 373, 0.737084
15, 374, -0.225303
15, 375, -1
15, 376, -1
15, 377, -0.0346832
15, 378, 0.456071
15, 379, -1
15, 380, 0.21848
15, 381, -1
15, 382, -1
15, 383, 0.933937
15, 384, -1
15, 385, -0.857409
15, 386, -1
15, 387, 0.999926
15, 388, 0.184951
15, 389, 0.833049
15, 390, 0.547018
15, 391, -0.143445
15, 392, 0.655037
15, 393, -0.266205
15, 394, -0.315575
15, 395, 0.966288
15, 396, 0.963572
15, 397, -1
15, 398, 0.344462
15, 399, 0.79274
16, 0, -1
16, 1, -0.943088
16, 2, 0.402658
16, 3, 0.149314
16, 4, 0.735742
16, 5, -1
16, 6, -0.159144
16, 7, 0.0695364
16, 8, -0.487069
16, 9, -1
16, 10, -0.899728
16, 11, 0.795071
16, 12, 0.599104
16, 13, -1
16, 14, -0.13549
16, 15, 0.359733
16, 16, -0.946345
16, 17, -0.442208
16, 18, -1
16, 19, 0.402682
16, 20, 0.735774
16, 21, 0.570061
16, 22, 0.472834
16, 23, -0.26363
16, 24, 0.0695514
16, 25, -1
16, 26, -1
16, 27, 0.0695541
16, 28, -1
16, 29, 0.525142
16, 30, -1
16, 31, -1
16, 32, 0.610884
16, 33, -0.00798241
16, 34, 0.242508
16, 35, 0.389871
16, 36, 0.402705
16, 37, -1
16, 38, -1
16, 39, 0.629162
16, 40, -1
16, 41, -0.824503
16, 42, 0.402714
16, 43, 0.0695683
16, 44, -0.263619
16, 45, -1
16, 46, -0.943086
16, 47, 0.396251
16, 48, -1
