
0, 0, 0.0695443
0, 1, 0.0695452
0, 2, 0.40268
0, 3, -0.263632
0, 4, -1
0, 5, -1
0, 6, 0.735778
0, 7, -1
0, 8, 0.402689
0, 9, -1
0, 10, -1
0, 11, -1
0, 12, 0.139857
0, 13, -1
0, 14, 0.292414
0, 15, -1
0, 16, -0.263625
0, 17, -0.263625
0, 18, 0.402703
0, 19, 0.0695612
0, 20, -1
0, 21, -1
0, 22, -1
0, 23, 0.160558
0, 24, 0.0695656
0, 25, -0.263621
0, 26, 0.402714
0, 27, 0.73582
0, 28, -0.263619
0, 29, -1
0, 30, -1
0, 31, -1
0, 32, 0.480747
0, 33, -1
0, 34, -0.226913
0, 35, 0.31809
0, 36, -1
0, 37, -1
0, 38, 0.40273
0, 39, 0.735844
0, 40, -1
0, 41, 0.402734
0, 42, 0.402736
0, 43, 0.805294
0, 44, 0.402739
0, 45, -0.263611
0, 46, -1
0, 47, -1
0, 48, -0.0211257
0, 49, -0.263609
0, 50, 0.425116
0, 51, 0.156764
0, 52, -0.947769
0, 53, 0.900068
0, 54, -1
0, 55, -1
0, 56, -1
0, 57, 0.402757
0, 58, 0.0695958
0, 59, -0.263604
0, 60, -1
0, 61, -1
0, 62, -1
0, 63, 0.402765
0, 64, 0.667615
0, 65, -1
0, 66, -0.2636
0, 67, -1
0, 68, -1
0, 69, -1
0, 70, 0.0865508
0, 71, -1
0, 72, 0.345143
0, 73, -1
0, 74, -1
0, 75, -0.256735
0, 76, -0.263595
0, 77, 0.73592
0, 78, -0.263594
0, 79, 0.402787
0, 80, -1
0, 81, 0.735928
0, 82, -1
0, 83, 0.069618
0, 84, 0.402794
0, 85, -1
0, 86, -0.26359
0, 87, -0.26359
0, 88, 0.4028
0, 89, -1
0, 90, 0.0147203
0, 91, 0.0847706
0, 92, 0.182252
0, 93, 0.270364
0, 94, -1
0, 95, 0.0696286
0, 96, 0.735958
0, 97, -1
0, 98, -1
0, 99, -1
0, 100, -1
0, 101, 0.735968
0, 102, -1
0, 103, -1
0, 104, 0.735974
0, 105, -1
0, 106, -0.26358
0, 107, -1
0, 108, 0.735982
0, 109, 0.251851
0, 110, -1
0, 111, 0.18985
0, 112, -0.199344
0, 113, -1
0, 114, -1
0, 115, -1
0, 116, -1
0, 117, -0.263575
0, 118, 0.069649
0, 119, 0.736004
0, 120, -1
0, 121, 0.742362
0, 122, -0.263572
0, 123, -1
0, 124, -0.263571
0, 125, 0.0696552
0, 126, -0.34005
0, 127, -1
0, 128, -1
0, 129, -0.496259
0, 130, -1
0, 131, -1
0, 132, -0.621863
0, 133, -1
0, 134, -1
0, 135, -1
0, 136, -1
0, 137, -1
0, 138, -0.263564
0, 139, 0.40287
0, 140, 0.736046
0, 141, 0.0696694
0, 142, -0.263562
0, 143, -0.373716
0, 144, -0.263561
0, 145, -1
0, 146, -0.613964
0, 147, 0.364636
0, 148, -0.310818
0, 149, 0.272733
0, 150, -1
0, 151, 0.14107
0, 152, 0.328343
0, 153, 0.40289
0, 154, 0.069681
0, 155, 0.736076
0, 156, -1
0, 157, 0.402895
0, 158, -1
0, 159, 0.736084
0, 160, -1
0, 161, -1
0, 162, 0.73609
0, 163, -1
0, 164, -1
0, 165, 0.736096
0, 166, -0.201171
0, 167, -1
0, 168, 0.303906
0, 169, 0.546819
0, 170, -0.20425
0, 171, 0.0123302
0, 172, -1
0, 173, 0.402917
0, 174, 0.402919
0, 175, 0.0696996
0, 176, -1
0, 177, -1
0, 178, -1
0, 179, 0.0697031
0, 180, -0.263544
0, 181, -0.263543
0, 182, -1
0, 183, 0.736132
0, 184, 0.736134
0, 185, -1
0, 186, 0.31724
0, 187, -1
0, 188, -1
0, 189, 0.605647
0, 190, 0.248209
0, 191, -1
0, 192, 0.334601
0, 193, -0.263537
0, 194, -1
0, 195, 0.0697173
0, 196, -1
0, 197, -0.263535
0, 198, 0.486775
0, 199, 0.736164
0, 200, -1
0, 201, -1
0, 202, -0.263533
0, 203, -1
0, 204, -1
0, 205, -1
0, 206, 0.0697271
0, 207, 0.717196
0, 208, -1
0, 209, -0.062661
0, 210, -1
0, 211, -0.298049
0, 212, 0.363258
0, 213, -1
0, 214, -0.263527
0, 215, 0.402976
0, 216, 0.069736
0, 217, -1
0, 218, -0.263525
0, 219, -1
0, 220, 0.736205
0, 221, -1
0, 222, -1
0, 223, -1
0, 224, 0.0697431
0, 225, -0.263521
0, 226, -1
0, 227, 0.463026
0, 228, 0.574029
0, 229, 0.559731
0, 230, -1
0, 231, -1
0, 232, 0.402999
0, 233, 0.287054
0, 234, -1
0, 235, -0.263516
0, 236, -0.263516
0, 237, 0.403006
0, 238, -1
0, 239, -0.263514
0, 240, -1
0, 241, -0.263513
0, 242, 0.403013
0, 243, 0.736251
0, 244, 0.403016
0, 245, 0.736255
0, 246, -1
0, 247, -1
0, 248, -1
0, 249, -0.315343
0, 250, -1
0, 251, 0.069767
0, 252, 0.340757
0, 253, 0.346042
0, 254, -1
0, 255, -1
0, 256, 0.736277
0, 257, -1
0, 258, 0.403035
0, 259, 0.403037
0, 260, -0.263504
0, 261, -1
0, 262, -0.263503
0, 263, 0.736291
0, 264, 0.0697786
0, 265, 0.403045
0, 266, -1
0, 267, -1
0, 268, -1
0, 269, -1
0, 270, -1
0, 271, -1
0, 272, 0.0909549
0, 273, -1
0, 274, 0.403057
0, 275, -1
0, 276, 0.736317
0, 277, -1
0, 278, -1
0, 279, 0.0697919
0, 280, 0.0697928
0, 281, -0.263493
0, 282, -1
0, 283, -1
0, 284, 0.736333
0, 285, -1
0, 286, -1
0, 287, 0.0815619
0, 288, 0.117408
0, 289, -0.598997
0, 290, -1
0, 291, 0.755041
0, 292, 0.301298
0, 293, 0.403084
0, 294, 0.403085
0, 295, -1
0, 296, -1
0, 297, -1
0, 298, 0.403091
0, 299, -1
0, 300, -1
0, 301, -1
0, 302, -0.263483
0, 303, 0.0698132
0, 304, 0.403099
0, 305, -1
0, 306, 0.0698158
0, 307, 0.0763013
0, 308, 0.241587
0, 309, 0.531601
0, 310, -1
0, 311, -1
0, 312, 0.667864
0, 313, -1
0, 314, -1
0, 315, -0.263476
0, 316, -1
0, 317, -0.263475
0, 318, 0.736401
0, 319, -0.257364
0, 320, -1
0, 321, -1
0, 322, -1
0, 323, 0.0698309
0, 324, 0.403127
0, 325, -1
0, 326, -1
0, 327, 0.743814
0, 328, -0.144503
0, 329, -1
0, 330, -1
0, 331, 0.411188
0, 332, 0.736429
0, 333, -1
0, 334, -1
0, 335, 0.0698416
0, 336, -1
0, 337, 0.736439
0, 338, -1
0, 339, 0.736443
0, 340, -1
0, 341, -1
0, 342, 0.736449
0, 343, 0.736451
0, 344, -1
0, 345, -1
0, 346, -1
0, 347, 0.263164
0, 348, -0.992264
0, 349, 0.164413
0, 350, 0.689864
0, 351, -1
0, 352, -1
0, 353, -1
0, 354, 0.0698584
0, 355, -0.263456
0, 356, 0.736477
0, 357, -0.0892623
0, 358, -1
0, 359, -1
0, 360, 0.403177
0, 361, 0.736487
0, 362, -1
0, 363, -1
0, 364, -1
0, 365, -1
0, 366, 0.736497
0, 367, -1
0, 368, -0.0961479
0, 369, 0.603237
0, 370, 0.0790531
0, 371, -1
0, 372, 0.0939133
0, 373, 0.0698753
0, 374, 0.403196
0, 375, -1
0, 376, 0.069878
0, 377, -0.263445
0, 378, -1
0, 379, 0.403203
0, 380, -0.263444
0, 381, 0.736527
0, 382, 0.736529
0, 383, -1
0, 384, 0.40321
0, 385, -0.263441
0, 386, -1
0, 387, -1
0, 388, 0.712353
0, 389, -0.311851
0, 390, 0.608837
0, 391, 0.0698913
0, 392, -1
0, 393, -0.263437
0, 394, 0.0698939
0, 395, -1
0, 396, 0.0698957
0, 397, -0.263435
0, 398, -1
0, 399, -1
1, 0, -0.0163235
1, 1, -0.263633
1, 2, 0.402679
1, 3, -0.23616
1, 4, -1
1, 5, -0.263631
1, 6, 0.735776
1, 7, -1
1, 8, -1
1, 9, 0.735782
1, 10, 0.40269
1, 11, -1
1, 12, 0.0695541
1, 13, 0.069555
1, 14, -1
1, 15, -1
1, 16, 0.735796
1, 17, 0.0695585
1, 18, -0.263625
1, 19, 0.402703
1, 20, 0.735804
1, 21, 0.678327
1, 22, -1
1, 23, 0.73581
1, 24, -1
1, 25, 0.0695656
1, 26, -1
1, 27, 0.0695674
1, 28, -1
1, 29, 0.346294
1, 30, 0.0695701
1, 31, 0.776942
1, 32, 0.735828
1, 33, -0.263617
1, 34, 0.0867516
1, 35, 0.0695745
1, 36, 0.0695754
1, 37, -1
1, 38, 0.73584
1, 39, -1
1, 40, 0.0695789
1, 41, 0.402733
1, 42, -0.263613
1, 43, -1
1, 44, -1
1, 45, -0.263611
1, 46, -1
1, 47, 0.735858
1, 48, 0.73586
1, 49, -1
1, 50, 0.0695878
1, 51, 0.402747
1, 52, -1
1, 53, -1
1, 54, -1
1, 55, -1
1, 56, 0.735876
1, 57, -1
1, 58, -0.263605
1, 59, 0.402758
1, 60, 0.0695967
1, 61, 0.402761
1, 62, 0.0695985
1, 63, -0.263602
1, 64, 0.735892
1, 65, 0.402766
1, 66, -1
1, 67, -1
1, 68, 0.40277
1, 69, 0.402772
1, 70, 0.0696055
1, 71, -1
1, 72, -0.263598
1, 73, 0.73591
1, 74, -1
1, 75, -1
1, 76, -1
1, 77, -1
1, 78, -1
1, 79, 0.735922
1, 80, -1
1, 81, 0.0696153
1, 82, -1
1, 83, 0.7801
1, 84, 0.735932
1, 85, 0.402794
1, 86, 0.402795
1, 87, 0.700679
1, 88, -0.26359
1, 89, 0.735942
1, 90, -1
1, 91, -1
1, 92, -1
1, 93, 0.069626
1, 94, 0.100354
1, 95, -1
1, 96, -0.263586
1, 97, -0.263585
1, 98, -1
1, 99, 0.705381
1, 100, -1
1, 101, 0.0696331
1, 102, -1
1, 103, -0.263582
1, 104, -1
1, 105, -1
1, 106, 0.402823
1, 107, -1
1, 108, 0.589791
1, 109, 0.0696401
1, 110, -1
1, 111, 0.735986
1, 112, -1
1, 113, -1
1, 114, -0.394182
1, 115, 0.735994
1, 116, -1
1, 117, 0.735998
1, 118, 0.40284
1, 119, -1
1, 120, 0.402843
1, 121, -1
1, 122, -1
1, 123, 0.73601
1, 124, -1
1, 125, 0.0696543
1, 126, 0.736016
1, 127, -0.26357
1, 128, -1
1, 129, 0.736022
1, 130, -0.263569
1, 131, 0.736026
1, 132, -1
1, 133, -1
1, 134, -1
1, 135, -0.263566
1, 136, -1
1, 137, 0.402866
1, 138, -0.324059
1, 139, 0.402869
1, 140, -0.293112
1, 141, -1
1, 142, 0.0696694
1, 143, 0.0696703
1, 144, 0.0696712
1, 145, -1
1, 146, -0.263561
1, 147, -1
1, 148, -1
1, 149, 0.736062
1, 150, 0.0696765
1, 151, -0.263558
1, 152, 0.0696783
1, 153, 0.73607
1, 154, -1
1, 155, -1
1, 156, -1
1, 157, 0.736078
1, 158, -0.263555
1, 159, 0.736082
1, 160, 0.402898
1, 161, 0.0696863
1, 162, 0.401481
1, 163, -1
1, 164, 0.0696889
1, 165, 0.736094
1, 166, -1
1, 167, -1
1, 168, 0.0696925
1, 169, -0.247378
1, 170, -1
1, 171, -1
1, 172, 0.736108
1, 173, 0.0696969
1, 174, 0.402917
1, 175, -1
1, 176, -0.263546
1, 177, 0.66603
1, 178, 0.0697014
1, 179, -1
1, 180, 0.0276786
1, 181, -1
1, 182, 0.0697049
1, 183, -1
1, 184, 0.402931
1, 185, 0.402933
1, 186, 0.736136
1, 187, 0.0697094
1, 188, -1
1, 189, -1
1, 190, -0.263539
1, 191, -1
1, 192, 0.402942
1, 193, -1
1, 194, 0.736152
1, 195, -1
1, 196, -1
1, 197, 0.402949
1, 198, -0.263535
1, 199, 0.310011
1, 200, -1
1, 201, -0.225186
1, 202, 0.168869
1, 203, 0.0697235
1, 204, 0.736171
1, 205, -1
1, 206, 0.736175
1, 207, -1
1, 208, 0.736179
1, 209, 0.0697289
1, 210, -0.263529
1, 211, -0.263529
1, 212, -0.263528
1, 213, 0.402971
1, 214, -0.263527
1, 215, -1
1, 216, -1
1, 217, -1
1, 218, 0.711351
1, 219, 0.0697377
1, 220, -1
1, 221, -1
1, 222, -0.263523
1, 223, 0.402985
1, 224, -1
1, 225, -1
1, 226, 0.402989
1, 227, -1
1, 228, 0.402992
1, 229, -1
1, 230, 0.402995
1, 231, -0.263519
1, 232, 0.402998
1, 233, -1
1, 234, -1
1, 235, 0.0103902
1, 236, -1
1, 237, -1
1, 238, 0.0587778
1, 239, -1
1, 240, -1
1, 241, 0.454726
1, 242, -1
1, 243, 0.403013
1, 244, -0.263512
1, 245, -1
1, 246, 0.403017
1, 247, -0.263511
1, 248, -0.225368
1, 249, -0.237253
1, 250, -1
1, 251, 0.0697661
1, 252, -1
1, 253, -1
1, 254, -1
1, 255, -0.263507
1, 256, -1
1, 257, -1
1, 258, 0.403034
1, 259, 0.0697732
1, 260, -1
1, 261, -1
1, 262, -1
1, 263, 0.403041
1, 264, -1
1, 265, -1
1, 266, -1
1, 267, -1
1, 268, -0.182711
1, 269, 0.145566
1, 270, -1
1, 271, -1
1, 272, -1
1, 273, -1
1, 274, 0.0697865
1, 275, 0.0697874
1, 276, 0.0697883
1, 277, -1
1, 278, -1
1, 279, -1
1, 280, -1
1, 281, 0.449016
1, 282, -0.263493
1, 283, -0.263493
1, 284, 0.736331
1, 285, -0.176615
1, 286, 0.0697972
1, 287, -1
1, 288, -1
1, 289, -1
1, 290, 0.0698007
1, 291, -0.263489
1, 292, -1
1, 293, 0.0698034
1, 294, 0.736351
1, 295, -1
1, 296, -1
1, 297, -1
1, 298, 0.0698078
1, 299, -1
1, 300, -1
1, 301, -0.292863
1, 302, 0.736367
1, 303, 0.403096
1, 304, 0.403098
1, 305, -1
1, 306, -1
1, 307, -1
1, 308, -1
1, 309, -1
1, 310, 0.736383
1, 311, 0.736385
1, 312, 0.403109
1, 313, -1
1, 314, -1
1, 315, -1
1, 316, -0.263476
1, 317, 0.403116
1, 318, -1
1, 319, 0.698883
1, 320, 0.736403
1, 321, -1
1, 322, -1
1, 323, 0.736409
1, 324, 0.0698309
1, 325, -1
1, 326, -1
1, 327, 0.736417
1, 328, 0.736419
1, 329, -0.151869
1, 330, 0.403134
1, 331, -1
1, 332, 0.736427
1, 333, -0.22685
1, 334, 0.582877
1, 335, 0.0698407
1, 336, -1
1, 337, 0.403143
1, 338, -0.286419
1, 339, -1
1, 340, -0.263464
1, 341, -1
1, 342, -1
1, 343, 0.736449
1, 344, -1
1, 345, -1
1, 346, -1
1, 347, 0.295984
1, 348, 0.736459
1, 349, -1
1, 350, 0.0784368
1, 351, 0.403163
1, 352, -0.291218
1, 353, 0.0698567
1, 354, 0.0698575
1, 355, -1
1, 356, 0.0698593
1, 357, -0.112852
1, 358, 0.0698611
1, 359, -0.194333
1, 360, -1
1, 361, -0.263454
1, 362, -0.263453
1, 363, 0.736489
1, 364, 0.0698664
1, 365, -1
1, 366, -1
1, 367, 0.664528
1, 368, 0.06987
1, 369, -0.26345
1, 370, -1
1, 371, -1
1, 372, 0.403192
1, 373, -1
1, 374, 0.736511
1, 375, -1
1, 376, -0.263446
1, 377, 0.403199
1, 378, -0.263445
1, 379, -1
1, 380, 0.0698806
1, 381, 0.736525
1, 382, 0.736527
1, 383, -1
1, 384, -0.263442
1, 385, -1
1, 386, 0.403211
1, 387, -1
1, 388, 0.403214
1, 389, -1
1, 390, -1
1, 391, -0.263439
1, 392, 0.0225083
1, 393, -0.263438
1, 394, -1
1, 395, 0.736553
1, 396, -0.217837
1, 397, -1
1, 398, 0.403228
1, 399, -1
2, 0, -0.447327
2, 1, -1
2, 2, 0.679588
2, 3, 0.795969
2, 4, -1
2, 5, -1
2, 6, -1
2, 7, -0.686428
2, 8, -1
2, 9, -1
2, 10, -1
2, 11, -1
2, 12, -1
2, 13, -1
2, 14, -1
2, 15, -1
2, 16, -0.832939
2, 17, -0.453104
2, 18, -1
2, 19, 0.456874
2, 20, -1
2, 21, -1
2, 22, 0.999026
2, 23, 0.148215
2, 24, -1
2, 25, -0.0039001
2, 26, -1
2, 27, -1
2, 28, -0.860456
2, 29, -1
2, 30, -1
2, 31, -1
2, 32, -1
2, 33, -1
2, 34, 0.580888
2, 35, 0.53481
2, 36, 0.219799
2, 37, -0.170175
2, 38, -0.296312
2, 39, 0.028701
2, 40, -1
2, 41, 0.0718457
2, 42, -0.35706
2, 43, -0.846836
2, 44, -0.230326
2, 45, -0.922369
2, 46, -1
2, 47, 0.116904
2, 48, 0.105141
2, 49, -1
2, 50, 0.999098
2, 51, -1
2, 52, 0.999103
2, 53, -0.746521
2, 54, -0.304831
2, 55, 0.260987
2, 56, -0.799971
2, 57, 0.781097
2, 58, -0.133198
2, 59, 0.999121
2, 60, -1
2, 61, 0.696762
2, 62, -1
2, 63, -1
2, 64, 0.312076
2, 65, 0.535127
2, 66, -0.0580571
2, 67, -1
2, 68, -0.653611
2, 69, 0.300622
2, 70, -0.831851
2, 71, -1
2, 72, 0.0877932
2, 73, -1
2, 74, -1
2, 75, -1
2, 76, -1
2, 77, -1
2, 78, 0.993369
2, 79, -0.105495
2, 80, 0.107321
2, 81, -0.166332
2, 82, -0.0770039
2, 83, -0.897451
2, 84, -0.468552
2, 85, -0.788475
2, 86, -0.353563
2, 87, -0.631531
2, 88, -1
2, 89, 0.0805003
2, 90, 0.411598
2, 91, -1
2, 92, 0.966799
2, 93, -0.268923
2, 94, -0.0599487
2, 95, 0.170043
2, 96, -0.112881
2, 97, -1
2, 98, -0.00779178
2, 99, -1
2, 100, -0.141765
2, 101, -1
2, 102, -1
2, 103, -1
2, 104, 0.208978
2, 105, 0.0321969
2, 106, 0.755671
2, 107, -1
2, 108, -1
2, 109, 0.66466
2, 110, -0.658545
2, 111, -0.87997
2, 112, -0.0299772
2, 113, -1
2, 114, -1
2, 115, -0.255299
2, 116, 0.406689
2, 117, -0.922238
2, 118, -1
2, 119, -1
2, 120, -1
2, 121, -0.00443106
2, 122, 0.143764
2, 123, -0.68836
2, 124, -0.184329
2, 125, 0.181678
2, 126, 0.425027
2, 127, -0.987088
2, 128, 0.84721
2, 129, -0.896726
2, 130, -0.632435
2, 131, 0.228217
2, 132, -0.0601966
2, 133, 0.248538
2, 134, 0.620549
2, 135, -0.488798
2, 136, -1
2, 137, -0.2704
2, 138, -0.524479
2, 139, -1
2, 140, -1
2, 141, -0.105384
2, 142, -1
2, 143, 0.888129
2, 144, 0.338368
2, 145, 0.370777
2, 146, 0.385525
2, 147, 0.801444
2, 148, -0.904679
2, 149, -0.338312
2, 150, 0.125396
2, 151, -1
2, 152, 0.0462038
2, 153, 0.692355
2, 154, -0.209855
2, 155, 0.0219717
2, 156, -0.191246
2, 157, 0.475085
2, 158, 0.581151
2, 159, -1
2, 160, -0.95154
2, 161, 0.819706
2, 162, 0.143165
2, 163, 0.621745
2, 164, 0.691699
2, 165, 0.355908
2, 166, 0.707548
2, 167, -0.0433936
2, 168, 0.416424
2, 169, -1
2, 170, 0.571974
2, 171, 0.792947
2, 172, -1
2, 173, -0.103538
2, 174, 0.600973
2, 175, 0.0394587
2, 176, -1
2, 177, 0.651987
2, 178, -0.891404
2, 179, -1
2, 180, 0.230624
2, 181, 0.56343
2, 182, 0.945929
2, 183, 0.230085
2, 184, -0.253755
2, 185, 0.651044
2, 186, -0.116242
2, 187, 0.751945
2, 188, 0.99945
2, 189, 0.279711
2, 190, -1
2, 191, 0.655463
2, 192, 0.919064
2, 193, 0.0891279
2, 194, 0.153153
2, 195, 0.999468
2, 196, -0.509839
2, 197, -0.133014
2, 198, 0.2011
2, 199, -0.641678
2, 200, 0.999481
2, 201, 0.91421
2, 202, 0.590548
2, 203, 0.803181
2, 204, 0.448436
2, 205, 0.665943
2, 206, 0.0702603
2, 207, -1
2, 208, 0.529693
2, 209, 0.901006
2, 210, -1
2, 211, -0.436
2, 212, 0.922297
2, 213, 0.52114
2, 214, -1
2, 215, 0.0577983
2, 216, 0.14973
2, 217, -0.271688
2, 218, 0.035479
2, 219, -0.24012
2, 220, 0.75076
2, 221, 0.8876
2, 222, -1
2, 223, 0.834297
2, 224, 0.681717
2, 225, 0.440924
2, 226, 0.894247
2, 227, 0.792724
2, 228, 0.650746
2, 229, 0.573453
2, 230, 0.732337
2, 231, 0.870763
2, 232, -0.0466676
2, 233, 0.910306
2, 234, -0.653207
2, 235, -0.0486001
2, 236, 0.424913
2, 237, -0.216525
2, 238, -0.281575
2, 239, 0.581982
2, 240, -0.742977
2, 241, -0.154144
2, 242, -0.0699083
2, 243, 0.752345
2, 244, 0.00111334
2, 245, 0.893452
2, 246, 0.855493
2, 247, -1
2, 248, -0.69905
2, 249, -1
2, 250, -0.232432
2, 251, -1
2, 252, 0.241959
2, 253, 0.352674
2, 254, -1
2, 255, -0.115043
2, 256, -1
2, 257, 0.162607
2, 258, 0.445164
2, 259, -0.575759
2, 260, -0.474678
2, 261, -0.17379
2, 262, 0.799661
2, 263, 0.912321
2, 264, 0.781644
2, 265, 0.341547
2, 266, -1
2, 267, 0.99807
2, 268, -0.293236
2, 269, 0.999657
2, 270, 0.00140349
2, 271, 0.897421
2, 272, 0.411506
2, 273, 0.395577
2, 274, 0.667879
2, 275, -0.592946
2, 276, -1
2, 277, -0.771641
2, 278, -1
2, 279, -1
2, 280, -0.714059
2, 281, -1
2, 282, 0.178016
2, 283, -0.981339
2, 284, 0.0130843
2, 285, -1
2, 286, -0.610592
2, 287, -1
2, 288, 0.773377
2, 289, -0.207035
2, 290, -0.208869
2, 291, -0.069369
2, 292, 0.578543
2, 293, -1
2, 294, 0.0337983
2, 295, -1
2, 296, -0.626024
2, 297, -0.827189
2, 298, -1
2, 299, -1
2, 300, -1
2, 301, -0.0636599
2, 302, -1
2, 303, -1
2, 304, -1
2, 305, -1
2, 306, -1
2, 307, -1
2, 308, -1
2, 309, 0.0759932
2, 310, 0.258993
2, 311, -0.940412
2, 312, -0.571409
2, 313, 0.507973
2, 314, 0.368393
2, 315, -0.815367
2, 316, -0.489123
2, 317, -1
2, 318, -1
2, 319, -1
2, 320, -1
2, 321, -1
2, 322, -1
2, 323, -1
2, 324, -1
2, 325, -1
2, 326, -1
2, 327, -1
2, 328, -1
2, 329, -0.489534
2, 330, -0.834536
2, 331, -1
2, 332, -1
2, 333, -1
2, 334, -1
2, 335, -0.226578
2, 336, -0.248495
2, 337, -0.130049
2, 338, -0.883527
2, 339, -1
2, 340, -1
2, 341, -0.808783
2, 342, -1
2, 343, -1
2, 344, -1
2, 345, -0.395555
2, 346, -1
2, 347, -1
2, 348, 0.423264
2, 349, -0.684873
2, 350, -0.888544
2, 351, 0.434533
2, 352, -1
2, 353, -1
2, 354, -1
2, 355, -1
2, 356, 0.201596
2, 357, 0.38068
2, 358, -0.654684
2, 359, 0.722395
2, 360, -0.970923
2, 361, 0.106347
2, 362, -1
2, 363, -1
2, 364, -0.865103
2, 365, -1
2, 366, -0.021341
2, 367, -0.551496
2, 368, -1
2, 369, -0.144592
2, 370, -0.547093
2, 371, -1
2, 372, 0.485433
2, 373, 0.647079
2, 374, -0.621745
2, 375, 0.853293
2, 376, 0.491074
2, 377, 0.169233
2, 378, 0.462846
2, 379, 0.80917
2, 380, -1
2, 381, 0.237799
2, 382, -0.914742
2, 383, -1
2, 384, 0.026652
2, 385, 0.467542
2, 386, -1
2, 387, -1
2, 388, -1
2, 389, -0.981026
2, 390, -1
2, 391, 0.682818
2, 392, -0.745683
2, 393, -0.53816
2, 394, 0.333171
2, 395, 0.274749
2, 396, 0.767802
2, 397, 0.799733
2, 398, 0.865516
2, 399, -0.0830855
3, 0, -1
3, 1, 0.735762
3, 2, -1
3, 3, 0.735766
3, 4, 0.411606
3, 5, -1
3, 6, 0.069547
3, 7, 0.735774
3, 8, -1
3, 9, -1
3, 10, 0.158092
3, 11, -0.387605
3, 12, 0.0400367
3, 13, -1
3, 14, -1
3, 15, 0.73579
3, 16, -0.263627
3, 17, -1
3, 18, 0.735796
3, 19, -0.263625
3, 20, 0.7358
3, 21, 0.402703
3, 22, -0.263624
3, 23, -1
3, 24, -1
3, 25, 0.332578
3, 26, -1
3, 27, -1
3, 28, 0.0512044
3, 29, 0.427231
3, 30, -1
3, 31, 0.402716
3, 32, 0.0695701
3, 33, -1
3, 34, -0.626898
3, 35, -1
3, 36, -1
3, 37, 0.0695745
3, 38, 0.402726
3, 39, -1
3, 40, 0.402729
3, 41, -1
3, 42, 0.0835409
3, 43, -1
3, 44, -1
3, 45, 0.178903
3, 46, 0.511246
3, 47, -0.35182
3, 48, 0.894912
3, 49, -0.505378
3, 50, -0.230873
3, 51, -0.0553845
3, 52, -1
3, 53, -1
3, 54, -0.263608
3, 55, -0.263607
3, 56, 0.402751
3, 57, -0.263606
3, 58, -1
3, 59, -1
3, 60, -1
3, 61, -0.208241
3, 62, 0.329264
3, 63, -0.0807556
3, 64, 0.0695985
3, 65, -1
3, 66, -0.263602
3, 67, 0.112755
3, 68, 0.663661
3, 69, -0.937151
3, 70, 0.127504
3, 71, -1
3, 72, 0.0163765
3, 73, -1
3, 74, -0.263598
3, 75, 0.402777
3, 76, 0.735912
3, 77, -1
3, 78, -1
3, 79, 0.0696118
3, 80, 0.73592
3, 81, 0.333376
3, 82, -1
3, 83, -1
3, 84, 0.0696162
3, 85, -1
3, 86, -0.881387
3, 87, -1
3, 88, 0.727536
3, 89, 0.0756463
3, 90, -1
3, 91, 0.667036
3, 92, 0.625209
3, 93, -1
3, 94, -1
3, 95, -1
3, 96, -1
3, 97, 0.402808
3, 98, 0.353014
3, 99, -1
3, 100, 0.361138
3, 101, -0.263584
3, 102, -0.23879
3, 103, -1
3, 104, 0.167614
3, 105, -0.725634
3, 106, -0.305422
3, 107, -1
3, 108, 0.0152111
3, 109, -0.329475
3, 110, 0.274127
3, 111, -1
3, 112, 0.93215
3, 113, -0.117286
3, 114, -1
3, 115, -1
3, 116, -1
3, 117, 0.402836
3, 118, -1
3, 119, 0.00953228
3, 120, -1
3, 121, 0.402841
3, 122, -1
3, 123, 0.266478
3, 124, 0.0696517
3, 125, -1
3, 126, -1
3, 127, 0.598016
3, 128, 0.276568
3, 129, 0.485231
3, 130, -0.0639675
3, 131, -1
3, 132, -1
3, 133, -0.142543
3, 134, -1
3, 135, -0.474692
3, 136, 0.788554
3, 137, 0.402863
3, 138, -1
3, 139, -1
3, 140, -1
3, 141, -1
3, 142, -1
3, 143, 0.709638
3, 144, -0.357583
3, 145, -0.596628
3, 146, -1
3, 147, -1
3, 148, 0.468095
3, 149, -1
3, 150, -0.276031
3, 151, -1
3, 152, -1
3, 153, -0.18931
3, 154, 0.597003
3, 155, -1
3, 156, -0.230205
3, 157, 0.097844
3, 158, 0.645422
3, 159, -1
3, 160, -1
3, 161, -1
3, 162, -1
3, 163, -1
3, 164, 0.077128
3, 165, -0.263552
3, 166, -1
3, 167, -0.287748
3, 168, 0.771202
3, 169, 0.0843949
3, 170, -0.10943
3, 171, 0.999404
3, 172, -0.252681
3, 173, -0.0937352
3, 174, -0.238909
3, 175, 0.419546
3, 176, -1
3, 177, -0.263547
3, 178, 0.736116
3, 179, -1
3, 180, 0.402923
3, 181, -0.263545
3, 182, 0.402926
3, 183, -0.905985
3, 184, 0.232988
3, 185, -1
3, 186, 0.366581
3, 187, -1
3, 188, 0.796589
3, 189, -1
3, 190, -1
3, 191, -1
3, 192, 0.0972207
3, 193, -1
3, 194, -1
3, 195, -1
3, 196, -0.263537
3, 197, -1
3, 198, 0.0697173
3, 199, -1
3, 200, 0.402951
3, 201, 0.736162
3, 202, 0.108103
3, 203, 0.675872
3, 204, -0.163771
3, 205, -1
3, 206, -0.0903272
3, 207, -1
3, 208, -0.148733
3, 209, 0.0697271
3, 210, -1
3, 211, -1
3, 212, -0.110622
3, 213, 0.25861
3, 214, -0.263528
3, 215, -1
3, 216, -1
3, 217, -1
3, 218, -1
3, 219, -1
3, 220, -1
3, 221, -1
3, 222, 0.736203
3, 223, 0.0923622
3, 224, -1
3, 225, 0.402985
3, 226, 0.464348
3, 227, -1
3, 228, 0.378382
3, 229, -1
3, 230, -1
3, 231, -0.911672
3, 232, 0.0584871
3, 233, 0.368024
3, 234, -0.263518
3, 235, 0.43536
3, 236, 0.736231
3, 237, -1
3, 238, -1
3, 239, -0.263516
3, 240, -1
3, 241, 0.736241
3, 242, -1
3, 243, 0.40301
3, 244, -0.0168157
3, 245, 0.124981
3, 246, -1
3, 247, -0.675798
3, 248, -1
3, 249, 0.775588
3, 250, -0.201809
3, 251, -0.905008
3, 252, 0.458229
3, 253, -1
3, 254, 0.481687
3, 255, 0.0697679
3, 256, -0.263507
3, 257, 0.0697697
3, 258, 0.403031
3, 259, -1
3, 260, -1
3, 261, 0.736281
3, 262, 0.403037
3, 263, -1
3, 264, 0.0697759
3, 265, 0.757913
3, 266, 0.59421
3, 267, -0.672288
3, 268, 0.019351
3, 269, 0.535352
3, 270, -0.350651
3, 271, 0.531853
3, 272, 0.344961
3, 273, 0.263941
3, 274, 0.0281089
3, 275, -1
3, 276, -1
3, 277, -1
3, 278, -0.263496
3, 279, -1
3, 280, -1
3, 281, 0.069791
3, 282, -1
3, 283, 0.403066
3, 284, -0.263493
3, 285, -1
3, 286, -1
3, 287, 0.669186
3, 288, -0.386615
3, 289, 0.377434
3, 290, -1
3, 291, 0.295679
3, 292, -0.190624
3, 293, 0.601734
3, 294, 0.341509
3, 295, 0.769515
3, 296, 0.083156
3, 297, -0.0684575
3, 298, -1
3, 299, -1
3, 300, -1
3, 301, -0.752727
3, 302, 0.736363
3, 303, 0.403093
3, 304, -1
3, 305, -1
3, 306, 0.151692
3, 307, -1
3, 308, -0.262515
3, 309, -1
3, 310, -1
3, 311, -1
3, 312, -0.409857
3, 313, -0.19147
3, 314, 0.377747
3, 315, 0.525218
3, 316, -1
3, 317, -1
3, 318, 0.403114
3, 319, 0.403116
3, 320, 0.403117
3, 321, -1
3, 322, -0.206323
3, 323, -1
3, 324, 0.482195
3, 325, -1
3, 326, 0.403125
3, 327, -1
3, 328, -0.107493
3, 329, 0.808903
3, 330, -1
3, 331, 0.208559
3, 332, -1
3, 333, 0.336183
3, 334, -1
3, 335, -1
3, 336, 0.665776
3, 337, 0.403141
3, 338, -1
3, 339, -1
3, 340, -0.263465
3, 341, -1
3, 342, -1
3, 343, 0.736445
3, 344, -0.263463
3, 345, -1
3, 346, 0.403153
3, 347, -0.126725
3, 348, 0.530406
3, 349, -0.563261
3, 350, -1
3, 351, -1
3, 352, -0.0375627
3, 353, -0.0418832
3, 354, 0.649623
3, 355, -1
3, 356, 0.553973
3, 357, 0.0698584
3, 358, 0.40317
3, 359, -1
3, 360, -1
3, 361, 0.069862
3, 362, 0.736483
3, 363, 0.0698638
3, 364, -1
3, 365, -1
3, 366, 0.196475
3, 367, 0.731005
3, 368, 0.358667
3, 369, 0.118365
3, 370, 0.830567
3, 371, -1
3, 372, 0.0200701
3, 373, -1
3, 374, -1
3, 375, 0.295794
3, 376, 0.736511
3, 377, 0.736513
3, 378, -1
3, 379, 0.069878
3, 380, -1
3, 381, -1
3, 382, 0.403203
3, 383, -0.288691
3, 384, 0.649096
3, 385, 0.377646
3, 386, -0.10335
3, 387, -0.0528518
3, 388, -1
3, 389, -1
3, 390, 0.403214
3, 391, 0.0698886
3, 392, 0.0698895
3, 393, 0.00630117
3, 394, 0.47935
3, 395, 0.345444
3, 396, -1
3, 397, -1
3, 398, 0.0698948
3, 399, -1
4, 0, -0.263635
4, 1, -0.124302
4, 2, -1
4, 3, -1
4, 4, 0.406505
4, 5, 0.735768
4, 6, 0.469236
4, 7, 0.402682
4, 8, -0.263631
4, 9, 0.735776
4, 10, -1
4, 11, 0.379838
4, 12, -1
4, 13, 0.905483
4, 14, -1
4, 15, 0.735788
4, 16, 0.069555
4, 17, -0.263627
4, 18, -1
4, 19, 0.0695576
4, 20, -0.264612
4, 21, 0.7358
4, 22, 0.735802
4, 23, 0.402704
4, 24, -1
4, 25, -0.301509
4, 26, -0.263622
4, 27, 0.0695647
4, 28, -0.263621
4, 29, -1
4, 30, 0.402714
4, 31, 0.63646
4, 32, 0.402716
4, 33, -0.263619
4, 34, 0.356877
4, 35, -1
4, 36, -1
4, 37, -0.263617
4, 38, 0.0695745
4, 39, 0.402726
4, 40, -1
4, 41, 0.402729
4, 42, -0.263614
4, 43, -1
4, 44, -1
4, 45, -0.263613
4, 46, 0.0695816
4, 47, 0.0695825
4, 48, 0.333726
4, 49, 0.344819
4, 50, -1
4, 51, -1
4, 52, 0.392989
4, 53, 0.735864
4, 54, 0.385933
4, 55, -1
4, 56, -1
4, 57, -1
4, 58, -1
4, 59, -0.230401
4, 60, -1
4, 61, 0.402757
4, 62, -0.263604
4, 63, 0.735884
4, 64, -1
4, 65, -1
4, 66, 0.402763
4, 67, -1
4, 68, -1
4, 69, -1
4, 70, -1
4, 71, -1
4, 72, 0.796204
4, 73, -1
4, 74, -1
4, 75, -1
4, 76, -1
4, 77, 0.0333329
4, 78, -0.263596
4, 79, 0.735916
4, 80, -0.155144
4, 81, -1
4, 82, 0.714794
4, 83, 0.715746
4, 84, -1
4, 85, -0.263593
4, 86, 0.0696171
4, 87, -1
4, 88, -0.690707
4, 89, 0.661633
4, 90, -0.276783
4, 91, -1
4, 92, -0.271081
4, 93, -0.00055871
4, 94, 0.62421
4, 95, 0.145376
4, 96, -0.263587
4, 97, 0.0696268
4, 98, 0.737121
4, 99, 0.0696286
4, 100, 0.402811
4, 101, 0.0696304
4, 102, 0.402813
4, 103, -1
4, 104, -0.581796
4, 105, -0.263583
4, 106, -1
4, 107, 0.558252
4, 108, -1
4, 109, 0.281476
4, 110, 0.137163
4, 111, -1
4, 112, -1
4, 113, -0.559234
4, 114, 0.783427
4, 115, 0.737096
4, 116, 0.10891
4, 117, -1
4, 118, 0.652856
4, 119, 0.460957
4, 120, 0.271995
4, 121, -0.06032
4, 122, -1
4, 123, -1
4, 124, -1
4, 125, 0.895046
4, 126, 0.379539
4, 127, -1
4, 128, -1
4, 129, -1
4, 130, 0.807303
4, 131, 0.513956
4, 132, 0.459685
4, 133, -1
4, 134, -1
4, 135, 0.558786
4, 136, 0.80082
4, 137, -1
4, 138, 0.402863
4, 139, 0.402865
4, 140, 0.069665
4, 141, -1
4, 142, -1
4, 143, 0.108648
4, 144, -0.134289
4, 145, -0.0059577
4, 146, -1
4, 147, -1
4, 148, 0.402877
4, 149, -1
4, 150, -0.409927
4, 151, -0.262989
4, 152, -1
4, 153, -0.14814
4, 154, -0.934113
4, 155, -1
4, 156, -1
4, 157, -1
4, 158, -0.263556
4, 159, -1
4, 160, -1
4, 161, -1
4, 162, 0.807963
4, 163, 0.135395
4, 164, -0.0963015
4, 165, 0.347487
4, 166, -0.263552
4, 167, -0.304546
4, 168, 0.402905
4, 169, -1
4, 170, 0.631825
4, 171, -1
4, 172, -1
4, 173, 0.663937
4, 174, 0.225338
4, 175, 0.376291
4, 176, -1
4, 177, -1
4, 178, -0.263547
4, 179, 0.0696996
4, 180, -1
4, 181, 0.73612
4, 182, -1
4, 183, -1
4, 184, -1
4, 185, -1
4, 186, -0.0216386
4, 187, -1
4, 188, -1
4, 189, 0.689134
4, 190, 0.689686
4, 191, -1
4, 192, -1
4, 193, 0.644529
4, 194, 0.227279
4, 195, -0.312467
4, 196, -1
4, 197, -1
4, 198, 0.402946
4, 199, -1
4, 200, -1
4, 201, 0.0697191
4, 202, -1
4, 203, -1
4, 204, -1
4, 205, -1
4, 206, 0.65392
4, 207, -0.263532
4, 208, 0.40296
4, 209, -1
4, 210, -1
4, 211, -1
4, 212, 0.798027
4, 213, -1
4, 214, -1
4, 215, 0.736187
4, 216, -1
4, 217, -0.263527
4, 218, 0.736193
4, 219, -1
4, 220, -1
4, 221, 0.736199
4, 222, -0.263525
4, 223, -1
4, 224, -0.259411
4, 225, 0.72996
4, 226, 0.0108876
4, 227, 0.351186
4, 228, 0.402988
4, 229, -1
4, 230, 0.404192
4, 231, 0.455548
4, 232, 0.453768
4, 233, -1
4, 234, 0.736225
4, 235, -1
4, 236, 0.736229
4, 237, 0.792116
4, 238, -0.263517
4, 239, -0.0443208
4, 240, 0.599082
4, 241, -1
4, 242, -1
4, 243, 0.874503
4, 244, -1
4, 245, -1
4, 246, 0.403013
4, 247, -1
4, 248, 0.573602
4, 249, -0.272938
4, 250, -1
4, 251, 0.285506
4, 252, -1
4, 253, -0.225922
4, 254, 0.586418
4, 255, -1
4, 256, -1
4, 257, -1
4, 258, 0.736273
4, 259, 0.736275
4, 260, -1
4, 261, -1
4, 262, 0.0697732
4, 263, -1
4, 264, -1
4, 265, -0.0574169
4, 266, -1
4, 267, 0.84772
4, 268, -1
4, 269, -1
4, 270, -1
4, 271, 0.207184
4, 272, -1
4, 273, 0.0370611
4, 274, -1
4, 275, -0.243724
4, 276, 0.516832
4, 277, 0.436173
4, 278, -0.263497
4, 279, -1
4, 280, -1
4, 281, 0.0697901
4, 282, -1
4, 283, 0.736323
4, 284, -1
4, 285, 0.0697936
4, 286, -1
4, 287, -1
4, 288, 0.736333
4, 289, 0.754805
4, 290, 0.509737
4, 291, -1
4, 292, 0.81374
4, 293, -1
4, 294, -1
4, 295, -1
4, 296, -0.263488
4, 297, 0.736351
4, 298, 0.0698052
4, 299, -1
4, 300, 0.736357
4, 301, 0.736359
4, 302, 0.403091
4, 303, -1
4, 304, -0.11735
4, 305, -1
4, 306, 0.0698123
4, 307, -1
4, 308, 0.151861
4, 309, 0.466143
4, 310, -1
4, 311, 0.404391
4, 312, -0.576145
4, 313, -1
4, 314, 0.0698194
4, 315, -1
4, 316, 0.0698212
4, 317, 0.403111
4, 318, -1
4, 319, -1
4, 320, -1
4, 321, 0.403117
4, 322, -1
4, 323, -1
4, 324, 0.294957
4, 325, -1
4, 326, -1
4, 327, -1
4, 328, 0.403559
4, 329, 0.305211
4, 330, -1
4, 331, -0.26347
4, 332, 0.0698354
4, 333, 0.323631
4, 334, 0.0630937
4, 335, 0.678018
4, 336, 0.348889
4, 337, -1
4, 338, 0.758327
4, 339, -1
4, 340, 0.0847813
4, 341, 0.403145
4, 342, 0.736441
4, 343, -1
4, 344, -1
4, 345, -1
4, 346, 0.871489
4, 347, -1
4, 348, 0.337778
4, 349, -1
4, 350, -0.263461
4, 351, 0.403159
4, 352, -0.233661
4, 353, 0.403161
4, 354, 0.403163
4, 355, -1
4, 356, 0.453055
4, 357, 0.403167
4, 358, -1
4, 359, -1
4, 360, -1
4, 361, -1
4, 362, 0.403174
4, 363, 0.403175
4, 364, -0.263454
4, 365, -1
4, 366, -1
4, 367, 0.611951
4, 368, 0.180144
4, 369, 0.697261
4, 370, -1
4, 371, -1
4, 372, 0.0698709
4, 373, 0.403189
4, 374, -1
4, 375, -1
4, 376, 0.403193
4, 377, -1
4, 378, 0.198256
4, 379, -0.263446
4, 380, -1
4, 381, 0.736519
4, 382, -1
4, 383, -1
4, 384, 0.00292563
4, 385, -1
4, 386, -1
4, 387, -1
4, 388, -0.356396
4, 389, -1
4, 390, -1
4, 391, -0.0913356
4, 392, 0.742671
4, 393, 0.345685
4, 394, -1
4, 395, -1
4, 396, -0.263438
4, 397, -1
4, 398, 0.736553
4, 399, -1
5, 0, 0.678356
5, 1, 0.488083
5, 2, -1
5, 3, -1
5, 4, -0.821299
5, 5, -0.209345
5, 6, -0.167262
5, 7, -1
5, 8, -1
5, 9, -1
5, 10, -1
5, 11, 0.765303
5, 12, 0.833191
5, 13, -0.135349
5, 14, -1
5, 15, -1
5, 16, -0.933046
5, 17, -1
5, 18, -1
5, 19, 0.145292
5, 20, -1
5, 21, -1
5, 22, -1
5, 23, -1
5, 24, -0.0771921
5, 25, -0.371733
5, 26, -1
5, 27, 0.401992
5, 28, -0.223585
5, 29, -1
5, 30, 0.205323
5, 31, -0.1999
5, 32, 0.55898
5, 33, 0.735822
5, 34, 0.402718
5, 35, -1
5, 36, -1
5, 37, -1
5, 38, 0.508925
5, 39, -1
5, 40, 0.402726
5, 41, -1
5, 42, -1
5, 43, -1
5, 44, -1
5, 45, 0.171314
5, 46, -0.422374
5, 47, 0.0235969
5, 48, -1
5, 49, -1
5, 50, -1
5, 51, -0.765326
5, 52, -0.116383
5, 53, -1
5, 54, -1
5, 55, -0.293177
5, 56, -0.263608
5, 57, -1
5, 58, -1
5, 59, 0.332204
5, 60, -1
5, 61, 0.389987
5, 62, 0.695664
5, 63, 0.678238
5, 64, -0.0129216
5, 65, -1
5, 66, 0.310794
5, 67, 0.0695993
5, 68, -1
5, 69, 0.12146
5, 70, -1
5, 71, 0.785901
5, 72, -0.686437
5, 73, -1
5, 74, -1
5, 75, 0.746874
5, 76, -1
5, 77, -0.263597
5, 78, -1
5, 79, 0.406727
5, 80, 0.377278
5, 81, -1
5, 82, 0.443039
5, 83, -1
5, 84, -1
5, 85, -0.0191226
5, 86, -0.0775082
5, 87, -0.209696
5, 88, 0.392872
5, 89, -0.263591
5, 90, -1
5, 91, -0.143352
5, 92, -1
5, 93, 0.562195
5, 94, -0.307914
5, 95, 0.0696242
5, 96, 0.307726
5, 97, 0.84782
5, 98, -1
5, 99, 0.664448
5, 100, -1
5, 101, -1
5, 102, -1
5, 103, 0.251637
5, 104, -0.259568
5, 105, -0.753925
5, 106, -1
5, 107, -1
5, 108, -1
5, 109, -0.436978
5, 110, 0.11175
5, 111, 0.779128
5, 112, -0.234314
5, 113, 0.00490783
5, 114, -0.135252
5, 115, 0.547834
5, 116, 0.952301
5, 117, 0.531928
5, 118, -1
5, 119, -0.939911
5, 120, -1
5, 121, -0.0382737
5, 122, 0.695098
5, 123, -1
5, 124, -0.784268
5, 125, -1
5, 126, -0.194908
5, 127, -1
5, 128, 0.327214
5, 129, -1
5, 130, 0.484464
5, 131, -1
5, 132, -0.26357
5, 133, -1
5, 134, -1
5, 135, 0.0696597
5, 136, 0.402859
5, 137, -1
5, 138, -0.263567
5, 139, -0.263566
5, 140, 0.0696641
5, 141, -1
5, 142, 0.73604
5, 143, -1
5, 144, -0.942247
5, 145, -1
5, 146, 0.315811
5, 147, -1
5, 148, 0.599401
5, 149, 0.00975456
5, 150, -1
5, 151, -1
5, 152, 0.0696747
5, 153, -1
5, 154, -1
5, 155, 0.736066
5, 156, -1
5, 157, -1
5, 158, 0.736072
5, 159, -1
5, 160, -0.123903
5, 161, 0.329419
5, 162, -1
5, 163, 0.35519
5, 164, 0.800299
5, 165, -0.737897
5, 166, -1
5, 167, -1
5, 168, -1
5, 169, 0.0696898
5, 170, -0.986285
5, 171, -0.183233
5, 172, 0.453575
5, 173, -1
5, 174, 0.795931
5, 175, -1
5, 176, 0.436544
5, 177, -1
5, 178, 0.628285
5, 179, -1
5, 180, -1
5, 181, -1
5, 182, -1
5, 183, -0.0265676
5, 184, -1
5, 185, 0.836351
5, 186, 0.654646
5, 187, -0.852062
5, 188, -1
5, 189, -1
5, 190, 0.104076
5, 191, -0.216866
5, 192, 0.311333
5, 193, -0.81013
5, 194, -1
5, 195, -0.122474
5, 196, -0.496302
5, 197, -1
5, 198, 0.0751015
5, 199, 0.0697164
5, 200, 0.282532
5, 201, -1
5, 202, 0.73616
5, 203, -0.0646867
5, 204, -1
5, 205, 0.535842
5, 206, -0.849147
5, 207, -0.300019
5, 208, 0.810813
5, 209, -1
5, 210, 0.171006
5, 211, 0.772907
5, 212, -1
5, 213, -0.115209
5, 214, -0.906768
5, 215, -1
5, 216, -0.342984
5, 217, -1
5, 218, -0.684769
5, 219, -1
5, 220, -1
5, 221, 0.512892
5, 222, 0.308417
5, 223, -0.992444
5, 224, -1
5, 225, -0.0866626
5, 226, 0.107458
5, 227, -1
5, 228, 0.665915
5, 229, -1
5, 230, 0.742229
5, 231, -0.73928
5, 232, -1
5, 233, -0.000225867
5, 234, 0.294266
5, 235, -1
5, 236, -0.924829
5, 237, -0.0667853
5, 238, -0.132715
5, 239, 0.536791
5, 240, 0.31637
5, 241, -1
5, 242, 0.164832
5, 243, 0.236853
5, 244, -0.788609
5, 245, 0.0937028
5, 246, -1
5, 247, -0.419762
5, 248, -0.284319
5, 249, -0.420714
5, 250, 0.425215
5, 251, 0.578835
5, 252, -1
5, 253, -0.592078
5, 254, -0.183889
5, 255, -0.145521
5, 256, 0.760271
5, 257, -0.150102
5, 258, -1
5, 259, 0.0227232
5, 260, -0.663793
5, 261, -1
5, 262, 0.123081
5, 263, -0.0343336
5, 264, 0.610762
5, 265, 0.62782
5, 266, 0.187971
5, 267, 0.777219
5, 268, 0.0697777
5, 269, -1
5, 270, 0.222331
5, 271, -1
5, 272, -1
5, 273, -0.930809
5, 274, 0.539063
5, 275, -1
5, 276, 0.227484
5, 277, 0.263866
5, 278, 0.563137
5, 279, -0.237185
5, 280, -1
5, 281, 0.0697892
5, 282, -0.23948
5, 283, -1
5, 284, 0.0697919
5, 285, -0.263494
5, 286, -1
5, 287, -1
5, 288, -1
5, 289, -1
5, 290, 0.399789
5, 291, -1
5, 292, 0.620668
5, 293, -1
5, 294, 0.803881
5, 295, -1
5, 296, 0.532364
5, 297, -1
5, 298, 0.556067
5, 299, -1
5, 300, -1
5, 301, -0.132827
5, 302, -1
5, 303, -1
5, 304, -1
5, 305, 0.723863
5, 306, -1
5, 307, -1
5, 308, -0.235122
5, 309, -0.121755
5, 310, 0.443612
5, 311, 0.470709
5, 312, -0.856066
5, 313, 0.0880848
5, 314, -0.282478
5, 315, 0.621933
5, 316, -1
5, 317, -0.4907
5, 318, -1
5, 319, -1
5, 320, 0.57508
5, 321, 0.530908
5, 322, -0.999333
5, 323, -1
5, 324, 0.122312
5, 325, 0.736405
5, 326, -1
5, 327, -1
5, 328, -1
5, 329, 0.845697
5, 330, -0.26094
5, 331, -1
5, 332, -1
5, 333, -1
5, 334, 0.403134
5, 335, -0.795796
5, 336, -1
5, 337, 0.0106668
5, 338, -1
5, 339, 0.26142
5, 340, -1
5, 341, 0.694455
5, 342, -1
5, 343, 0.0382348
5, 344, -1
5, 345, -0.326185
5, 346, -0.307489
5, 347, -0.529145
5, 348, 0.132098
5, 349, -0.0726086
5, 350, 0.410807
5, 351, -1
5, 352, -1
5, 353, -0.100751
5, 354, -1
5, 355, -0.0226859
5, 356, -1
5, 357, -1
5, 358, 0.651178
5, 359, 0.432724
5, 360, 0.185032
5, 361, -1
5, 362, -0.263455
5, 363, 0.337213
5, 364, -0.22427
5, 365, -1
5, 366, 0.585442
5, 367, -0.263453
5, 368, -0.195349
5, 369, -1
5, 370, -1
5, 371, 0.0343687
5, 372, 0.78655
5, 373, 0.314341
5, 374, -0.289953
5, 375, -1
5, 376, 0.477089
5, 377, -0.148303
5, 378, 0.0599443
5, 379, -0.139244
5, 380, 0.787254
5, 381, -0.0392481
5, 382, 0.199577
5, 383, 0.761611
5, 384, 0.548855
5, 385, -0.188471
5, 386, -0.371963
5, 387, 0.8296
5, 388, -0.159028
5, 389, -1
5, 390, -1
5, 391, -1
5, 392, 0.866826
5, 393, 0.879153
5, 394, 0.138058
5, 395, -1
5, 396, 0.465382
5, 397, -0.20425
5, 398, 0.0311375
5, 399, -0.813994
6, 0, -0.0125009
6, 1, -1
6, 2, -1
6, 3, -1
6, 4, -1
6, 5, -1
6, 6, -1
6, 7, 0.188479
6, 8, -1
6, 9, -0.828494
6, 10, -1
6, 11, -1
6, 12, -0.307759
6, 13, 0.425956
6, 14, -1
6, 15, -1
6, 16, -1
6, 17, -0.219582
6, 18, -0.0650289
6, 19, -0.804611
6, 20, -1
6, 21, -1
6, 22, -1
6, 23, 0.678553
6, 24, 0.999021
6, 25, -0.487957
6, 26, -1
6, 27, 0.0953447
6, 28, 0.523759
6, 29, -0.468858
6, 30, 0.245767
6, 31, -1
6, 32, 0.186046
6, 33, -0.115543
6, 34, -1
6, 35, 0.562502
6, 36, 0.901231
6, 37, 0.473397
6, 38, -0.30702
6, 39, -0.368632
6, 40, -1
6, 41, -1
6, 42, -1
6, 43, 0.485267
6, 44, 0.466407
6, 45, -1
6, 46, -0.116227
6, 47, -0.301017
6, 48, 0.0587675
6, 49, -0.907008
6, 50, -0.433539
6, 51, 0.604101
6, 52, -0.190774
6, 53, -0.357486
6, 54, 0.979074
6, 55, -1
6, 56, -1
6, 57, -0.0771429
6, 58, -0.180015
6, 59, 0.592387
6, 60, 0.805369
6, 61, -0.785592
6, 62, 0.334327
6, 63, -0.895913
6, 64, 0.999123
6, 65, 0.412933
6, 66, -0.0447667
6, 67, 0.375262
6, 68, -0.107867
6, 69, -0.28247
6, 70, 0.095292
6, 71, 0.0395556
6, 72, 0.688715
6, 73, -1
6, 74, -1
6, 75, -1
6, 76, 0.449106
6, 77, -0.0385168
6, 78, 0.48999
6, 79, -1
6, 80, 0.279923
6, 81, -1
6, 82, 0.0609799
6, 83, -0.0706984
6, 84, -0.244356
6, 85, 0.530507
6, 86, -0.838996
6, 87, -0.161005
6, 88, 0.849818
6, 89, -1
6, 90, -1
6, 91, 0.0253632
6, 92, -1
6, 93, -1
6, 94, 0.9992
6, 95, 0.499233
6, 96, -1
6, 97, -1
6, 98, 0.368084
6, 99, 0.663261
6, 100, 0.235006
6, 101, -1
6, 102, -0.272757
6, 103, 0.141241
6, 104, 0.0473188
6, 105, 0.990325
6, 106, -1
6, 107, -1
6, 108, -1
6, 109, 0.596092
6, 110, -0.171266
6, 111, -1
6, 112, -1
6, 113, -1
6, 114, -0.394879
6, 115, 0.220698
6, 116, 0.603055
6, 117, 0.763969
6, 118, -0.260389
6, 119, -1
6, 120, -1
6, 121, -0.92867
6, 122, -0.425857
6, 123, 0.0504434
6, 124, 0.350198
6, 125, -0.809379
6, 126, 0.765375
6, 127, 0.422175
6, 128, 0.664229
6, 129, -1
6, 130, -0.151876
6, 131, 0.329738
6, 132, -1
6, 133, 0.0779913
6, 134, -1
6, 135, -0.0241708
6, 136, -0.242368
6, 137, -1
6, 138, 0.901652
6, 139, -0.764376
6, 140, -1
6, 141, -1
6, 142, -0.959659
6, 143, -0.960149
6, 144, 0.361478
6, 145, -1
6, 146, -1
6, 147, -1
6, 148, -0.783199
6, 149, -0.012325
6, 150, -0.510133
6, 151, -1
6, 152, -0.807728
6, 153, 0.495985
6, 154, -1
6, 155, -1
6, 156, -0.681719
6, 157, -1
6, 158, -1
6, 159, -1
6, 160, -1
6, 161, -0.841047
6, 162, -1
6, 163, -0.269886
6, 164, -0.630059
6, 165, 0.419107
6, 166, 0.639531
6, 167, 0.156453
6, 168, 0.498644
6, 169, -0.73775
6, 170, 0.803891
6, 171, -1
6, 172, -0.918061
6, 173, -0.311468
6, 174, 0.054648
6, 175, 0.0398904
6, 176, 0.123031
6, 177, 0.39389
6, 178, -0.0136446
6, 179, -1
6, 180, 0.929613
6, 181, -1
6, 182, -0.437633
6, 183, -1
6, 184, -0.91261
6, 185, -0.289452
6, 186, -1
6, 187, 0.44305
6, 188, -0.933541
6, 189, -0.661748
6, 190, 0.0508274
6, 191, -0.971467
6, 192, -0.113391
6, 193, 0.00891636
6, 194, -0.425968
6, 195, 0.357376
6, 196, 0.730295
6, 197, -1
6, 198, 0.480358
6, 199, -0.883604
6, 200, -1
6, 201, 0.696901
6, 202, -1
6, 203, 0.433847
6, 204, 0.562367
6, 205, -1
6, 206, -1
6, 207, -0.123512
6, 208, 0.232435
6, 209, 0.565818
6, 210, -1
6, 211, 0.999499
6, 212, -0.310973
6, 213, 0.81888
6, 214, -0.262849
6, 215, -0.589639
6, 216, 0.277887
6, 217, -1
6, 218, 0.804094
6, 219, -1
6, 220, 0.360922
6, 221, -0.896457
6, 222, 0.875516
6, 223, -1
6, 224, 0.753592
6, 225, 0.123145
6, 226, -1
6, 227, -1
6, 228, 0.625202
6, 229, -1
6, 230, -0.511788
6, 231, 0.288862
6, 232, 0.50967
6, 233, -1
6, 234, -1
6, 235, 0.210009
6, 236, 0.672776
6, 237, -0.253922
6, 238, 0.492157
6, 239, -1
6, 240, 0.257859
6, 241, -1
6, 242, 0.386514
6, 243, -1
6, 244, -0.0328114
6, 245, -1
6, 246, 0.0503799
6, 247, 0.44692
6, 248, 0.068247
6, 249, -0.221049
6, 250, -0.276321
6, 251, -1
6, 252, -1
6, 253, 0.66376
6, 254, 0.64872
6, 255, 0.999611
6, 256, -0.0340151
6, 257, -1
6, 258, -0.13855
6, 259, -1
6, 260, -0.288274
6, 261, -1
6, 262, -0.955391
6, 263, -1
6, 264, -0.280353
6, 265, 0.440605
6, 266, -0.35862
6, 267, -0.842136
6, 268, -0.090918
6, 269, -1
6, 270, -1
6, 271, 0.999652
6, 272, 0.254847
6, 273, -0.87141
6, 274, 0.0910682
6, 275, -1
6, 276, -1
6, 277, -1
6, 278, -1
6, 279, -0.282241
6, 280, -0.259096
6, 281, -1
6, 282, -1
6, 283, -0.721725
6, 284, 0.449135
6, 285, -0.590889
6, 286, -0.775628
6, 287, -1
6, 288, -1
6, 289, 0.104923
6, 290, 0.276511
6, 291, -0.175234
6, 292, 0.00975243
6, 293, 0.849054
6, 294, 0.187957
6, 295, -1
6, 296, 0.560887
6, 297, 0.516119
6, 298, -0.626169
6, 299, -1
6, 300, 0.452471
6, 301, -1
6, 302, -0.894577
6, 303, -1
6, 304, 0.909349
6, 305, 0.369466
6, 306, -0.962825
6, 307, -0.12648
6, 308, 0.778998
6, 309, -1
6, 310, 0.10164
6, 311, 0.873012
6, 312, -0.957517
6, 313, 0.436336
6, 314, -0.561748
6, 315, -1
6, 316, -0.000267047
6, 317, 0.0999562
6, 318, 0.428429
6, 319, 0.600822
6, 320, -1
6, 321, -1
6, 322, 0.112955
6, 323, -1
6, 324, 0.205423
6, 325, 0.170382
6, 326, -1
6, 327, -0.0439154
6, 328, -0.265868
6, 329, -1
6, 330, 0.0836642
6, 331, -1
6, 332, -1
6, 333, -1
6, 334, -1
6, 335, -1
6, 336, 0.857475
6, 337, -0.0973558
6, 338, -1
6, 339, -0.0271604
6, 340, 0.295531
6, 341, 0.291344
6, 342, -1
6, 343, -1
6, 344, -1
6, 345, -1
6, 346, -1
6, 347, 0.89759
6, 348, -0.836706
6, 349, -1
6, 350, 0.833909
6, 351, -1
6, 352, -0.852052
6, 353, 0.755721
6, 354, -1
6, 355, -1
6, 356, 0.660815
6, 357, 0.201152
6, 358, -0.220919
6, 359, 0.86737
6, 360, -0.0492151
6, 361, 0.72135
6, 362, -1
6, 363, -1
6, 364, -1
6, 365, -1
6, 366, -1
6, 367, -0.107498
6, 368, -1
6, 369, -1
6, 370, -1
6, 371, -1
6, 372, -1
6, 373, -0.652162
6, 374, -0.112152
6, 375, -0.688787
6, 376, 0.389116
6, 377, 0.999923
6, 378, 0.445825
6, 379, 0.275166
6, 380, 0.177554
6, 381, 0.141683
6, 382, -1
6, 383, -0.134647
6, 384, -1
6, 385, -1
6, 386, -1
6, 387, -0.302436
6, 388, -0.603212
6, 389, -1
6, 390, -1
6, 391, -1
6, 392, -1
6, 393, -1
6, 394, 0.0651029
6, 395, -1
6, 396, -0.198831
6, 397, -0.713902
6, 398, 0.0644979
6, 399, -1
7, 0, -0.863131
7, 1, 0.647662
7, 2, -1
7, 3, 0.446113
7, 4, -1
7, 5, 0.49474
7, 6, 0.342316
7, 7, 0.0695443
7, 8, -1
7, 9, 0.0695461
7, 10, 0.181404
7, 11, 0.0695479
7, 12, 0.683829
7, 13, 0.402686
7, 14, 0.270369
7, 15, 0.49805
7, 16, 0.439591
7, 17, 0.057722
7, 18, -1
7, 19, 0.73579
7, 20, 0.0695559
7, 21, -1
7, 22, -1
7, 23, -1
7, 24, 0.0840475
7, 25, -0.319812
7, 26, -1
7, 27, 0.735806
7, 28, -1
7, 29, -1
7, 30, 0.178449
7, 31, -0.131047
7, 32, 0.713127
7, 33, -1
7, 34, -1
7, 35, 0.688793
7, 36, -0.687496
7, 37, -0.566217
7, 38, -0.263618
7, 39, -1
7, 40, -1
7, 41, -1
7, 42, 0.735836
7, 43, 0.0695763
7, 44, -0.263615
7, 45, 0.0153168
7, 46, -1
7, 47, 0.690089
7, 48, -1
7, 49, -1
7, 50, 0.489636
7, 51, -0.0177584
7, 52, -1
7, 53, 0.711477
7, 54, 0.308132
7, 55, -0.36799
7, 56, -1
7, 57, -0.00865239
7, 58, -1
7, 59, 0.73587
7, 60, 0.0695914
7, 61, 0.402752
7, 62, -1
7, 63, -1
7, 64, -0.411331
7, 65, -1
7, 66, -1
7, 67, -0.0984441
7, 68, -0.263603
7, 69, -1
7, 70, 0.536936
7, 71, -1
7, 72, 0.411428
7, 73, 0.0866249
7, 74, 0.293631
7, 75, -1
7, 76, 0.344264
7, 77, 0.562124
7, 78, -1
7, 79, 0.360166
7, 80, 0.735912
7, 81, 0.06961
7, 82, -0.44739
7, 83, 0.735918
7, 84, -1
7, 85, 0.654553
7, 86, -1
7, 87, -1
7, 88, -0.263593
7, 89, -1
7, 90, -1
7, 91, 0.239658
7, 92, -0.138624
7, 93, -1
7, 94, -1
7, 95, 0.120154
7, 96, -1
7, 97, 0.828175
7, 98, -1
7, 99, -0.226533
7, 100, -1
7, 101, 0.715241
7, 102, -0.263586
7, 103, -1
7, 104, -1
7, 105, -1
7, 106, -1
7, 107, -1
7, 108, 0.728913
7, 109, -1
7, 110, 0.707092
7, 111, -0.0918794
7, 112, -0.1529
7, 113, -1
7, 114, -1
7, 115, 0.68724
7, 116, 0.393813
7, 117, -0.281361
7, 118, -1
7, 119, -1
7, 120, -1
7, 121, -1
7, 122, -1
7, 123, -0.0508622
7, 124, -1
7, 125, -1
7, 126, -1
7, 127, -1
7, 128, 0.577739
7, 129, -1
7, 130, -0.0731985
7, 131, 0.0757374
7, 132, 0.70418
7, 133, 0.769178
7, 134, -1
7, 135, -1
7, 136, 0.291571
7, 137, -0.263568
7, 138, -1
7, 139, -1
7, 140, -0.4073
7, 141, 0.426477
7, 142, 0.731901
7, 143, 0.470986
7, 144, 0.174556
7, 145, 0.586345
7, 146, 0.00632416
7, 147, -0.0203107
7, 148, -1
7, 149, -0.849025
7, 150, 0.565922
7, 151, -1
7, 152, -0.272744
7, 153, 0.595099
7, 154, -0.289004
7, 155, 0.324864
7, 156, 0.69094
7, 157, 0.576604
7, 158, -0.200015
7, 159, -0.241673
7, 160, 0.736072
7, 161, -1
7, 162, -1
7, 163, 0.371478
7, 164, 0.323226
7, 165, -0.452613
7, 166, -0.28223
7, 167, -0.70518
7, 168, -0.274403
7, 169, -0.258474
7, 170, -0.0841988
7, 171, 0.570261
7, 172, -1
7, 173, -0.174652
7, 174, -0.113162
7, 175, 0.588034
7, 176, -1
7, 177, 0.747886
7, 178, -0.263548
7, 179, -1
7, 180, -0.263547
7, 181, 0.736114
7, 182, -1
7, 183, 0.729003
7, 184, 0.670016
7, 185, 0.701231
7, 186, -1
7, 187, -0.561418
7, 188, -0.242623
7, 189, 0.369228
7, 190, 0.22121
7, 191, -0.293644
7, 192, 0.443614
7, 193, 0.692605
7, 194, 0.265145
7, 195, -1
7, 196, -1
7, 197, 0.0697129
7, 198, -0.263538
7, 199, -0.703092
7, 200, -1
7, 201, -1
7, 202, -1
7, 203, -1
7, 204, -1
7, 205, -0.677418
7, 206, -1
7, 207, -1
7, 208, -1
7, 209, -1
7, 210, -1
7, 211, 0.0104364
7, 212, -1
7, 213, -0.180366
7, 214, -1
7, 215, 0.402966
7, 216, -1
7, 217, -1
7, 218, -1
7, 219, 0.0697324
7, 220, -1
7, 221, 0.402974
7, 222, -1
7, 223, -0.263526
7, 224, -0.181559
7, 225, 0.153715
7, 226, 0.279713
7, 227, -1
7, 228, -1
7, 229, 0.778093
7, 230, 0.301733
7, 231, -1
7, 232, 0.628059
7, 233, 0.0311875
7, 234, -1
7, 235, -1
7, 236, 0.782975
7, 237, -1
7, 238, 0.740548
7, 239, -1
7, 240, -0.433221
7, 241, -1
7, 242, 0.0771556
7, 243, -1
7, 244, -0.00406792
7, 245, -0.217509
7, 246, -1
7, 247, -0.887021
7, 248, 0.543658
7, 249, -1
7, 250, -1
7, 251, -0.094832
7, 252, 0.677333
7, 253, 0.450318
7, 254, -1
7, 255, -1
7, 256, 0.226784
7, 257, -0.303294
7, 258, -0.399385
7, 259, 0.0697679
7, 260, -1
7, 261, -1
7, 262, -0.232862
7, 263, 0.736277
7, 264, 0.255496
7, 265, 0.364576
7, 266, -0.403071
7, 267, -0.177228
7, 268, -0.24097
7, 269, 0.0402008
7, 270, -0.657129
7, 271, 0.208972
7, 272, -0.0763828
7, 273, 0.244778
7, 274, -1
7, 275, 0.723122
7, 276, -1
7, 277, -1
7, 278, -1
7, 279, 0.702936
7, 280, -1
7, 281, -1
7, 282, -1
7, 283, 0.250869
7, 284, 0.590508
7, 285, -1
7, 286, -0.184657
7, 287, -0.297665
7, 288, -0.575782
7, 289, -1
7, 290, 0.503151
7, 291, -0.287564
7, 292, 0.28527
7, 293, -1
7, 294, -0.26349
7, 295, -0.22218
7, 296, 0.403078
7, 297, -1
7, 298, 0.764009
7, 299, -1
7, 300, -0.35701
7, 301, -1
7, 302, -1
7, 303, -1
7, 304, 0.318913
7, 305, -1
7, 306, 0.0789812
7, 307, 0.648906
7, 308, -1
7, 309, -0.0506301
7, 310, 0.127176
7, 311, 0.427082
7, 312, 0.598913
7, 313, -1
7, 314, 0.0698167
7, 315, 0.578337
7, 316, 0.183128
7, 317, -1
7, 318, -1
7, 319, -1
7, 320, 0.548231
7, 321, 0.0577565
7, 322, -0.113885
7, 323, 0.361903
7, 324, 0.0993501
7, 325, 0.344418
7, 326, 0.885085
7, 327, -1
7, 328, 0.0817239
7, 329, -0.286192
7, 330, -1
7, 331, -1
7, 332, -0.180282
7, 333, -1
7, 334, 0.382727
7, 335, -1
7, 336, -1
7, 337, -1
7, 338, 0.480887
7, 339, 0.530352
7, 340, 0.553367
7, 341, -0.0613294
7, 342, 0.158439
7, 343, -0.748002
7, 344, -1
7, 345, -1
7, 346, -1
7, 347, -1
7, 348, -1
7, 349, 0.999849
7, 350, -1
7, 351, 0.433653
7, 352, -0.787186
7, 353, -1
7, 354, -0.26346
7, 355, 0.904591
7, 356, 0.882766
7, 357, -1
7, 358, -1
7, 359, -0.54787
7, 360, 0.166193
7, 361, -1
7, 362, -1
7, 363, 0.592183
7, 364, -1
7, 365, 0.77755
7, 366, 0.770279
7, 367, -1
7, 368, -1
7, 369, 0.325814
7, 370, -1
7, 371, 0.443985
7, 372, -1
7, 373, 0.383853
7, 374, -1
7, 375, -1
7, 376, 0.283178
7, 377, -1
7, 378, 0.736507
7, 379, 0.724308
7, 380, 0.700246
7, 381, 0.0321534
7, 382, -1
7, 383, -1
7, 384, 0.736519
7, 385, 0.736521
7, 386, -1
7, 387, -0.263444
7, 388, -1
7, 389, 0.585574
7, 390, -1
7, 391, -1
7, 392, -1
7, 393, 0.603765
7, 394, 0.736539
7, 395, -1
7, 396, 0.753337
7, 397, 0.354048
7, 398, -1
7, 399, 0.343178
8, 0, -0.263637
8, 1, -1
8, 2, 0.069539
8, 3, -1
8, 4, 0.0695408
8, 5, 0.0695417
8, 6, -0.263634
8, 7, -1
8, 8, 0.0695443
8, 9, -1
8, 10, 0.784734
8, 11, 0.069547
8, 12, -1
8, 13, -1
8, 14, 0.0695497
8, 15, 0.0695505
8, 16, 0.402689
8, 17, 0.0695523
8, 18, -1
8, 19, -0.263628
8, 20, -0.263627
8, 21, 0.402696
8, 22, 0.735794
8, 23, -0.224141
8, 24, 0.4027
8, 25, 0.402701
8, 26, -0.263624
8, 27, -1
8, 28, -1
8, 29, -1
8, 30, -1
8, 31, -0.263622
8, 32, -0.263621
8, 33, 0.0695665
8, 34, 0.402714
8, 35, 0.402715
8, 36, -1
8, 37, 0.735824
8, 38, -1
8, 39, 0.735828
8, 40, -1
8, 41, 0.0695736
8, 42, -1
8, 43, -1
8, 44, 0.0695763
8, 45, 0.402729
8, 46, -1
8, 47, -1
8, 48, -1
8, 49, -1
8, 50, 0.73585
8, 51, -1
8, 52, 0.735854
8, 53, -0.263611
8, 54, 0.0695851
8, 55, -1
8, 56, 0.735862
8, 57, -1
8, 58, 0.0695887
8, 59, 0.735868
8, 60, -1
8, 61, 0.0695914
8, 62, -0.285977
8, 63, -1
8, 64, -1
8, 65, 0.73588
8, 66, -1
8, 67, -1
8, 68, 0.735886
8, 69, 0.778611
8, 70, 0.326254
8, 71, -1
8, 72, 0.0696011
8, 73, 0.069602
8, 74, 0.735898
8, 75, 0.7359
8, 76, -1
8, 77, -1
8, 78, -1
8, 79, -1
8, 80, -1
8, 81, 0.402779
8, 82, 0.06961
8, 83, -1
8, 84, 0.735918
8, 85, -1
8, 86, -1
8, 87, 0.0696144
8, 88, -1
8, 89, 0.735928
8, 90, -0.263592
8, 91, -1
8, 92, -1
8, 93, 0.0696197
8, 94, -1
8, 95, -1
8, 96, -0.0224155
8, 97, -1
8, 98, -0.263588
8, 99, -0.263588
8, 100, -1
8, 101, -1
8, 102, -1
8, 103, 0.0696286
8, 104, -0.0162025
8, 105, -1
8, 106, -0.263584
8, 107, 0.402815
8, 108, -1
8, 109, -1
8, 110, -1
8, 111, -1
8, 112, 0.735974
8, 113, -0.230039
8, 114, -1
8, 115, -0.26358
8, 116, -1
8, 117, -1
8, 118, 0.40283
8, 119, -1
8, 120, -1
8, 121, -1
8, 122, -1
8, 123, -1
8, 124, 0.0696472
8, 125, -1
8, 126, 0.069649
8, 127, -1
8, 128, -0.263573
8, 129, 0.402845
8, 130, -1
8, 131, -0.263572
8, 132, -0.263571
8, 133, 0.0696552
8, 134, 0.402852
8, 135, -1
8, 136, 0.402855
8, 137, -1
8, 138, 0.736026
8, 139, 0.402859
8, 140, -1
8, 141, 0.402862
8, 142, -1
8, 143, 0.736036
8, 144, 0.736038
8, 145, -1
8, 146, -1
8, 147, -1
8, 148, -1
8, 149, 0.736048
8, 150, -1
8, 151, -1
8, 152, 0.736054
8, 153, -1
8, 154, -1
8, 155, -1
8, 156, -1
8, 157, -1
8, 158, -1
8, 159, 0.0696783
8, 160, 0.73607
8, 161, -0.263557
8, 162, -1
8, 163, -1
8, 164, -1
8, 165, 0.73608
8, 166, -0.115256
8, 167, 0.736084
8, 168, 0.402899
8, 169, -1
8, 170, -0.201455
8, 171, 0.402903
8, 172, 0.0696898
8, 173, -1
8, 174, -1
8, 175, -0.26355
8, 176, 0.736102
8, 177, -0.263549
8, 178, -1
8, 179, 0.736108
8, 180, -1
8, 181, -1
8, 182, 0.382185
8, 183, 0.0696996
8, 184, -1
8, 185, 0.402923
8, 186, 0.402924
8, 187, -1
8, 188, 0.736126
8, 189, 0.736128
8, 190, 0.684962
8, 191, 0.402931
8, 192, -0.263542
8, 193, 0.402934
8, 194, -1
8, 195, -1
8, 196, 0.0697111
8, 197, -1
8, 198, 0.736146
8, 199, -1
8, 200, -1
8, 201, -1
8, 202, 0.0697164
8, 203, -0.263536
8, 204, -1
8, 205, 0.561393
8, 206, 0.06972
8, 207, -1
8, 208, -1
8, 209, 0.736168
8, 210, 0.497954
8, 211, -1
8, 212, -1
8, 213, -0.263531
8, 214, -1
8, 215, -1
8, 216, 0.736181
8, 217, -1
8, 218, 0.0697306
8, 219, 0.40297
8, 220, 0.402971
8, 221, -1
8, 222, -1
8, 223, 0.736195
8, 224, -1
8, 225, -1
8, 226, -1
8, 227, -1
8, 228, -1
8, 229, -1
8, 230, -1
8, 231, -1
8, 232, -1
8, 233, 0.069744
8, 234, 0.0697448
8, 235, -0.26352
8, 236, -1
8, 237, -1
8, 238, -1
8, 239, -1
8, 240, 0.402999
8, 241, 0.0697511
8, 242, -0.263517
8, 243, -0.263516
8, 244, -1
8, 245, -0.263515
8, 246, 0.403007
8, 247, 0.403009
8, 248, -1
8, 249, -1
8, 250, -1
8, 251, -1
8, 252, -1
8, 253, -1
8, 254, 0.403019
8, 255, 0.736259
8, 256, -1
8, 257, -1
8, 258, -1
8, 259, -1
8, 260, 0.736269
8, 261, 0.736271
8, 262, -1
8, 263, -1
8, 264, 0.0697715
8, 265, -1
8, 266, -1
8, 267, 0.736283
8, 268, -0.263504
8, 269, -1
8, 270, 0.736289
8, 271, 0.736291
8, 272, 0.403044
8, 273, -1
8, 274, -0.263501
8, 275, 0.0697812
8, 276, 0.0697821
8, 277, 0.736303
8, 278, -1
8, 279, 0.736307
8, 280, 0.403055
8, 281, -1
8, 282, -1
8, 283, 0.736315
8, 284, -1
8, 285, 0.0697901
8, 286, 0.403063
8, 287, -1
8, 288, -1
8, 289, 0.0697936
8, 290, -1
8, 291, -1
8, 292, 0.0697963
8, 293, -1
8, 294, 0.736337
8, 295, 0.736339
8, 296, -1
8, 297, 0.736343
8, 298, 0.40308
8, 299, -0.263488
8, 300, -1
8, 301, 0.0698043
8, 302, -0.263487
8, 303, -0.263486
8, 304, 0.403088
8, 305, 0.0698078
8, 306, -1
8, 307, -1
8, 308, -0.178086
8, 309, -1
8, 310, 0.633714
8, 311, -1
8, 312, -1
8, 313, 0.4031
8, 314, 0.736377
8, 315, -1
8, 316, -1
8, 317, 0.403106
8, 318, -1
8, 319, 0.0698203
8, 320, -1
8, 321, 0.069822
8, 322, -0.263477
8, 323, 0.0698238
8, 324, 0.403116
8, 325, -1
8, 326, -0.263475
8, 327, -1
8, 328, 0.736405
8, 329, 0.736407
8, 330, -1
8, 331, 0.802964
8, 332, -1
8, 333, 0.403128
8, 334, -0.263471
8, 335, 0.403131
8, 336, -1
8, 337, -1
8, 338, 0.403135
8, 339, -0.263468
8, 340, -1
8, 341, 0.0698398
8, 342, -0.263467
8, 343, -1
8, 344, -1
8, 345, -0.263465
8, 346, -1
8, 347, -1
8, 348, 0.736445
8, 349, -1
8, 350, 0.705435
8, 351, 0.744639
8, 352, 0.403154
8, 353, -1
8, 354, 0.0698513
8, 355, -1
8, 356, -0.26346
8, 357, 0.403161
8, 358, 0.736465
8, 359, -1
8, 360, -0.263458
8, 361, -1
8, 362, -1
8, 363, 0.40317
8, 364, 0.667817
8, 365, -1
8, 366, -1
8, 367, 0.736483
8, 368, -1
8, 369, 0.736487
8, 370, -1
8, 371, -1
8, 372, -1
8, 373, 0.0698682
8, 374, -1
8, 375, -1
8, 376, 0.403188
8, 377, -1
8, 378, -1
8, 379, -1
8, 380, -1
8, 381, -1
8, 382, -1
8, 383, 0.736515
8, 384, -1
8, 385, 0.0698788
8, 386, -1
8, 387, -0.263444
8, 388, -1
8, 389, -1
8, 390, 0.736529
8, 391, -0.263442
8, 392, -1
8, 393, 0.0698859
8, 394, -1
8, 395, 0.821182
8, 396, 0.403215
8, 397, -1
8, 398, 0.458392
8, 399, 0.40322
9, 0, 0.0695364
9, 1, 0.0767386
9, 2, 0.528874
9, 3, 0.79874
9, 4, -1
9, 5, 0.694569
9, 6, 0.59787
9, 7, 0.562814
9, 8, 0.0114653
9, 9, -1
9, 10, 0.507778
9, 11, -1
9, 12, -1
9, 13, -1
9, 14, 0.0695488
9, 15, -1
9, 16, -0.658543
9, 17, 0.402689
9, 18, 0.40269
9, 19, -0.263628
9, 20, -0.741748
9, 21, -1
9, 22, -1
9, 23, 0.115384
9, 24, 0.555636
9, 25, 0.600175
9, 26, -0.778808
9, 27, -1
9, 28, -1
9, 29, -1
9, 30, -1
9, 31, -0.00571627
9, 32, -0.0711545
9, 33, 0.519757
9, 34, -1
9, 35, -1
9, 36, 0.0774806
9, 37, 0.587641
9, 38, -1
9, 39, -1
9, 40, -1
9, 41, -1
9, 42, -1
9, 43, 0.668749
9, 44, 0.494182
9, 45, 0.0375875
9, 46, -1
9, 47, -1
9, 48, -1
9, 49, 0.00887251
9, 50, -0.531426
9, 51, -0.199898
9, 52, 0.248064
9, 53, -1
9, 54, -1
9, 55, 0.268645
9, 56, -1
9, 57, -0.0644393
9, 58, 0.394153
9, 59, 0.882214
9, 60, -1
9, 61, 0.0695905
9, 62, -1
9, 63, -0.132113
9, 64, -1
9, 65, -0.23073
9, 66, 0.675926
9, 67, -1
9, 68, -1
9, 69, 0.261188
9, 70, 0.830989
9, 71, 0.656067
9, 72, -0.924952
9, 73, -1
9, 74, 0.0154306
9, 75, -1
9, 76, -0.266423
9, 77, -0.264874
9, 78, -1
9, 79, 0.335073
9, 80, -1
9, 81, 0.0696082
9, 82, -1
9, 83, 0.502867
9, 84, 0.33511
9, 85, -1
9, 86, -1
9, 87, -0.182674
9, 88, -1
9, 89, 0.414976
9, 90, -0.549858
9, 91, -0.277492
9, 92, -0.498083
9, 93, 0.448737
9, 94, -0.398815
9, 95, 0.486604
9, 96, 0.64235
9, 97, 0.523669
9, 98, 0.121671
9, 99, 0.4332
9, 100, -0.744681
9, 101, -0.503319
9, 102, -0.582964
9, 103, 0.183426
9, 104, -1
9, 105, -1
9, 106, -1
9, 107, 0.600632
9, 108, -1
9, 109, -1
9, 110, -1
9, 111, -1
9, 112, -0.235738
9, 113, 0.271357
9, 114, 0.662254
9, 115, -1
9, 116, -1
9, 117, -1
9, 118, 0.836659
9, 119, -1
9, 120, 0.537612
9, 121, -1
9, 122, -0.266499
9, 123, -1
9, 124, 0.188187
9, 125, -1
9, 126, -1
9, 127, -1
9, 128, 0.660233
9, 129, -0.225454
9, 130, -1
9, 131, 0.438569
9, 132, -0.0179489
9, 133, -1
9, 134, -0.0426809
9, 135, 0.789039
9, 136, -1
9, 137, -0.879349
9, 138, -1
9, 139, -1
9, 140, 0.0696606
9, 141, -1
9, 142, -1
9, 143, -1
9, 144, -1
9, 145, 0.846176
9, 146, 0.395865
9, 147, -1
9, 148, 0.625081
9, 149, -0.689863
9, 150, -1
9, 151, -0.48339
9, 152, -0.970265
9, 153, -0.514618
9, 154, -0.1167
9, 155, -1
9, 156, 0.0419134
9, 157, -1
9, 158, -0.30414
9, 159, -1
9, 160, 0.705239
9, 161, -1
9, 162, -1
9, 163, 0.069681
9, 164, -0.0499089
9, 165, 0.648759
9, 166, -1
9, 167, 0.12401
9, 168, -1
9, 169, 0.143566
9, 170, -0.709554
9, 171, 0.00414372
9, 172, 0.824325
9, 173, 0.144919
9, 174, -1
9, 175, 0.736098
9, 176, -0.26355
9, 177, -1
9, 178, 0.263113
9, 179, -1
9, 180, 0.25719
9, 181, 0.0696969
9, 182, -0.332242
9, 183, -1
9, 184, -1
9, 185, 0.0981844
9, 186, -0.495768
9, 187, 0.794382
9, 188, -0.734084
9, 189, 0.161336
9, 190, -1
9, 191, -0.0720392
9, 192, 0.828043
9, 193, -1
9, 194, -0.263541
9, 195, -0.254289
9, 196, 0.677068
9, 197, -0.0977293
9, 198, 0.222657
9, 199, -1
9, 200, 0.617467
9, 201, -1
9, 202, 0.753089
9, 203, 0.197647
9, 204, 0.219818
9, 205, -1
9, 206, -1
9, 207, -1
9, 208, -1
9, 209, 0.817859
9, 210, 0.0434605
9, 211, -0.757477
9, 212, -1
9, 213, -1
9, 214, 0.703818
9, 215, -0.153408
9, 216, 0.633916
9, 217, -1
9, 218, -1
9, 219, -1
9, 220, 0.0697315
9, 221, -1
9, 222, -1
9, 223, -0.700869
9, 224, -1
9, 225, -1
9, 226, -0.032602
9, 227, -1
9, 228, 0.616093
9, 229, -1
9, 230, -1
9, 231, 0.234337
9, 232, -0.998101
9, 233, -1
9, 234, -1
9, 235, 0.402991
9, 236, -1
9, 237, -1
9, 238, -0.263519
9, 239, -1
9, 240, -1
9, 241, -1
9, 242, -0.247914
9, 243, -1
9, 244, 0.0629146
9, 245, -1
9, 246, 0.755805
9, 247, -0.862989
9, 248, -1
9, 249, -1
9, 250, -0.935444
9, 251, 0.0915534
9, 252, 0.57213
9, 253, -0.19668
9, 254, 0.403017
9, 255, -1
9, 256, -0.280414
9, 257, -1
9, 258, -1
9, 259, -1
9, 260, -1
9, 261, -1
9, 262, 0.403028
9, 263, -1
9, 264, -1
9, 265, 0.469858
9, 266, -0.263505
9, 267, 0.430042
9, 268, -1
9, 269, 0.597054
9, 270, 0.516165
9, 271, 0.301702
9, 272, 0.923502
9, 273, -1
9, 274, -1
9, 275, -1
9, 276, -1
9, 277, 0.395917
9, 278, -1
9, 279, -1
9, 280, -0.482069
9, 281, 0.417353
9, 282, -0.0614588
9, 283, -1
9, 284, -1
9, 285, -1
9, 286, -1
9, 287, -0.160616
9, 288, -1
9, 289, 0.508659
9, 290, -0.0684806
9, 291, 0.48978
9, 292, 0.439194
9, 293, 0.357399
9, 294, 0.674526
9, 295, 0.0715527
9, 296, -0.147088
9, 297, -1
9, 298, -0.206451
9, 299, -1
9, 300, 0.66609
9, 301, 0.302109
9, 302, -1
9, 303, 0.300882
9, 304, 0.498931
9, 305, -1
9, 306, 0.0381198
9, 307, 0.722292
9, 308, -0.00621861
9, 309, -1
9, 310, 0.372915
9, 311, 0.170531
9, 312, 0.563467
9, 313, -0.152767
9, 314, 0.743477
9, 315, -1
9, 316, -0.388666
9, 317, 0.300743
9, 318, -0.108911
9, 319, 0.107885
9, 320, -1
9, 321, -1
9, 322, -0.0850106
9, 323, -1
9, 324, -1
9, 325, -1
9, 326, -0.00369054
9, 327, -1
9, 328, -1
9, 329, -0.0801274
9, 330, 0.481141
9, 331, 0.560412
9, 332, -0.181236
9, 333, 0.132855
9, 334, -0.199899
9, 335, 0.622254
9, 336, -0.748347
9, 337, -1
9, 338, 0.173501
9, 339, 0.509302
9, 340, -1
9, 341, -0.0810938
9, 342, 0.403139
9, 343, 0.107569
9, 344, 0.0785586
9, 345, -1
9, 346, -1
9, 347, -1
9, 348, -1
9, 349, -0.0344236
9, 350, -0.162354
9, 351, -1
9, 352, -0.185829
9, 353, -1
9, 354, -1
9, 355, -1
9, 356, 0.850767
9, 357, -0.115979
9, 358, 0.0995379
9, 359, -1
9, 360, -1
9, 361, -1
9, 362, 0.736471
9, 363, 0.0748439
9, 364, -1
9, 365, -1
9, 366, -1
9, 367, 0.0075148
9, 368, -1
9, 369, -0.0491696
9, 370, 0.218738
9, 371, -1
9, 372, 0.853453
9, 373, 0.54301
9, 374, -0.24223
9, 375, -0.263451
9, 376, 0.662323
9, 377, -0.593298
9, 378, -1
9, 379, -1
9, 380, 0.736507
9, 381, -0.00216802
9, 382, -1
9, 383, -1
9, 384, -1
9, 385, 0.594073
9, 386, -1
9, 387, -1
9, 388, -1
9, 389, -0.0947246
9, 390, -1
9, 391, -1
9, 392, -1
9, 393, -1
9, 394, -0.480977
9, 395, -0.394474
9, 396, -1
9, 397, 0.16739
9, 398, -1
9, 399, -0.746177
10, 0, -1
10, 1, -1
10, 2, -1
10, 3, 0.735752
10, 4, 0.442066
10, 5, 0.377724
10, 6, -1
10, 7, 0.0149355
10, 8, 0.735762
10, 9, -1
10, 10, -1
10, 11, 0.0737399
10, 12, 0.73577
10, 13, -1
10, 14, 0.402683
10, 15, -1
10, 16, -1
10, 17, 0.437177
10, 18, -1
10, 19, -1
10, 20, -1
10, 21, -0.263628
10, 22, -1
10, 23, -1
10, 24, 0.0454726
10, 25, 0.402698
10, 26, 0.0695585
10, 27, 0.0695594
10, 28, -1
10, 29, -1
10, 30, -1
10, 31, 0.735808
10, 32, -1
10, 33, -1
10, 34, 0.402711
10, 35, 0.0695665
10, 36, 0.402714
10, 37, 0.0695683
10, 38, -1
10, 39, 0.402718
10, 40, 0.735826
10, 41, -1
10, 42, -1
10, 43, -0.263617
10, 44, -1
10, 45, -1
10, 46, -0.341109
10, 47, -1
10, 48, -0.218956
10, 49, 0.402732
10, 50, -1
10, 51, -0.10179
10, 52, -1
10, 53, -1
10, 54, 0.807931
10, 55, 0.089897
10, 56, 0.402741
10, 57, -1
10, 58, -1
10, 59, 0.0695878
10, 60, 0.0695887
10, 61, -1
10, 62, -0.263607
10, 63, 0.431564
10, 64, -1
10, 65, 0.735876
10, 66, -0.770755
10, 67, 0.0695949
10, 68, -0.263604
10, 69, -0.263604
10, 70, -1
10, 71, -1
10, 72, -0.337639
10, 73, -0.00175886
10, 74, -1
10, 75, 0.402768
10, 76, -1
10, 77, 0.40277
10, 78, -0.0303102
10, 79, -0.263599
10, 80, -1
10, 81, -0.263598
10, 82, -1
10, 83, -1
10, 84, -0.222239
10, 85, 0.305208
10, 86, 0.583152
10, 87, -1
10, 88, 0.510615
10, 89, 0.213087
10, 90, -0.00438592
10, 91, -0.759372
10, 92, -0.236101
10, 93, 0.302595
10, 94, -1
10, 95, 0.0696197
10, 96, 0.402797
10, 97, -1
10, 98, -1
10, 99, 0.735944
10, 100, -1
10, 101, -1
10, 102, -1
10, 103, -0.263587
10, 104, -0.263586
10, 105, -1
10, 106, 0.796109
10, 107, -0.738179
10, 108, 0.334013
10, 109, 0.0634775
10, 110, 0.691348
10, 111, -1
10, 112, 0.30831
10, 113, 0.40282
10, 114, -1
10, 115, -1
10, 116, -0.26358
10, 117, 0.73598
10, 118, -1
10, 119, -1
10, 120, -0.316356
10, 121, 0.330302
10, 122, -1
10, 123, 0.568553
10, 124, -0.00954189
10, 125, -1
10, 126, -0.263575
10, 127, -1
10, 128, -1
10, 129, -1
10, 130, 0.736006
10, 131, -1
10, 132, -1
10, 133, -0.0372657
10, 134, 0.336452
10, 135, 0.0696552
10, 136, 0.736018
10, 137, 0.0339327
10, 138, -1
10, 139, -0.263569
10, 140, 0.736026
10, 141, 0.402859
10, 142, -1
10, 143, 0.402862
10, 144, -0.263566
10, 145, -1
10, 146, 0.383967
10, 147, 0.190382
10, 148, -1
10, 149, 0.736044
10, 150, 0.736046
10, 151, 0.0696694
10, 152, -0.267334
10, 153, -1
10, 154, -1
10, 155, 0.224614
10, 156, -1
10, 157, -0.408576
10, 158, 0.392066
10, 159, -0.263559
10, 160, 0.736066
10, 161, -1
10, 162, -0.263557
10, 163, 0.367263
10, 164, -1
10, 165, -1
10, 166, -0.306695
10, 167, 0.12484
10, 168, -0.263554
10, 169, -1
10, 170, -1
10, 171, -0.263553
10, 172, 0.0168279
10, 173, -1
10, 174, 0.587754
10, 175, -1
10, 176, -1
10, 177, 0.0696925
10, 178, 0.736102
10, 179, -1
10, 180, -1
10, 181, -0.263548
10, 182, 0.0696969
10, 183, -0.263547
10, 184, 0.0696987
10, 185, 0.645214
10, 186, 0.55663
10, 187, 0.120187
10, 188, -1
10, 189, -1
10, 190, -1
10, 191, 0.74304
10, 192, 0.0697058
10, 193, -0.100048
10, 194, 0.402933
10, 195, 0.0697085
10, 196, -0.263541
10, 197, 0.73614
10, 198, -1
10, 199, 0.736144
10, 200, -1
10, 201, -1
10, 202, -1
10, 203, 0.402945
10, 204, -1
10, 205, 0.776707
10, 206, 0.0697182
10, 207, -1
10, 208, -1
10, 209, -1
10, 210, -1
10, 211, -1
10, 212, 0.0697235
10, 213, 0.781379
10, 214, 0.0381118
10, 215, 0.736175
10, 216, 0.402963
10, 217, -0.0714273
10, 218, 0.0697289
10, 219, -1
10, 220, -0.0450666
10, 221, -0.263528
10, 222, 0.402971
10, 223, -1
10, 224, 0.402974
10, 225, -0.263526
10, 226, 0.160166
10, 227, 0.726873
10, 228, -1
10, 229, 0.0120835
10, 230, 0.402983
10, 231, -1
10, 232, -1
10, 233, 0.560567
10, 234, 0.397455
10, 235, -1
10, 236, -0.263521
10, 237, -1
10, 238, -1
10, 239, -0.263519
10, 240, -1
10, 241, -1
10, 242, 0.402999
10, 243, -0.57413
10, 244, -1
10, 245, -1
10, 246, -1
10, 247, -0.263515
10, 248, -0.292547
10, 249, 0.403009
10, 250, -1
10, 251, -1
10, 252, 0.736249
10, 253, -1
10, 254, -1
10, 255, -1
10, 256, -0.263511
10, 257, 0.736259
10, 258, -1
10, 259, -0.263509
10, 260, -1
10, 261, 0.736267
10, 262, -0.467218
10, 263, -1
10, 264, -0.263507
10, 265, -1
10, 266, -1
10, 267, 0.403034
10, 268, -1
10, 269, -1
10, 270, -1
10, 271, -1
10, 272, -0.263503
10, 273, -1
10, 274, 0.421573
10, 275, -1
10, 276, -1
10, 277, 0.0697812
10, 278, 0.384146
10, 279, 0.341384
10, 280, -1
10, 281, 0.403053
10, 282, -0.263498
10, 283, 0.736311
10, 284, 0.403057
10, 285, 0.403059
10, 286, -1
10, 287, 0.736319
10, 288, -1
10, 289, -1
10, 290, -1
10, 291, -1
10, 292, -1
10, 293, 0.77788
10, 294, -0.263492
10, 295, -1
10, 296, 0.736337
10, 297, -0.26349
10, 298, 0.736341
10, 299, 0.791506
10, 300, 0.40308
10, 301, -1
10, 302, 0.736349
10, 303, -1
10, 304, -1
10, 305, 0.353323
10, 306, -1
10, 307, -1
10, 308, -1
10, 309, 0.403092
10, 310, -0.263484
10, 311, -1
10, 312, -1
10, 313, -1
10, 314, -1
10, 315, 0.4031
10, 316, -0.199127
10, 317, -1
10, 318, 0.403105
10, 319, 0.736383
10, 320, -1
10, 321, 0.403109
10, 322, -1
10, 323, -1
10, 324, -1
10, 325, -1
10, 326, -1
10, 327, -1
10, 328, 0.403118
10, 329, -1
10, 330, 0.736405
10, 331, -1
10, 332, -1
10, 333, 0.429971
10, 334, -1
10, 335, -1
10, 336, -0.263471
10, 337, -1
10, 338, -1
10, 339, -1
10, 340, 0.403135
10, 341, -0.263468
10, 342, -0.263468
10, 343, -1
10, 344, -1
10, 345, -0.263466
10, 346, 0.403143
10, 347, 0.403145
10, 348, -0.263465
10, 349, -1
10, 350, -0.0511283
10, 351, -0.0385753
10, 352, -1
10, 353, -1
10, 354, 0.0698496
10, 355, -1
10, 356, -1
10, 357, 0.704416
10, 358, -1
10, 359, -1
10, 360, -1
10, 361, -1
10, 362, -1
10, 363, -1
10, 364, 0.736473
10, 365, -1
10, 366, -0.301672
10, 367, -1
10, 368, -1
10, 369, -0.263454
10, 370, -0.329107
10, 371, 0.443379
10, 372, 0.0571437
10, 373, 0.624696
10, 374, 0.27308
10, 375, 0.736495
10, 376, -1
10, 377, -1
10, 378, 0.0698709
10, 379, 0.0114816
10, 380, -0.263449
10, 381, 0.736507
10, 382, -1
10, 383, -0.263447
10, 384, 0.649566
10, 385, 0.182327
10, 386, 0.069878
10, 387, -1
10, 388, 0.403202
10, 389, 0.736523
10, 390, 0.60085
10, 391, -0.0205152
10, 392, -1
10, 393, 0.736531
10, 394, 0.340642
10, 395, 0.736535
10, 396, -1
10, 397, 0.736539
10, 398, -1
10, 399, -1
11, 0, -1
11, 1, -1
11, 2, 0.735748
11, 3, -0.263637
11, 4, -1
11, 5, -1
11, 6, -1
11, 7, -1
11, 8, 0.0695417
11, 9, 0.0695426
11, 10, 0.402676
11, 11, -1
11, 12, -1
11, 13, 0.0695461
11, 14, -1
11, 15, -1
11, 16, -1
11, 17, 0.643093
11, 18, -1
11, 19, 0.402689
11, 20, -0.263629
11, 21, -0.00244434
11, 22, -1
11, 23, -0.263627
11, 24, -1
11, 25, 0.0695568
11, 26, -1
11, 27, -1
11, 28, -1
11, 29, 0.735802
11, 30, -1
11, 31, -1
11, 32, -1
11, 33, 0.0679489
11, 34, 0.321135
11, 35, 0.735814
11, 36, 0.735816
11, 37, 0.402714
11, 38, -1
11, 39, 0.0695692
11, 40, -1
11, 41, -0.231258
11, 42, -0.263618
11, 43, -1
11, 44, -1
11, 45, 0.402725
11, 46, 0.735836
11, 47, -1
11, 48, -0.667555
11, 49, 0.735842
11, 50, 0.0695789
11, 51, 0.735846
11, 52, -1
11, 53, 0.412538
11, 54, -1
11, 55, -0.263611
11, 56, -1
11, 57, -1
11, 58, -0.26361
11, 59, -1
11, 60, 0.735864
11, 61, -1
11, 62, -1
11, 63, 0.40275
11, 64, 0.402751
11, 65, 0.0695922
11, 66, -0.263606
11, 67, 0.069594
11, 68, -1
11, 69, -1
11, 70, 0.74602
11, 71, -1
11, 72, 0.566596
11, 73, -1
11, 74, -0.263602
11, 75, -0.263601
11, 76, 0.735896
11, 77, -1
11, 78, 0.0696038
11, 79, -1
11, 80, 0.402773
11, 81, -1
11, 82, 0.735908
11, 83, -1
11, 84, -0.263597
11, 85, -1
11, 86, -1
11, 87, -0.263595
11, 88, -1
11, 89, 0.402786
11, 90, 0.0696144
11, 91, 0.402788
11, 92, 0.0696162
11, 93, 0.777133
11, 94, -1
11, 95, -1
11, 96, -0.263591
11, 97, 0.0347592
11, 98, 0.0696215
11, 99, 0.0696224
11, 100, 0.735944
11, 101, -1
11, 102, 0.735948
11, 103, -1
11, 104, -1
11, 105, -1
11, 106, 0.483725
11, 107, -1
11, 108, -1
11, 109, -1
11, 110, -1
11, 111, 0.402816
11, 112, -1
11, 113, -1
11, 114, 0.735972
11, 115, 0.0696366
11, 116, -1
11, 117, -1
11, 118, -1
11, 119, -1
11, 120, -0.0151079
11, 121, -1
11, 122, 0.402831
11, 123, -1
11, 124, -1
11, 125, 0.735994
11, 126, -1
11, 127, -0.263575
11, 128, 0.0696481
11, 129, -0.260934
11, 130, -1
11, 131, -1
11, 132, 0.402845
11, 133, 0.0696526
11, 134, -0.263572
11, 135, -1
11, 136, -0.263571
11, 137, -1
11, 138, -1
11, 139, 0.402855
11, 140, -1
11, 141, -1
11, 142, 0.0696606
11, 143, -1
11, 144, -0.263567
11, 145, -1
11, 146, 0.402865
11, 147, -1
11, 148, -1
11, 149, -0.263564
11, 150, -1
11, 151, -1
11, 152, 0.736048
11, 153, -1
11, 154, -1
11, 155, 0.402877
11, 156, -1
11, 157, -1
11, 158, -1
11, 159, -1
11, 160, -0.263559
11, 161, -1
11, 162, -0.119044
11, 163, -1
11, 164, 0.736072
11, 165, 0.736074
11, 166, -1
11, 167, -1
11, 168, 0.402895
11, 169, -1
11, 170, 0.929513
11, 171, -1
11, 172, -1
11, 173, -1
11, 174, -1
11, 175, -1
11, 176, -1
11, 177, 0.736098
11, 178, 0.402909
11, 179, -1
11, 180, -1
11, 181, -1
11, 182, -1
11, 183, 0.73611
11, 184, 0.736112
11, 185, -1
11, 186, 0.347078
11, 187, -0.00692921
11, 188, -1
11, 189, 0.0697023
11, 190, 0.626472
11, 191, -1
11, 192, 0.736128
11, 193, -1
11, 194, 0.0697067
11, 195, -0.263542
11, 196, 0.736136
11, 197, -0.304062
11, 198, -0.26354
11, 199, -1
11, 200, -0.263539
11, 201, -1
11, 202, -0.263538
11, 203, 0.0697147
11, 204, 0.630023
11, 205, 0.0697164
11, 206, 0.4028
11, 207, 0.736158
11, 208, -1
11, 209, -0.290388
11, 210, 0.238021
11, 211, -1
11, 212, -1
11, 213, 0.0697235
11, 214, 0.736171
11, 215, 0.40296
11, 216, -0.263531
11, 217, -1
11, 218, -1
11, 219, -1
11, 220, 0.736183
11, 221, 0.736185
11, 222, 0.40297
11, 223, -0.263528
11, 224, 0.0697333
11, 225, -1
11, 226, 0.0697351
11, 227, -1
11, 228, -1
11, 229, -1
11, 230, 0.0697386
11, 231, 0.431804
11, 232, 0.736207
11, 233, -1
11, 234, -1
11, 235, 0.724745
11, 236, -1
11, 237, 0.402991
11, 238, -0.26352
11, 239, -1
11, 240, 0.736223
11, 241, -1
11, 242, -0.263518
11, 243, 0.736229
11, 244, -0.263517
11, 245, -1
11, 246, 0.0697528
11, 247, 0.403005
11, 248, -1
11, 249, 0.34086
11, 250, 0.481954
11, 251, -1
11, 252, -1
11, 253, -0.263513
11, 254, -0.263512
11, 255, -1
11, 256, -1
11, 257, -1
11, 258, -1
11, 259, 0.0697644
11, 260, 0.736263
11, 261, 0.403024
11, 262, -1
11, 263, 0.736269
11, 264, 0.0697688
11, 265, -1
11, 266, 0.403031
11, 267, 0.736277
11, 268, -0.0431329
11, 269, -1
11, 270, 0.630952
11, 271, -1
11, 272, -1
11, 273, -1
11, 274, -1
11, 275, -1
11, 276, -1
11, 277, -0.263501
11, 278, -1
11, 279, -1
11, 280, 0.736303
11, 281, 0.403052
11, 282, -1
11, 283, -1
11, 284, -1
11, 285, 0.0697874
11, 286, -1
11, 287, -1
11, 288, -0.263495
11, 289, -0.263495
11, 290, 0.0697919
11, 291, -1
11, 292, 0.736327
11, 293, 0.0697945
11, 294, -1
11, 295, -0.260851
11, 296, -1
11, 297, 0.0697981
11, 298, -1
11, 299, 0.0697999
11, 300, 0.0698007
11, 301, -1
11, 302, 0.0698025
11, 303, -1
11, 304, -1
11, 305, 0.0698052
11, 306, 0.0698061
11, 307, -1
11, 308, 0.270934
11, 309, -1
11, 310, -1
11, 311, 0.102848
11, 312, 0.736367
11, 313, -1
11, 314, 0.736371
11, 315, 0.736373
11, 316, 0.0698149
11, 317, 0.403102
11, 318, 0.736379
11, 319, 0.403105
11, 320, 0.736383
11, 321, -0.263479
11, 322, -1
11, 323, 0.736389
11, 324, 0.403111
11, 325, -1
11, 326, -1
11, 327, 0.403116
11, 328, -1
11, 329, -1
11, 330, -1
11, 331, 0.13156
11, 332, 0.690556
11, 333, 0.403124
11, 334, -1
11, 335, 0.0698318
11, 336, -1
11, 337, -1
11, 338, 0.0698345
11, 339, 0.736421
11, 340, 0.403134
11, 341, -1
11, 342, -0.263468
11, 343, 0.0698389
11, 344, -1
11, 345, -1
11, 346, -1
11, 347, 0.165578
11, 348, 0.812371
11, 349, -1
11, 350, -1
11, 351, 0.403149
11, 352, -1
11, 353, -1
11, 354, 0.0698487
11, 355, 0.00412598
11, 356, -1
11, 357, 0.403157
11, 358, -1
11, 359, -1
11, 360, 0.069854
11, 361, -1
11, 362, 0.403164
11, 363, 0.0698567
11, 364, 0.0698575
11, 365, -0.263457
11, 366, 0.736475
11, 367, 0.403171
11, 368, 0.736479
11, 369, -1
11, 370, -1
11, 371, -1
11, 372, 0.0340402
11, 373, 0.403179
11, 374, 0.0698664
11, 375, 0.736493
11, 376, 0.0698682
11, 377, 0.40054
11, 378, -1
11, 379, -1
11, 380, -0.263449
11, 381, -0.337613
11, 382, 0.777285
11, 383, 0.0698744
11, 384, 0.0698753
11, 385, -1
11, 386, 0.647418
11, 387, -1
11, 388, 0.352093
11, 389, 0.736521
11, 390, -0.263444
11, 391, -1
11, 392, 0.592434
11, 393, -1
11, 394, -1
11, 395, -0.263442
11, 396, -0.282844
11, 397, -1
11, 398, 0.736539
11, 399, -1
12, 0, 0.0695337
12, 1, -1
12, 2, -1
12, 3, -1
12, 4, 0.402666
12, 5, 0.735752
12, 6, 0.735754
12, 7, -1
12, 8, -1
12, 9, -1
12, 10, -0.263634
12, 11, 0.412213
12, 12, -1
12, 13, -1
12, 14, -1
12, 15, 0.069547
12, 16, -1
12, 17, 0.735776
12, 18, 0.735778
12, 19, 0.402687
12, 20, 0.0695514
12, 21, -1
12, 22, 0.735786
12, 23, -0.263628
12, 24, -1
12, 25, -1
12, 26, 0.0695568
12, 27, -1
12, 28, -0.263625
12, 29, -0.0121393
12, 30, -0.263624
12, 31, -1
12, 32, -0.263623
12, 33, -0.263623
12, 34, -1
12, 35, -1
12, 36, -1
12, 37, 0.0695665
12, 38, -1
12, 39, -0.26362
12, 40, -1
12, 41, 0.0695701
12, 42, -1
12, 43, 0.0695718
12, 44, -0.263617
12, 45, -1
12, 46, -1
12, 47, -0.263616
12, 48, -1
12, 49, 0.73584
12, 50, -1
12, 51, 0.0695789
12, 52, 0.402733
12, 53, 0.735848
12, 54, 0.402736
12, 55, 0.735852
12, 56, -1
12, 57, -1
12, 58, 0.735858
12, 59, -1
12, 60, -1
12, 61, -1
12, 62, -1
12, 63, 0.735868
12, 64, 0.0695905
12, 65, -1
12, 66, 0.402752
12, 67, 0.402754
12, 68, 0.069594
12, 69, -1
12, 70, -1
12, 71, 0.457086
12, 72, -1
12, 73, -0.263603
12, 74, -1
12, 75, 0.402765
12, 76, 0.0696011
12, 77, -1
12, 78, -1
12, 79, -1
12, 80, 0.735902
12, 81, -1
12, 82, 0.0696064
12, 83, 0.0696073
12, 84, -1
12, 85, -1
12, 86, -0.263596
12, 87, -1
12, 88, -1
12, 89, -1
12, 90, -1
12, 91, -0.608247
12, 92, -0.263593
12, 93, -1
12, 94, -1
12, 95, -1
12, 96, -1
12, 97, 0.402795
12, 98, 0.402797
12, 99, 0.402798
12, 100, 0.4028
12, 101, 0.0696233
12, 102, -0.263588
12, 103, 0.735948
12, 104, -1
12, 105, -0.263587
12, 106, 0.0696277
12, 107, -0.263586
12, 108, -0.263585
12, 109, 0.0696304
12, 110, 0.402813
12, 111, -1
12, 112, 0.735966
12, 113, -1
12, 114, 0.73597
12, 115, 0.40282
12, 116, -1
12, 117, -1
12, 118, 0.402824
12, 119, -1
12, 120, -1
12, 121, 0.735984
12, 122, -1
12, 123, -1
12, 124, -1
12, 125, -1
12, 126, -1
12, 127, -1
12, 128, 0.402838
12, 129, 0.40284
12, 130, 0.402841
12, 131, -0.263574
12, 132, -1
12, 133, 0.736008
12, 134, -1
12, 135, 0.736012
12, 136, -1
12, 137, 0.402851
12, 138, -1
12, 139, 0.069657
12, 140, -1
12, 141, 0.402856
12, 142, 0.736026
12, 143, -1
12, 144, 0.402861
12, 145, 0.60052
12, 146, 0.345553
12, 147, 0.402865
12, 148, 0.069665
12, 149, -0.263565
12, 150, 0.739429
12, 151, 0.368062
12, 152, -0.263563
12, 153, -1
12, 154, -1
12, 155, -1
12, 156, -1
12, 157, -1
12, 158, 0.0696739
12, 159, 0.328423
12, 160, -0.263559
12, 161, -1
12, 162, -1
12, 163, 0.0696783
12, 164, 0.0696792
12, 165, -1
12, 166, -1
12, 167, 0.402892
12, 168, 0.402894
12, 169, 0.0696836
12, 170, -1
12, 171, 0.402898
12, 172, -1
12, 173, 0.736088
12, 174, 0.402902
12, 175, 0.736092
12, 176, -0.263551
12, 177, -1
12, 178, -1
12, 179, -1
12, 180, 0.40291
12, 181, -1
12, 182, 0.736106
12, 183, 0.736108
12, 184, -1
12, 185, 0.402917
12, 186, -1
12, 187, -1
12, 188, -0.263546
12, 189, -1
12, 190, 0.366718
12, 191, 0.156168
12, 192, -0.263544
12, 193, 0.0697049
12, 194, -1
12, 195, -1
12, 196, 0.736134
12, 197, -1
12, 198, 0.402935
12, 199, -1
12, 200, -0.26354
12, 201, 0.40294
12, 202, -1
12, 203, 0.0697138
12, 204, 0.313972
12, 205, 0.0697156
12, 206, -1
12, 207, -1
12, 208, 0.736158
12, 209, -0.263535
12, 210, -1
12, 211, -0.263534
12, 212, -0.263534
12, 213, -1
12, 214, -1
12, 215, -0.263532
12, 216, -0.263532
12, 217, -1
12, 218, -0.263531
12, 219, 0.736179
12, 220, -0.26353
12, 221, 0.736183
12, 222, -1
12, 223, 0.0697315
12, 224, -0.263528
12, 225, -1
12, 226, 0.0697342
12, 227, -1
12, 228, -1
12, 229, -1
12, 230, -0.612266
12, 231, 0.402981
12, 232, 0.0697395
12, 233, -1
12, 234, -1
12, 235, -1
12, 236, -1
12, 237, 0.736215
12, 238, 0.0697448
12, 239, 0.736219
12, 240, -1
12, 241, 0.0697475
12, 242, -1
12, 243, 0.0697493
12, 244, -1
12, 245, -1
12, 246, 0.403002
12, 247, 0.403003
12, 248, -1
12, 249, 0.736239
12, 250, -0.480444
12, 251, -1
12, 252, 0.40301
12, 253, 0.403012
12, 254, 0.786161
12, 255, -1
12, 256, 0.736253
12, 257, -1
12, 258, -1
12, 259, -1
12, 260, -1
12, 261, 0.0697653
12, 262, 0.0697661
12, 263, 0.403025
12, 264, 0.736269
12, 265, -0.263507
12, 266, -1
12, 267, 0.736275
12, 268, -1
12, 269, -0.263505
12, 270, 0.0553878
12, 271, -1
12, 272, 0.403038
12, 273, 0.0697759
12, 274, -0.263503
12, 275, -1
12, 276, -0.263502
12, 277, -1
12, 278, 0.736297
12, 279, 0.403048
12, 280, 0.403049
12, 281, -1
12, 282, 0.403052
12, 283, -1
12, 284, 0.0697857
12, 285, 0.403056
12, 286, -0.263497
12, 287, -0.263496
12, 288, -1
12, 289, -1
12, 290, -1
12, 291, 0.668588
12, 292, 0.403066
12, 293, 0.0697936
12, 294, 0.0697945
12, 295, -0.263492
12, 296, -1
12, 297, -0.263491
12, 298, -1
12, 299, -1
12, 300, 0.736341
12, 301, 0.0698007
12, 302, -1
12, 303, -0.263488
12, 304, -1
12, 305, 0.736351
12, 306, 0.0698052
12, 307, -0.263486
12, 308, 0.403088
12, 309, -1
12, 310, 0.72397
12, 311, 0.0698096
12, 312, -1
12, 313, 0.403095
12, 314, 0.403096
12, 315, 0.736371
12, 316, -1
12, 317, 0.736375
12, 318, -1
12, 319, 0.736379
12, 320, -1
12, 321, -1
12, 322, 0.403107
12, 323, 0.0698203
12, 324, 0.0698212
12, 325, -1
12, 326, -1
12, 327, 0.403114
12, 328, 0.0698247
12, 329, -1
12, 330, 0.736401
12, 331, -1
12, 332, -0.263474
12, 333, -1
12, 334, 0.06983
12, 335, -1
12, 336, 0.403127
12, 337, -1
12, 338, -0.263471
12, 339, 0.0698345
12, 340, -1
12, 341, -1
12, 342, 0.736425
12, 343, -1
12, 344, 0.403138
12, 345, 0.0698398
12, 346, 0.403141
12, 347, 0.736435
12, 348, -1
12, 349, 0.403145
12, 350, -0.263465
12, 351, -0.263464
12, 352, 0.403149
12, 353, -1
12, 354, 0.403152
12, 355, -1
12, 356, -1
12, 357, 0.736455
12, 358, 0.403157
12, 359, 0.736459
12, 360, 0.40316
12, 361, 0.069854
12, 362, -1
12, 363, -1
12, 364, 0.0698567
12, 365, 0.403167
12, 366, -1
12, 367, -1
12, 368, 0.0698602
12, 369, 0.0698611
12, 370, 0.069862
12, 371, -0.263454
12, 372, 0.0698638
12, 373, -0.263453
12, 374, 0.0698655
12, 375, -1
12, 376, 0.736493
12, 377, -1
12, 378, 0.403185
12, 379, -1
12, 380, 0.403188
12, 381, -1
12, 382, -1
12, 383, -1
12, 384, -0.212264
12, 385, -1
12, 386, 0.0698762
12, 387, -0.263446
12, 388, 0.069878
12, 389, -1
12, 390, -1
12, 391, -1
12, 392, 0.403204
12, 393, -1
12, 394, -1
12, 395, -1
12, 396, 0.0698851
12, 397, -0.263441
12, 398, -1
12, 399, -1
13, 0, 0.40266
13, 1, 0.402661
13, 2, -0.263639
13, 3, -1
13, 4, 0.735748
13, 5, -1
13, 6, -0.263637
13, 7, 0.402669
13, 8, -1
13, 9, -1
13, 10, 0.0695417
13, 11, 0.0695426
13, 12, -1
13, 13, 0.0695443
13, 14, 0.739154
13, 15, 0.40268
13, 16, 0.402682
13, 17, -1
13, 18, -1
13, 19, -1
13, 20, -1
13, 21, -1
13, 22, -0.263629
13, 23, 0.735786
13, 24, -0.263628
13, 25, 0.402694
13, 26, 0.0695559
13, 27, -1
13, 28, 0.735796
13, 29, 0.4027
13, 30, -1
13, 31, 0.0695603
13, 32, -1
13, 33, -0.263623
13, 34, 0.069563
13, 35, -1
13, 36, -1
13, 37, 0.735814
13, 38, 0.0695665
13, 39, -1
13, 40, 0.73582
13, 41, 0.735822
13, 42, -0.263619
13, 43, -1
13, 44, 0.0695718
13, 45, -1
13, 46, 0.735832
13, 47, -1
13, 48, -0.263616
13, 49, 0.735838
13, 50, -1
13, 51, -1
13, 52, -1
13, 53, -0.263613
13, 54, -1
13, 55, -0.263612
13, 56, 0.735852
13, 57, 0.0695834
13, 58, 0.0695843
13, 59, -0.26361
13, 60, -1
13, 61, -1
13, 62, -1
13, 63, -1
13, 64, -0.263608
13, 65, -0.263607
13, 66, -1
13, 67, 0.0695922
13, 68, -1
13, 69, -1
13, 70, -0.263605
13, 71, -1
13, 72, -1
13, 73, 0.735886
13, 74, -1
13, 75, -0.263602
13, 76, 0.735892
13, 77, 0.0696011
13, 78, -1
13, 79, -1
13, 80, 0.0696038
13, 81, -1
13, 82, -1
13, 83, 0.0696064
13, 84, -0.263598
13, 85, -1
13, 86, -1
13, 87, -1
13, 88, -1
13, 89, -1
13, 90, 0.0696126
13, 91, -1
13, 92, 0.0696144
13, 93, -0.263593
13, 94, -1
13, 95, 0.402791
13, 96, 0.735932
13, 97, -1
13, 98, -0.263591
13, 99, 0.735938
13, 100, -1
13, 101, 0.0696224
13, 102, 0.402801
13, 103, -1
13, 104, -0.263588
13, 105, 0.402805
13, 106, 0.402806
13, 107, -1
13, 108, -1
13, 109, 0.0696295
13, 110, -1
13, 111, 0.735962
13, 112, 0.735964
13, 113, -1
13, 114, -1
13, 115, -1
13, 116, 0.40282
13, 117, -1
13, 118, -1
13, 119, -0.26358
13, 120, -1
13, 121, 0.735982
13, 122, -0.263579
13, 123, 0.40283
13, 124, -1
13, 125, -0.263577
13, 126, -0.263577
13, 127, -1
13, 128, -0.263576
13, 129, 0.0696472
13, 130, 0.40284
13, 131, -0.263574
13, 132, 0.736004
13, 133, -0.263573
13, 134, 0.402845
13, 135, -1
13, 136, -1
13, 137, -1
13, 138, -1
13, 139, 0.0696561
13, 140, 0.402854
13, 141, -1
13, 142, -1
13, 143, -0.263568
13, 144, -0.494865
13, 145, -0.263567
13, 146, 0.0696623
13, 147, 0.736034
13, 148, -0.263566
13, 149, 0.736038
13, 150, -1
13, 151, -0.263564
13, 152, -0.301467
13, 153, 0.402872
13, 154, 0.736048
13, 155, 0.73605
13, 156, -1
13, 157, -1
13, 158, 0.402879
13, 159, -1
13, 160, -0.26356
13, 161, 0.0696756
13, 162, 0.402884
13, 163, -0.263558
13, 164, -1
13, 165, -1
13, 166, -0.263557
13, 167, -1
13, 168, -1
13, 169, 0.0696827
13, 170, 0.0696836
13, 171, 0.402897
13, 172, -1
13, 173, 0.402899
13, 174, -1
13, 175, 0.402902
13, 176, 0.736092
13, 177, -0.249009
13, 178, 0.0696907
13, 179, -1
13, 180, -1
13, 181, 0.736102
13, 182, 0.0696943
13, 183, 0.0696952
13, 184, -0.263548
13, 185, -1
13, 186, -0.263547
13, 187, -1
13, 188, -1
13, 189, -1
13, 190, -1
13, 191, 0.0697023
13, 192, -0.263544
13, 193, 0.357219
13, 194, -1
13, 195, 0.0697058
13, 196, 0.736132
13, 197, -1
13, 198, 0.0697085
13, 199, 0.0697094
13, 200, 0.402937
13, 201, -1
13, 202, -0.263539
13, 203, -1
13, 204, 0.0697138
13, 205, -1
13, 206, 0.0697156
13, 207, 0.0697164
13, 208, 0.0697173
13, 209, -1
13, 210, 0.0697191
13, 211, 0.06972
13, 212, 0.0697209
13, 213, 0.736166
13, 214, -1
13, 215, -1
13, 216, -1
13, 217, 0.0697253
13, 218, 0.736175
13, 219, -1
13, 220, 0.069728
13, 221, -1
13, 222, -0.354885
13, 223, -1
13, 224, 0.441611
13, 225, -0.263528
13, 226, -1
13, 227, -0.263527
13, 228, 0.402976
13, 229, 0.069736
13, 230, -1
13, 231, -1
13, 232, 0.402981
13, 233, -0.263524
13, 234, -1
13, 235, -1
13, 236, 0.0697422
13, 237, -0.263522
13, 238, 0.402989
13, 239, -1
13, 240, -0.26352
13, 241, -1
13, 242, 0.402995
13, 243, -1
13, 244, -1
13, 245, -1
13, 246, 0.736231
13, 247, 0.736233
13, 248, -1
13, 249, 0.403005
13, 250, 0.403006
13, 251, 0.736241
13, 252, -1
13, 253, -1
13, 254, 0.403012
13, 255, 0.069759
13, 256, -0.263512
13, 257, 0.403016
13, 258, -1
13, 259, 0.736257
13, 260, -0.26351
13, 261, -1
13, 262, -1
13, 263, 0.736265
13, 264, 0.069767
13, 265, 0.736269
13, 266, -1
13, 267, 0.736273
13, 268, -1
13, 269, -0.263506
13, 270, -1
13, 271, -0.263505
13, 272, 0.0697741
13, 273, -0.263504
13, 274, 0.0697759
13, 275, 0.0697768
13, 276, -1
13, 277, -0.263502
13, 278, -1
13, 279, 0.0697803
13, 280, 0.736299
13, 281, 0.736301
13, 282, -1
13, 283, 0.403052
13, 284, 0.736307
13, 285, 0.0697857
13, 286, -1
13, 287, -0.263497
13, 288, -0.263496
13, 289, -1
13, 290, -1
13, 291, 0.069791
13, 292, -1
13, 293, -1
13, 294, -1
13, 295, 0.0697945
13, 296, 0.736331
13, 297, -1
13, 298, -0.263491
13, 299, 0.736337
13, 300, 0.403075
13, 301, -1
13, 302, -0.263489
13, 303, -1
13, 304, -0.263488
13, 305, -1
13, 306, -1
13, 307, 0.0698052
13, 308, -1
13, 309, -0.268191
13, 310, 0.736359
13, 311, -1
13, 312, -0.263484
13, 313, -1
13, 314, -0.263483
13, 315, -1
13, 316, 0.403098
13, 317, 0.403099
13, 318, -0.263481
13, 319, 0.736377
13, 320, -1
13, 321, 0.0698176
13, 322, -1
13, 323, -1
13, 324, -0.263478
13, 325, -0.263478
13, 326, 0.403111
13, 327, -1
13, 328, -0.263476
13, 329, -1
13, 330, -1
13, 331, 0.736401
13, 332, -1
13, 333, 0.356302
13, 334, -1
13, 335, 0.06983
13, 336, -0.263472
13, 337, -1
13, 338, -1
13, 339, -1
13, 340, 0.736419
13, 341, 0.736421
13, 342, -1
13, 343, -1
13, 344, -1
13, 345, 0.0698389
13, 346, -1
13, 347, 0.0698407
13, 348, -1
13, 349, 0.0698425
13, 350, -1
13, 351, -1
13, 352, 0.736443
13, 353, -0.263464
13, 354, -1
13, 355, -1
13, 356, 0.736451
13, 357, 0.403154
13, 358, 0.403156
13, 359, -1
13, 360, 0.403159
13, 361, 0.40316
13, 362, -1
13, 363, 0.403163
13, 364, -1
13, 365, 0.736469
13, 366, -1
13, 367, -1
13, 368, -1
13, 369, -1
13, 370, 0.0698611
13, 371, 0.736481
13, 372, -1
13, 373, -1
13, 374, 0.736487
13, 375, 0.403179
13, 376, 0.0698664
13, 377, 0.736493
13, 378, -1
13, 379, 0.403185
13, 380, -1
13, 381, -1
13, 382, 0.0698717
13, 383, -1
13, 384, -0.263448
13, 385, 0.0698744
13, 386, -1
13, 387, -1
13, 388, -1
13, 389, 0.736517
13, 390, -1
13, 391, 0.736521
13, 392, -1
13, 393, 0.736525
13, 394, 0.0698824
13, 395, -0.263443
13, 396, 0.736531
13, 397, 0.0698851
13, 398, 0.403211
13, 399, 0.736537
14, 0, -0.26364
14, 1, -1
14, 2, 0.402661
14, 3, -1
14, 4, -1
14, 5, 0.0626216
14, 6, 0.0695372
14, 7, 0.402668
14, 8, -1
14, 9, 0.402671
14, 10, -1
14, 11, -0.263635
14, 12, 0.402675
14, 13, 0.402676
14, 14, -1
14, 15, 0.809566
14, 16, -1
14, 17, -1
14, 18, 0.735774
14, 19, -1
14, 20, 0.735778
14, 21, 0.0695505
14, 22, 0.735782
14, 23, -1
14, 24, -1
14, 25, -0.295856
14, 26, 0.119961
14, 27, -1
14, 28, 0.735794
14, 29, -1
14, 30, 0.0695585
14, 31, -1
14, 32, 0.402703
14, 33, -1
14, 34, -1
14, 35, 0.735808
14, 36, 0.0695639
14, 37, 0.402709
14, 38, 0.0695656
14, 39, 0.735816
14, 40, -1
14, 41, 0.402715
14, 42, -1
14, 43, 0.0695701
14, 44, -1
14, 45, 0.734222
14, 46, -0.263617
14, 47, -0.263617
14, 48, -1
14, 49, -1
14, 50, -0.263615
14, 51, 0.73584
14, 52, -1
14, 53, -0.263614
14, 54, -1
14, 55, 0.0695807
14, 56, 0.0695816
14, 57, -0.263612
14, 58, -1
14, 59, -1
14, 60, 0.0695851
14, 61, -1
14, 62, -1
14, 63, -1
14, 64, -1
14, 65, -1
14, 66, 0.602276
14, 67, 0.359384
14, 68, 0.0695922
14, 69, -0.263606
14, 70, 0.069594
14, 71, -0.263605
14, 72, 0.735882
14, 73, 0.0695967
14, 74, -1
14, 75, -1
14, 76, -0.263602
14, 77, -1
14, 78, -1
14, 79, -0.263601
14, 80, -0.2636
14, 81, -0.2636
14, 82, -0.263599
14, 83, 0.402773
14, 84, 0.735906
14, 85, -1
14, 86, -1
14, 87, -1
14, 88, 0.40278
14, 89, -0.263596
14, 90, -1
14, 91, -1
14, 92, -0.263594
14, 93, -1
14, 94, -1
14, 95, -0.263593
14, 96, -1
14, 97, 0.402793
14, 98, -1
14, 99, -0.263591
14, 100, -1
14, 101, 0.402798
14, 102, 0.735942
14, 103, 0.735944
14, 104, -1
14, 105, -1
14, 106, 0.400511
14, 107, -1
14, 108, -0.187232
14, 109, 0.735956
14, 110, -0.263585
14, 111, 0.0696304
14, 112, -1
14, 113, 0.0696322
14, 114, -1
14, 115, 0.735968
14, 116, 0.795131
14, 117, -1
14, 118, 0.804941
14, 119, -0.495382
14, 120, 0.0696384
14, 121, -1
14, 122, -0.263579
14, 123, -1
14, 124, -1
14, 125, -1
14, 126, -0.263577
14, 127, 0.735992
14, 128, -1
14, 129, -0.263576
14, 130, -1
14, 131, -1
14, 132, -1
14, 133, -1
14, 134, 0.320342
14, 135, -1
14, 136, -1
14, 137, -0.263572
14, 138, -1
14, 139, -0.263571
14, 140, -1
14, 141, -0.26357
14, 142, -1
14, 143, -1
14, 144, -1
14, 145, -1
14, 146, -1
14, 147, -1
14, 148, -1
14, 149, 0.402865
14, 150, -0.263565
14, 151, -0.0214502
14, 152, -0.263564
14, 153, 0.40287
14, 154, -1
14, 155, -0.263563
14, 156, 0.402874
14, 157, -0.24358
14, 158, -1
14, 159, 0.069673
14, 160, 0.853629
14, 161, -0.26356
14, 162, 0.402883
14, 163, 0.736064
14, 164, 0.402885
14, 165, -1
14, 166, 0.73607
14, 167, 0.736072
14, 168, 0.515562
14, 169, 0.141257
14, 170, -1
14, 171, 0.73608
14, 172, -1
14, 173, 0.736084
14, 174, -1
14, 175, 0.71452
14, 176, 0.447987
14, 177, -1
14, 178, -1
14, 179, 0.402906
14, 180, -0.26355
14, 181, -1
14, 182, -1
14, 183, 0.736104
14, 184, 0.0696952
14, 185, -1
14, 186, -1
14, 187, -1
14, 188, 0.386287
14, 189, -1
14, 190, 0.338218
14, 191, 0.463112
14, 192, -0.28019
14, 193, -1
14, 194, -1
14, 195, 0.736128
14, 196, 0.0697058
14, 197, 0.736132
14, 198, -0.263542
14, 199, -1
14, 200, -0.263541
14, 201, 0.0697102
14, 202, -1
14, 203, -0.263539
14, 204, -0.263539
14, 205, 0.736148
14, 206, -1
14, 207, 0.736152
14, 208, 0.671913
14, 209, 0.779113
14, 210, -0.0714376
14, 211, -1
14, 212, -1
14, 213, 0.0697209
14, 214, 0.736166
14, 215, -0.263533
14, 216, 0.736169
14, 217, 0.143562
14, 218, 0.0697253
14, 219, -1
14, 220, 0.0697271
14, 221, -1
14, 222, -1
14, 223, -1
14, 224, -1
14, 225, -1
14, 226, 0.745385
14, 227, 0.187613
14, 228, 0.736193
14, 229, -0.239897
14, 230, 0.295265
14, 231, -1
14, 232, 0.395725
14, 233, 0.402981
14, 234, 0.0697395
14, 235, 0.736207
14, 236, -1
14, 237, 0.402987
14, 238, 0.402988
14, 239, 0.736215
14, 240, 0.0697448
14, 241, -1
14, 242, 0.736221
14, 243, -1
14, 244, 0.0697484
14, 245, 0.402998
14, 246, -0.263518
14, 247, -1
14, 248, -1
14, 249, -1
14, 250, -0.363223
14, 251, -0.0954359
14, 252, 0.672399
14, 253, -1
14, 254, 0.0697573
14, 255, -1
14, 256, -1
14, 257, -1
14, 258, 0.736253
14, 259, -1
14, 260, -0.263511
14, 261, -1
14, 262, 0.0697644
14, 263, -1
14, 264, -1
14, 265, 0.736267
14, 266, -1
14, 267, -1
14, 268, 0.0697697
14, 269, 0.403031
14, 270, 0.736277
14, 271, 0.730052
14, 272, 0.403035
14, 273, 0.403037
14, 274, -1
14, 275, -1
14, 276, -1
14, 277, -0.263502
14, 278, -1
14, 279, -1
14, 280, 0.0697803
14, 281, 0.0697812
14, 282, 0.736301
14, 283, -1
14, 284, 0.736305
14, 285, -1
14, 286, -1
14, 287, -1
14, 288, -0.263497
14, 289, 0.736315
14, 290, 0.0697892
14, 291, 0.720934
14, 292, -1
14, 293, 0.618738
14, 294, -1
14, 295, 0.736327
14, 296, 0.736329
14, 297, 0.40307
14, 298, 0.736333
14, 299, -1
14, 300, -1
14, 301, 0.403075
14, 302, 0.92263
14, 303, 0.0698007
14, 304, -0.263489
14, 305, 0.736347
14, 306, 0.0698034
14, 307, -1
14, 308, -1
14, 309, 0.458825
14, 310, 0.069807
14, 311, 0.0698078
14, 312, -0.215431
14, 313, -1
14, 314, 0.403093
14, 315, -1
14, 316, -1
14, 317, 0.736371
14, 318, -1
14, 319, 0.736375
14, 320, 0.403102
14, 321, 0.0698167
14, 322, -0.263973
14, 323, 0.548826
14, 324, 0.144824
14, 325, 0.145318
14, 326, -1
14, 327, -1
14, 328, -1
14, 329, -1
14, 330, -1
14, 331, -1
14, 332, -0.337908
14, 333, 0.657798
14, 334, 0.703608
14, 335, 0.360054
14, 336, 0.403124
14, 337, -1
14, 338, -1
14, 339, -1
14, 340, -1
14, 341, 0.0698345
14, 342, 0.403132
14, 343, -1
14, 344, 0.403135
14, 345, -1
14, 346, -1
14, 347, -1
14, 348, -1
14, 349, -1
14, 350, 0.403143
14, 351, 0.0698433
14, 352, -1
14, 353, -1
14, 354, -1
14, 355, 0.0851157
14, 356, -0.263463
14, 357, -0.263462
14, 358, -0.263462
14, 359, 0.0698504
14, 360, -0.263461
14, 361, -0.26346
14, 362, 0.0698531
14, 363, 0.069854
14, 364, -0.263459
14, 365, -1
14, 366, -1
14, 367, -1
14, 368, -0.263457
14, 369, -0.263456
14, 370, -1
14, 371, -1
14, 372, -1
14, 373, 0.0698629
14, 374, -1
14, 375, 0.0547887
14, 376, 0.685739
14, 377, -0.263452
14, 378, -0.263452
14, 379, -1
14, 380, 0.0698691
14, 381, 0.736499
14, 382, 0.143725
14, 383, 0.0698717
14, 384, -1
14, 385, 0.403192
14, 386, 0.736509
14, 387, -1
14, 388, 0.736513
14, 389, -1
14, 390, 0.069878
14, 391, -1
14, 392, 0.403202
14, 393, -1
14, 394, 0.0698815
14, 395, 0.680067
14, 396, -1
14, 397, -1
14, 398, -1
14, 399, -1
15, 0, 0.0747377
15, 1, 0.957591
15, 2, 0.708513
15, 3, -1
15, 4, 0.0568971
15, 5, 0.291228
15, 6, 0.0829734
15, 7, -0.0686075
15, 8, -0.181275
15, 9, 0.99896
15, 10, 0.230404
15, 11, 0.972283
15, 12, 0.998967
15, 13, 0.894465
15, 14, 0.945696
15, 15, 0.562594
15, 16, -1
15, 17, 0.987651
15, 18, -0.0146945
15, 19, -1
15, 20, -1
15, 21, -1
15, 22, -1
15, 23, -0.0210586
15, 24, -0.736159
15, 25, 0.0813204
15, 26, -0.307736
15, 27, -0.279225
15, 28, -0.400504
15, 29, 0.554748
15, 30, -0.850136
15, 31, -0.00184354
15, 32, -0.157533
15, 33, -0.10562
15, 34, 0.796293
15, 35, 0.999026
15, 36, -0.145538
15, 37, -0.211745
15, 38, -0.0174393
15, 39, -0.447869
15, 40, 0.999039
15, 41, -0.860432
15, 42, -0.134331
15, 43, -0.669724
15, 44, 0.999049
15, 45, -0.810852
15, 46, 0.548982
15, 47, 0.786734
15, 48, -0.79812
15, 49, -0.727669
15, 50, 0.999064
15, 51, 0.910736
15, 52, -0.439309
15, 53, -0.145763
15, 54, -0.465464
15, 55, -0.271377
15, 56, -0.0976104
15, 57, -0.761665
15, 58, -0.0155485
15, 59, 0.894585
15, 60, 0.0176988
15, 61, -1
15, 62, -0.0805593
15, 63, 0.238884
15, 64, 0.9991
15, 65, 0.647507
15, 66, 0.625665
15, 67, 0.858597
15, 68, 0.602805
15, 69, 0.035528
15, 70, 0.951784
15, 71, 0.985671
15, 72, 0.883909
15, 73, 0.219293
15, 74, -0.388186
15, 75, 0.390516
15, 76, 0.470705
15, 77, 0.219647
15, 78, 0.105749
15, 79, -0.268802
15, 80, -1
15, 81, 0.97318
15, 82, 0.431267
15, 83, 0.318918
15, 84, 0.246833
15, 85, 0.00876566
15, 86, 0.766714
15, 87, 0.820715
15, 88, 0.868598
15, 89, -0.173631
15, 90, 0.527586
15, 91, 0.907401
15, 92, 0.360307
15, 93, 0.999174
15, 94, -0.19679
15, 95, 0.176246
15, 96, 0.999182
15, 97, 0.495745
15, 98, -0.302787
15, 99, -0.790886
15, 100, 0.43819
15, 101, -0.854858
15, 102, 0.998991
15, 103, 0.956413
15, 104, 0.909082
15, 105, -0.2301
15, 106, 0.999207
15, 107, -0.908245
15, 108, -0.248654
15, 109, 0.485379
15, 110, 0.615667
15, 111, 0.508818
15, 112, 0.901335
15, 113, -0.290461
15, 114, 0.811413
15, 115, 0.552578
15, 116, -0.962434
15, 117, -0.602118
15, 118, 0.579276
15, 119, 0.165673
15, 120, 0.999243
15, 121, -0.831144
15, 122, -0.185569
15, 123, 0.0818756
15, 124, 0.662549
15, 125, -0.0954951
15, 126, 0.999259
15, 127, -0.0405998
15, 128, 0.520385
15, 129, -0.234285
15, 130, 0.537596
15, 131, 0.332458
15, 132, 0.999274
15, 133, 0.664164
15, 134, -0.566528
15, 135, -0.263996
15, 136, 0.322309
15, 137, 0.351553
15, 138, -0.764436
15, 139, 0.41202
15, 140, -0.70038
15, 141, 0.54219
15, 142, -0.243652
15, 143, 0.810629
15, 144, 0.971033
15, 145, -0.715476
15, 146, 0.157015
15, 147, 0.997403
15, 148, -0.817425
15, 149, 0.179535
15, 150, -1
15, 151, 0.731354
15, 152, 0.884583
15, 153, 0.830641
15, 154, 0.503882
15, 155, 0.999333
15, 156, -0.0539645
15, 157, -0.263245
15, 158, 0.432383
15, 159, -0.739796
15, 160, 0.18373
15, 161, -1
15, 162, 0.999351
15, 163, -0.209315
15, 164, 0.995777
15, 165, -0.618946
15, 166, -0.705199
15, 167, 0.182446
15, 168, 0.857472
15, 169, 0.999368
15, 170, 0.393047
15, 171, 0.0607347
15, 172, 0.0178112
15, 173, 0.6873
15, 174, 0.999381
15, 175, 0.04589
15, 176, 0.372405
15, 177, -0.878956
15, 178, -1
15, 179, 0.182775
15, 180, -0.881481
15, 181, 0.521542
15, 182, -0.051879
15, 183, 0.993909
15, 184, 0.417115
15, 185, 0.163484
15, 186, 0.0554127
15, 187, -0.0854881
15, 188, -0.397342
15, 189, -0.138249
15, 190, -0.161479
15, 191, -0.441847
15, 192, 0.251799
15, 193, 0.175405
15, 194, 0.715927
15, 195, 0.999435
15, 196, -0.980907
15, 197, -0.421246
15, 198, 0.115606
15, 199, 0.0525938
15, 200, 0.798319
15, 201, 0.527293
15, 202, 0.0396221
15, 203, 0.999455
15, 204, -0.0844209
15, 205, -0.195852
15, 206, 0.0350049
15, 207, 0.943525
15, 208, -0.0963147
15, 209, -0.208485
15, 210, 0.780878
15, 211, 0.808631
15, 212, 0.803989
15, 213, 0.873003
15, 214, -0.177949
15, 215, -0.514397
15, 216, 0.325696
15, 217, 0.465033
15, 218, -0.0137534
15, 219, -0.986857
15, 220, 0.43394
15, 221, 0.832857
15, 222, -0.00441106
15, 223, 0.999506
15, 224, 0.129888
15, 225, -0.0136188
15, 226, 0.0402654
15, 227, -0.112848
15, 228, -0.873338
15, 229, -0.84634
15, 230, 0.994604
15, 231, -0.119396
15, 232, 0.484975
15, 233, 0.999532
15, 234, -0.0159491
15, 235, -0.0190739
15, 236, 0.922231
15, 237, 0.985713
15, 238, 0.507053
15, 239, -1
15, 240, -0.948932
15, 241, -0.674525
15, 242, -1
15, 243, 0.860292
15, 244, 0.959563
15, 245, -0.455471
15, 246, 0.970541
15, 247, -0.0162793
15, 248, 0.568192
15, 249, 0.999573
15, 250, -0.161569
15, 251, 0.919904
15, 252, 0.848494
15, 253, 0.0162535
15, 254, 0.711325
15, 255, 0.375828
15, 256, 0.507084
15, 257, 0.379776
15, 258, 0.922836
15, 259, 0.124586
15, 260, -0.273341
15, 261, -0.265118
15, 262, 0.945166
15, 263, -1
15, 264, 0.421396
15, 265, 0.999614
15, 266, -0.803782
15, 267, 0.188569
15, 268, 0.697823
15, 269, -1
15, 270, 0.278417
15, 271, -0.871411
15, 272, 0.736075
15, 273, 0.508118
15, 274, 0.270039
15, 275, -0.542245
15, 276, 0.277613
15, 277, -0.645702
15, 278, -0.00440686
15, 279, 0.63709
15, 280, 0.280304
15, 281, 0.955992
15, 282, -0.165247
15, 283, 0.0650311
15, 284, -0.226236
15, 285, -1
15, 286, 0.151996
15, 287, 0.573539
15, 288, -0.718938
15, 289, 0.170496
15, 290, 0.425403
15, 291, 0.590526
15, 292, 0.92822
15, 293, 0.481932
15, 294, 0.878035
15, 295, 0.245371
15, 296, -0.176326
15, 297, -1
15, 298, 0.0853278
15, 299, 0.576804
15, 300, -0.274077
15, 301, 0.750056
15, 302, 0.988857
15, 303, 0.999711
15, 304, 0.102289
15, 305, 0.942053
15, 306, 0.01294
15, 307, -0.19252
15, 308, 0.0849228
15, 309, 0.177855
15, 310, 0.564808
15, 311, 0.871284
15, 312, 0.999734
15, 313, 0.0246961
15, 314, 0.999739
15, 315, -1
15, 316, -1
15, 317, 0.79852
15, 318, -0.257147
15, 319, 0.159175
15, 320, -0.828445
15, 321, -0.295062
15, 322, -1
15, 323, -0.682595
15, 324, -1
15, 325, 0.0722163
15, 326, -0.10721
15, 327, -1
15, 328, 0.802672
15, 329, 0.917622
15, 330, 0.99978
15, 331, 0.180291
15, 332, -1
15, 333, -0.130271
15, 334, 0.397401
15, 335, -0.836427
15, 336, 0.955848
15, 337, -1
15, 338, -0.212607
15, 339, -0.27111
15, 340, -0.110499
15, 341, 0.581282
15, 342, 0.999811
15, 343, 0.824188
15, 344, 0.0560156
15, 345, 0.221194
15, 346, -0.0641446
15, 347, 0.977669
15, 348, -0.377024
15, 349, -0.826803
15, 350, -0.191569
15, 351, 0.20058
15, 352, 0.805063
15, 353, 0.673352
15, 354, -1
15, 355, -0.225211
15, 356, -0.267669
15, 357, 0.268516
15, 358, 0.652012
15, 359, 0.313177
15, 360, 0.913919
15, 361, -1
15, 362, 0.91534
15, 363, -1
15, 364, -0.0298895
15, 365, 0.99987
15, 366, -0.1421
15, 367, -1
15, 368, 0.920038
15, 369, 0.588928
15, 370, -0.190619
15, 371, 0.429445
15, 372, -1
15, 373, 0.265725
15, 374, 0.694355
15, 375, -1
15, 376, -0.932198
15, 377, -0.296635
15, 378, 0.0806089
15, 379, -1
15, 380, 0.561081
15, 381, -1
15, 382, -1
15, 383, 0.574135
15, 384, -0.120214
15, 385, -0.268962
15, 386, 0.0742752
15, 387, 0.110345
15, 388, 0.751888
15, 389, 0.912994
15, 390, 0.936074
15, 391, -0.569298
15, 392, 0.999939
15, 393, -0.377924
15, 394, -0.640828
15, 395, 0.332229
15, 396, 0.999949
15, 397, -1
15, 398, 0.225361
15, 399, 0.876576
16, 0, -1
16, 1, -1
16, 2, 0.505194
16, 3, -0.0598736
16, 4, 0.686945
16, 5, -1
16, 6, -0.263638
16, 7, 0.0695364
16, 8, -0.263637
16, 9, -1
16, 10, -1
16, 11, 0.735756
16, 12, 0.735758
16, 13, -1
16, 14, -0.548649
16, 15, 0.402676
16, 16, -1
16, 17, -0.263633
16, 18, -1
16, 19, 0.51904
16, 20, 0.809176
16, 21, 0.621935
16, 22, 0.322883
16, 23, -0.26363
16, 24, 0.0244057
16, 25, -1
16, 26, -1
16, 27, 0.0695541
16, 28, -1
16, 29, 0.422762
16, 30, -1
16, 31, -1
16, 32, 0.735798
16, 33, 0.0695594
16, 34, 0.413998
16, 35, 0.402704
16, 36, 0.402705
16, 37, -1
16, 38, -1
16, 39, 0.735812
16, 40, -1
16, 41, -0.263621
16, 42, 0.402714
16, 43, 0.0695683
16, 44, -0.263619
16, 45, -1
16, 46, -1
16, 47, 0.335959
16, 48, -1
16, 49, -0.263617
16, 50, -0.225018
16, 51, -1
16, 52, -1
16, 53, -1
16, 54, 0.321234
16, 55, 0.735844
16, 56, -1
16, 57, 0.776898
16, 58, -1
16, 59, 0.735852
16, 60, -1
16, 61, -1
16, 62, 0.402741
16, 63, -1
16, 64, 0.0903093
16, 65, -1
16, 66, 0.373188
16, 67, -0.539281
16, 68, -0.263607
16, 69, 0.0695914
16, 70, -1
16, 71, -1
16, 72, 0.346571
16, 73, 0.73588
16, 74, 0.616951
16, 75, -1
16, 76, 0.402761
16, 77, -1
16, 78, -1
16, 79, -1
16, 80, -1
16, 81, -1
16, 82, -1
16, 83, 0.0696038
16, 84, -1
16, 85, 0.402773
16, 86, -1
16, 87, -1
16, 88, -1
16, 89, -0.249241
16, 90, 0.699751
16, 91, 0.269958
16, 92, 0.0696118
16, 93, 0.0549196
16, 94, -0.0984803
16, 95, -1
16, 96, 0.715064
16, 97, -1
16, 98, -1
16, 99, -1
16, 100, 0.0696189
16, 101, -0.263591
16, 102, -1
16, 103, -0.26359
16, 104, -1
16, 105, 0.676623
16, 106, -0.196454
16, 107, 0.52544
16, 108, 0.673643
16, 109, -0.259895
16, 110, -0.0753292
16, 111, 0.736879
16, 112, 0.322088
16, 113, 0.379564
16, 114, -1
16, 115, 0.40065
16, 116, -0.103309
16, 117, 0.0696339
16, 118, 0.73597
16, 119, 0.735972
16, 120, 0.402822
16, 121, -0.263581
16, 122, -1
16, 123, -1
16, 124, -1
16, 125, 0.0260965
16, 126, -1
16, 127, 0.550287
16, 128, 0.402833
16, 129, -1
16, 130, 0.735994
16, 131, -1
16, 132, -1
16, 133, 0.376993
16, 134, -0.263574
16, 135, -1
16, 136, -1
16, 137, 0.736008
16, 138, -1
16, 139, 0.684415
16, 140, -0.432807
16, 141, -1
16, 142, 0.617071
16, 143, 0.73602
16, 144, -1
16, 145, -1
16, 146, 0.0564653
16, 147, 0.0696606
16, 148, -0.643537
16, 149, -1
16, 150, -1
16, 151, -1
16, 152, 0.402866
16, 153, -1
16, 154, -1
16, 155, 0.0696677
16, 156, 0.360932
16, 157, 0.402873
16, 158, -1
16, 159, -0.263562
16, 160, 0.332201
16, 161, 0.388696
16, 162, 0.48651
16, 163, -1
16, 164, -0.263559
16, 165, -1
16, 166, -1
16, 167, 0.736068
16, 168, -1
16, 169, 0.736072
16, 170, 0.402891
16, 171, -1
16, 172, -1
16, 173, 0.0696836
16, 174, 0.402897
16, 175, -1
16, 176, 0.307684
16, 177, -0.263553
16, 178, 0.0706113
16, 179, -1
16, 180, -0.263551
16, 181, -0.43407
16, 182, -1
16, 183, 0.7361
16, 184, 0.0696934
16, 185, 0.736104
16, 186, -1
16, 187, -0.411127
16, 188, 0.0696969
16, 189, -0.263547
16, 190, 0.852815
16, 191, -1
16, 192, -1
16, 193, -0.118588
16, 194, -1
16, 195, 0.274663
16, 196, 0.0801596
16, 197, -1
16, 198, -1
16, 199, 0.0697067
16, 200, 0.76975
16, 201, -1
16, 202, 0.402935
16, 203, -1
16, 204, -0.18022
16, 205, -0.343934
16, 206, -1
16, 207, -1
16, 208, 0.0697147
16, 209, 0.0697156
16, 210, -1
16, 211, 0.402948
16, 212, -1
16, 213, -1
16, 214, -0.434059
16, 215, 0.271746
16, 216, 0.663823
16, 217, 0.402956
16, 218, 0.790046
16, 219, -0.226501
16, 220, 0.698436
16, 221, 0.777695
16, 222, -0.263531
16, 223, 0.403291
16, 224, -1
16, 225, 0.0762874
16, 226, -1
16, 227, 0.267087
16, 228, 0.0697324
16, 229, -0.175839
16, 230, 0.736193
16, 231, -0.263526
16, 232, 0.0229836
16, 233, -1
16, 234, -0.552698
16, 235, -1
16, 236, 0.202827
16, 237, 0.402984
16, 238, 0.613957
16, 239, 0.739487
16, 240, -1
16, 241, 0.402989
16, 242, 0.402991
16, 243, -1
16, 244, 0.283679
16, 245, 0.736223
16, 246, 0.402996
16, 247, -1
16, 248, 0.0156303
16, 249, -0.016167
16, 250, 0.393385
16, 251, -1
16, 252, -1
16, 253, -1
16, 254, 0.736241
16, 255, -1
16, 256, 0.135473
16, 257, -1
16, 258, 0.069759
16, 259, -1
16, 260, 0.0697608
16, 261, 0.0697617
16, 262, -1
16, 263, 0.897949
16, 264, 0.830316
16, 265, 0.372731
